svm_type c_svc
kernel_type rbf
gamma 0.000244141
nr_class 2
total_sv 187
rho 0.750992
label 1 0
probA -5.58975
probB 0.124332
nr_sv 73 114
SV
0.1830462915639879 2:0.58042747 3:7.0280747 10:0.41240543 11:0.53705829 13:1.6584524 27:1.7148015 36:0.88832664 38:2.982136 41:1.5340843 48:0.51491714 51:4.0310407 57:1.9099944 60:0.34412953 65:0.84742111 67:0.66103685 70:1.5314453 80:10.999667 83:1.2515296 90:0.99916738 104:1.6284128 115:1.0961885 116:0.2616525 118:5.4722719 119:3.0907888 139:4.8787322 140:0.7097162 144:4.9298453 145:0.14060751 161:0.70478189 165:5.2966805 169:1.8936083 180:2.7906642 203:2.2669384 207:0.51040024 209:0.061697334 210:1.4643292 217:0.13329622 231:1.4340512 237:2.1588478 270:3.2725568 278:1.3548837 283:1.7983139 285:0.36026341 286:1.5965745 302:3.3316317 303:2.7085736 306:1.671957 309:5.4604363 313:0.39627141 314:1.1169987 317:1.4922522 325:1.6180652 326:1.3409332 329:4.4714251 337:0.76042849 341:1.7226745 346:2.1323395 347:0.9843148 348:4.1972804 349:0.39165837 359:0.18487239 364:2.6419716 369:6.2414765 371:0.91276789 375:2.1021428 377:0.9152686 380:6.0137382 394:3.6640913 399:0.19696881 410:0.35537887 420:1.0033144 421:1.0620148 423:5.659739 427:0.074195147 455:0.1635713 459:2.2603314 462:0.52348357 465:5.5387897 516:2.067925 523:4.4603233 524:0.52592653 540:0.070080347 541:2.8536158 548:1.3293879 553:0.69653183 558:5.5451846 560:4.4226227 561:0.58652186 562:3.2883747 571:3.7794909 572:3.0468948 575:1.0454046 577:1.5248055 585:0.30637646 591:3.5326378 595:2.7852039 601:1.0601887 608:3.4480376 616:0.28797561 619:2.9219317 621:0.06000644 624:1.8831742 627:4.5949974 628:2.05074 631:1.4920528 637:3.1906509 641:1.6214843 644:2.8114479 648:0.91149324 665:3.2713006 673:1.5263131 675:2.3271253 684:0.68606365 698:0.63631308 700:1.2666855 709:2.4549415 711:7.5836921 716:2.4457314 719:0.27402481 726:0.28259689 732:1.306572 738:0.60748178 750:2.5238025 759:3.6694729 764:3.5452881 769:2.0849178 784:2.0942044 788:6.0129108 789:1.5094128 793:0.60427582 796:2.4325981 801:3.1272364 806:0.44908899 809:6.0375328 810:0.099631861 818:2.6648328 819:2.0442057 822:0.48886809 824:3.0130134 835:1.3747245 836:5.3440919 837:0.26083964 854:3.9237406 859:8.0066519 865:0.35697472 868:5.2497997 879:0.90512222 883:1.1952142 885:3.7691884 891:1.3473454 903:2.1072867 904:1.7389548 906:1.8863876 908:0.12823811 918:4.7007465 920:4.549562 922:4.7065854 925:5.220489 929:5.3811107 931:0.11767772 937:2.5909069 940:0.2695232 943:0.83249098 950:1.7290611 956:0.56445801 962:1.1000042 976:1.731903 982:1.3930547 987:0.45861059 999:0.26245147 1010:1.5340699 1011:3.041647 1015:0.042029351 1017:0.60530418 1030:6.9359684 1042:1.462289 1046:2.8476562 1050:0.089378327 1051:2.1863935 1067:4.9977622 1080:1.5970619 1081:0.42207944 1085:4.2326603 1093:4.196619 1103:0.9755559 1105:2.3122945 1106:3.1475508 1119:3.971158 1125:0.38204646 1128:2.7953117 1131:2.2529683 1132:0.53156358 1140:0.071230881 1142:4.3950114 1148:0.63986719 1150:2.4860191 1156:3.3596656 1162:0.097122878 1173:0.33083737 1186:1.5229501 1189:1.6433252 1197:4.9011397 1198:7.8780699 1201:2.5926032 1205:1.1871195 1208:5.1873541 1211:5.8322258 1217:0.75935185 1224:1.8949989 1228:0.7885626 1230:0.87116653 1236:1.694211 1240:2.1731019 1241:2.7131054 1247:0.40891778 1249:2.3199017 1251:2.206255 1255:5.1933222 1257:2.8975658 1259:1.6790853 1266:0.84763443 1267:0.019614652 1272:1.5127647 1277:5.4153976 1278:2.4644489 1295:0.37827927 1302:0.19503736 1306:1.696136 1316:1.6145517 1324:3.7196236 1342:1.7777679 1350:1.205265 1351:1.8618473 1363:0.98765779 1380:1.7715187 1386:4.8414912 1394:1.2181736 1400:1.6120498 1401:1.1001821 1402:0.24560517 1403:0.64446342 1408:0.89663887 1412:2.2412193 1414:1.4169295 1417:1.1466272 1422:1.2913015 1437:2.5114262 1438:0.98286629 1440:5.2147727 1450:2.4947846 1452:0.80248225 1456:3.6904395 1473:2.8360848 1474:4.2538891 1478:0.83878136 1480:4.7562618 1483:0.87764847 1508:1.1590962 1511:0.72002494 1512:1.6539397 1513:5.8942385 1519:0.2286253 1520:0.69635171 1533:0.20133056 1535:3.4737637 1536:1.1161886 1537:1.4368207 1541:1.1874566 1554:1.3580246 1565:1.6801076 1571:4.9377246 1580:2.0084052 1586:0.98181003 1609:3.0853653 1611:0.47957495 1613:2.8586564 1616:1.8023659 1625:2.2116621 1628:5.6973128 1643:2.1247668 1644:1.8092083 1645:0.51889247 1648:0.70991123 1656:2.9149165 1658:1.8953414 1667:0.12599418 1668:1.0356135 1670:0.17413303 1677:0.42519233 1681:1.0813364 1683:2.5097477 1693:2.0294003 1699:0.4318496 1726:1.3761401 1744:3.5751595 1745:1.1122561 1766:3.8504307 1770:1.8043561 1780:0.97562253 1784:2.7612944 1785:3.3322163 1786:0.37939835 1791:0.087203801 1792:0.045470923 1809:0.7965008 1822:0.2713998 1823:4.1341801 1825:6.5074797 1835:0.15877157 1836:0.72556961 1837:4.4736733 1838:0.72184199 1843:1.0454025 1849:1.2170031 1851:1.7445031 1855:0.69809353 1858:0.35737124 1864:0.51409328 1875:0.18583897 1878:1.1972265 1881:0.061033696 1890:1.6086267 1891:2.9507928 1894:0.51289517 1899:1.740404 1903:2.1996622 1904:4.0398521 1913:0.50668299 1922:0.78356171 1925:3.5835321 1933:0.6280359 1935:0.4617027 1939:1.0978392 1944:2.8022759 1945:0.6416986 1950:1.920068 1953:1.1830789 1957:4.123704 1973:0.32294172 1974:7.3430967 1976:2.5428686 1980:0.22938998 1982:0.88566571 1984:0.25378963 1985:1.1713852 1987:2.6656022 1995:1.6507902 1997:3.8390636 2009:1.62922 2031:0.16796058 2048:1.6776352 2069:0.62969714 2070:2.2288988 2074:6.6137738 2078:1.4750692 2086:1.5412004 2092:2.4246433 2098:2.8030274 2099:0.51044464 2108:0.41278613 2115:0.57717079 2121:0.30898023 2123:4.3254189 2126:6.4739528 2128:0.59105331 2132:1.024096 2141:1.0052581 2150:0.39978972 2152:1.3198688 2154:1.3213096 2167:2.83304 2168:3.8286347 2176:1.9896536 2178:2.8156056 2192:3.767833 2194:0.28452873 2195:3.6814182 2196:2.2701907 2197:2.3139131 2202:4.7060251 2206:1.3117015 2212:2.3117182 2219:4.5961204 2222:1.0918348 2232:0.10764831 2235:1.5148045 2238:5.6716781 2249:0.98794717 2253:1.994462 2255:0.69383878 2263:3.1717963 2275:3.9228182 2279:0.63551652 2280:5.0342946 2282:0.87246376 2283:1.695905 2298:2.1189158 2299:2.1195192 2302:3.7101562 2303:4.3534489 2304:0.68155521 2311:4.3341379 2316:0.83003497 2317:1.2365831 2322:0.038259491 2323:3.3659782 2328:1.2048512 2332:2.2056551 2340:2.2030864 2344:2.8082685 2352:2.4435966 2354:0.074042097 2359:1.916544 2362:0.58578557 2364:2.1148233 2365:5.6418695 2366:2.6402829 2372:7.3815317 2374:2.998744 2376:0.79846734 2377:0.65434581 2378:2.4773092 2390:0.92374098 2392:2.9790158 2396:3.2590556 2397:3.1581807 2400:1.2746593 2404:2.2909927 2411:0.53366148 2416:1.8157283 2418:0.24906567 2429:2.2968833 2435:0.924703 2436:3.9146857 2437:1.4347564 2442:4.1083808 2447:1.9676647 2452:0.40263355 2453:1.0489688 2458:0.66693699 2461:4.7050657 2462:5.1387177 2469:7.2468657 2473:5.8488793 2475:0.64874005 2482:0.33369082 2483:0.21796767 2487:0.94457126 2491:0.85803771 2495:0.63579625 2499:0.73130047 2512:0.60979402 2513:5.1529927 2516:2.5519423 2517:0.38213038 2519:0.11026876 2520:1.371459 2537:2.0559299 2539:1.5931631 2546:1.6977477 2550:0.14474314 2555:3.1678956 2556:1.3171884 2563:0.027924091 2565:1.3173656 2579:2.0119007 2581:7.5459347 2588:0.005815804 2590:6.3838859 2594:5.7058015 2599:1.2594018 2606:0.36861926 2612:1.7121135 2614:1.1146848 2632:0.75222677 2637:2.7730737 2642:0.87366891 2648:4.6182609 2656:0.60398483 2658:2.4819648 2671:3.771522 2672:1.1007282 2674:3.0558457 2675:2.1516473 2676:0.016455911 2677:4.2786922 2685:2.1840806 2687:0.60177225 2708:4.3565311 2715:0.091494307 2717:0.521492 2718:0.68082702 2720:0.57949054 2722:1.4287832 2723:2.3061881 2728:6.432683 2737:0.92648077 2744:3.1554873 2747:2.4893064 2754:2.7415035 2770:1.5997355 2784:1.5313243 2789:1.8781273 2792:4.4059777 2796:5.1365757 2799:0.80989504 2800:1.3631052 2802:0.7687037 2810:0.33179116 2811:0.74064326 2815:0.85130882 2824:1.4445678 2827:3.0208344 2828:0.78814942 2832:2.1620746 2833:1.8604214 2836:6.6889839 2837:2.4545403 2839:2.7172272 2841:5.0852499 2845:1.1452452 2848:0.62104487 2856:0.17908499 2858:0.95364237 2864:1.8524354 2869:1.0039291 2879:4.1309681 2880:1.0885179 2889:1.8707643 2895:0.84216142 2903:0.85412419 2912:1.0591159 2916:0.29337871 2918:1.0446367 2920:3.5295246 2921:7.8944831 2922:5.1773076 2926:0.47915393 2929:0.95803118 2934:1.6163058 2937:0.68639195 2941:2.9222891 2942:1.4971652 2944:0.8483839 2952:5.5024357 2963:0.89670628 2965:1.5313386 2968:0.17755634 2972:1.3987949 2974:2.7820771 2975:0.056165218 2976:0.37794855 2980:6.2727928 2981:4.6123509 2990:0.31298503 2995:1.0192792 2996:1.275816 2998:0.085726872 2999:1.2445199 3001:2.4976838 3004:4.4949989 3007:1.1284332 3011:0.94431603 3015:0.58319974 3018:2.3149502 3033:1.266863 3050:3.8372028 3057:0.21696177 3077:3.5449369 3087:0.11227469 3099:1.5561248 3109:1.0122774 3122:2.0538547 3123:0.021676019 3128:1.802622 3139:1.6650757 3164:3.0657258 3174:3.3635366 3176:0.95676905 3181:0.57745385 3191:0.6809833 3195:0.18031785 3198:1.4471796 3200:1.8323332 3202:3.2971787 3205:1.4551309 3222:1.5998174 3230:3.2379534 3234:0.042965829 3240:0.50656652 3245:7.3853087 3246:3.6290231 3247:0.72625613 3252:2.5773237 3253:0.059444994 3262:9.3646374 3263:2.7151372 3265:1.1908994 3268:0.56330168 3271:0.52656275 3287:0.45477363 3299:3.4547489 3319:0.82704431 3332:2.5685244 3333:2.8513186 3343:2.4222059 3345:0.50589764 3351:3.2742157 3353:0.36703202 3360:3.1489575 3362:5.8585329 3367:0.3397615 3370:2.1541064 3391:2.3080785 3396:0.58014047 3406:4.3300576 3411:1.073436 3412:1.0837646 3417:0.87565732 3418:1.8174756 3424:4.406333 3438:5.1674623 3449:5.0401011 3454:0.56867206 3459:2.8786938 3463:0.93219519 3471:1.3592658 3479:4.6294928 3493:0.28375655 3498:3.5019119 3503:1.5591391 3504:1.9513749 3509:2.6427295 3511:2.1234782 3512:4.6351385 3531:0.43316293 3536:1.1316087 3546:3.7627153 3548:0.70904207 3567:1.43752 3570:3.4175208 3591:1.5847379 3593:4.119833 3594:0.12137885 3595:1.8376616 3610:1.9496174 3618:0.095042408 3619:2.0254264 3631:0.3225897 3633:4.4601545 3643:4.9970284 3644:0.19081064 3658:1.8203421 3659:1.1653003 3660:3.5865915 3663:4.6754031 3666:1.0404508 3667:2.1187594 3668:3.5004597 3670:1.6873398 3676:0.23877373 3677:0.27109483 3678:1.0637814 3683:0.0013244748 3689:3.5349581 3692:1.7935379 3697:0.46542424 3699:0.048198868 3701:2.5865345 3713:2.259732 3714:2.0804777 3717:4.8689704 3725:4.5209713 3733:1.4774351 3738:2.5388448 3744:4.2518935 3751:0.42663562 3754:0.15137562 3759:0.70493305 3767:3.3217335 3769:0.46128052 3792:1.6226596 3795:2.2126846 3796:3.9289658 3802:1.0054406 3810:0.63296556 3816:0.79938561 3817:1.8343089 3821:1.4021587 3831:1.9202396 3834:0.024473682 3835:2.5709009 3836:3.6751072 3844:0.6257689 3845:3.2142291 3847:2.9737926 3853:0.01898241 3856:1.6364136 3860:0.024657726 3861:0.51417714 3865:0.64505434 3866:0.95580858 3876:3.9663908 3879:2.458252 3881:1.915915 3882:4.0797944 3883:0.24475059 3885:4.1579299 3890:2.1565247 3891:0.91513383 3908:4.9486904 3918:7.4389238 3924:0.74973094 3926:3.6028185 3931:0.21020952 3936:0.69265509 3937:1.5930228 3939:3.1835833 3942:0.88620126 3959:1.1683232 3960:2.3275218 3966:1.8391249 3997:0.57616127 4001:0.56186509 4006:0.79021174 4008:1.3649516 4015:2.6197391 4021:1.944015 4024:0.68894774 4026:3.3913105 4038:4.9449811 4042:2.0119708 4050:0.47764283 4058:0.16440481 4060:5.1402769 4061:0.76955271 4065:5.2543807 4072:3.1009176 4081:1.2167009 4084:3.3740249 4085:0.15568814 4087:3.4144073 4089:2.1378367 
0.4869083202025701 3:5.0321584 18:3.7052281 38:1.1406088 54:0.4401952 86:0.87515688 96:2.8111644 101:0.6452899 105:0.92392242 107:0.14087057 113:0.21043856 128:7.1897812 139:2.2180176 143:4.1149764 145:1.3518063 172:5.0446057 174:0.52676535 179:4.0202565 185:0.72446436 193:1.3722655 195:2.5317082 208:0.27045017 218:0.7244159 224:1.1841462 237:2.8203998 247:1.6789781 248:4.4755802 251:0.20754471 258:0.68760395 265:0.020192236 281:4.5981379 290:0.76745349 292:2.4192588 297:1.6826419 301:2.6112792 302:1.0425873 305:2.6533546 309:4.253984 316:7.1091251 319:0.19352144 321:5.3671222 325:1.0893021 329:1.587267 332:0.56646436 339:1.7510779 348:2.1552408 367:5.2601719 370:0.097807959 371:4.5857267 380:0.67780733 385:0.79982758 387:1.4720136 396:5.543355 401:2.3785005 414:2.1817653 416:0.77471197 420:1.7565309 423:1.7098504 426:3.3377302 435:3.4817281 436:1.8099598 439:0.92179787 441:3.5237277 459:3.0491095 468:0.48344147 482:0.79233599 485:1.3025349 486:6.3258877 491:3.3539581 508:0.64496815 516:2.196456 519:1.4575598 526:1.1195953 531:2.2899737 540:0.95400494 554:0.12622994 556:3.4694483 562:5.8982277 564:4.8602662 591:1.8808047 598:3.8155799 601:2.4369292 602:2.4671109 603:0.81762898 618:0.10606523 624:7.1277404 629:5.0548429 639:2.1860301 640:6.1682048 654:7.6042895 656:1.1087087 658:3.0899231 695:0.51190615 698:2.1771681 707:0.85945958 709:6.7533016 711:5.8958192 717:1.1839868 732:0.7874524 742:2.37555 744:2.2545283 746:1.2981123 748:1.9932088 767:1.1361982 778:0.66919512 783:0.076244906 789:1.1607101 790:2.9557126 791:0.33064863 792:0.50656188 798:4.0330496 808:2.0732729 820:3.84867 829:0.58512855 832:0.69473243 833:4.5110111 862:0.69475019 866:2.5452459 876:3.7952273 899:1.8409028 903:0.24785736 905:0.18131229 916:0.058779992 937:3.3844795 938:2.3505163 941:1.416193 956:0.728248 958:0.86972213 979:5.6530991 982:0.33277196 993:0.41065142 994:0.027992517 1006:0.93073618 1018:0.1186654 1024:2.8098743 1043:0.37605429 1050:3.994813 1065:2.3705602 1067:5.2424769 1070:4.7041874 1077:0.97038817 1081:5.0415573 1103:2.0806005 1115:3.4503841 1116:7.0821714 1117:0.48668382 1121:3.7294199 1148:4.7073746 1163:0.18347403 1165:0.11484289 1169:1.8237109 1186:4.7755404 1195:0.38368163 1196:0.5082683 1201:0.67822897 1227:4.8911972 1231:1.0168453 1232:0.78960145 1234:2.6258214 1236:8.2869282 1240:0.45184493 1244:2.1804543 1265:1.7343321 1268:2.0231538 1273:1.3266133 1276:0.54258513 1277:0.28841028 1297:7.1014423 1306:2.0431156 1310:1.7559035 1320:3.1556916 1324:2.7919884 1333:4.2298794 1335:0.46838737 1343:0.29364985 1351:0.46649671 1369:6.3466959 1374:4.4919429 1376:1.419965 1385:0.54336476 1396:2.8048723 1399:1.2000182 1414:4.2120719 1417:5.913785 1419:0.062652469 1426:0.18814942 1437:1.2093265 1452:4.1988177 1453:2.2799311 1465:3.0225339 1468:0.63499492 1469:4.3897433 1471:10.372948 1473:2.5925639 1483:0.33597469 1488:0.48645395 1490:4.7670994 1492:1.1897733 1504:0.60017645 1511:4.6901193 1514:0.16300237 1520:1.2482511 1525:1.7289987 1537:6.0856776 1548:3.2100701 1552:4.607625 1562:1.3558366 1565:2.056915 1570:1.3351897 1580:2.6678083 1585:2.1302993 1599:0.65425408 1616:4.7552633 1628:3.9312837 1629:3.26301 1643:3.420814 1645:1.1563773 1659:2.5673082 1661:2.3082006 1667:0.038202822 1668:0.71061695 1683:7.6297374 1699:6.9613233 1700:6.6387434 1703:1.6551442 1709:4.341598 1728:1.1836281 1734:3.6419926 1737:2.319639 1748:0.85955977 1754:3.915102 1765:0.1646511 1771:0.096540809 1777:1.6626348 1782:1.0088916 1789:4.9867911 1791:0.90056187 1792:0.12645629 1798:3.1175442 1804:2.4527314 1817:0.4242838 1839:2.2161033 1842:0.67763686 1843:6.1638036 1844:4.7218518 1845:5.1669145 1848:0.0026735663 1854:6.365067 1872:1.3371475 1873:3.6169262 1876:3.5522738 1877:0.53662157 1884:1.18928 1908:0.1138653 1915:0.0487957 1917:3.7013357 1918:5.2970314 1936:4.2480946 1950:5.3498468 1956:2.6243362 1957:1.2242373 1969:2.1957276 1970:0.36738107 1976:1.4265753 1984:0.50268203 1991:5.3003893 1992:0.22114596 1994:2.6846218 1998:0.97611487 2004:2.3076391 2022:4.1975183 2034:1.8970277 2057:6.7347183 2068:0.85642415 2072:1.5243102 2073:5.364727 2096:3.9633522 2099:0.91698647 2101:2.4286892 2107:0.24856374 2110:4.7670336 2113:4.3893547 2117:4.5578485 2123:0.94088274 2128:2.8920681 2132:4.196847 2150:4.2230182 2152:1.4488254 2156:1.2621789 2164:4.6636934 2165:2.3608146 2181:3.5039666 2184:3.568279 2186:0.031296343 2187:0.63776338 2202:1.8212693 2210:0.54380274 2214:4.2919965 2241:1.2821856 2253:4.6918044 2256:0.35627538 2263:7.2219725 2269:3.7613468 2292:0.4041124 2328:0.9104321 2329:0.087769687 2343:6.4228902 2344:5.6556973 2349:0.89237577 2365:0.99141264 2383:2.7066383 2390:0.88980341 2392:5.0595078 2394:2.6304834 2402:1.1603547 2405:2.1525638 2411:1.9117117 2429:1.6719546 2430:0.6937322 2432:0.38163185 2435:0.0074760318 2448:3.1188321 2450:0.83008921 2459:0.35037792 2470:2.1395113 2475:0.50347471 2476:0.70966089 2486:1.4888661 2508:4.7659192 2512:0.4630242 2516:3.4469514 2519:2.8503494 2531:0.75661778 2537:1.0509566 2538:0.083824664 2539:7.3373899 2554:0.009494721 2576:1.9819779 2577:4.0255561 2582:1.0254291 2590:3.9608045 2604:6.5552349 2607:0.4324953 2609:0.046419799 2615:1.7194617 2624:3.4212341 2628:1.5950667 2636:2.2595158 2639:0.69985175 2642:6.1069989 2646:1.158097 2647:0.37238902 2649:0.19108109 2663:0.069098175 2669:0.40342015 2684:0.81181371 2699:2.2985864 2708:1.0099012 2720:2.3344779 2721:3.7728114 2724:2.6371057 2742:3.3844485 2746:0.13566819 2753:2.2551541 2754:1.2867038 2757:0.19369829 2792:1.2839425 2804:1.8152192 2815:1.8709455 2828:4.3965731 2833:1.6168156 2836:5.182662 2844:1.8105075 2857:1.9545008 2859:0.92374998 2863:0.085128069 2864:0.42316693 2869:1.2743793 2878:0.55581045 2882:4.3249664 2886:1.4101633 2900:2.2219317 2903:3.1399617 2912:2.535567 2913:4.8669839 2926:0.38770673 2936:1.5823553 2962:1.1843779 2971:0.51977569 2974:0.74971855 2980:8.0263443 2981:3.5260596 2986:0.011510864 2990:0.76797479 2995:7.4970207 3000:0.89514816 3007:0.45597616 3009:3.6537538 3010:2.0531008 3011:5.3957725 3028:0.53640509 3033:1.0086255 3037:0.84359527 3048:3.8467181 3051:2.7149911 3057:5.5707431 3062:1.9874321 3070:0.49074483 3080:1.1477213 3085:4.0717201 3095:0.67760032 3138:1.5252962 3141:4.6063294 3142:0.46137875 3163:0.46094882 3164:1.0999656 3168:0.39080364 3177:1.9693832 3183:2.9991844 3187:1.3807936 3189:4.0268435 3192:0.49526393 3202:5.2236114 3203:3.0225184 3210:1.2455399 3211:5.9753652 3222:2.552428 3230:1.3157392 3235:2.4322846 3237:0.6493274 3239:3.2042947 3244:0.40230066 3247:1.7867581 3252:1.6143901 3256:0.44035062 3258:0.40971053 3265:1.8295637 3272:3.0817411 3273:1.7140906 3286:0.77020109 3287:5.755105 3311:1.9829767 3324:0.3795231 3332:2.2985888 3351:2.1258242 3367:1.1526058 3371:2.448535 3387:2.3472819 3388:3.606741 3396:0.9130702 3402:3.290925 3435:0.063713133 3451:5.8390732 3461:5.9271502 3468:4.5770159 3471:1.9185163 3478:1.3431716 3493:4.634829 3494:2.6502109 3496:0.71974158 3497:0.74029583 3502:4.0781846 3508:2.447974 3528:1.6169952 3530:2.9321256 3533:1.985438 3535:4.2781715 3536:0.13424876 3537:0.15799099 3548:0.069987625 3563:0.76053858 3583:0.74769771 3585:1.4228175 3601:1.8720996 3605:0.35618806 3609:0.35694224 3614:5.3083854 3626:5.4498811 3629:1.6438988 3630:0.029648483 3633:3.0392449 3635:2.5603426 3636:1.4965264 3649:3.2737687 3660:0.5094443 3661:0.45472512 3675:1.4456714 3681:0.81832743 3684:1.6075529 3698:3.0857158 3709:0.058270335 3710:3.8319738 3720:2.2707231 3728:1.4598258 3731:2.4631479 3732:7.418251 3739:1.2451482 3742:0.54666823 3743:1.4539769 3748:0.70514315 3765:0.010723144 3768:4.6625214 3783:1.255169 3802:3.4346972 3820:0.00047335029 3821:5.7152486 3849:0.74238139 3850:0.54162538 3852:1.149749 3856:3.0759232 3857:1.2698861 3860:1.605129 3865:2.8564646 3869:2.7184703 3886:3.9277596 3914:1.4753255 3916:2.071264 3918:5.1518688 3926:1.5117341 3928:2.3907447 3934:1.4419961 3946:0.78620708 3960:2.7249115 3972:7.5478854 3981:1.0528495 3999:3.8404052 4001:1.9021218 4003:0.088282466 4004:2.0158293 4007:0.01677306 4008:2.7352228 4015:4.4502335 4020:1.1556014 4022:1.396488 4027:0.71598572 4031:1.4753572 4032:1.3718684 4035:1.6276473 4038:1.6925536 4042:1.0819762 4049:0.23801419 4062:4.3393617 4076:0.055387974 4077:2.6469483 4081:5.8144794 
0.02464118046953135 3:6.3321171 18:3.6081729 38:3.7996604 54:0.90162826 62:1.1689256 86:2.3099203 96:2.2697654 119:0.012609929 128:5.4138579 139:1.7758852 143:5.2085915 168:0.99726248 172:0.17557038 179:1.9067494 192:0.58691764 193:2.127284 195:0.47487238 230:0.11151814 247:2.1328197 248:3.8621206 251:0.50003082 256:4.5467358 257:0.38122633 281:6.0613279 297:2.6782525 301:3.4787264 302:0.10957977 305:1.5201907 309:1.6492728 312:0.92022008 314:0.59326535 316:6.2870064 321:5.7616162 329:2.495513 332:0.65679568 339:2.7351625 350:0.0081540495 360:0.39260054 367:6.1877904 370:1.3417462 371:4.1908708 374:2.6885846 385:3.9594564 387:3.6328089 396:3.69031 401:2.2323282 410:1.1076877 413:0.17350435 414:3.0540056 416:0.82115209 420:0.035228461 423:2.9419858 426:0.34018689 435:0.0040588453 436:4.5041637 439:1.84387 441:0.48232263 459:3.0415254 468:3.5301108 486:1.9074891 488:2.4280219 491:3.2931099 498:1.2263465 499:1.2954363 508:2.3300395 516:3.0541329 519:1.8815875 531:0.64407486 545:1.7207888 554:1.0686231 556:0.2243191 562:4.756485 564:3.3343737 588:1.2255541 591:4.2418995 598:0.63757014 601:0.12542841 602:1.3863875 603:1.7441725 613:1.8342388 618:0.26518714 624:8.2905512 629:4.7871351 639:1.7374861 640:4.0891008 643:0.39262798 653:3.1329269 654:9.1376781 656:0.3403762 658:1.0791171 676:1.2644126 698:1.172307 707:0.99458706 709:4.3351154 711:4.0828948 717:1.6717292 718:0.44066054 742:1.5676482 744:2.6840091 746:3.6113911 764:1.811522 768:1.6244543 778:1.9740506 791:1.1522924 798:3.8348875 808:3.6448112 809:0.62192273 817:0.68912512 832:0.14944896 833:0.48410499 862:1.3460327 866:1.8321416 876:2.1597893 896:1.1232386 899:0.052155897 903:0.21202633 905:0.061964594 937:5.226532 938:1.206948 945:1.0670016 956:0.71477473 957:1.891469 958:1.0982685 979:5.1155052 982:2.1750398 988:0.83789098 992:0.76462436 1006:1.5257539 1018:0.41848713 1024:1.410521 1043:3.2379117 1046:0.69755161 1050:5.6855693 1065:3.431406 1067:4.660111 1070:2.2596529 1081:6.3444481 1089:1.3028038 1103:1.1022125 1115:1.389802 1116:6.7590094 1121:3.6104419 1148:4.5754852 1163:1.8734899 1165:0.29406476 1186:7.2335324 1195:3.0675592 1201:2.0195465 1223:0.83534241 1227:2.9351954 1231:1.9952512 1232:0.0726493 1234:4.3334408 1236:8.1604786 1240:0.0012133345 1244:1.7459013 1255:0.91276211 1257:1.2302516 1265:3.4219975 1268:0.43378872 1271:1.5329792 1297:4.0086694 1306:1.5995048 1320:2.9014282 1324:5.2198048 1333:2.0564864 1335:0.27925265 1351:1.9144229 1369:5.769845 1370:1.0021908 1385:0.31055188 1392:4.5478501 1396:4.1935453 1414:4.7957282 1417:4.420136 1419:2.207859 1426:1.2730079 1452:3.1932197 1453:4.4189787 1456:0.061775982 1465:1.5560085 1468:1.6688894 1469:2.3635018 1471:7.1852775 1473:2.1480625 1483:1.4365735 1511:0.88991654 1519:0.9072299 1525:1.845042 1537:8.1798067 1548:2.5812767 1552:0.19631076 1565:4.2431788 1570:0.32632372 1580:2.3213091 1585:2.8077595 1596:1.382618 1599:0.97805589 1616:3.4779818 1628:4.2945824 1629:2.1075687 1642:1.1061583 1643:1.7161692 1661:1.5267087 1668:4.3316236 1683:7.6045203 1699:7.7843509 1700:7.1694241 1704:0.13691096 1709:2.5497048 1719:0.91776186 1734:2.561286 1735:0.013580785 1737:2.5920236 1748:2.6172135 1754:3.0701628 1765:1.0337327 1771:0.43005475 1777:2.5840003 1782:3.2247961 1785:4.3494864 1789:3.3331323 1791:0.11676267 1792:0.11510617 1804:0.30616713 1808:0.78047585 1839:1.1005224 1842:2.2615433 1843:7.8085332 1844:3.3606591 1845:5.5322576 1846:1.7973942 1848:0.94820678 1854:5.3273969 1855:2.9635267 1861:0.33061293 1873:5.9019132 1876:4.6683044 1894:0.86581075 1917:4.1876998 1918:6.0382991 1936:4.1127372 1941:0.80918229 1950:3.7902532 1956:1.8674316 1957:0.94087535 1967:0.2373877 1969:0.1818648 1970:1.8876197 1974:2.5328715 1976:1.53171 1980:0.34910151 1984:1.0730284 1991:4.6293664 1992:0.36909506 1994:1.3069444 2004:2.0595326 2022:0.93752873 2034:2.7181122 2057:8.1383219 2068:4.1196694 2072:6.0329685 2073:4.0791583 2095:0.026675642 2096:0.98028302 2099:0.50839996 2106:0.73740858 2107:1.8813998 2110:3.0762982 2113:5.4574304 2117:7.4779801 2126:0.71931165 2132:0.66422045 2150:4.3263006 2152:0.098414361 2165:1.9912648 2181:3.1605113 2184:1.3742909 2202:2.8819785 2214:3.5071461 2241:2.640353 2244:0.0047264397 2253:8.8868647 2256:1.08693 2263:7.1447959 2269:0.75134063 2292:2.587815 2294:0.86176324 2314:0.75120878 2317:1.8645711 2321:0.3599385 2334:0.84648663 2343:2.5037477 2344:2.7780931 2346:0.29111627 2349:3.1161489 2365:4.486671 2370:2.076761 2383:1.040967 2384:1.264382 2390:0.60437727 2392:9.2650394 2394:2.0916693 2402:0.58012283 2429:0.53171444 2430:1.3412296 2440:0.51017052 2448:0.34425876 2450:0.01450851 2461:2.0575399 2476:0.35357502 2478:0.0028981268 2486:1.3321464 2500:0.5977788 2508:3.4603021 2513:0.01008743 2516:3.9186287 2537:0.29592294 2539:7.6784039 2576:3.5568478 2577:4.5451007 2590:4.8545055 2604:6.3032846 2612:1.1824838 2615:1.0802479 2624:5.1555858 2628:1.0672792 2636:1.6735314 2642:3.3752537 2649:0.71100295 2699:0.70392674 2721:5.2217684 2724:7.5203438 2727:0.63455868 2742:2.354275 2743:1.7774812 2753:0.80077457 2779:0.24378023 2784:0.35235977 2792:3.0860152 2796:2.2204704 2804:0.10057688 2815:3.1274958 2828:5.6511154 2832:0.70054561 2833:0.90441293 2834:0.43160731 2836:6.7038431 2844:1.0368656 2857:1.9340645 2868:0.58144188 2869:2.8716455 2878:3.2602279 2882:2.9168463 2886:1.3196205 2890:1.8205674 2900:3.1694365 2903:3.6107934 2912:4.3874645 2913:0.03360489 2929:0.43844306 2936:2.7246616 2950:1.9095268 2961:0.62113476 2962:2.9968562 2965:0.91562748 2974:0.51527619 2980:8.240119 2981:3.1296287 2983:0.32757017 2986:0.70583564 2990:2.9325249 2995:8.4768524 3007:1.759813 3009:1.2326335 3010:3.0603731 3011:2.3938029 3033:0.74609739 3048:3.6563427 3057:5.5701842 3080:1.6249175 3085:2.5435655 3087:2.2010343 3122:1.1302676 3130:1.1096432 3138:2.7588677 3141:2.3002005 3147:0.48478842 3164:0.091626048 3167:1.9859654 3177:1.4282088 3183:2.0767152 3187:4.5618286 3189:4.4910517 3192:0.70760089 3202:5.5421948 3203:1.9483459 3210:0.12353113 3211:1.9324214 3222:3.4795423 3230:0.9559952 3235:3.8913963 3237:2.2036014 3239:2.4277425 3247:3.3783979 3252:0.087934196 3272:0.82400048 3273:1.0385503 3277:0.270262 3286:0.71247917 3287:3.2444317 3300:3.1244969 3311:5.188271 3324:0.96483064 3332:3.7518554 3345:1.0224278 3351:5.5011187 3359:0.071266562 3367:0.26313221 3371:1.7589157 3387:0.24321462 3388:1.7686448 3396:0.92833102 3402:4.5768747 3439:0.49750781 3451:2.5758619 3461:5.288662 3468:0.50346321 3471:1.8023134 3475:2.0479581 3478:1.8724891 3490:1.0863297 3493:5.4178543 3494:5.7401772 3496:0.77128828 3502:4.1561527 3508:2.2846191 3528:3.4492178 3530:2.941798 3531:0.37536725 3533:1.8202283 3535:0.29863879 3536:3.8648434 3583:1.032612 3593:0.86049455 3605:4.3609176 3614:2.8144777 3615:2.4570074 3618:0.85789132 3626:6.7663698 3633:1.8966519 3635:2.941896 3636:1.5408305 3660:2.2500627 3661:1.0073763 3664:1.0369928 3675:2.101579 3681:0.85103595 3684:1.803737 3689:0.73613346 3698:1.9477353 3709:1.0352502 3710:3.7590134 3716:0.42185152 3718:1.1890202 3720:0.15102753 3728:1.8772424 3731:1.5047048 3732:4.6298065 3739:1.4818555 3742:1.7275467 3765:1.5562901 3768:3.2982028 3776:1.8604975 3783:0.93058282 3802:4.6076031 3821:10.062163 3850:2.0262487 3852:0.97852629 3853:0.26886621 3860:2.2268708 3864:1.3784008 3865:6.5433331 3882:0.62186134 3886:3.6141863 3914:2.3604512 3918:6.8110332 3920:0.65162748 3926:2.4015512 3946:0.62164283 3958:1.3847328 3972:7.2907453 3981:0.31807846 3982:1.2209662 3999:4.7307882 4001:3.2672138 4004:0.69305277 4007:1.8660513 4012:0.24074554 4015:4.5111423 4020:0.37735093 4027:2.8150427 4031:0.27522603 4032:1.3327411 4038:0.96795702 4051:0.6471892 4062:2.9138625 4077:2.2035716 4081:6.126132 4083:2.4566932 
0.5337757361907082 2:5.4975934 3:2.1178975 38:2.1776347 41:1.4170383 49:0.76791608 51:0.75012851 57:0.16291872 66:1.4645178 67:0.14056334 80:4.7772989 83:3.0848446 94:0.52574348 115:1.0973104 118:4.0976548 119:2.4217849 128:0.86155093 139:2.9310446 144:7.095377 146:0.21843712 165:3.4525576 169:2.0119696 175:0.15671462 207:2.9844751 210:7.0807219 220:1.9094002 231:2.3492982 249:4.3249292 251:2.0701427 256:2.9652452 257:0.64578742 259:2.3659742 266:0.15004091 270:9.5890446 271:1.772215 274:0.91824782 278:0.42309767 285:2.5424118 286:1.758675 300:0.69571388 302:2.6476285 305:4.1107121 309:7.2494988 312:1.8176035 317:4.967885 326:2.0333288 328:1.4347161 329:4.1822333 341:4.446331 348:1.9682436 349:3.8680754 361:0.83748573 364:5.323071 369:6.8067832 371:1.9983498 377:1.5509191 380:4.4696388 385:0.11348346 393:1.9912181 394:3.0371792 399:0.30140668 410:0.92688894 413:1.6358331 420:1.5397998 421:0.10227349 422:1.4419041 423:2.0023289 427:0.47811565 434:2.2901611 448:0.57294631 451:3.125092 465:2.2010958 467:0.54609859 472:2.9758523 476:3.8306625 478:1.8669971 505:0.21851289 516:2.6451335 522:1.7526636 523:4.1654329 531:6.0416636 541:4.1442494 560:5.5714107 562:4.0652924 572:4.3345013 574:3.4434848 582:0.18338951 586:1.8886285 587:2.6327634 591:3.2862129 597:2.0506005 601:1.2168971 613:1.8756981 621:2.7090797 624:4.0133767 625:0.35536605 627:1.7190776 631:2.0755899 641:1.1318278 645:0.95780694 648:1.1513073 654:1.1344302 655:0.27712014 658:0.0193073 665:6.0616722 670:2.820946 675:0.55983752 706:0.3664344 709:3.6844122 711:2.2270596 716:3.5734265 726:1.9612961 733:0.18981279 734:0.82581306 736:0.46889123 738:0.15121773 750:4.0620489 755:1.2504556 759:6.2618732 764:2.586009 767:0.20884323 768:0.25902504 769:1.6908364 776:1.2398452 780:0.56960177 781:0.71714246 784:0.96833587 788:7.195807 789:0.5046795 806:1.3619998 809:1.490077 811:0.96770692 818:1.5256888 819:1.9952388 823:0.13851848 824:6.3186536 832:0.36869532 833:0.28362274 836:1.6138752 837:0.29546654 854:3.266561 859:2.1194386 860:2.2474813 861:0.52806926 868:4.6281281 883:1.9428639 885:0.77687407 896:1.5177115 897:0.8676635 900:1.8989954 903:3.542239 904:0.17498451 914:0.81207347 920:6.4811473 922:2.3426945 925:1.5378716 929:0.51525933 940:2.1664386 943:3.2659039 950:2.0302184 962:1.0105175 976:4.1963153 982:2.0296025 1011:6.0676389 1017:0.63120806 1019:0.27510533 1025:2.4408226 1030:4.4913268 1041:1.0614949 1042:2.0196338 1046:0.49580851 1067:4.6859117 1083:0.42600664 1093:3.595787 1097:0.14849883 1101:0.55616105 1103:5.1693907 1106:7.5865459 1116:0.23899738 1119:4.366312 1125:1.8957193 1126:0.23033348 1128:2.6447339 1130:2.5362916 1137:0.36760262 1139:1.3042831 1148:3.9201169 1156:0.74008989 1162:0.97711569 1180:2.7540812 1186:1.7583283 1197:2.6935515 1198:4.9270215 1201:0.33743855 1208:0.13752142 1211:2.9653311 1222:2.0214305 1224:0.003092885 1231:0.95154721 1236:0.84136295 1241:3.022372 1244:4.2361088 1247:5.2756162 1255:6.0672083 1259:0.78407824 1266:0.84087861 1277:6.112381 1278:1.4277643 1320:1.4107332 1324:3.7602 1342:0.59840673 1350:1.4680693 1351:0.094346017 1355:0.6605984 1358:0.96147311 1363:2.0375886 1365:0.14329144 1370:1.6961031 1380:4.4103675 1383:1.2211899 1386:1.8516906 1394:0.1104804 1396:1.294276 1397:0.41181025 1400:3.907886 1403:0.41175073 1408:0.58918202 1417:1.0494039 1419:0.60118711 1422:3.1188035 1436:0.14862159 1438:1.3236808 1450:2.7790244 1456:0.66325891 1457:0.003343761 1468:0.10701087 1473:2.5188317 1474:1.8431818 1480:2.7826056 1508:0.306683 1512:2.3095775 1513:1.9020413 1520:0.68717808 1533:0.72299147 1535:2.3421772 1536:0.69260669 1537:1.8479161 1541:3.8001001 1554:1.1567903 1560:1.1580766 1565:2.2567134 1571:3.5901737 1572:1.8324608 1577:0.91406488 1580:2.7640231 1586:2.2266159 1601:6.1906261 1611:0.41403922 1616:5.6729789 1628:0.39262694 1639:0.65504831 1643:6.9855633 1644:0.24448809 1645:1.655164 1656:1.0635982 1666:1.265923 1672:1.5704445 1681:1.8324535 1683:0.50428009 1690:2.1099415 1693:0.2222672 1697:0.2393557 1699:1.3398278 1713:0.15007745 1715:5.3038073 1726:0.82000506 1744:4.5941372 1745:1.4434432 1760:1.2972838 1766:3.396863 1788:0.44588703 1813:0.20380545 1823:3.435806 1825:2.75843 1828:0.7481209 1829:0.9535706 1837:8.3712654 1838:1.7505857 1843:2.0968196 1849:1.3422437 1851:1.4050959 1860:0.7168082 1861:1.3856096 1864:2.2458348 1870:0.15271418 1871:0.64463204 1878:3.0772753 1890:5.7900143 1903:2.7441564 1904:4.6905437 1906:2.9167657 1919:0.17369574 1925:3.1162705 1927:1.5318674 1932:1.7121885 1936:0.0014858544 1944:0.83776337 1945:2.4018965 1974:0.45869079 1982:1.5673219 1985:2.828912 1987:3.2306914 1995:4.8027654 2009:3.4679549 2031:0.65203643 2038:0.35376278 2046:4.6765938 2052:1.2172053 2061:1.3762568 2073:0.46418512 2074:6.673142 2076:0.39131141 2079:0.5044961 2086:2.8947265 2099:0.43618125 2102:0.27048081 2108:4.8594732 2113:2.2433729 2122:0.049635887 2123:1.239632 2128:1.8461877 2131:3.8018227 2136:2.1744313 2151:0.18438286 2156:0.33146209 2158:0.3939144 2160:0.19946283 2168:2.7764344 2169:0.56938648 2176:2.197454 2178:4.2343431 2192:2.0743513 2194:2.3330915 2195:5.4141755 2197:3.5801182 2200:1.6009289 2202:3.5787728 2206:1.2245883 2217:1.3465084 2219:3.0908499 2232:4.9782534 2235:1.4613335 2238:4.2332163 2241:2.3541908 2253:3.0472012 2255:5.7834888 2256:0.55533886 2263:3.9699235 2266:2.2186527 2275:1.7969725 2280:3.7059097 2282:3.7215366 2283:0.89856267 2295:2.2891018 2299:0.69269061 2302:2.9435418 2304:1.1372221 2311:2.8814592 2314:1.4443277 2324:1.7059538 2337:1.125217 2339:4.8562908 2340:2.3973105 2347:0.35991815 2352:2.8337083 2357:1.0855495 2359:2.4003136 2365:4.9977021 2366:2.7473881 2367:0.676148 2374:0.19949034 2376:1.2300282 2378:0.76724553 2392:4.9992537 2396:2.9253309 2397:6.9386082 2399:0.17819931 2401:0.15259376 2411:1.6628051 2416:3.2311885 2425:1.6887283 2429:3.5665431 2431:2.3053644 2433:0.10941137 2435:1.6875346 2436:2.5248265 2437:0.4490689 2442:1.6061186 2447:4.3785892 2452:0.31841081 2453:4.6348715 2461:5.3040857 2462:1.5819457 2469:3.6653297 2473:7.1690998 2475:2.1851292 2478:3.5188377 2480:2.9202394 2481:0.98947328 2483:1.0271642 2487:0.081608236 2495:3.9476421 2504:0.1376262 2512:1.3932794 2513:0.13406551 2519:0.23738615 2524:0.67401886 2535:0.32863575 2539:3.3808246 2543:1.1872023 2544:1.2737217 2546:4.2783933 2550:2.4032609 2556:2.3205266 2557:2.9412701 2567:2.223711 2570:1.5110909 2579:6.7794714 2581:6.4747553 2586:3.326226 2588:1.5277716 2590:1.6228912 2594:0.67523509 2595:2.0723267 2599:2.421371 2600:0.021647364 2605:4.4348397 2612:5.8830996 2626:2.21381 2632:0.3517276 2633:2.5964622 2637:3.4598179 2639:0.7424134 2642:3.3459053 2648:5.5285478 2658:5.4482117 2671:4.6032176 2672:1.6726383 2674:1.7501949 2677:0.6372577 2685:4.4338741 2687:0.72689164 2695:0.027596124 2708:3.8309765 2709:2.3541045 2711:0.14559188 2717:0.17428337 2720:0.062195718 2723:3.3468533 2727:1.1240561 2728:7.3933725 2737:4.9944963 2744:1.9967067 2747:1.2518107 2748:1.3598201 2754:1.341184 2758:1.3262576 2770:1.2242984 2783:1.1002172 2792:2.3636239 2796:2.9443231 2799:1.6552316 2802:0.0554865 2807:0.39958242 2808:1.0276653 2815:1.4620396 2824:0.91638911 2827:5.4493561 2828:3.5880492 2832:0.96957541 2836:0.76657617 2839:0.75646532 2841:3.687573 2845:0.018466622 2846:0.67760688 2852:0.86780131 2858:5.1163974 2864:2.606967 2869:2.1983166 2877:1.7942052 2879:6.1931205 2880:0.85159349 2889:0.52984625 2903:3.9026647 2906:1.1084495 2912:0.11748284 2914:0.49237183 2916:2.7526793 2920:0.54823649 2922:3.2323699 2931:2.006542 2934:2.7735388 2941:5.317215 2942:2.0488038 2952:4.8220849 2968:2.1490345 2972:1.4080354 2974:1.6542284 2980:2.8165088 2981:1.9541036 2987:0.34821552 2989:1.2068013 2994:2.1006012 2996:0.16357756 2998:0.88204998 2999:4.8431926 3001:1.3828954 3004:6.7610788 3007:2.3664908 3012:0.91551125 3015:0.1365765 3018:6.9607372 3023:2.0889764 3030:0.87265188 3039:1.881683 3050:2.192085 3053:0.64189333 3063:2.1731138 3064:2.1222243 3078:0.57267404 3079:0.055527776 3090:1.5979234 3092:0.58853126 3097:0.47120437 3099:0.72007298 3108:0.098777294 3109:1.1219567 3122:2.9234936 3123:2.737179 3130:2.1014285 3131:3.0662293 3164:0.72002482 3176:5.3773484 3179:0.18035772 3183:0.60572696 3191:0.51829922 3198:0.33727986 3202:2.5405731 3205:5.8120284 3222:0.96089256 3230:3.5147636 3244:1.1804634 3245:4.5956664 3246:0.66043115 3247:2.6201587 3250:3.1836255 3252:4.4329662 3256:0.55921382 3262:9.6259451 3263:0.60660481 3265:0.38461769 3268:1.7738676 3271:1.1004908 3287:0.091966093 3297:0.23291445 3299:1.0890764 3305:0.11677012 3309:0.068620868 3319:0.084506512 3323:2.6609387 3332:3.3816609 3333:2.304894 3343:4.1195865 3345:0.3225829 3350:1.5401697 3351:0.39172426 3353:2.7858641 3360:3.2159357 3362:5.9925308 3380:1.7848238 3396:1.5476779 3411:3.3544819 3414:2.3434155 3418:2.4587047 3424:0.15139771 3438:5.0168638 3443:0.049789131 3446:2.2070794 3449:3.940886 3454:2.0950205 3459:0.89163411 3477:0.30330533 3479:2.9766159 3498:3.7000265 3499:3.5891721 3504:0.040632904 3509:5.1862779 3511:4.7567325 3516:0.93522269 3522:0.22295141 3523:2.282475 3525:0.74078351 3526:0.065349281 3531:0.86008084 3536:0.96202171 3541:0.80786407 3546:4.4167962 3547:3.6373019 3548:1.0186744 3567:2.922085 3570:0.92285055 3591:3.9532542 3593:5.1507993 3594:2.8304946 3595:2.2998862 3600:2.5835924 3607:0.24262258 3610:0.051392317 3614:3.3464892 3617:3.5982423 3619:4.3415647 3625:0.76983619 3626:1.471622 3627:1.1589326 3631:1.5752809 3632:1.8349993 3633:6.7864866 3637:1.2647326 3643:2.1835296 3644:1.7251635 3655:1.440981 3658:0.48942623 3660:1.0287532 3661:0.28143036 3662:0.22085646 3668:6.5426025 3669:2.3119345 3670:5.0513077 3678:0.20081389 3687:0.10586524 3691:1.614578 3693:1.8055937 3697:1.6407887 3699:0.64165294 3701:5.4736104 3713:2.5173111 3717:5.1104417 3725:6.6356549 3726:2.7195828 3738:1.0196716 3744:3.2257886 3750:2.5539479 3759:1.8752148 3767:2.0874333 3783:3.0474725 3789:0.57609689 3795:4.8315377 3816:0.79010046 3817:1.4694858 3821:0.57834691 3828:0.64910251 3831:0.1404417 3834:1.5179754 3835:1.5896225 3845:3.2683396 3847:2.7023582 3852:2.6221514 3856:1.4849573 3860:1.0039456 3865:2.6804504 3874:0.87643713 3876:1.5466443 3879:0.28059292 3881:0.98497707 3882:4.8852334 3885:7.0703425 3891:2.6296654 3908:6.0375609 3916:0.96707112 3918:5.6601858 3931:0.57749605 3937:0.19550359 3958:2.9008441 3959:1.0532064 3966:0.1099958 3972:0.02884984 3997:0.80128562 4011:2.1043971 4015:0.60583436 4021:2.3644419 4024:4.2576823 4026:6.3828077 4038:0.17192507 4042:0.96809167 4048:0.099829733 4050:1.1391315 4052:0.3229841 4053:0.67432529 4054:0.79951715 4057:1.4896761 4060:1.4104711 4065:6.326787 4072:4.4528756 4081:1.128927 4087:3.9703364 
0.1137769323470921 3:4.1079674 18:0.52647543 35:0.64319235 38:1.8348538 54:1.9976821 62:0.066570431 74:1.6348362 86:0.069149472 96:3.3471351 101:1.2701192 128:5.785974 131:0.068820179 139:4.765831 143:0.79577756 149:1.3608199 165:0.52305782 172:2.6739879 185:2.7665477 193:2.5481672 195:0.20961681 198:1.7133459 224:2.7012453 247:1.2946265 248:1.9702969 250:1.0790451 252:0.8919757 256:4.479775 278:1.5736108 281:2.0178919 292:0.15362175 297:1.9909416 301:1.5933925 302:0.35819101 305:0.067653 309:1.415718 316:5.9661293 321:5.4060345 324:0.044955969 332:2.0316174 339:2.4797661 348:3.2361295 351:0.859496 367:4.2588086 370:0.38467067 371:4.9032769 380:1.1970981 385:2.2974703 387:5.5977774 396:1.4850799 401:6.0010843 410:0.74560952 414:0.98875093 420:0.58321905 423:5.9205489 426:1.0881567 435:1.2907954 436:3.8206592 439:1.5874753 440:0.19138874 441:3.6028192 445:0.82703662 455:0.33736879 459:1.2631325 468:2.4909432 486:2.7362833 491:1.7695793 508:0.48694465 516:3.7746961 519:0.50252676 523:0.90580279 526:0.70813859 531:0.95518172 540:0.51712584 545:0.52366024 556:4.1475148 557:1.4938279 562:1.6578801 564:3.6473169 565:0.19404545 573:1.6782318 588:1.7087053 591:0.48512408 598:2.2098517 601:4.4770808 603:0.27488014 613:0.56304967 617:2.0009372 620:1.3462238 624:7.0594783 628:0.34602734 629:3.177655 639:2.0734608 640:2.6141162 653:0.49262375 654:7.4742908 658:3.1402402 676:1.7852312 687:0.53242344 695:1.203563 698:2.2043071 707:0.35402852 709:4.9275222 711:7.8463826 717:0.31972101 732:0.71527469 744:4.5567932 746:0.27471507 748:0.63129723 750:0.10970278 764:0.39755729 767:1.488417 778:2.5309944 790:3.9619532 791:1.9501507 792:0.39231908 798:3.8206413 808:1.7032652 809:0.94153059 817:0.6133666 820:2.9265871 829:0.63084567 833:3.9551551 848:0.80471396 860:1.0716077 862:0.64150035 866:2.2764909 872:0.68779236 876:5.6071758 879:1.230029 887:2.0312958 896:0.32928893 899:0.13398488 903:0.46881682 916:0.29215944 918:0.26464972 937:0.47308221 938:0.8639133 953:2.8678303 956:1.1514881 957:2.7385893 958:0.28552127 979:4.4357748 982:1.3150413 990:1.5598446 993:1.3707434 994:2.5945144 1004:0.83594513 1024:3.5367253 1043:0.2699672 1046:1.6723669 1050:1.6130134 1059:1.8968918 1065:1.6304914 1067:6.1769409 1070:2.6329534 1072:0.58728343 1081:4.8924036 1103:0.74848199 1115:0.39655459 1116:5.7920136 1121:3.7251818 1125:1.3433967 1148:3.2374249 1163:0.35648674 1169:0.65141606 1186:6.6471181 1223:0.99861169 1225:0.94205004 1227:5.533329 1231:0.71217376 1234:4.401566 1236:8.1481476 1244:3.8186872 1251:0.7866649 1265:3.4933245 1268:1.3754121 1271:2.1466751 1273:2.3105934 1276:2.3911567 1277:1.1404454 1284:0.81014735 1297:5.4331675 1306:1.7124426 1320:2.4776306 1324:3.2297094 1333:1.2058792 1335:2.3015296 1346:1.1183816 1351:3.41347 1369:3.9431281 1374:3.8884661 1376:1.3300894 1379:2.9718041 1385:1.3395016 1392:2.0088253 1396:2.7084124 1398:0.66569918 1414:3.2815068 1417:3.5902281 1419:1.9777313 1437:2.7746737 1452:0.36221659 1453:4.4047608 1465:2.8466511 1468:3.5120022 1469:1.6467452 1471:6.1623182 1473:2.0936797 1483:2.7764196 1488:0.14575027 1490:0.54638344 1504:1.4232545 1511:2.7192655 1523:1.0691657 1525:0.38298714 1537:5.2250462 1548:2.5679443 1562:0.19512545 1565:5.7251444 1573:0.58951199 1580:2.7804775 1585:2.7929857 1599:0.0067470223 1601:1.3937582 1606:0.0037329793 1614:0.59254611 1616:3.5590003 1620:0.074059337 1628:5.7614884 1642:1.7174932 1643:1.7185071 1659:2.1202371 1661:3.0782521 1665:2.1229467 1667:0.51502186 1668:0.78492099 1683:8.4705153 1693:1.861742 1699:7.8719625 1700:4.9983807 1709:1.8138714 1725:0.3148573 1728:0.89563489 1734:2.130033 1737:2.3363135 1754:4.2361507 1771:0.91191745 1777:2.4687393 1782:2.4277792 1789:4.8988829 1791:1.2666099 1792:0.30360401 1798:2.4668627 1832:0.79740345 1839:0.23174985 1842:0.10496309 1843:6.0786247 1848:0.15996236 1854:4.8475051 1855:4.4879718 1871:0.60889769 1873:4.9022498 1876:2.4407558 1877:0.65641636 1893:0.96978056 1894:0.42944261 1895:0.37482461 1908:3.9477739 1913:0.011957109 1917:3.4300036 1918:6.7624526 1921:0.23057002 1936:3.4460163 1956:9.8063183 1957:1.7166309 1967:0.86123729 1969:0.72636759 1976:2.1455848 1980:2.1972606 1991:5.1039944 1994:1.4501785 1998:0.80525696 1999:1.2727604 2004:0.60923922 2022:4.9681234 2034:2.3812776 2057:8.0156107 2068:3.6917968 2072:4.8895516 2073:5.3757935 2095:0.087702662 2096:1.3549931 2099:1.101451 2106:1.1815586 2110:2.299011 2113:4.6436558 2117:1.4831514 2123:0.38457534 2126:1.3822635 2128:1.2945517 2132:5.6973057 2150:4.7071319 2152:1.5093328 2164:4.5569558 2165:0.738684 2181:2.6895719 2184:3.1657209 2196:1.7826625 2202:0.28198257 2214:1.8144162 2223:2.8658164 2238:0.70879078 2241:1.850589 2253:6.4828115 2256:1.0331678 2263:6.4169922 2269:2.1006489 2272:2.2597733 2291:0.07676065 2292:0.491725 2304:0.050471872 2314:0.39353797 2317:2.1808383 2328:1.1738279 2343:3.1174142 2344:4.422677 2349:4.5085931 2365:6.1066046 2378:1.3248329 2383:3.9482384 2384:3.6817083 2392:5.8996382 2402:1.9541461 2405:2.0179865 2429:1.0051982 2430:2.0585341 2435:1.6867867 2440:0.062563062 2448:1.7436919 2449:1.0210326 2459:0.51007932 2461:0.78330517 2470:1.0664377 2476:0.053927481 2478:0.68300319 2479:0.81595463 2486:1.0826478 2491:0.50748748 2497:0.90925556 2502:1.6537319 2508:3.8276398 2516:2.9405851 2519:1.870954 2539:5.2102323 2563:0.85836029 2576:5.3047185 2577:2.28565 2590:3.1301408 2594:0.061755121 2604:4.5479403 2607:4.8053513 2615:1.1170044 2624:3.1395249 2628:0.83633816 2636:3.0847373 2639:0.30166507 2642:4.0940366 2649:0.87641805 2657:1.8832188 2663:1.8380016 2684:1.0796213 2689:0.99327534 2699:1.6781228 2708:0.97254092 2720:0.57107127 2721:2.9866953 2724:1.7950006 2725:3.1369519 2727:0.76238918 2742:2.6015363 2743:1.1395888 2746:0.045676228 2757:0.99208069 2771:1.462116 2792:0.95615107 2796:1.7396245 2804:1.236315 2805:0.22882475 2815:3.9631968 2828:4.2783456 2830:0.57186043 2832:0.87316936 2833:1.6335075 2836:2.7783535 2841:2.0839596 2844:0.29189301 2857:4.3432989 2863:0.55401003 2865:0.39810398 2869:0.89468431 2878:0.89766395 2879:0.28912625 2882:2.0023804 2897:0.045207381 2900:3.2976403 2912:4.1698833 2913:3.3301625 2926:0.73465705 2929:1.3506866 2946:0.03111586 2962:4.1483407 2971:0.11545925 2974:1.8862512 2980:8.7564449 2981:2.3017306 2986:2.8553798 2987:0.050958257 2990:3.5130754 2995:6.3805227 3007:1.1552016 3010:3.436465 3011:6.2953987 3033:0.28440058 3043:0.41424787 3048:2.995297 3051:1.5644786 3057:4.6321907 3080:0.58995247 3085:4.7765121 3087:1.4783968 3122:0.23308665 3130:1.4670575 3138:0.82938081 3141:3.1587255 3142:1.8078396 3164:1.9108047 3169:0.21448943 3170:2.3156347 3177:4.5238695 3182:0.35750642 3183:0.35519925 3187:1.5467589 3189:2.4091268 3192:1.9325056 3202:6.1576147 3203:1.3172114 3211:0.60677207 3219:1.2970076 3235:3.7629294 3236:0.095543489 3237:0.51819968 3239:3.1250029 3247:2.5031943 3258:1.3515949 3262:0.56378627 3265:1.4419066 3269:2.6302831 3272:3.8950715 3276:0.26151526 3284:0.24336158 3287:4.517972 3300:0.73237544 3306:0.020896778 3311:0.63775897 3321:1.5190111 3324:1.8087057 3332:3.1149845 3345:1.7243671 3347:0.19473214 3351:1.635983 3360:0.63317621 3367:2.5526459 3371:3.1443839 3387:2.2822573 3388:2.3744619 3392:0.1133502 3396:1.2218801 3402:3.4082639 3411:0.36822307 3416:0.25809899 3435:0.31102061 3441:1.9954599 3452:3.3222075 3461:3.4630973 3468:5.8394628 3469:0.54078501 3478:2.6181891 3490:0.4913668 3493:2.2033734 3494:4.9214334 3497:0.13308704 3502:3.9527061 3508:1.7792976 3530:2.7481511 3531:1.1674531 3533:3.3293698 3535:3.9049442 3536:3.498157 3537:2.532536 3548:0.04264012 3553:1.5035416 3576:2.2474277 3583:2.8565638 3585:2.1770675 3593:1.3874941 3614:1.6322585 3615:1.471665 3618:1.6774921 3626:4.5365682 3629:0.94637024 3630:0.52308023 3631:0.86962527 3633:2.9861369 3635:1.5321803 3636:2.1830695 3649:1.6926068 3660:2.5473552 3661:1.7838049 3673:0.274822 3681:2.7367291 3698:3.727536 3710:5.3584361 3716:2.1091733 3718:0.93776345 3720:1.8689225 3728:0.17560062 3731:0.73693174 3732:4.1037617 3739:0.80025887 3742:3.1716964 3768:0.95614159 3776:3.2391427 3802:2.9566801 3817:0.45235774 3820:1.4399228 3821:5.9408922 3831:2.3015132 3849:0.084332198 3852:2.1082454 3860:2.3294616 3865:3.2053285 3869:5.1355166 3881:0.47483993 3886:2.2369809 3889:1.528365 3911:1.1507226 3914:3.6103835 3916:0.96554285 3918:5.2269602 3924:1.3479606 3926:2.6150959 3928:1.5770974 3939:2.7890444 3958:0.8613348 3960:3.1692929 3972:6.1820483 3973:1.0693803 3981:1.5737251 3992:0.48222947 3995:0.63608921 3997:0.26904625 3998:0.74615055 3999:6.0830679 4003:2.6155138 4004:0.51679039 4007:1.9170399 4008:0.066237092 4012:2.1832092 4015:6.7489896 4020:0.0031501651 4022:0.46715492 4030:0.68314326 4032:3.0134742 4035:4.7655687 4038:1.6597577 4042:0.021609353 4051:0.78772116 4062:6.6866922 4077:1.7091624 4081:3.7827768 
0.2467319134455497 2:5.0262241 3:5.764503 11:0.37862349 13:0.46726859 17:0.30481136 25:0.49810952 38:1.1892691 41:1.9160949 44:0.33623928 49:0.44202882 51:2.7949584 57:2.6645288 66:0.64990139 80:10.60955 83:1.0370779 104:1.3743067 115:0.50689447 118:1.7822247 119:3.856674 139:4.1510429 144:8.2861452 146:0.056041256 165:5.6152511 169:4.1246796 175:0.41300008 207:2.1238694 210:5.7200327 220:1.3035533 231:1.2090453 249:1.6631161 256:1.1695669 259:1.659217 266:0.92486614 270:7.3995619 271:0.77233815 285:1.622575 286:3.5584447 302:4.8313198 303:1.8012403 305:2.5463581 309:8.4433117 312:1.3869805 313:0.6889894 314:1.3728371 316:0.49952596 317:2.4558444 326:2.1378741 328:1.2221215 329:8.2838383 337:0.41861749 341:3.2730117 346:0.1631867 348:3.1913073 349:4.1719522 359:0.27089837 361:1.7264415 364:4.9684668 369:5.2258096 371:1.7911413 375:0.76482916 380:5.0789781 394:1.7424182 399:0.11780505 410:0.07227847 413:1.1432616 420:3.1543698 421:2.0113354 422:0.37643695 423:4.9000878 434:2.2822986 448:1.038074 451:2.7828636 455:0.35745382 459:0.85060781 465:4.6540866 467:1.4588811 472:0.10726877 476:0.97019547 478:2.045831 516:2.5463982 522:1.2673829 523:3.666116 524:0.60550851 531:3.6353235 541:3.3759146 558:1.7216806 560:3.5019927 561:0.44519541 562:2.7911866 571:3.6521649 572:4.5853505 574:4.0993266 575:0.19947824 577:0.20379692 586:1.7421628 587:1.8279703 591:3.727829 595:1.4930669 597:3.2882242 601:2.1393943 608:0.23138332 613:0.55912018 619:0.92946601 621:0.47015142 624:2.0920162 625:0.055300087 627:1.3408329 628:4.1442361 631:3.1307507 637:1.6280748 641:0.32388133 644:1.5862809 648:1.6724007 654:0.55198574 665:8.0587101 670:2.4505355 675:0.82813841 684:0.43077758 687:0.5444032 700:0.11862411 709:2.6258168 711:5.1855736 712:0.043711618 716:5.2735844 726:1.9927294 734:0.94514561 738:0.30923551 741:0.51865649 750:4.2893896 759:5.7880883 764:5.0813985 769:1.6363232 780:1.0732388 787:0.36009789 788:6.5829887 789:4.6007109 809:5.1446867 818:1.9558653 819:1.357319 824:5.394865 833:0.67104173 836:2.0418429 837:0.95024228 839:0.17132214 854:6.8069439 859:5.7455502 860:1.8604014 865:0.36569685 868:3.3648574 885:1.989861 896:2.3205423 903:4.0462031 904:2.8783321 914:2.5550478 918:1.7012405 920:4.3374977 922:4.682507 925:4.431417 929:3.2263553 937:0.79763955 940:0.82776231 943:3.7285681 950:1.624083 957:1.6510048 962:0.85012549 976:6.3279305 979:1.4644468 982:1.5601497 987:2.1285577 989:0.2383374 1010:0.4516468 1011:6.2923436 1017:0.38169637 1025:0.29882008 1030:7.7924938 1041:0.60641056 1042:3.4455285 1044:0.31929237 1046:2.2819057 1067:5.7750602 1083:0.19131273 1085:2.9293277 1093:3.0387571 1097:1.2731931 1103:4.0142341 1106:6.5683198 1119:4.4738202 1125:1.4751248 1128:3.7494264 1130:2.1774619 1131:3.2543569 1139:0.21508738 1142:0.72967911 1148:2.4174275 1150:3.1727369 1151:0.60079348 1156:2.9369018 1162:1.9630208 1186:2.8648157 1189:0.41985601 1197:3.5872188 1198:8.8041859 1201:0.74927592 1205:0.77253193 1208:2.1780901 1211:5.0378799 1222:0.087432355 1224:1.2417451 1231:0.11690676 1236:0.88958633 1241:3.0700238 1244:0.93478483 1247:3.0797582 1255:6.5286736 1257:3.1365514 1259:1.8617554 1266:2.2940907 1277:3.2844632 1278:2.1077068 1324:3.6563194 1342:0.41822088 1350:1.5464821 1351:2.5989978 1355:1.7034014 1363:2.5685351 1365:0.063683331 1370:1.263413 1380:2.1926732 1383:1.9603403 1386:1.1741433 1394:2.1355402 1397:0.11700192 1400:3.072566 1403:0.68294948 1412:1.1528261 1417:1.8013331 1419:1.3721741 1422:1.6443558 1437:1.4693441 1438:0.76446056 1440:3.7027974 1450:2.6808591 1456:2.7726607 1468:1.54725 1473:2.7936077 1474:4.0613117 1475:0.23556772 1479:2.2946804 1480:4.8122048 1483:1.7490525 1503:0.018647501 1508:0.77172017 1511:0.12034907 1512:0.88642275 1513:1.3417614 1518:0.65115082 1520:0.20023909 1533:0.31064028 1535:4.4964209 1536:0.44951168 1537:3.7867994 1541:3.4538722 1554:2.5316114 1565:2.9626954 1571:5.1340613 1572:2.1772094 1580:3.6901069 1586:2.9765501 1597:0.24836676 1601:3.2925556 1610:0.087920904 1611:1.8884183 1616:3.3803995 1620:0.18251729 1628:1.7543123 1639:0.30322856 1643:5.1322446 1645:0.69614947 1656:2.5231626 1667:1.3317597 1670:1.2513539 1672:0.10707264 1680:0.50098395 1681:0.59578097 1683:1.6445198 1690:0.33279601 1693:1.8943743 1713:0.36345696 1715:2.5812843 1726:3.3312593 1744:3.8705766 1745:1.1705616 1760:0.95830822 1766:5.9709353 1780:0.0047550499 1785:0.38760063 1801:0.46593016 1809:0.67933285 1822:0.32131863 1823:3.0785711 1825:4.1922898 1837:7.4035115 1843:0.67359829 1851:1.13574 1855:1.0117424 1861:1.2369654 1864:1.9648889 1878:3.6458831 1890:3.2295177 1891:0.039834648 1899:0.51454806 1902:0.53461087 1903:1.8106179 1904:4.2789311 1906:2.0701444 1913:0.8549552 1925:4.2610373 1927:0.94685137 1932:1.1210191 1944:3.5347309 1945:1.1583154 1948:0.50875735 1950:3.1423719 1957:0.39842176 1974:5.6427097 1980:0.90000445 1982:0.9517653 1985:1.4330912 1987:3.9974692 1995:4.8080511 2009:2.0417151 2031:2.9770555 2046:0.37931427 2048:0.024294853 2070:1.0736132 2074:9.370513 2079:1.1576477 2086:3.9683464 2102:0.42355278 2108:3.6809068 2113:1.4008994 2115:0.89681518 2122:1.816772 2123:2.8182507 2126:3.6782238 2128:0.84757 2131:1.3654964 2136:1.3283676 2151:0.62924951 2158:0.44548666 2167:0.27946416 2168:3.7660036 2176:2.3933256 2178:5.205061 2192:2.2702835 2194:1.0029196 2195:5.4078054 2196:0.30583301 2197:2.9612603 2200:0.29171711 2202:1.3813447 2206:1.5978075 2217:1.0927681 2219:3.4799149 2222:0.38717088 2225:0.18506519 2232:1.5735662 2235:1.5627091 2238:5.853508 2241:2.8675053 2244:0.64145446 2253:3.3895223 2255:4.613337 2256:0.74651253 2262:0.11238037 2263:3.3230124 2266:0.10140532 2270:0.53723264 2275:2.9713056 2280:4.1279974 2282:3.6442981 2283:2.4111152 2295:0.49374142 2299:1.2275933 2302:2.4575348 2311:3.2762978 2314:0.70238471 2332:1.2732447 2339:1.9636929 2340:5.0858126 2344:1.5593145 2352:1.5993026 2354:0.56405008 2357:0.029458776 2359:1.9697418 2365:7.0085745 2366:3.7281668 2372:5.3302488 2374:0.59701967 2376:3.1259089 2378:3.8018594 2392:1.3135493 2396:2.9582236 2397:4.868114 2411:1.122777 2416:4.0224481 2418:0.86268812 2429:3.5006921 2435:1.6422896 2436:2.0201883 2437:2.1612766 2442:3.8807898 2447:4.0046721 2453:4.1760325 2461:6.9376941 2462:2.0817814 2469:5.9803009 2473:4.7474523 2475:0.84722209 2478:1.9742295 2480:1.0426373 2483:0.0022825003 2487:0.62296516 2495:1.4424684 2513:3.405782 2517:0.98207915 2520:0.43212268 2535:1.7001346 2537:2.6985698 2539:3.1189027 2546:2.7741256 2549:0.28913945 2550:1.6784791 2555:0.87664884 2556:2.0157344 2579:3.8879466 2581:7.0431271 2586:1.8083196 2588:0.80399936 2590:5.9582958 2594:4.5622892 2599:4.1986732 2605:1.9049386 2606:0.37264055 2612:3.4582868 2613:0.33570141 2626:2.0729427 2637:2.5697162 2642:3.9704175 2647:2.3182924 2648:4.6719232 2656:0.10749632 2658:3.3059361 2671:3.2616618 2672:3.0796232 2674:5.2362928 2675:0.11938958 2676:0.22887999 2677:1.5192615 2685:5.0234232 2687:0.74419123 2695:0.58782923 2708:5.6736689 2711:0.062448025 2717:1.5861846 2719:0.18229353 2720:0.105322 2723:2.905242 2727:1.1513649 2728:7.3229799 2737:1.6487409 2743:0.27156395 2744:2.9025192 2747:0.9832871 2754:1.9145821 2758:1.0557915 2770:1.0495281 2784:0.13970526 2792:5.1626453 2796:4.7327061 2799:1.0070549 2811:0.69728816 2815:2.0437131 2824:1.6351815 2827:4.4414678 2828:2.6562858 2832:1.64293 2833:1.3855507 2836:7.9013329 2839:1.6637011 2841:6.780673 2846:0.19639561 2856:1.7764065 2858:4.9355378 2864:3.5678887 2868:0.077195719 2869:1.8326364 2879:7.025568 2880:0.98376846 2889:1.6342783 2895:1.55126 2903:2.1558709 2906:0.74560857 2912:3.1466041 2914:0.43763149 2916:2.1922653 2920:1.5308765 2921:4.4177089 2922:2.5698695 2934:3.4507093 2941:3.078953 2942:2.7897525 2952:6.7527294 2963:0.23209336 2968:2.5119088 2972:1.717567 2974:1.3048468 2975:2.0458081 2976:0.80770445 2980:5.9284067 2981:2.0978291 2987:1.5899569 2994:1.316968 2995:0.43154731 2996:2.3291035 2997:0.35559464 2998:1.5622493 2999:4.5671697 3001:2.708693 3004:4.3016858 3007:3.7904696 3011:0.33712494 3012:0.23595199 3015:0.61874568 3018:6.6237669 3023:0.36451131 3050:4.8442502 3061:0.51529181 3064:0.13814288 3077:0.8176719 3090:0.46666077 3099:1.6852486 3109:1.6439457 3122:2.011003 3123:1.9222399 3130:0.53883737 3131:0.47975898 3164:2.3052649 3172:0.22766316 3176:1.9637713 3179:1.1820627 3191:1.1585264 3198:1.0707868 3202:4.3000369 3205:3.2876387 3222:2.1802444 3230:4.425981 3237:1.2124639 3245:6.7198687 3246:2.4073734 3247:1.5733558 3250:1.8674917 3252:4.2402925 3253:1.3047734 3262:11.827262 3263:2.453691 3265:2.3390641 3268:1.906008 3271:1.1811538 3287:0.46553749 3299:3.520541 3309:1.2489729 3323:1.557519 3332:4.5293965 3333:3.7834661 3343:4.3016863 3350:0.17326245 3351:1.2343339 3360:4.0480309 3362:5.6332998 3380:0.45743877 3396:2.4837568 3406:0.68180716 3411:4.8049226 3414:2.3602002 3418:2.8484652 3424:1.2193644 3435:0.30816135 3438:6.1602468 3446:0.9647494 3449:5.6453729 3454:3.8325505 3459:2.0009558 3477:0.54157209 3479:4.3297143 3498:3.41118 3499:1.9728299 3503:0.36910045 3504:2.5775065 3509:4.5343552 3511:4.0736403 3512:2.1292603 3516:2.553894 3525:0.7359367 3536:1.9467882 3546:3.4417024 3547:5.2578983 3548:0.69035643 3559:0.74215847 3567:2.6762447 3570:1.5691431 3587:0.34842628 3591:4.0067706 3593:6.6092801 3594:1.6418728 3595:2.5916123 3600:1.1629164 3610:3.4369545 3612:0.91977572 3614:3.0261307 3617:1.7179422 3619:4.9797168 3625:2.1759799 3626:3.5961504 3631:1.4633329 3632:1.2932459 3633:8.5619068 3637:1.3969973 3643:3.639292 3644:2.382534 3655:2.6044991 3658:1.3706944 3659:0.65123391 3660:1.3598537 3663:1.7245511 3667:1.440143 3668:4.7401342 3669:0.22350879 3670:4.0517011 3677:0.38479289 3681:2.3302519 3689:2.460464 3691:0.27847186 3692:1.4968414 3693:0.28100026 3697:2.7152703 3699:2.1169355 3701:7.0806398 3713:2.8926978 3714:1.0354964 3717:4.0867596 3725:8.0645065 3726:2.1238837 3738:4.2735438 3739:1.2923334 3744:2.7033756 3750:1.0508333 3751:2.835113 3759:1.1648368 3767:1.8318077 3769:0.055298269 3783:3.186233 3789:0.21442023 3795:4.8937302 3805:0.95099527 3816:0.88541448 3817:1.4301615 3834:0.73062444 3835:2.2504225 3836:0.92093372 3845:7.4250212 3846:0.4960379 3847:2.2145061 3856:1.5271317 3858:1.2658842 3860:0.4122304 3861:0.88905847 3865:1.7429019 3866:0.71073717 3871:0.30884117 3876:2.619889 3879:2.5735102 3881:0.59486187 3882:6.7372279 3885:3.4839244 3890:0.76265609 3891:2.4143326 3908:6.372015 3916:0.4289405 3918:8.2257938 3926:0.6398291 3931:0.88793743 3937:0.80303788 3939:1.2692413 3959:0.49217212 3960:1.1405525 3966:2.193718 4011:2.4507325 4015:1.1964625 4021:0.268731 4024:0.73180294 4026:6.1039639 4038:2.9429212 4042:1.1439167 4048:1.011194 4050:1.527824 4058:1.3070858 4060:2.7090471 4065:7.8417578 4072:4.7959909 4081:4.0047188 4083:0.28227767 4084:2.246944 4087:5.0860806 4089:1.7623622 
0.0851621546263954 2:1.0218554 3:0.74876106 4:2.2147229 13:0.87037331 18:0.42408651 28:1.4293244 50:1.9293754 53:0.33460355 57:1.3057632 60:1.5004476 71:0.74771667 74:1.3564537 84:3.9889748 94:1.685779 110:2.7255507 111:0.51519507 126:0.02969785 130:0.54681844 139:6.4741569 143:4.8543153 144:0.18699217 149:0.2196914 164:2.8126471 167:0.4539994 168:4.0770664 172:1.2226682 179:3.6142271 180:2.5187762 189:1.940137 194:3.6818709 195:0.72945178 199:0.20775895 205:2.6779315 206:2.3501539 216:0.91898495 222:0.38234776 225:0.26019615 232:0.31132373 239:0.069552869 240:2.6556759 241:5.1354704 247:2.4271579 248:0.59998006 252:2.9665956 257:0.1839923 290:0.18835062 292:0.98214334 297:1.9639307 303:1.402344 309:4.6161504 312:0.31912258 316:2.7559128 321:1.9234359 324:7.6541362 326:0.3454074 329:3.7767138 337:0.22867094 339:2.355305 341:2.7485909 348:1.4707525 349:1.7302449 353:1.2686104 355:1.1674683 358:0.49204206 371:1.3758225 377:1.0496484 378:2.6209891 381:1.7245815 382:1.0577165 384:2.0017705 387:3.1623576 391:0.91521913 396:4.9850349 402:3.6199338 409:3.4151855 420:3.6469493 426:3.9377573 431:0.82934994 435:2.2577164 436:0.85331625 438:3.2601798 439:2.6090081 459:2.0275989 463:3.4841166 468:1.4904499 472:0.10698338 484:1.0949495 485:0.77545953 486:0.34469473 487:1.2317252 488:1.5709758 496:1.8837324 500:1.6549985 502:2.9684839 505:0.55657393 508:0.22253659 516:4.3397069 519:3.3493023 523:3.2071717 526:0.10149351 531:0.016691089 533:3.8611481 537:0.35020185 540:0.64963436 545:3.2706141 558:0.69728774 562:3.9966156 571:0.56425273 575:1.6364405 583:1.1157641 588:1.9854296 589:0.13116197 595:1.9248607 600:1.5160213 601:1.6901094 602:0.19413039 608:0.83608854 609:0.04654631 611:1.0106633 613:0.044280887 616:4.2954803 624:1.6821259 635:3.2001848 637:2.3294637 640:1.2846156 644:1.6206928 646:2.5630054 654:0.48617005 658:1.3387029 670:0.28525397 680:0.9457292 689:1.7621011 690:1.7026595 691:1.2198669 695:4.4083495 698:0.94362557 712:2.7075553 717:1.2084707 718:0.53954196 721:0.93050516 743:2.0198832 744:1.3538554 746:1.1838197 759:0.68286097 764:4.3444891 798:3.5354831 802:0.29299709 809:2.6957781 813:1.0004337 820:4.8473086 825:2.0969689 832:2.1601489 833:0.82039833 848:3.840801 851:1.3333147 853:3.953217 854:5.8057384 866:5.7474079 867:0.27219695 868:1.084044 876:3.2302542 896:6.1914673 905:2.2629905 918:0.50255078 925:0.30269277 928:0.81922477 931:1.7707303 936:2.3498616 937:3.1097512 938:1.1467749 940:0.32968673 945:3.1220839 952:2.155154 955:0.19511239 959:0.75384116 976:2.0308051 979:3.6071475 982:0.80189431 993:0.26901716 1008:0.047680974 1010:1.0170991 1015:0.64723969 1023:1.9172031 1024:0.23996873 1030:1.1902821 1042:3.1277499 1043:0.35113412 1049:0.97461271 1059:2.269623 1064:0.65621841 1070:1.8642874 1077:2.4874821 1080:1.271349 1089:0.6552617 1097:1.0710809 1102:1.1992947 1105:2.158134 1116:3.7411506 1117:1.5190026 1121:2.7933693 1126:0.035239428 1139:0.50075531 1149:2.4693174 1163:0.84347963 1165:2.4430041 1176:0.50641525 1186:4.4318848 1195:0.69729537 1208:0.43654925 1216:1.5274506 1218:2.2272646 1223:1.3765621 1224:5.5919304 1227:2.3540444 1231:1.2727304 1234:1.5754411 1237:0.067854226 1244:2.1737993 1245:0.64163947 1248:0.59587115 1259:2.0989995 1266:1.3034223 1270:0.62002337 1271:1.4947383 1273:0.74090099 1274:0.0090801567 1278:3.2372246 1279:2.5124295 1280:4.3638716 1286:2.9350371 1292:1.0184226 1293:2.0145321 1296:0.34981054 1297:1.3520908 1299:2.2099013 1306:2.1134202 1311:0.35562253 1319:0.60865921 1327:0.8736254 1329:0.24269876 1333:1.6218936 1347:0.7008847 1351:0.84963405 1355:0.87409937 1366:1.2024885 1372:2.8329864 1374:0.020403296 1376:1.1685356 1379:0.55330223 1381:3.9204223 1385:2.8789353 1394:0.254666 1396:2.7749999 1399:0.68647546 1401:1.2932011 1406:4.5634689 1408:2.319622 1410:0.59559441 1412:2.3246379 1423:0.81838381 1426:0.54162836 1437:1.5988511 1440:0.70881158 1442:1.2154559 1452:3.7170796 1465:1.5884852 1468:2.1598496 1471:4.3918076 1476:2.7788844 1477:1.4850241 1488:0.15085939 1490:0.43430009 1492:2.5161729 1496:0.60179794 1503:0.16829126 1508:0.77089584 1511:2.309041 1522:7.533596 1537:1.7046657 1541:1.1153312 1548:2.907295 1552:1.9168597 1556:2.7078824 1562:0.40866163 1572:1.1158973 1586:4.2388401 1588:0.95713866 1590:0.17050892 1597:0.91428673 1601:0.45983046 1602:0.2932314 1611:1.4837793 1626:3.4678993 1628:7.3254185 1640:0.24694771 1648:0.77125704 1659:1.3366203 1667:1.004586 1668:1.713033 1670:1.6972861 1678:0.84648001 1680:1.0963197 1683:1.0738409 1690:1.7408538 1699:1.0599153 1700:5.6571479 1701:0.72123086 1710:3.0567536 1714:0.69374365 1720:2.4914014 1725:1.9112945 1726:1.3683217 1734:0.46225893 1737:4.5820637 1754:0.50698161 1758:1.0901649 1771:1.0251316 1774:2.0900099 1777:1.8475497 1780:1.4021075 1781:0.73310339 1782:0.23511107 1791:0.19182184 1792:1.7619066 1803:2.9668479 1804:3.0934539 1811:0.42741898 1817:6.2045979 1825:4.6646285 1831:0.091160476 1843:1.1106646 1845:0.40808302 1850:0.23469687 1851:2.3433075 1873:6.9538054 1876:1.3559556 1877:5.3435278 1883:0.9767735 1895:1.6727844 1897:0.29153252 1899:0.69940221 1918:6.1886845 1928:1.5715512 1944:1.8631825 1947:0.060582861 1950:2.3868411 1956:0.29575318 1963:0.43611613 1964:0.079974249 1968:2.282958 1970:1.1543484 1976:1.2354298 1988:4.4340453 1990:0.033682346 1991:2.6866391 2001:0.86863124 2002:0.34026974 2004:1.5873498 2008:0.17204627 2011:1.528734 2022:0.80840218 2037:3.8370368 2048:2.7329452 2057:6.19522 2070:5.5821638 2073:4.5584412 2099:1.5198334 2102:0.30675435 2110:3.279223 2113:3.2819803 2117:2.8441319 2123:2.1077819 2150:7.1591945 2155:1.3664072 2164:3.0196972 2177:1.2018263 2180:4.4979005 2196:1.1812252 2197:0.34227696 2208:0.8715176 2210:3.6361098 2212:2.0828016 2221:2.5929995 2224:1.9297574 2229:2.3231137 2236:0.12250713 2244:5.4084711 2253:4.310586 2261:1.4599906 2263:2.1589656 2268:4.3311987 2269:0.31232727 2270:4.8728695 2275:0.12422255 2276:0.12337407 2285:0.88279772 2286:2.1545887 2292:2.6921582 2296:0.34506655 2298:0.41461229 2300:0.092616141 2301:0.36480695 2317:5.3331509 2328:1.1489575 2331:1.5819713 2332:0.37690455 2340:6.2930398 2341:0.58618981 2343:0.59268439 2344:0.90370059 2346:1.4876027 2369:2.4798849 2374:3.3490074 2375:0.23877311 2378:0.44240889 2383:1.0528977 2390:1.6077415 2401:1.0233557 2405:3.0581222 2415:4.6869817 2418:0.95520502 2424:2.4865062 2429:2.1252975 2430:0.17804748 2431:0.57993674 2432:0.95911336 2433:1.217066 2436:1.1835263 2437:5.4962058 2440:1.5498437 2447:0.019200087 2459:0.65068358 2481:5.921288 2485:0.52767432 2486:0.59732306 2487:0.50859898 2490:0.62531996 2491:0.73391753 2497:2.470427 2500:0.29884708 2505:1.2111363 2508:4.1372833 2512:3.0838065 2516:5.6819963 2519:3.1713753 2531:2.0955093 2539:7.0590677 2541:0.13282049 2551:0.86340868 2555:0.48681524 2576:3.2821245 2577:5.7908721 2588:0.23661801 2590:3.5830097 2594:1.0990942 2599:2.3318222 2600:5.7700005 2601:0.33185208 2604:0.31958783 2607:5.5521312 2609:0.96481669 2610:2.009748 2612:0.96149623 2615:1.2128224 2623:0.71991205 2634:1.9746299 2637:1.9648199 2638:0.33342779 2657:2.3240328 2661:0.052848667 2666:1.8909345 2672:0.93958795 2680:3.2615681 2682:0.37142834 2684:0.78413653 2688:1.0426013 2689:0.82533151 2699:1.930317 2702:2.2226021 2716:0.28706726 2720:2.1914799 2721:3.1117878 2724:4.5657763 2725:1.3147078 2726:0.32072169 2727:0.32718581 2732:3.0900276 2733:0.35522094 2740:1.8208866 2742:3.4224532 2743:0.81964695 2747:2.4146559 2757:2.0819333 2763:2.1275976 2765:1.3235047 2766:0.67689693 2778:0.42235914 2788:1.2025172 2789:1.0751183 2796:1.8769788 2810:0.38514534 2817:1.2006226 2828:1.581771 2831:0.049215555 2832:0.95834041 2836:4.2560601 2841:0.85162866 2857:1.1644369 2869:0.33313906 2878:1.4846838 2882:2.5078039 2895:0.75234276 2900:0.34546441 2914:0.29998344 2925:0.29609978 2936:4.5224047 2937:1.410104 2949:0.8486923 2950:0.87349606 2952:2.3096209 2953:2.6168594 2958:2.4778466 2962:2.5850697 2963:2.0427647 2965:3.033782 2968:3.1637032 2972:2.0282893 2980:3.8764141 2981:0.2740249 2990:1.6882623 2993:0.43503901 3009:0.30450186 3010:0.48354164 3012:0.44819537 3034:0.16570178 3043:0.62202334 3051:0.68772602 3056:0.8477146 3057:8.0326338 3070:0.97373736 3073:0.039963424 3075:2.6034689 3080:0.16298601 3082:0.027081758 3085:3.3582904 3088:0.22409225 3095:0.056388795 3105:2.3366351 3116:0.95231611 3122:1.2911612 3129:0.47699893 3137:2.0285823 3144:0.5000419 3146:1.2287873 3147:0.68663716 3155:0.76671696 3161:0.93373722 3170:1.7044209 3176:1.0607169 3181:0.65093172 3182:0.0082749575 3189:1.0826665 3202:2.3839262 3208:1.5997759 3210:1.3859355 3211:3.698828 3214:0.89134681 3219:1.6828613 3222:0.8628794 3230:0.045104176 3235:1.2887249 3237:0.38714314 3245:1.9356678 3246:2.2547579 3247:1.2049773 3256:0.45304811 3258:3.2012534 3263:0.28865433 3265:0.73538494 3267:1.7907934 3276:0.73834205 3291:1.6626265 3306:1.4529358 3311:2.1803138 3315:2.1382017 3321:0.18412283 3324:0.78515303 3333:0.70162612 3341:4.1572313 3347:1.0212131 3360:1.2623183 3365:4.6377912 3382:0.18150291 3396:0.67476207 3400:0.71377742 3422:0.9552235 3431:1.6438884 3436:0.24887872 3441:1.4994949 3442:3.1190848 3443:0.18127897 3452:1.2150621 3456:0.025703467 3459:0.27676487 3461:1.0739412 3463:0.093435735 3465:1.2633284 3467:0.43287584 3468:0.32047528 3472:0.0056509674 3474:2.7257993 3478:6.6512089 3479:0.066023812 3493:1.5791214 3494:1.0011472 3496:0.70387471 3500:0.42037025 3502:1.960777 3504:2.0738392 3507:1.2460109 3512:0.97026694 3525:1.5508622 3536:2.1543131 3538:1.3525436 3543:0.63336414 3548:2.1241035 3552:0.35716447 3563:2.0366709 3568:0.68021053 3580:3.1338496 3585:0.82756811 3591:0.80107427 3592:1.3671639 3603:1.3670328 3606:0.43219459 3607:1.5335263 3609:5.9880519 3626:3.7924383 3630:2.5655513 3632:2.9671843 3633:0.60028756 3635:0.049862504 3636:0.3984136 3640:0.070828766 3656:0.79396141 3661:5.2952137 3667:3.5272174 3681:2.7963312 3682:2.3819363 3684:7.5918803 3689:0.85476053 3697:0.90706486 3698:1.5147486 3701:0.33400771 3709:1.7645457 3710:7.1202393 3724:0.055487752 3725:0.59792781 3727:0.30630863 3732:0.96058941 3735:3.7223558 3739:0.046851188 3743:0.26566464 3751:2.6366429 3755:0.460976 3765:1.1310246 3769:0.42319351 3771:1.8637958 3773:0.91363668 3779:0.4289431 3783:2.6112127 3786:1.758655 3793:0.39739856 3804:0.79324484 3807:1.6508393 3819:1.4840188 3821:3.1167619 3831:0.14738567 3836:2.4595568 3837:2.9586978 3844:0.37374327 3852:3.8385475 3863:0.30289811 3865:0.7536329 3880:0.22107777 3882:3.6008565 3886:2.5377219 3889:4.0491991 3899:0.011170775 3910:0.10095549 3914:7.4515963 3917:0.61052775 3918:2.4086819 3927:1.3790063 3928:1.0513711 3939:2.5653358 3949:0.18662792 3951:0.33953387 3962:1.4511662 3972:1.3291181 3974:2.6624222 3980:1.2489333 3981:2.5073748 3992:0.69620025 3997:1.8282088 4003:2.0215039 4004:2.5487616 4007:5.9990845 4011:0.10640483 4015:1.8818787 4020:1.4385358 4022:0.13405791 4023:0.60792822 4030:0.033838183 4033:2.2379611 4035:0.79670489 4038:1.9054495 4041:0.15334733 4042:2.5221672 4058:1.7355754 4062:0.48231155 4063:1.1477673 4077:1.4095289 4081:5.4453444 4083:1.4072119 
0.3780464499285344 2:0.018950164 5:1.1132934 6:0.11038625 35:0.0097855926 38:0.40612662 66:1.6892548 74:1.3335774 83:2.7373307 84:0.025053471 94:5.1907177 98:0.75558269 110:1.7809682 111:0.37632823 113:1.1000018 132:0.34284374 149:1.2994335 151:1.0156264 152:0.25605589 154:3.9531229 156:2.5001087 157:0.55572701 162:0.73504949 164:0.49272403 168:3.4768162 178:4.3176608 179:0.48933721 181:3.9047518 186:1.7386559 194:0.38403627 217:0.99417269 241:9.051939 256:3.0276299 270:1.7033437 273:2.8835795 275:0.8257488 277:0.091617525 283:0.37885565 285:0.2342515 290:2.595778 292:0.71351731 295:0.53360355 297:2.1043892 300:5.9448614 303:0.77412754 305:0.51757503 312:1.7093662 315:1.0146109 316:2.6721845 319:1.735605 324:7.0322661 326:1.1723652 328:6.5259171 335:2.2499926 337:0.76649129 339:0.60623819 348:0.62411267 349:4.0261817 354:3.5000548 357:0.69100422 358:0.67643285 365:3.6950624 378:1.5866144 379:0.49342656 384:2.0809758 391:2.3413625 396:4.1396995 413:2.3900552 416:3.2651227 426:0.67184037 429:3.7483778 433:1.2900913 439:1.9089175 450:5.5221386 459:0.13268685 462:1.8653184 465:0.25017515 482:1.8818187 484:1.4786881 500:2.1731961 505:1.983861 511:2.857615 516:1.7719018 523:2.0711799 531:1.1737854 533:1.1463639 537:1.5371003 541:1.4634961 545:2.3182135 559:0.50085288 560:7.7171798 562:3.6689122 582:2.7135653 583:0.83324313 587:2.0093234 588:1.1304313 589:0.89905995 591:2.433599 595:1.0235747 600:0.24423638 613:1.3576336 616:1.9471843 621:1.0215294 624:3.7675538 631:0.20715711 634:0.70602083 646:3.0779328 652:4.1072512 654:3.4209983 656:1.1215956 658:2.8734515 659:0.098006576 660:3.6535821 661:1.7744956 665:0.0021842122 670:0.90347463 673:1.2732335 689:3.1318016 690:1.9840332 709:0.80054212 712:0.61821449 721:4.0704684 743:1.3338525 744:0.073009729 746:2.0119004 759:3.0629289 769:0.11518356 774:1.9250354 776:4.6912651 799:6.5999265 801:0.36651063 810:2.0603526 811:0.28220302 814:0.28105354 824:2.5701146 825:0.98879784 828:1.7541199 830:0.15907609 832:0.96145397 835:1.3053838 851:0.15730277 853:6.4507904 854:0.10063955 866:4.8276105 868:3.7587972 877:2.4325993 885:3.9031928 891:0.75207096 896:7.5868244 902:2.7432978 903:0.29208624 905:3.0547333 912:1.4025539 914:1.1423917 933:1.5527343 940:2.0924666 943:3.046782 953:0.26741481 976:1.1137855 982:1.9773716 984:2.7318947 993:2.1033103 997:0.41609392 1011:1.2621428 1016:0.17201875 1017:1.0856907 1023:2.8963339 1026:0.50800395 1041:1.6033572 1049:0.12303293 1065:0.89972496 1067:2.9966378 1080:3.4591374 1086:1.4548513 1089:1.402334 1102:0.2169857 1103:0.85896468 1106:0.040099606 1124:1.1768384 1139:3.1742239 1143:0.036030561 1144:0.88542652 1148:3.9260864 1155:4.0950708 1157:1.9780712 1169:3.2926681 1173:0.27401274 1174:3.4203036 1175:2.5550156 1224:2.179884 1234:0.99294126 1236:2.9257414 1241:0.44638276 1242:5.0638757 1244:2.9017088 1250:0.51708305 1256:1.6483325 1259:0.97764063 1269:0.019277483 1279:2.9752409 1280:0.89417458 1286:1.5157917 1295:2.0965519 1299:0.15601072 1306:1.6082803 1316:0.77529353 1320:0.75440192 1329:0.53230894 1352:3.0298181 1354:1.8492582 1355:0.36936858 1363:3.6026006 1365:0.7488814 1368:0.11182663 1370:2.1517124 1379:0.48994023 1386:1.9831202 1388:1.0663606 1395:0.6351124 1396:0.81216109 1399:3.4542847 1400:3.3875082 1402:3.392246 1408:2.8383996 1411:1.2299291 1414:5.2461562 1415:0.35071281 1417:0.1562652 1420:0.70285487 1423:0.46623844 1426:2.0001273 1436:2.2718306 1446:2.8540807 1463:5.8321838 1468:0.8946619 1471:5.2679677 1475:0.73760933 1476:4.0210471 1499:3.4236052 1505:0.40466747 1508:1.0903301 1512:0.51749212 1521:0.99721861 1522:2.2480674 1537:0.32055852 1538:3.3992162 1541:0.68203986 1546:1.0843177 1548:0.024207711 1553:1.3307312 1554:4.5080342 1556:5.3256316 1563:1.3419642 1577:0.0051113069 1580:2.4150186 1586:6.4240527 1594:4.3011785 1597:0.31025916 1601:6.0763159 1603:1.9644889 1616:1.6942664 1617:1.8846912 1628:1.2862303 1633:1.0178418 1639:0.58581442 1643:2.5376768 1647:0.30081686 1654:1.0906357 1662:0.54393864 1668:1.5154772 1669:7.5362687 1678:4.1119285 1690:7.0880442 1691:1.0239155 1699:2.3444111 1715:1.3805115 1726:0.42600796 1729:0.41269514 1737:0.090957671 1746:3.9023204 1758:1.4269671 1761:2.0690885 1770:0.79058027 1775:1.9542296 1776:0.72715724 1780:0.82826084 1785:2.0045147 1792:0.72253805 1804:3.4343514 1808:0.26488066 1810:2.9109721 1811:1.8084913 1817:1.5182012 1823:2.0278826 1825:0.059215277 1851:1.1271788 1870:3.6924663 1871:0.14996451 1873:2.1410773 1877:3.4455271 1885:4.4824138 1899:0.15700778 1912:1.4364944 1918:1.4928167 1919:1.9390714 1920:0.7011348 1932:5.1383753 1947:0.076944456 1965:3.1546614 1968:6.8766866 1970:6.4231868 1972:3.5661321 1976:4.742002 1995:1.2275288 2000:2.6574173 2008:0.23788226 2009:4.3348389 2011:1.6702875 2025:0.94854307 2026:0.068970099 2037:0.98583925 2039:1.0555143 2048:1.1673605 2057:2.4426031 2069:3.5654774 2073:5.138763 2091:0.65323913 2099:0.88436151 2102:2.7392266 2110:0.55378491 2113:2.6008105 2115:2.2749979 2123:1.9031273 2135:0.60583138 2138:3.4005656 2143:2.7627838 2150:0.76681566 2155:1.2663536 2159:2.0400002 2164:0.13033473 2197:1.491508 2208:2.0072472 2212:0.17986074 2225:0.73465085 2245:0.58227438 2253:2.6620774 2254:2.644316 2255:1.7410783 2257:2.7070258 2261:4.2985301 2263:6.2554836 2269:0.83726174 2282:2.0726585 2292:0.21818307 2296:2.3700356 2298:1.1311384 2299:0.52954352 2312:0.88562608 2324:2.1340568 2325:0.60103667 2340:2.36098 2341:4.0055933 2343:1.5349437 2362:0.50702018 2374:2.7620006 2375:2.702805 2382:0.1021588 2396:0.81730771 2401:1.05222 2415:5.8309746 2422:2.1635196 2424:3.6083732 2425:2.5754881 2429:1.7543094 2430:0.54805005 2431:0.10508546 2432:2.1223907 2443:3.4495785 2447:6.5027156 2460:5.2093878 2472:0.91859746 2475:0.74256921 2476:3.0920331 2478:0.41200626 2481:5.1922326 2485:1.5164461 2487:2.7592766 2488:0.42730656 2490:0.44607198 2495:0.043145455 2497:0.42502332 2500:2.6510041 2505:3.9890835 2508:1.3978019 2519:1.6707913 2520:0.68171418 2525:3.1739845 2530:0.00073039532 2533:0.1677444 2539:1.7588922 2541:0.55295563 2544:2.15815 2551:1.7536325 2568:0.81697685 2572:1.0377648 2576:0.60834324 2579:2.110719 2588:0.55359274 2600:2.6479268 2607:4.8612638 2610:1.8272471 2612:3.9386675 2614:0.2256351 2633:1.6524177 2634:2.6725321 2640:0.29352301 2646:0.25497323 2648:1.1409359 2652:0.73251748 2655:0.89705002 2656:0.81114781 2658:2.8190346 2661:2.0190053 2666:1.1500685 2672:1.0952191 2673:4.4482465 2678:0.040432081 2684:2.6781259 2712:2.2843695 2721:0.99897456 2722:1.3469019 2724:2.2143097 2731:0.67216939 2733:3.4233127 2742:0.82988513 2752:2.6059849 2765:4.1013618 2766:1.6975021 2767:1.960078 2768:3.3778942 2782:1.3358114 2788:1.4207133 2797:0.66311496 2800:3.2298553 2808:0.71854967 2814:0.41443819 2824:3.014617 2827:1.598181 2845:0.74050903 2892:1.4841429 2920:0.51619256 2930:1.2112925 2936:4.2815585 2937:3.2498415 2941:3.4840357 2947:1.3032042 2952:3.914691 2953:1.6531218 2958:0.8794319 2960:0.074164808 2965:2.0498817 2968:1.4157017 2972:4.8605752 2973:0.068215251 2990:0.11505035 2993:0.99469995 2999:3.0950015 3009:3.2836645 3010:0.15799814 3018:3.7933302 3026:3.305083 3029:0.3645632 3035:1.7153523 3041:5.3158369 3043:2.4230719 3051:0.42607585 3054:0.72754723 3059:1.2863334 3063:0.99672943 3070:5.1172409 3073:3.1971579 3075:5.1802549 3078:0.12099931 3080:1.075042 3081:1.0048585 3084:1.8103324 3086:1.5513335 3095:4.5951772 3105:1.5598586 3119:1.1235673 3125:2.7174084 3130:0.69289833 3131:1.7160636 3144:1.5047997 3161:2.9813683 3172:2.7081654 3176:2.1886148 3179:0.53129488 3210:4.3406134 3212:0.16880026 3213:0.067915872 3221:3.3284965 3230:3.4467361 3235:3.8688776 3242:1.2676315 3245:2.340291 3246:3.15694 3251:0.068421334 3252:0.86174357 3256:3.1013198 3263:2.0851781 3264:1.5739936 3276:0.49419299 3283:0.80948377 3287:1.7873611 3291:0.47879425 3315:2.27547 3323:3.6831195 3334:0.47166193 3350:0.47941697 3353:4.1402135 3359:0.52850008 3360:1.922915 3364:0.74670851 3365:3.3555794 3367:1.0335145 3380:0.5157218 3381:0.47112662 3396:0.046969503 3403:1.7271072 3409:1.8598641 3410:3.3684118 3431:0.19410798 3438:1.9765825 3442:3.8732567 3443:4.6187644 3464:1.8134844 3467:0.80218565 3475:5.2331023 3478:6.5570292 3479:1.2013324 3493:1.8846402 3495:0.72725761 3508:0.44554925 3536:2.1634865 3543:0.064411595 3548:0.003485024 3555:1.0125753 3563:0.24255338 3587:0.31656855 3591:3.0538981 3593:2.0813034 3602:1.3267484 3607:1.6918015 3608:1.6608697 3615:1.7087668 3617:1.0726233 3624:2.6655681 3626:2.8033426 3633:2.5245075 3635:3.0968416 3636:0.21710867 3650:0.26276273 3656:1.284856 3660:1.7182207 3661:1.9803362 3667:1.9644399 3681:0.8357507 3683:0.67824352 3684:1.6545366 3693:1.3611701 3697:0.10384026 3709:0.38759798 3710:0.74559152 3715:3.4168148 3717:1.862281 3735:3.5764356 3742:1.1314015 3749:1.5843635 3755:0.42803109 3757:2.4614017 3768:1.5178927 3769:0.34416002 3773:4.3485889 3779:2.1650724 3783:1.2460372 3786:4.3675447 3789:1.3210357 3793:0.70580804 3804:1.1916432 3810:0.076783925 3816:1.5635164 3819:0.31514716 3831:0.67780286 3834:2.6381774 3844:1.6358709 3848:0.036300778 3850:3.8939838 3852:1.4332561 3857:2.9834862 3865:0.8220886 3870:6.938972 3880:2.5299401 3881:1.9998574 3882:6.7767043 3885:1.8749326 3889:0.27624297 3891:2.1029792 3900:0.98486167 3908:1.191222 3913:6.2382483 3914:0.85560983 3917:0.03228071 3918:1.7368854 3927:2.1794848 3937:0.44790274 3955:3.5382874 3962:1.7469523 3971:0.19679821 3972:3.5184319 3974:0.034254372 3994:1.4308606 3997:4.9044995 4001:2.7252185 4002:1.8011241 4004:1.4580936 4005:0.29565835 4014:1.4216907 4020:0.79804671 4021:0.13820356 4042:0.098306268 4057:4.0188651 4058:0.75022292 4063:0.87685382 4066:0.83043337 4072:2.7283814 4080:0.75227249 
0.5508165360652962 2:1.0354357 3:0.72469664 6:0.88742685 7:2.1733792 13:1.6791017 18:0.32328579 19:1.5670788 35:2.2800705 38:0.34630603 41:0.93950403 44:0.44509363 51:0.79707134 54:1.3968791 57:0.35124993 64:0.60063511 67:0.28639629 78:2.0579653 80:0.90241534 82:2.0627692 83:1.9402999 88:0.43880817 90:1.6331818 94:5.6378832 100:0.1756888 107:2.0071881 113:3.5491259 118:4.0535583 128:0.45636177 129:0.36039805 140:0.84566891 144:2.4437313 149:3.2584696 157:0.2004073 159:1.9714922 165:1.7998711 168:0.97727334 170:2.3885601 172:0.89920408 186:4.2385035 187:1.919837 189:2.2672839 208:2.6957595 210:1.3578887 231:0.90415967 237:1.6337507 238:0.85207713 241:4.5952873 247:0.37050837 251:1.5218152 256:2.1937556 257:2.8426108 264:0.11383256 265:1.0092143 266:1.6589158 271:2.2065609 274:1.0070606 275:1.5275474 285:0.26153708 286:0.19499487 290:1.085668 294:2.9508476 295:1.9464552 305:0.62228596 309:0.0588772 312:3.4254208 314:0.60387826 316:0.099368513 326:0.34069967 335:0.39599854 337:2.7617915 348:1.1691592 359:2.7568452 361:1.2372671 367:1.4224398 374:0.46164498 378:0.31252635 380:1.3365437 385:0.2532261 388:1.2669973 391:1.1213129 393:1.0248487 399:2.5650558 410:1.2704859 413:4.7136889 416:1.1743044 434:1.2219225 439:0.68577379 454:0.58446926 476:1.808955 485:0.81977916 486:1.4805169 490:0.97645766 511:1.2407193 512:0.24101938 515:0.96600974 516:0.32356238 519:0.64353323 541:1.1030443 542:0.74183655 552:0.59754795 562:5.5793343 564:1.0217631 572:0.42642468 577:1.1009918 580:0.56827229 582:0.72396314 586:0.59826255 587:1.4992127 595:3.1151211 597:3.3374717 618:2.5171013 621:0.74621707 624:3.1617842 631:2.8432751 633:0.95451033 634:0.70571029 637:0.3095451 638:0.84585822 644:1.0268106 645:3.5117519 646:2.5277061 650:3.1168048 654:1.3243527 655:1.0512495 658:1.3276358 659:1.9516424 665:3.3425784 670:4.1424761 672:0.51752788 675:2.4711671 687:1.4884522 693:0.87079322 697:0.5486778 698:0.88960671 706:1.8414294 709:1.3949002 712:1.2227359 716:1.1946965 726:0.3146835 732:0.51587361 750:0.38148713 755:1.2971562 759:4.4817138 761:1.0791738 764:1.3178767 767:1.4893124 768:0.51831996 769:1.3765645 773:2.9815726 776:1.9506115 779:3.3624091 788:4.2804308 803:0.9009589 811:2.077987 814:5.4906678 818:0.73007858 819:5.1650896 823:0.9495225 824:6.4176722 832:2.6178799 835:2.4770904 836:0.39563137 837:0.42372942 839:0.87163764 860:1.2095422 861:0.55254489 877:2.7521551 880:1.4210621 882:1.6040612 883:0.054180622 885:2.179738 903:2.5610607 905:0.88157445 918:1.7891206 930:1.3832675 940:2.6458411 943:4.5920954 950:0.099047124 958:1.6741374 962:1.7072729 985:0.21068159 1011:1.6443715 1016:1.9111886 1021:0.067817062 1034:2.0638788 1041:2.4525943 1044:2.3187919 1046:2.6470153 1053:0.46386978 1065:0.13771269 1067:0.17234495 1072:0.15933326 1080:0.80148852 1083:2.2711325 1091:0.86146623 1093:2.7229402 1096:0.82063299 1101:0.29890501 1103:4.2857146 1106:0.33741522 1113:2.4492364 1116:1.1404393 1117:0.81989413 1119:0.13415867 1126:0.76226461 1130:0.21267441 1131:2.909498 1139:1.0816116 1146:0.046458006 1166:0.31108296 1169:2.4025314 1171:3.3468781 1175:2.4279296 1180:5.2601252 1185:0.31037626 1186:1.0847603 1198:3.4266407 1201:1.0144967 1202:2.4987288 1205:0.015045799 1212:3.6706574 1220:0.33206719 1222:0.74702895 1224:2.6539311 1227:0.85334152 1231:0.33730775 1232:0.16590181 1233:0.028928399 1234:1.6408848 1236:4.2509117 1241:2.4870861 1242:0.57415974 1244:0.14135946 1251:1.0555516 1255:1.3194338 1258:0.8863138 1273:0.039049149 1275:0.58935708 1277:5.804224 1299:2.5988491 1306:0.69065452 1308:1.5804566 1310:1.4947859 1316:0.38941684 1320:0.58689028 1324:1.7246921 1332:0.19473177 1333:0.4876039 1336:4.0410223 1339:0.18895471 1342:1.0363659 1351:1.2388198 1352:0.38281944 1354:0.77912128 1357:0.030292809 1365:2.686311 1368:0.44912687 1370:1.8094887 1383:2.9442408 1386:1.7076194 1388:1.3249644 1398:1.2557849 1399:3.2187335 1400:3.3139536 1401:1.0647035 1402:0.85588789 1408:0.58613676 1417:2.639797 1424:0.2610831 1436:3.8139238 1453:0.37720868 1456:2.4259951 1457:0.59255576 1463:1.4241643 1466:0.22926646 1470:1.6218146 1508:0.65953213 1520:1.278017 1529:0.94652748 1537:1.1227059 1538:6.0512033 1541:1.3406533 1544:1.1455057 1548:0.6616919 1549:1.2521302 1553:3.223278 1554:2.652178 1556:1.2272441 1560:3.1647487 1570:0.43822166 1572:5.17906 1580:5.2483568 1587:1.743764 1601:1.2262205 1606:2.7533069 1607:1.7607516 1615:0.93890613 1616:6.6575437 1620:0.70723653 1623:1.7999229 1624:1.4712524 1628:0.73684782 1643:3.9980397 1644:0.13621876 1645:2.1351037 1667:2.2939167 1673:0.87025094 1683:3.1949971 1688:3.5000837 1690:0.7228229 1695:2.9054098 1696:3.5534222 1697:1.2604657 1699:2.5842891 1703:2.0319667 1704:1.8009093 1708:1.2005469 1726:4.792376 1729:0.53260714 1736:0.86546189 1742:3.0902123 1748:0.43501592 1750:2.8230948 1775:2.5367384 1782:2.7493384 1787:0.29445624 1801:0.96227276 1809:1.4526051 1811:3.3281794 1813:2.0825229 1822:0.5033015 1823:0.79900098 1830:3.0324681 1831:0.81018144 1832:0.98063898 1833:2.2895548 1835:0.65324616 1837:4.7919912 1846:2.9912856 1849:2.4967108 1860:4.4642038 1870:1.7880284 1877:1.5631049 1878:0.041261017 1883:0.57514262 1889:0.79128492 1890:2.3199439 1904:1.5217474 1906:1.464247 1912:1.1002934 1932:5.2201986 1938:2.0049558 1940:3.5627429 1951:2.6222305 1964:3.3651907 1965:3.2232161 1984:6.4494081 1995:0.59088075 2000:0.70754337 2009:2.0567725 2034:2.1194346 2038:3.934582 2040:0.22730681 2043:1.0652437 2044:0.3150754 2046:3.2654393 2050:0.47969532 2061:2.445446 2068:2.8309066 2073:4.7315898 2074:0.68836528 2075:0.95115751 2076:1.4283648 2086:1.047375 2089:2.1872869 2099:0.37818497 2102:1.5926417 2113:1.3315837 2116:2.2400177 2123:0.86544073 2128:0.09879721 2136:3.1781588 2146:0.44394335 2158:1.0266947 2159:1.374679 2164:0.8894071 2168:2.6815886 2176:1.8756402 2178:2.2077818 2181:0.77877969 2197:1.2002926 2200:0.3367542 2202:2.9760118 2204:0.10719654 2211:0.88322717 2218:0.64488113 2232:5.4042888 2235:4.4099178 2236:1.3035657 2241:0.40753609 2245:1.5425755 2247:0.0012913048 2254:2.7935977 2255:6.3001127 2256:0.68370104 2261:0.30130491 2263:2.2153735 2266:1.0708067 2283:0.97047871 2292:1.8434855 2294:0.01745069 2299:0.40743119 2311:6.8026381 2313:1.4521128 2314:4.1806693 2324:4.4146867 2331:1.1230913 2337:2.6907084 2343:3.3799176 2349:2.5674405 2354:0.74976516 2357:2.5546041 2362:0.38595486 2365:1.9121897 2374:0.22037145 2383:3.0765016 2392:4.4588284 2396:2.5673959 2397:0.57303888 2399:0.30294171 2400:0.49455619 2410:2.0687201 2416:6.0595398 2418:1.3072662 2422:1.6008868 2429:2.3516409 2430:0.47908306 2431:1.7073423 2435:0.17267907 2436:0.68201113 2437:0.094162583 2447:3.1991363 2453:1.1828256 2459:0.10719186 2462:1.5611259 2469:0.75891411 2473:5.8408761 2475:1.5825952 2481:2.1248093 2486:0.1972869 2487:1.8064692 2495:2.1432796 2500:2.4101098 2512:1.0207431 2519:0.54788184 2526:1.0237758 2528:1.1454425 2533:0.054097116 2539:1.589919 2546:1.4628378 2557:1.7749693 2561:1.3033029 2562:0.66854244 2563:1.7575408 2570:4.1996341 2579:5.7555904 2581:3.6959074 2585:0.58715892 2586:0.69599259 2588:2.6866639 2601:0.11076471 2605:0.054429024 2610:2.2882395 2612:4.0475392 2629:2.7458241 2642:2.915823 2643:0.31717104 2646:0.64934921 2648:1.2694248 2650:0.035233498 2655:2.1510642 2673:1.2468256 2674:1.0327966 2682:0.62330729 2692:0.84719419 2701:1.7323706 2704:0.42365187 2706:0.77067155 2709:2.159261 2719:1.730813 2720:5.4117422 2722:1.2474022 2723:5.4756842 2724:2.4103341 2725:0.36101037 2727:1.1006981 2732:2.2717798 2733:1.9126627 2736:2.7554784 2743:0.50548518 2746:1.6622161 2747:2.8926091 2752:1.4165281 2760:0.9190622 2762:2.3621905 2770:0.43949538 2782:2.7761221 2784:1.0402977 2792:1.4735326 2802:2.984153 2807:1.4063541 2811:1.4704473 2814:0.091171071 2815:4.1401286 2819:0.30163962 2828:0.23245235 2842:1.1886035 2860:1.686581 2863:0.76220787 2868:3.4890251 2877:1.7764808 2879:0.34778851 2887:0.672894 2892:1.0538498 2903:0.050191432 2904:0.052016005 2906:1.0751154 2921:0.11950088 2922:1.0535759 2931:3.6083448 2936:0.7804665 2937:0.87510717 2941:1.9778165 2968:1.0286745 2969:2.5624635 2974:0.77022213 2975:1.1662865 2982:1.2182171 2988:0.42963356 2999:2.2653682 3004:6.3542433 3007:0.039607912 3009:0.68886662 3010:1.0782019 3012:2.5499008 3018:3.5642548 3026:1.2785294 3029:0.54124117 3030:0.59421414 3047:1.5133723 3050:1.2026217 3059:0.54754663 3061:0.059556991 3063:1.9617316 3064:2.3017511 3065:1.0926471 3073:0.98386478 3075:0.46256763 3076:1.6929377 3080:1.3934202 3084:0.56385744 3097:0.67320073 3105:0.53383493 3108:0.46927273 3109:0.58801639 3123:0.9636507 3130:3.1990938 3131:0.2623325 3138:3.2717814 3140:2.0034232 3148:1.6432008 3154:0.92955214 3163:0.82960147 3164:1.0836954 3172:2.2626848 3176:4.6043067 3179:0.90863311 3192:0.15193719 3199:0.81204689 3221:1.813658 3224:1.1358351 3230:3.6946568 3235:1.889343 3237:0.74708724 3240:1.5041353 3242:1.1937292 3245:2.059845 3247:1.8576008 3250:0.75798213 3252:2.3545721 3255:1.0159074 3256:2.2743328 3260:0.33990958 3262:1.5036552 3271:2.1329019 3283:3.6180573 3291:1.2237707 3323:4.6734009 3324:0.50585186 3333:0.36799589 3334:0.18101083 3335:0.44632992 3348:0.85835898 3350:1.5664613 3351:0.2302357 3353:4.5434561 3354:0.76476663 3364:3.0059786 3367:2.7137687 3380:0.39405319 3397:0.65152586 3403:0.44202718 3407:0.26365715 3411:1.0020933 3418:1.8626659 3422:0.26736546 3426:5.7009668 3435:2.8901744 3438:1.2639685 3442:0.57134819 3443:0.97510821 3449:0.91381693 3451:2.7460766 3452:0.043636695 3458:0.91970396 3464:1.6886503 3466:1.3842099 3470:2.5873432 3471:1.5879699 3474:3.5976627 3476:2.5466952 3479:0.65698951 3508:0.16705047 3509:0.28984371 3516:0.33128858 3522:1.7526871 3524:5.2972903 3530:0.99070168 3535:4.9993477 3536:3.9532409 3542:1.2975398 3591:1.3930148 3593:2.2652202 3594:1.1561978 3595:1.2474556 3596:0.085233077 3597:0.068918526 3607:1.743312 3609:0.32206446 3612:0.66185093 3614:2.8348243 3617:3.2761412 3619:1.8896813 3624:3.0353396 3626:0.22128604 3627:2.246331 3631:2.1006923 3632:0.62075639 3633:0.32160932 3637:4.585145 3638:0.99660659 3653:2.1135178 3660:0.10136616 3661:0.98644817 3668:1.7928252 3669:3.0915446 3676:1.223384 3681:1.2711624 3683:1.4129034 3691:3.0186217 3693:1.8184543 3701:1.2355196 3707:3.6748962 3709:0.044896901 3715:1.806609 3717:3.8138356 3725:0.32828718 3726:1.9913168 3728:1.5998275 3732:1.1858531 3743:0.69301444 3750:0.040245354 3765:0.13469711 3767:2.1468117 3769:3.5144072 3776:0.97097915 3783:3.3203595 3789:2.2002132 3795:3.7997684 3802:0.96275228 3819:0.17248803 3821:2.191025 3828:2.8310502 3831:1.3598098 3841:0.027299345 3847:0.89190769 3848:1.1521645 3849:0.093826592 3852:1.8878424 3856:1.7792732 3859:0.17786294 3863:1.3564736 3870:2.2673674 3871:0.31587362 3877:2.0483906 3885:5.0179963 3891:1.7901871 3895:1.7626796 3900:0.031948268 3903:2.5008757 3908:5.5038686 3914:0.44084218 3916:1.8118274 3918:3.0728848 3924:0.75660694 3931:0.03145054 3934:2.9256868 3937:1.1744363 3945:1.2188288 3972:4.1149135 3981:0.10923715 3984:0.65890437 3990:0.26359713 3998:0.99674529 4001:0.57475621 4004:1.1200223 4006:0.53615773 4007:0.25626808 4011:1.3565025 4021:5.3122206 4026:0.62758839 4051:3.3143058 4053:2.7374566 4057:4.8408284 4065:0.68181771 4072:0.47796389 4081:0.22188856 4083:0.40987819 4094:0.022626013 
0.2554287109950913 2:0.57570148 4:0.00048369169 6:1.3015962 7:0.10479695 13:0.77087516 16:0.94702339 18:0.49456531 19:0.22590092 25:0.87847573 35:2.0089056 44:1.3765529 51:2.6763556 62:2.2361448 78:0.43676192 82:1.2518491 87:0.19034147 94:3.7165453 107:1.8787491 118:1.1167908 128:7.0622716 139:5.2086639 144:2.0362599 145:2.1692669 149:0.52403533 153:0.716115 155:0.64696693 159:1.7612412 165:0.17530827 168:5.6662493 172:0.075208142 174:0.36894292 182:0.7485792 189:6.5512838 192:0.092614859 203:1.0054114 207:0.61269498 208:2.4706388 214:1.6808033 215:4.6027355 216:1.4340091 225:0.42365271 231:3.1415765 237:1.8433533 241:1.5276755 251:3.5423501 259:1.4583254 264:5.6100378 265:4.7760305 269:0.44919479 271:1.1818638 286:1.0081539 295:0.58523512 297:0.77735227 301:2.3242111 302:0.86497688 305:1.9690597 309:3.4440644 312:1.0958678 314:1.7712311 316:1.008954 326:2.8276711 329:5.4683714 348:1.752161 358:3.0505075 360:0.97602355 367:0.096526131 374:0.087054126 378:1.045856 380:4.161798 381:2.3303676 383:0.0054960549 385:0.77458799 387:5.6767492 394:2.0599647 413:0.6964426 420:1.5311724 434:0.32275468 436:1.2743351 451:1.8908581 454:0.14017558 466:3.2100916 485:1.0213137 489:1.443959 505:4.3283954 508:0.71006876 512:1.2281168 516:5.0886083 519:1.6242042 520:1.8400829 541:0.91702151 559:1.1588621 561:1.1762639 562:3.4390323 564:1.9356177 577:3.6419568 595:3.1669967 597:2.2449512 613:1.9318609 616:1.7210602 618:2.296392 624:6.7521567 625:2.63849 631:2.7259712 637:2.4885554 640:2.5026159 644:2.3384783 645:1.7876402 646:0.20222056 650:0.83175766 655:1.8342457 665:0.85431534 670:1.6903011 675:1.25036 686:0.89934307 701:0.82806915 709:0.12383962 713:0.86311197 719:0.50787896 729:0.078031167 759:1.11107 762:0.57082534 764:3.2012625 773:3.1557372 776:0.89219689 780:0.67012179 787:0.56933695 788:2.9746263 812:0.69261825 814:2.4298983 818:1.3870716 819:4.5327096 824:2.4798143 832:1.617528 836:0.74429923 837:1.9993733 847:1.0322183 848:3.5413787 853:1.2923075 860:2.914911 862:0.45615035 866:1.8857672 879:0.82873005 883:0.70532191 887:2.0981743 897:0.080868334 903:0.29037398 916:0.87697947 918:2.7313876 936:1.8772901 955:0.16691756 956:0.6644845 962:1.8734752 967:0.013278127 1008:1.2196724 1016:3.1124799 1030:0.15874201 1034:4.8373728 1037:0.22246492 1040:3.4667482 1042:4.1150002 1044:1.3378248 1046:3.7978125 1058:0.17973946 1067:3.990612 1083:1.2542161 1084:2.8100491 1091:2.7548862 1093:5.3933277 1103:2.2885704 1113:1.7839823 1116:3.8035743 1131:0.50431681 1132:1.1666052 1145:1.1796772 1163:0.86365926 1166:1.6840928 1169:4.4437418 1171:3.6665409 1175:0.63852602 1178:0.69836521 1186:2.0937014 1195:0.31161499 1202:1.5303025 1205:0.35291269 1211:0.95528984 1212:1.8952346 1220:0.49589628 1224:2.1034036 1227:2.6132059 1231:1.7007151 1236:1.2812907 1251:2.12903 1255:2.2755673 1273:2.9486256 1277:3.1434958 1293:1.1133411 1307:0.46465328 1308:4.2981133 1309:1.503971 1324:3.6525464 1329:2.5056903 1333:2.1849217 1342:0.32515463 1354:0.86285722 1367:1.5702717 1369:0.21623659 1370:3.4615395 1377:0.46817082 1383:4.519043 1388:1.2765416 1396:5.750277 1397:0.86308551 1398:3.7154434 1399:3.8155978 1401:1.7434405 1408:0.2836557 1412:1.0556948 1414:0.19933839 1424:1.0994829 1426:0.64368677 1436:3.6354618 1453:2.6433883 1457:0.44849455 1468:0.14165047 1470:3.8396606 1479:1.2588023 1491:2.0331979 1492:1.3621274 1505:0.092425436 1514:0.025624603 1520:1.7366633 1524:1.5263835 1525:0.049178928 1529:2.5568674 1532:1.7570068 1537:0.45023775 1541:3.7753398 1544:0.27355614 1548:2.2989144 1549:3.5913565 1553:0.22349352 1554:0.87063527 1570:0.68881071 1572:2.5275929 1580:1.2030503 1601:0.52281511 1606:2.9396641 1607:0.68002248 1610:0.45479253 1611:0.17574644 1615:3.5852106 1616:4.5797029 1645:4.3247504 1661:1.5066668 1667:3.437017 1671:0.36646771 1683:3.4131837 1695:0.3919878 1696:1.6885248 1699:5.4048986 1704:0.79610968 1708:1.5968107 1742:2.9358199 1744:0.17625983 1748:2.2331719 1768:0.494764 1775:0.64757264 1779:1.2567236 1782:4.3535051 1787:0.69834441 1789:1.7177608 1791:1.5284457 1795:0.60723162 1804:0.90561366 1809:0.097809345 1811:0.95226932 1822:2.1435211 1829:0.35185739 1830:1.2628897 1833:2.5123436 1837:3.2370737 1846:2.6735077 1849:0.69608033 1877:3.5967903 1883:2.5197239 1889:5.5998049 1895:0.78804177 1902:3.6872804 1903:0.24295501 1904:1.5163159 1906:1.196022 1912:0.46359113 1913:4.7355418 1917:4.5566816 1918:1.9907287 1931:1.2000949 1932:3.1976321 1940:4.3992701 1950:1.6793143 1964:0.41942745 1980:0.26854119 1984:4.8841534 1990:1.7297909 1994:1.0328164 2012:0.87291312 2034:2.6220274 2037:1.2301126 2038:3.0238976 2044:2.0625422 2046:5.8039484 2061:1.6236153 2068:0.92703587 2069:0.61753869 2073:4.1434855 2074:0.058421388 2089:4.1180353 2095:1.8242859 2112:1.3070099 2113:0.49797821 2123:0.80507773 2126:0.55434847 2150:1.0335904 2155:1.7931097 2158:1.3143587 2165:1.3867122 2170:0.23820627 2197:3.7859597 2230:1.6025721 2232:1.085936 2235:8.3444414 2236:0.80207729 2253:2.1420746 2254:0.75439596 2255:2.1749763 2259:1.1722584 2283:2.9736412 2292:0.93594849 2311:2.5581801 2313:0.62711799 2314:0.59045243 2317:2.3858762 2324:3.9256022 2328:1.8886802 2337:2.4039314 2339:0.71222407 2343:2.1206663 2344:3.2062192 2349:4.3056521 2355:0.62864447 2357:3.5842993 2365:2.7820311 2369:0.00098434091 2380:1.1225398 2392:4.6004057 2404:0.65345347 2416:3.9893594 2418:2.6970973 2422:3.2530756 2429:2.8627362 2430:2.5635843 2431:0.4148142 2433:2.1536593 2437:0.93621218 2443:0.48837602 2454:1.5856624 2458:0.4207406 2459:1.6534479 2461:2.4766402 2462:3.4673553 2468:1.9746068 2469:2.9572103 2473:1.1825937 2475:0.57628727 2487:0.88423419 2491:0.87348086 2500:1.7661998 2512:0.43807846 2513:4.3557158 2516:1.2587698 2519:0.77016479 2539:7.1531954 2554:0.15467407 2563:2.9297941 2566:0.36419106 2569:0.090102151 2579:1.8416405 2581:3.4530082 2586:0.23144114 2588:2.8673894 2605:0.32758588 2610:0.99403071 2612:2.7236438 2628:0.79183811 2629:0.62420309 2636:0.43705341 2639:0.050639331 2642:3.629864 2644:1.8156294 2646:0.20904231 2658:1.5624582 2665:0.080586731 2670:2.38925 2674:1.0779314 2679:3.3024693 2682:3.5005984 2687:0.92038608 2699:0.21591687 2701:1.2338731 2706:0.82593954 2707:1.2397373 2709:3.9188817 2715:0.75375253 2717:0.64674193 2720:4.0234118 2723:2.8872826 2724:3.2951632 2725:0.92047715 2732:2.9364407 2743:2.8015254 2747:0.31374112 2770:0.45015445 2771:2.6812265 2779:0.19221996 2782:1.8728859 2792:1.8557909 2796:4.4324021 2805:4.8492289 2807:0.64715075 2815:1.6232857 2828:1.2787926 2833:0.60767883 2845:0.29299185 2846:0.58800626 2860:0.61980551 2865:0.77795166 2868:0.54117513 2872:0.28652978 2877:0.29929283 2887:0.40936205 2900:1.00036 2903:2.7423608 2906:3.8334837 2926:2.7583694 2936:2.4734509 2945:2.0475521 2961:1.4793729 2969:0.16322076 2975:1.6266816 2980:3.8435304 2981:0.6801976 2982:2.2103009 2989:0.17695192 2998:1.2869639 2999:1.1555743 3004:4.6954236 3010:3.1664643 3011:1.6377988 3012:0.16092488 3026:1.2426906 3030:3.9045413 3047:4.8355408 3048:3.8436258 3052:0.14154494 3057:3.0667346 3061:3.4354911 3064:3.6922324 3065:0.54867262 3072:0.79707825 3073:3.3914311 3075:0.33903331 3076:1.1147116 3089:0.14344297 3105:3.8807538 3123:0.22149804 3128:0.28962588 3130:0.99400246 3138:2.6091185 3141:4.3313017 3147:1.2517467 3148:0.23886652 3164:2.5809669 3176:5.9630861 3179:0.9341374 3192:1.2225223 3203:1.4671733 3210:0.032320112 3211:0.37349886 3230:1.4752543 3235:1.5737407 3237:2.2579796 3240:0.13588338 3245:0.48683178 3247:1.6779706 3250:5.5050974 3252:2.5208662 3256:0.058898032 3262:1.5323507 3263:0.15682974 3283:3.1165688 3291:1.5066829 3297:0.3498407 3313:0.76637948 3323:2.8660667 3326:0.63331318 3333:1.6163347 3335:2.6663301 3340:1.1982297 3346:2.0426898 3347:0.81015384 3350:1.9792503 3351:0.25274175 3353:1.5523671 3365:0.071457922 3367:0.11876707 3396:0.68052137 3405:0.060890935 3410:1.6592991 3411:1.5040104 3416:0.4502154 3426:4.5725503 3435:3.7860529 3446:1.277073 3451:4.021101 3452:0.51769584 3457:1.0487657 3459:3.8767328 3466:1.4853332 3471:0.6455797 3474:3.6863275 3478:4.3059773 3488:0.1572718 3490:1.044183 3496:0.3261084 3499:2.3511956 3516:2.4840107 3520:0.77803469 3522:3.2592793 3524:8.6026297 3528:0.14177042 3530:1.6866596 3535:1.8130004 3536:6.0499988 3542:5.1232586 3554:0.28412443 3574:0.46832693 3592:0.068560511 3593:4.8107233 3596:3.5514166 3609:1.7768445 3614:1.9316609 3616:1.153726 3617:1.4768174 3619:1.2608202 3625:2.9418919 3626:3.124485 3632:0.50290775 3633:0.88561624 3637:3.3190897 3639:0.483623 3650:1.4450935 3653:0.70464826 3654:1.0344834 3661:1.755355 3663:2.9179275 3669:0.24239382 3677:1.497978 3681:1.1554222 3691:3.9446216 3701:3.0174928 3709:6.5629673 3711:0.34182182 3717:0.58637488 3718:0.74986434 3732:1.751792 3733:1.878728 3743:4.0739231 3749:0.30666968 3767:0.62891018 3769:1.0547662 3776:0.62323391 3783:1.9580286 3789:3.6209216 3790:3.7733898 3797:0.41529119 3802:0.33016482 3821:3.5632093 3828:0.76988709 3831:2.4570429 3834:2.2573676 3846:1.2857634 3849:0.88658041 3852:3.225286 3863:1.2381639 3868:0.55610752 3877:1.2161143 3879:1.296295 3885:0.3080374 3886:1.2694186 3889:0.3201617 3908:5.9534502 3911:1.3580084 3914:1.7425015 3916:4.4096956 3918:1.1055561 3924:4.2313175 3925:0.03603977 3937:2.7283041 3945:3.5677555 3959:0.30694744 3960:1.0469428 3972:6.9328842 3981:0.53623402 3986:0.29378307 3998:6.0783138 4001:1.0580771 4004:4.7304626 4007:6.8233566 4009:2.4096847 4015:2.0825036 4026:1.5554963 4031:0.78241587 4038:0.38460129 4051:3.2841227 4057:0.88372612 4065:1.8206794 4072:2.5168893 4077:1.6870159 4081:4.6462169 4083:1.1311214 4095:4.5195775 
