svm_type c_svc
kernel_type rbf
gamma 0.000244141
nr_class 2
total_sv 199
rho 0.464929
label 1 0
probA -6.04062
probB 0.160874
nr_sv 67 132
SV
0.1197612536845344 1:1.2671374 5:0.54038471 6:0.063347638 11:0.65666676 13:0.1003238 20:2.5575023 21:0.67157888 23:2.0373602 29:1.1393905 46:1.9268929 57:0.38702089 62:0.25311348 63:3.6809001 68:1.5077991 69:4.2176528 82:0.42078945 83:1.2886531 84:9.7746582 86:1.02458 87:1.5247159 91:0.23856239 97:0.35454303 102:0.97483575 127:0.58732057 129:0.18431309 131:0.13560741 146:1.0674852 158:0.71314985 160:3.2977548 165:0.0086652562 169:1.0524288 178:1.3334553 185:5.1614389 186:3.1112361 192:0.45586571 194:0.47674549 202:0.28785419 204:0.45124936 211:0.51266277 213:0.57708567 228:1.6392398 230:0.32118756 233:1.3640721 238:1.0860047 242:1.4973118 243:0.26890713 252:0.83516467 260:7.1508803 269:1.2731915 285:1.3585818 291:1.5086919 299:0.63258779 302:2.8618042 308:5.1751614 318:1.1797839 321:4.2161627 327:2.4865544 334:2.4494727 339:0.66861892 346:0.749152 351:3.5629513 352:1.0989116 357:0.70585269 360:0.28959668 362:0.9687112 365:1.4527171 374:2.4455247 382:1.0231501 385:0.43936878 418:4.8326535 435:1.2141306 439:0.57468307 441:3.2765965 442:1.6986442 443:0.86640418 453:1.1200209 461:2.381526 462:0.4168539 482:6.2041993 489:0.37198398 491:1.4230841 495:5.5021262 499:0.16508937 509:2.8597276 515:1.8093263 519:1.774794 538:2.5607545 557:1.276574 560:5.4896283 561:0.17907774 569:5.4780321 582:4.2042198 587:1.2735031 590:1.1594725 592:0.073276453 598:9.1892996 608:2.8262196 610:0.0029650703 615:0.48692292 618:1.1733764 623:0.34240732 629:3.2950561 636:0.080247402 640:0.94969273 649:2.1215582 653:0.53853559 654:4.7350631 656:4.3165245 657:0.30709869 666:2.9217138 678:0.13011864 682:0.2949509 687:1.5428692 695:1.1545864 696:2.9637563 698:1.2103379 707:1.2020904 709:5.700006 711:1.5925548 712:3.0631518 717:1.9783489 727:2.1664827 734:0.61181045 744:1.5949439 746:1.9653591 765:1.2131101 769:4.2879448 775:3.2058611 778:2.0706186 791:5.1468401 798:0.81423849 801:0.40779054 804:1.1487669 806:1.9129 823:0.57024008 828:0.585953 832:1.3366656 842:0.15335642 849:0.23565313 852:2.9973314 855:5.8632975 861:0.57024586 862:4.6169291 868:0.6226657 872:4.8150458 874:1.8874447 882:0.22424491 884:1.8020644 887:2.0112822 888:5.0928526 905:2.7845542 910:1.4957563 913:1.1589755 916:0.81262177 917:3.9167426 935:3.6438577 937:2.1169195 947:2.9910777 953:2.4184134 954:1.2037914 961:1.2482126 965:0.73827344 970:0.95187992 977:2.7070937 978:3.0732245 989:3.6669345 991:0.018161118 993:6.2462053 1004:0.49368358 1006:0.45198283 1018:0.48967153 1028:0.45697498 1043:1.8011278 1045:2.2613323 1049:1.0417243 1059:0.55037224 1064:2.4408672 1077:1.9634643 1081:0.49991763 1086:3.3595212 1087:5.3665209 1097:4.7072887 1100:3.4936686 1104:0.8487668 1107:0.79296982 1116:2.8449302 1121:1.7306719 1122:1.4979136 1140:0.97734404 1152:0.64955688 1162:0.63882864 1163:1.3644605 1177:0.95812798 1179:0.54062819 1183:2.0645969 1184:1.4057052 1187:1.3134 1192:1.0282382 1201:0.1367 1211:1.3302342 1215:0.47271204 1234:0.76857829 1235:0.90097773 1242:0.81138051 1245:0.26582319 1246:1.370396 1260:0.86608225 1261:2.1270976 1265:0.65321755 1268:0.011092156 1270:0.51662701 1290:0.15730909 1291:3.2425401 1294:3.7734041 1295:0.84275216 1296:3.5655761 1306:0.31808534 1313:1.5592897 1314:0.33589202 1331:2.3300958 1335:3.2474341 1340:1.0849977 1342:1.7611206 1356:4.4175 1361:3.0431204 1369:1.9500612 1378:3.6827254 1382:0.93407387 1387:2.1308825 1397:2.1092484 1400:0.8896147 1407:0.36125723 1408:2.7035346 1414:1.2261568 1430:1.1773837 1433:1.1845063 1434:2.5372834 1435:3.2810445 1439:0.24527353 1441:0.18884438 1443:9.6411343 1448:2.5271504 1449:3.3934777 1455:0.52448672 1459:0.62949347 1462:0.50534165 1464:0.57055378 1465:0.1644091 1472:0.46857372 1473:0.23703532 1475:2.4513693 1480:4.5413036 1493:1.0769939 1500:2.5032108 1504:1.2481334 1507:1.3961006 1513:1.9262693 1518:3.539223 1519:3.7786396 1536:4.6860733 1537:0.35475534 1539:0.42039341 1551:2.4199743 1552:1.2494009 1557:0.33157414 1558:1.1149428 1559:0.1091091 1572:0.80940259 1581:1.547947 1602:1.56599 1605:2.8330252 1606:2.3749316 1607:0.0087075233 1608:1.3029691 1618:0.73874271 1628:2.5296102 1629:2.6801162 1636:1.2584904 1642:3.6702464 1649:1.9665868 1665:5.3951511 1672:0.28614429 1688:1.9105965 1703:2.2574782 1704:2.4176135 1705:1.8180077 1709:2.4162421 1719:2.1847439 1728:1.9145919 1729:0.53873163 1733:0.12350331 1734:2.4168837 1739:2.8740981 1741:4.051538 1743:2.2119498 1744:0.73498553 1745:1.3853164 1746:0.96894467 1754:5.1479645 1777:1.8218312 1786:0.44533354 1788:0.78604645 1791:2.4025328 1792:0.63307393 1795:2.3176808 1803:0.046458811 1810:0.95391542 1815:2.445467 1818:3.0382044 1819:1.1559933 1821:0.70534098 1826:2.1755114 1827:4.862267 1829:2.9429622 1842:0.82410848 1852:1.2500591 1854:1.2338548 1867:1.3790169 1869:0.27809399 1872:2.4759636 1874:2.5445709 1875:2.9313884 1878:0.26711091 1882:4.2729683 1892:0.36757112 1893:1.2705636 1898:0.86174333 1907:2.6525624 1909:0.043062374 1916:1.4215153 1922:0.14754167 1925:0.1914776 1930:4.0441842 1950:6.8278837 1953:0.61950964 1955:5.3153329 1956:1.97735 1960:1.1912606 1966:0.040950924 1969:2.1926005 1977:1.138414 1978:1.3331641 1983:5.2405987 1991:4.3866515 1996:2.9092336 1998:0.069426313 1999:2.0669284 2005:3.4501228 2009:2.7420557 2014:1.6812593 2021:1.3645781 2039:0.70244694 2068:4.4986238 2072:2.2490358 2077:0.019728988 2078:1.8005279 2093:0.25059646 2096:5.5412607 2101:3.1149895 2103:1.5187322 2106:1.6425875 2107:2.8395033 2111:4.2324324 2119:0.7031576 2122:1.5378695 2125:1.3177898 2127:4.4800406 2129:1.2094835 2131:0.89893383 2132:2.083432 2135:1.5194088 2142:5.0259805 2150:0.33692795 2152:0.38522294 2156:0.72378016 2160:2.3790364 2162:2.7066412 2163:0.15821579 2164:1.3888221 2186:2.870012 2188:0.97790933 2189:2.5131457 2194:0.25653291 2195:2.2665267 2206:0.57589221 2212:0.26937962 2213:1.239803 2214:0.81536311 2220:6.1387682 2240:2.5710137 2251:2.0225441 2252:0.88914061 2266:1.0895312 2272:9.0725956 2277:2.5975287 2285:4.2757578 2287:5.330585 2291:5.6288919 2299:0.18937069 2303:0.48506075 2304:3.3395541 2305:3.0279918 2307:1.716614 2309:3.6957881 2310:1.6972855 2321:0.34570968 2330:0.098526239 2331:0.29786012 2332:4.3126278 2334:1.5871909 2336:3.2510521 2338:4.9657393 2340:3.3386395 2342:1.8058432 2344:3.2205832 2345:3.2443585 2364:3.2582021 2372:1.0224135 2394:1.4482336 2405:2.2781255 2411:1.026311 2421:0.21976112 2427:1.9218829 2434:1.6219349 2448:3.0261254 2453:3.4639599 2475:0.84078038 2478:1.1472356 2480:0.426539 2491:0.72605324 2498:0.41026157 2504:0.036044866 2508:4.8416858 2541:0.88488203 2542:1.2434165 2543:0.18402344 2550:0.31942275 2554:0.91133559 2561:0.32935029 2567:0.23344131 2571:5.9268861 2574:2.8167801 2590:1.4375758 2594:3.0343401 2596:1.6687484 2598:2.3834062 2600:0.48593789 2619:2.8521459 2628:5.7895002 2631:2.108743 2636:0.37016726 2639:1.9355557 2640:0.78773528 2647:4.5925574 2654:0.040715158 2657:0.36920279 2660:5.6784849 2680:0.80761182 2706:4.390799 2709:0.72139597 2713:9.4355936 2735:1.6758152 2745:1.552433 2754:1.3759279 2770:0.29449907 2771:2.3654521 2781:0.086183444 2794:1.1017182 2804:1.4247563 2812:2.2775021 2819:0.032973468 2820:0.81163377 2823:3.0226305 2825:0.54948741 2837:0.75253499 2842:1.8892382 2859:3.6505485 2865:3.9767852 2869:0.40340388 2877:0.45747632 2878:0.058021098 2882:4.8977695 2887:0.4254756 2888:0.033619218 2890:2.5740683 2893:1.4626247 2897:0.74508977 2900:0.83296335 2901:1.3108635 2913:0.86994267 2929:4.014051 2932:0.3802141 2946:0.039595842 2953:4.0797672 2959:1.3504115 2962:0.99183357 2967:0.068675697 2970:0.34579927 2973:2.0717306 2977:0.47833508 2979:6.0650649 2986:2.9134126 2995:2.9857492 3008:0.20961003 3009:2.1536238 3033:6.5639391 3037:0.69345528 3040:0.6316669 3044:1.0382068 3045:1.1490309 3049:0.86346221 3082:1.9281301 3083:2.0160959 3085:4.1499557 3090:0.04942596 3101:1.6343741 3119:2.4616752 3129:2.013092 3130:0.58597434 3142:7.2113128 3155:0.80725199 3160:1.2736931 3168:3.7970641 3172:0.1555087 3182:0.37606651 3186:0.18706626 3187:1.5288076 3189:3.5578566 3204:1.0375062 3208:0.29552895 3209:0.16734979 3210:0.1645942 3220:0.34055141 3223:1.8019675 3232:0.5147599 3233:0.38622138 3237:1.4350132 3239:1.6161566 3256:0.4196659 3258:5.255578 3259:3.7823586 3262:3.8376949 3272:5.1780653 3273:1.5256144 3276:0.023806989 3277:0.34053922 3281:0.59394598 3286:6.9256163 3289:2.1038284 3292:1.1333333 3293:0.64630014 3297:1.1510596 3300:3.4231234 3302:2.1382735 3317:2.2397251 3332:1.4542724 3334:1.9985803 3340:10.518157 3345:0.15384988 3351:0.54785854 3357:4.2252436 3367:1.8665243 3383:1.7651929 3384:3.4111543 3385:3.4069171 3390:1.12623 3392:1.1336453 3396:0.47761029 3398:0.45012709 3404:3.2296212 3414:1.8674061 3416:0.64376748 3418:3.0868447 3423:0.67459488 3425:1.1775951 3427:0.54060704 3428:1.4652383 3435:2.8852549 3453:1.3222347 3457:4.5731325 3468:0.98188835 3475:2.6018221 3479:5.1417379 3481:4.912333 3482:3.5656934 3493:0.15433276 3497:1.6817088 3499:1.5202527 3500:1.5967224 3507:0.89841396 3509:0.91448748 3512:0.51513934 3514:7.6407719 3526:1.9337147 3528:1.8775296 3540:0.72893941 3560:7.9407692 3564:1.1835369 3567:3.0102015 3576:1.4119675 3581:3.7576184 3585:1.715947 3590:2.9034014 3597:1.7044942 3601:0.7807017 3605:2.1454644 3626:0.50509053 3627:1.5170362 3629:0.49156645 3631:0.788894 3635:1.3663218 3636:2.0633965 3639:1.6238685 3644:1.3646454 3646:1.2069062 3648:1.4895972 3654:1.1465549 3657:0.64016962 3666:0.038996816 3671:1.071203 3673:0.54341882 3675:2.6127543 3680:1.0828886 3686:0.2492041 3700:0.45203671 3708:2.857929 3728:0.66823936 3730:1.5265944 3731:1.3246062 3753:3.4032586 3757:5.0112095 3763:4.9448452 3767:3.3050456 3768:1.642527 3778:0.58685064 3794:0.37218532 3796:4.10253 3799:3.141675 3811:0.63002026 3812:0.31107762 3817:0.74946231 3820:4.7666483 3821:1.6157361 3823:1.3034469 3835:1.9598773 3840:0.81996405 3849:1.7435296 3850:0.28319916 3857:1.4680904 3860:3.70945 3865:0.60650069 3866:1.332731 3869:1.0478635 3886:0.068219215 3894:1.3538332 3896:6.2660041 3901:0.17797992 3902:0.55214453 3903:0.49813563 3905:1.2981364 3907:2.8252044 3918:0.051284581 3919:3.8199165 3920:0.64751863 3934:2.466208 3941:3.2816048 3947:0.6405468 3956:0.80502689 3966:0.99934357 3967:1.6084256 3974:0.30630934 3981:4.9493074 3988:0.46903333 3991:1.6636719 3999:2.8082089 4015:1.2427132 4020:1.6905288 4025:0.7122885 4027:0.40354446 4032:2.0979381 4035:7.9374061 4044:0.97295922 4045:2.6749394 4047:0.044059321 4049:0.66340137 4077:1.1153247 4084:4.7334185 4087:0.11414 4089:0.17886719 
0.1659963080557314 7:0.47505292 11:1.2549406 13:1.1011399 15:1.0243893 20:2.642231 21:4.5342579 23:7.8551478 26:3.1409206 29:5.2922854 31:1.1470368 34:0.70195532 42:2.0016019 45:0.35893565 46:3.8583803 49:0.50968695 61:1.3871477 69:4.4460335 74:0.12143886 82:2.5135891 84:0.13077435 85:2.8171418 92:0.19310632 95:3.6610842 103:1.3831923 104:1.9237924 109:0.15018016 111:1.9671295 114:0.92016041 122:0.1996823 129:1.3236036 140:0.59743476 141:5.6914473 144:0.84018743 146:0.55660152 148:0.56840932 169:7.5718513 186:0.79232514 200:3.6980197 212:2.5303688 213:1.0628639 221:1.7684405 233:0.73684585 234:0.26326293 236:2.083894 238:3.6946237 244:2.5873346 252:1.5924711 254:2.5731049 260:2.3188417 263:2.8766758 276:2.8089538 283:3.7923422 285:0.72747505 286:3.0823538 298:6.5725346 308:3.4298651 317:3.4195576 318:0.78765965 324:0.96780479 334:4.7314925 357:3.4897733 361:4.6140037 362:5.4999189 376:0.12562507 382:0.82844591 393:1.6642864 397:5.8175244 404:5.3868637 408:0.84623814 416:0.27143836 418:2.7033634 421:1.8485447 437:0.86169589 451:1.716427 461:6.0156121 466:0.90182084 471:1.0355133 478:1.2705809 482:3.7355251 489:1.4567654 496:1.4129472 499:0.68958199 502:1.3756102 509:4.4905176 510:0.12507647 511:0.23909408 515:2.8942673 529:1.7317674 532:0.30137521 536:1.3474315 538:4.184433 542:0.14884651 550:2.0185857 551:5.1124692 560:6.2922015 562:3.682698 563:1.2710353 568:2.8198059 576:4.5143743 578:0.3412922 580:4.9208288 581:3.3232517 582:2.3181844 587:3.3115029 592:0.12748733 600:0.0037322938 608:0.80007428 611:0.98721087 615:0.21135926 618:0.0071752071 625:3.6492507 629:0.22810096 636:1.8376167 642:0.55472946 648:4.9575725 649:0.47551364 656:2.8033066 657:2.7699077 663:0.95873326 664:0.051797539 667:0.13884385 669:3.2169936 682:3.4272046 686:0.2506302 695:0.79963422 706:2.4751253 707:0.50537586 710:1.7039492 712:0.60541093 721:3.6681809 723:3.281882 730:0.27156407 733:4.0228572 734:2.5829358 735:0.45253026 739:2.7541919 742:0.76574558 747:1.0002539 751:1.4403731 769:1.6068518 774:5.760232 775:0.97457832 780:6.0412226 786:1.2863789 787:0.69808674 792:0.56136668 794:0.25544068 799:0.71853453 801:4.4719248 804:1.7661781 806:0.49624613 811:0.73633033 823:2.1066291 832:1.060867 849:2.1087556 852:0.06849201 855:8.3107004 864:0.051084876 868:6.3358803 872:1.3267511 882:1.887694 887:3.5486026 888:0.19549713 889:0.67666417 905:7.6752291 911:0.48053828 912:0.012735128 913:0.88723481 914:1.2259103 923:0.42375731 928:1.1202904 930:0.4259184 935:3.3733718 961:0.14629567 965:5.9280467 970:1.5120254 980:2.9852619 984:0.72184253 989:0.60850906 993:5.1560993 998:0.90421081 1003:2.7472153 1005:0.99188209 1021:0.30651847 1022:0.57329178 1028:0.9111312 1030:3.0868952 1037:0.18194795 1057:3.7965665 1063:0.33812022 1074:4.6645293 1077:3.0197523 1086:3.7052429 1087:6.4644365 1094:1.0136989 1097:1.7103651 1100:3.5942574 1102:0.61827177 1104:3.7500582 1106:0.053500623 1108:0.52538872 1111:1.6688302 1116:2.6718175 1119:3.719907 1128:0.73997581 1139:1.7719326 1144:1.1541256 1145:0.12159717 1163:0.8140856 1164:2.457557 1169:0.36034614 1177:1.1514453 1184:3.7821441 1192:4.3202815 1211:2.310395 1220:0.096448734 1242:1.3209425 1256:1.3909621 1261:1.4173396 1267:1.2199745 1275:4.6045828 1287:5.3396993 1291:2.9286542 1295:1.4856231 1296:2.2643743 1302:0.91638333 1307:2.7660422 1308:1.7092994 1319:0.22432387 1330:1.1635621 1332:0.4103176 1339:0.86610389 1358:2.8105583 1359:4.4337125 1360:1.5467765 1361:7.1517091 1366:3.8437257 1369:1.9062816 1371:2.5345671 1377:1.7364252 1387:2.4452055 1389:1.3845094 1391:0.45812696 1397:5.2955427 1400:2.5953467 1402:1.9654607 1404:0.67506337 1424:1.1554751 1431:2.920532 1435:2.1826682 1437:0.17040309 1441:2.8721657 1442:0.78513122 1443:10.960159 1448:2.4608045 1455:0.37736103 1459:1.5004935 1480:0.20192966 1486:8.1865444 1487:0.94206131 1490:1.7519877 1499:5.7362847 1500:4.3254352 1503:0.65608805 1504:0.063386142 1507:1.5128914 1518:3.6447363 1521:1.2559097 1536:7.5521812 1542:0.20012358 1552:1.8968761 1553:4.3763084 1564:0.92296135 1572:3.370635 1586:0.078044668 1591:2.8731623 1601:0.14532946 1604:0.86637974 1605:3.111526 1606:3.1009045 1616:0.026332378 1618:8.8380842 1628:0.14083707 1629:0.18505782 1633:1.2147939 1635:0.4282065 1636:3.1226952 1640:1.8242434 1642:0.093901724 1644:1.562327 1649:0.67082816 1655:5.2782397 1657:0.84773183 1658:2.7824001 1659:3.1275203 1665:2.2003086 1670:1.123722 1676:1.4163036 1678:3.001374 1690:1.0152557 1694:4.6988974 1704:0.86878157 1705:0.17702201 1706:3.9491532 1708:1.5494233 1729:0.65286046 1730:0.22742778 1733:6.8878469 1736:6.6264291 1739:1.2696726 1741:3.3448558 1743:1.0525622 1744:4.8150043 1745:5.3061805 1752:0.40299231 1754:4.4756646 1759:1.1159143 1763:1.9552325 1779:3.6626053 1786:2.4011724 1788:3.6595349 1793:2.6485622 1795:1.5374792 1798:1.4048605 1812:2.1885035 1815:2.3078001 1818:8.806819 1822:3.8957331 1826:5.7268395 1827:7.1157026 1829:3.4499698 1841:0.18450223 1842:6.3754754 1851:1.0471566 1852:3.0632567 1855:0.10444677 1862:0.83669341 1867:2.8170145 1872:2.6319151 1874:6.5153551 1878:1.0780549 1881:0.53931892 1882:3.0175309 1892:6.2629037 1893:4.1846299 1894:0.54278284 1898:2.4277065 1907:2.7637115 1916:1.9570956 1925:0.6172719 1928:2.9948277 1931:3.5500221 1937:1.0680635 1943:1.6768926 1945:0.0041237473 1951:0.41559923 1952:1.073824 1955:7.0196633 1960:0.024106532 1966:1.796562 1971:0.38772485 1977:2.434756 1978:2.1740823 1983:2.5439472 1991:4.1241217 1996:4.7198386 2000:1.3434153 2005:1.0681895 2009:6.2411189 2031:0.35231829 2035:2.3135405 2036:3.5407214 2041:0.97310883 2058:0.20762365 2059:4.3616838 2063:1.0290911 2065:0.11324836 2066:1.1991122 2079:1.2632942 2087:1.2163934 2094:2.0856791 2096:3.4546919 2103:0.42588449 2104:3.4195256 2106:1.6839716 2116:3.3187909 2118:2.6734712 2122:0.6617198 2123:0.29712269 2125:2.8115461 2131:4.5237045 2139:0.3781215 2148:4.3732047 2150:0.68657017 2151:0.044468582 2160:3.0180173 2188:3.1359153 2189:0.3901692 2192:0.54331076 2195:6.7401395 2200:3.8647661 2206:0.69792867 2212:3.0198128 2213:0.98370469 2217:0.54977483 2237:2.0036893 2239:3.1030145 2240:0.65786171 2247:1.8895383 2251:3.392395 2252:0.6583277 2260:3.1874475 2261:1.1460022 2272:7.8762755 2273:0.45726493 2278:0.41215205 2291:2.2449276 2297:0.61497766 2299:1.2057557 2303:3.040128 2304:2.0984454 2307:3.6669188 2311:1.2328144 2333:0.0015723109 2338:0.1053699 2340:6.6403255 2342:1.3916116 2345:3.4547625 2354:4.8496313 2364:4.0179577 2376:0.78659952 2410:0.61912358 2419:0.37594348 2425:0.72024208 2431:5.0949111 2438:3.5015457 2454:4.0759931 2468:0.28145856 2472:1.9511356 2475:1.8900601 2479:3.0493288 2484:0.95744073 2498:1.1848614 2500:0.055829942 2504:1.3559357 2510:0.42303485 2516:1.4438207 2523:1.4010623 2530:3.0925522 2535:4.9683056 2541:3.9182272 2544:1.1627846 2547:1.3237695 2554:5.9147439 2561:0.42625976 2571:0.63464856 2573:1.1971781 2574:0.6784057 2586:2.5079336 2588:1.9577589 2589:1.0592358 2593:3.0708783 2594:3.6002536 2596:2.6281128 2600:5.6458139 2601:0.41426414 2619:1.437381 2628:1.6036915 2641:0.91200995 2646:2.1707435 2647:4.2438416 2653:1.4601768 2654:2.9723756 2657:0.73023456 2659:2.9281344 2660:3.0546055 2662:0.72058547 2674:0.6657238 2676:0.73068511 2682:1.0584885 2705:0.31353346 2713:8.5795221 2718:3.4273393 2720:3.3648605 2726:1.5864985 2732:2.4871209 2738:1.0125114 2745:7.0012269 2755:1.6878183 2766:2.3743904 2771:2.7637956 2778:2.1080844 2785:2.0733552 2786:1.8813131 2800:0.57161629 2804:0.5899905 2806:0.95222449 2819:0.67885941 2823:5.9897008 2842:1.0263376 2859:9.6985378 2862:1.6123608 2877:1.4037718 2882:5.5107379 2887:1.4226077 2898:4.0305829 2904:0.86724889 2917:0.19774786 2920:2.1993299 2922:3.2378867 2924:0.69769073 2932:0.65478921 2940:1.6659048 2967:1.3544053 2973:4.1795473 2976:1.2787733 2977:1.0237224 2979:3.1824203 3009:1.7535453 3015:0.92687845 3018:2.7125039 3023:1.6467706 3029:0.083269536 3033:0.71157235 3040:1.2275987 3042:0.34422156 3045:1.3934774 3046:4.7631531 3049:3.6734211 3050:0.1156525 3053:0.46365488 3063:1.0618259 3072:0.6726011 3074:2.1360247 3083:6.9715757 3084:0.018506393 3090:0.83867466 3092:0.34264988 3101:0.75066829 3108:1.7587657 3111:2.4980671 3119:0.84152138 3123:6.0506806 3129:0.76441312 3141:0.69707793 3157:4.3466988 3162:3.3645542 3168:2.122834 3172:6.2745399 3184:0.029517055 3204:4.7052231 3208:5.3293962 3209:1.2755954 3233:3.5677004 3240:1.8959249 3243:0.028607935 3244:1.0582607 3248:1.4659973 3256:0.70764565 3258:3.8387036 3261:1.5307611 3267:3.0430336 3277:0.28597975 3290:0.056330942 3293:1.541572 3299:0.63254309 3300:2.4124749 3301:0.26422647 3302:3.2914515 3308:0.5118317 3317:0.28607303 3318:3.5664194 3321:0.35303858 3325:1.237555 3326:3.0657618 3334:0.19845346 3340:6.3220296 3354:1.6676314 3365:0.1327256 3367:1.4904182 3384:2.9996855 3385:4.7600498 3394:2.2292297 3401:0.53536379 3405:3.0675225 3414:4.9381771 3428:5.1702895 3443:1.4754465 3451:1.7361172 3453:2.3571839 3456:2.4199309 3457:1.9917065 3464:1.1255217 3474:0.28106493 3479:2.9979072 3481:2.0762086 3482:1.0086074 3489:1.0256412 3491:2.9477527 3500:2.9567189 3507:0.075899541 3508:1.3793988 3509:0.16663253 3511:1.2613035 3513:1.226897 3522:0.75570178 3526:2.9745519 3527:0.62899005 3528:2.7386317 3554:1.607848 3555:2.3160725 3567:0.34402317 3578:0.29674971 3581:2.2033448 3587:1.7305434 3590:4.2696977 3597:0.58547539 3601:0.88375407 3603:1.5722516 3610:1.0279222 3611:0.45526636 3613:1.6381789 3625:0.18741684 3627:5.3199854 3631:0.28259307 3634:1.5642632 3635:0.51122153 3641:3.408989 3644:2.0919805 3647:1.3674648 3653:1.2121171 3658:0.14282411 3669:0.44901827 3675:4.355082 3677:0.69276094 3683:7.0671701 3693:1.7112846 3700:2.985851 3708:1.6940246 3710:1.6130739 3735:0.54839224 3747:0.027723074 3751:0.36901584 3752:1.2417419 3753:4.3109326 3757:0.11166368 3759:0.17282167 3763:6.4815245 3766:1.8309206 3767:1.3408411 3769:0.51219553 3771:0.19254506 3778:0.14345521 3781:1.0159078 3783:0.3533268 3784:0.36385778 3792:0.79605293 3801:0.11904612 3805:0.61012602 3811:0.35609984 3819:1.3872764 3820:0.010383993 3822:0.21103433 3828:4.5401478 3834:0.28565645 3835:5.152319 3836:0.52779222 3838:0.16884756 3844:5.234766 3846:0.95857072 3857:1.7305955 3863:1.7480552 3866:1.7333406 3870:0.98462296 3891:2.1699295 3893:0.72421622 3896:6.8760209 3900:1.9077652 3903:3.3706827 3907:2.5548372 3908:0.012447447 3922:6.7529492 3933:0.60028648 3934:5.226923 3941:1.3922518 3942:3.4173069 3944:0.26186171 3953:0.86187911 3967:1.002028 3974:0.30653572 3981:1.550374 3988:2.1250894 3991:4.0137634 4001:2.9972761 4004:2.0785458 4017:1.7400461 4033:1.5951364 4035:2.7198441 4046:1.3816651 4047:1.3649673 4053:1.3476101 4055:0.30698583 4058:0.46881208 4069:4.6280918 4074:3.4690089 4084:3.3113196 4087:4.9485025 
0.0184072657395085 1:1.4374297 11:0.12694606 15:0.089857548 16:2.5127871 19:2.4389174 21:1.2695714 22:1.7897476 23:3.8551486 26:6.9217615 29:4.9614544 31:1.1451917 34:2.7433114 37:3.4216685 41:2.9401081 42:3.4854388 44:0.034785658 63:1.1948944 69:3.5826094 70:1.2129226 83:8.0745735 90:0.27978933 91:1.7116721 97:0.26110595 104:0.0076241493 111:1.8585746 133:1.4297881 140:0.96051967 141:0.20042789 143:0.27177674 144:0.68111485 154:0.36349541 156:2.4703333 163:1.9781065 169:3.330071 175:1.7635527 186:4.0841351 220:0.15325284 230:4.6462421 232:4.670414 238:1.4421086 263:2.7995644 270:3.1444161 276:4.8527989 283:6.105639 285:7.3165703 288:0.18078354 291:3.0556731 298:5.5918813 308:0.17440498 318:5.4819937 320:2.5246172 328:2.2443414 331:1.5358762 346:3.5837736 357:7.5401468 361:2.5249004 364:0.54160202 365:3.0416429 369:0.49853057 388:0.10490298 391:8.6394014 393:2.2721066 404:2.6374986 406:0.92056835 413:3.0638914 416:0.98928547 417:2.1709607 418:1.0361385 421:1.5859133 422:3.2049716 437:0.53566968 443:0.20181119 448:4.3699532 450:3.23136 461:0.12974533 462:3.6921239 473:0.35123926 478:0.56594527 482:0.21850054 485:2.0424204 489:0.44746387 503:0.78343242 516:2.0098672 521:0.98029757 522:5.6921215 527:0.49884763 530:1.2848009 536:2.5034258 537:0.66654587 538:4.1089902 551:4.6867619 552:0.67629904 560:6.1369581 562:6.5051537 569:2.187185 570:1.2271307 575:0.56728876 576:0.55921978 582:5.3907056 584:1.2436249 587:1.9777406 590:3.0948021 591:4.8018284 608:2.0088353 623:0.011233985 629:0.90084136 637:3.3347392 638:0.61911118 640:2.7740633 648:3.7585466 649:1.7466928 652:0.58490938 653:0.39798078 654:3.7372923 656:2.4953692 657:0.20370483 658:2.9472363 660:0.10586327 662:1.9217182 666:0.35057849 669:1.1450332 670:1.1014302 682:6.483542 684:1.7626758 693:3.3929148 695:1.2022114 718:0.7828306 721:0.15219703 727:0.84898794 732:1.8203207 733:4.3512921 734:0.29310817 735:0.099146664 738:4.8110065 739:2.65957 746:3.3459592 747:4.0950203 751:0.031630322 752:2.9494629 759:2.2858205 767:2.7394295 774:1.7730277 779:1.7028595 780:2.8246169 781:1.1632907 791:0.97836018 792:2.2564297 796:1.4198276 801:1.7515026 806:0.53736436 827:0.76692581 828:2.2422609 830:0.30783126 833:0.91415483 834:1.8291894 836:0.32446438 853:2.8508964 855:8.4882526 864:3.9651737 868:3.3780777 880:0.0070786178 882:2.8535113 883:2.2738922 887:4.9151311 890:1.6179073 895:1.5956006 905:9.0521421 911:3.247653 923:1.3661952 928:1.3288733 930:0.97498631 933:0.23749986 939:1.7806469 940:1.7319658 953:0.63885355 954:4.6848307 960:1.7026834 963:2.0163357 964:1.7085867 970:2.76898 977:4.0681009 988:0.27763966 989:1.5177966 993:4.3276854 1003:6.1533775 1005:1.585501 1006:0.6542623 1009:3.5471048 1011:1.1595626 1028:4.4853201 1046:0.18770182 1048:1.3050827 1077:3.0522993 1087:4.6987042 1088:0.63779324 1091:2.2060747 1097:5.7166719 1099:1.0633855 1104:1.2050565 1111:5.1044087 1116:2.7458007 1119:1.2603414 1128:1.0025036 1139:1.8402518 1143:2.4944253 1146:3.7216866 1157:0.95915091 1161:1.8473418 1163:1.8984368 1183:0.22400069 1184:2.1731844 1192:0.7348628 1195:1.2277681 1202:2.4972136 1211:8.5028534 1236:0.66303122 1240:1.4265072 1242:5.7193756 1249:0.23261514 1256:2.0494766 1260:0.17128831 1267:3.0709202 1275:5.1081104 1287:3.3449321 1295:2.0854785 1296:1.5683635 1298:0.2306686 1305:1.683844 1306:0.096225917 1332:0.29400378 1339:3.8095372 1341:6.4815431 1350:0.24646735 1355:0.49542138 1356:5.5488186 1358:6.1510568 1361:4.3903327 1371:1.0220985 1377:1.3835385 1378:0.39131272 1387:4.0829625 1389:1.7034409 1399:1.5929019 1400:5.1325002 1402:3.8300378 1408:9.6219721 1409:0.21014419 1434:1.3751663 1436:2.2815843 1441:0.026714504 1443:8.7522373 1450:5.3115354 1456:3.3083653 1459:6.0129943 1463:0.42300594 1473:0.8623026 1474:0.39252818 1475:7.8809042 1476:1.2804726 1486:4.571672 1487:3.7182903 1490:1.0386388 1492:0.06177488 1499:5.2907128 1501:0.19776529 1517:1.4813695 1518:0.87026012 1529:0.25950578 1533:0.26477164 1537:0.57090759 1539:1.8574795 1551:2.4198303 1553:4.4247217 1556:0.6104784 1558:1.5995178 1560:1.4796661 1572:3.3409147 1579:0.10807875 1584:1.2798139 1597:1.0140018 1602:0.70133066 1605:0.20826539 1610:0.77473789 1618:1.4631681 1628:0.18442467 1629:0.24479192 1633:3.3320467 1636:0.5406844 1640:0.16008332 1642:1.8569248 1649:0.81869805 1657:0.49630755 1663:1.6008478 1666:1.7219123 1670:6.225378 1672:5.4237638 1673:0.60019535 1676:2.5336533 1678:2.4541297 1687:4.1630731 1688:4.6956048 1703:2.8553209 1704:5.9221611 1708:1.9743862 1709:1.0157037 1716:1.9992416 1717:0.052706897 1722:3.510088 1726:1.9317766 1733:5.1264439 1736:0.39208072 1741:5.797616 1743:5.4444609 1744:7.1246243 1745:0.38203368 1754:1.1322086 1762:0.48042619 1766:2.2165577 1779:3.4912293 1786:1.534528 1788:0.031573892 1793:4.9203691 1798:1.3472543 1801:0.004080846 1815:3.232981 1818:1.2981355 1822:5.6347799 1826:5.4584064 1827:3.9155231 1829:2.6438422 1842:4.8514042 1851:1.8529615 1852:0.97039407 1858:1.5510533 1860:1.7423704 1874:1.4987724 1878:2.3848622 1881:1.5776386 1882:7.6901698 1884:3.9621818 1885:0.35853356 1890:1.2273245 1892:0.4307496 1893:4.8840985 1898:0.63794208 1916:2.2045586 1930:0.67332965 1950:6.3250995 1951:4.2539248 1952:0.69859159 1955:10.032367 1957:0.35823154 1960:3.4706323 1965:1.9047774 1971:0.77191019 1973:0.3072288 1978:6.8775525 1982:1.495585 1983:7.9616084 1991:4.3968754 1996:1.0757471 2006:0.47734001 2009:3.1854892 2025:1.2705199 2030:1.1202033 2035:4.1923509 2039:0.43337655 2040:1.6010755 2059:2.3897786 2063:0.76525927 2066:1.1212654 2068:2.6509259 2074:2.6568246 2078:1.8089772 2094:0.18495558 2099:2.628293 2103:2.49244 2108:0.85881323 2116:3.0304515 2118:3.7258701 2119:1.6343863 2122:3.0014856 2125:0.65520328 2131:1.9958562 2133:4.1076002 2134:4.7972794 2141:2.5321896 2142:0.32692546 2146:0.49380758 2148:3.784817 2151:3.3208849 2160:0.53161597 2162:0.52085173 2176:0.72185642 2178:4.4256577 2189:7.5773778 2192:7.7843466 2195:4.5377488 2213:4.7763801 2229:0.85102797 2247:1.998817 2254:2.9950531 2260:2.4883432 2272:6.9218111 2277:0.287211 2278:0.89815426 2283:0.9747566 2295:0.80119514 2299:3.465265 2306:4.3739462 2307:5.6712179 2309:3.4288139 2334:1.2449138 2340:4.2092891 2345:4.7527566 2356:2.8169875 2364:0.36126831 2366:0.25391361 2373:1.6962969 2383:2.4034848 2397:2.5137515 2403:0.23302364 2406:1.4581954 2414:5.227283 2426:0.69853991 2438:2.6953332 2453:0.73288751 2454:3.5439026 2468:1.9423306 2472:1.6298847 2473:0.49699172 2475:5.0389075 2491:1.9900464 2498:3.2423289 2500:4.1106477 2508:2.860359 2510:1.8460379 2516:1.2661452 2518:6.334126 2541:3.7068007 2554:6.503418 2563:0.67688727 2567:5.3547969 2571:3.6133671 2573:0.7999174 2574:2.0639627 2581:4.0883579 2583:0.5370208 2586:0.098715007 2588:0.39115024 2589:4.2455835 2593:0.93805379 2596:0.1703009 2600:3.1978235 2601:0.11979648 2612:1.7782543 2619:0.41020358 2623:3.1034837 2634:2.5301118 2641:0.80664468 2646:4.6111226 2647:2.2382412 2648:1.6878542 2650:0.63151407 2653:2.2938857 2659:2.1593342 2660:2.4260392 2667:1.1754566 2673:4.179975 2674:0.67934012 2681:1.5446169 2682:5.1580076 2696:4.2830677 2709:3.4084811 2713:10.597099 2718:1.0892357 2720:4.7463503 2731:0.96308136 2733:3.162118 2762:3.4587655 2766:2.0343354 2768:7.3955235 2770:4.5012107 2773:2.0972698 2778:5.2727737 2782:0.97369003 2804:1.3824085 2806:2.5269766 2807:1.8295645 2811:1.48488 2819:3.106355 2833:0.55861986 2850:1.4384497 2859:2.5125532 2862:1.8851246 2865:1.2479476 2897:2.3510537 2902:0.63122952 2922:5.8055282 2931:4.1270351 2932:1.8998412 2936:2.1900442 2938:0.22252381 2940:0.1748772 2942:0.64791679 2961:2.0407519 2973:1.3657337 2988:1.1070158 2989:2.0664575 2993:2.3145154 2999:0.57566988 3009:2.9803541 3010:1.4407899 3012:0.86655474 3015:2.6891184 3018:0.24891958 3043:1.0491105 3045:1.0663669 3046:6.2230711 3050:0.23698664 3053:2.7152312 3055:0.041575491 3060:0.10990407 3063:5.1888108 3067:0.66846907 3076:3.2372992 3082:0.70103192 3083:1.9384402 3084:3.0367105 3085:0.819345 3090:0.18091953 3101:2.0235512 3108:0.66440833 3111:0.38577059 3118:1.9814982 3119:4.8404589 3120:1.525028 3123:9.0867758 3125:2.35306 3130:2.9903412 3140:3.1949716 3148:1.6732097 3157:2.1959372 3172:2.9497771 3178:1.4250531 3180:1.7878366 3193:1.0652908 3204:5.1792746 3208:2.4829218 3209:2.1341994 3210:4.5019293 3221:6.4447432 3233:2.561523 3238:5.0494404 3243:0.77763963 3248:2.77104 3263:2.7361853 3264:3.0713594 3268:2.6571181 3273:0.0420729 3277:0.95137185 3286:0.18555689 3300:2.0617731 3308:0.45820823 3318:1.0342562 3325:7.9057784 3326:4.7681618 3333:3.0654726 3337:0.11696799 3340:0.0029557347 3353:1.4790918 3364:4.0983162 3380:0.35082033 3384:4.5631518 3385:4.2526183 3390:2.8084228 3397:3.0853968 3410:0.17863539 3414:2.3812902 3418:1.8014673 3425:1.3547401 3428:0.7641412 3435:2.3619998 3453:0.82477778 3458:1.930101 3463:0.21070065 3464:0.77778751 3479:2.3193738 3481:5.0104523 3484:0.024202406 3498:0.51619643 3500:1.8865474 3512:1.7170993 3522:0.71870303 3523:2.1967044 3526:4.9469423 3528:4.3597503 3547:1.8253374 3554:2.9426236 3555:0.82767552 3561:0.78412819 3567:0.63956898 3578:0.047401071 3580:0.099527806 3597:2.175936 3602:0.44377548 3606:4.3663545 3608:0.13875097 3610:0.34614569 3612:3.1879275 3613:6.5147209 3617:0.67407292 3627:5.9934063 3631:3.8365397 3635:1.3548543 3641:5.7608404 3646:1.7998263 3647:0.17632237 3650:1.8536897 3653:0.18004902 3675:3.3837831 3693:1.8213825 3700:2.0117209 3714:0.40317473 3715:2.6995168 3717:1.5735767 3728:2.68325 3733:3.5254827 3735:0.54339433 3747:3.1169977 3749:1.7559333 3750:0.9148044 3753:0.74557644 3759:2.9637446 3767:4.2480111 3769:2.1101048 3771:0.6611532 3781:1.9177077 3783:2.0762937 3792:1.8442034 3794:0.27351367 3800:2.0673723 3806:0.18380234 3807:0.68886733 3811:0.54684746 3817:3.6518044 3819:3.3902383 3820:3.0664008 3821:2.8098574 3828:1.9628316 3835:3.5361753 3836:2.4914753 3844:1.2480354 3846:0.90852958 3850:0.77123994 3851:0.63762164 3857:0.78304416 3859:2.5533304 3860:4.3804708 3863:0.25654182 3866:3.1733646 3886:3.903398 3888:3.7220049 3896:2.9515193 3900:0.59140062 3903:1.6132962 3907:2.0337069 3913:2.56984 3918:1.6201949 3922:5.3436279 3930:1.6903971 3934:3.0463376 3936:3.1042395 3941:0.59690434 3942:3.4340079 3952:2.122951 3979:0.84402728 3980:0.059868604 3981:1.5834421 3988:2.0141699 3991:1.9957213 4001:2.2889268 4004:1.1971525 4017:0.019431502 4025:2.8646884 4026:1.5132912 4032:2.8112535 4034:0.25734439 4039:0.96352875 4047:5.2252026 4051:6.2288556 4053:1.6779541 4056:0.72497654 4065:2.1378191 4069:3.0913198 4077:1.1148996 4087:4.0948577 4088:0.44100356 4089:0.97009307 
0.183955976445855 6:1.4310822 11:3.6815069 15:1.9825058 19:1.0428692 21:0.070506468 23:5.6933465 25:0.67127413 26:2.1176796 29:0.54875779 31:6.8226738 36:3.8122072 38:1.1837575 42:1.4398774 43:0.33059627 56:0.25676799 66:0.13681287 69:3.7991295 70:1.0824306 77:1.0554209 82:2.9236302 87:1.7711817 91:3.8960018 97:1.8909404 107:0.040522933 109:0.89679456 111:1.4434173 122:3.808893 140:3.5762713 141:4.92169 144:2.8843846 146:0.62530392 156:0.52941388 169:2.6982102 172:0.11491894 175:3.4240689 179:2.724926 185:0.60588229 190:4.154007 191:0.22325595 200:7.6429467 202:1.3366854 206:0.59545028 212:3.4228961 217:0.72490251 218:0.50790572 221:3.4989371 234:1.1365414 238:0.47097 247:4.6860819 252:6.5623312 254:0.59813595 263:0.099867076 276:4.0404696 283:0.67354459 291:1.0595791 298:1.3113027 308:2.4714639 318:4.8572888 321:0.029471517 324:3.6455178 328:3.2064686 334:1.1025275 335:0.16670892 354:0.38017672 359:0.96900296 361:4.6872478 362:0.92810267 366:0.6794275 369:0.2482461 375:3.6294343 386:0.8644861 388:2.0936577 390:0.8430773 391:3.8852632 400:1.5517721 404:0.23374981 410:0.97047377 416:2.6391594 435:1.4851186 437:3.9665174 444:0.1824072 448:1.3675687 453:1.9812093 461:3.9056916 462:1.4960757 464:0.84313667 471:2.9546955 482:1.5575912 489:1.9247794 496:3.58097 498:2.5297976 502:1.683742 503:0.34861544 507:2.2919161 509:1.489022 510:1.8121756 511:1.701189 515:2.5180769 529:1.4773614 531:1.4903834 532:0.46511078 536:1.2036173 538:2.7468238 542:3.9192915 557:0.35839382 558:0.7843042 560:4.4350066 562:5.8006763 565:0.51618195 567:2.2946672 568:0.72995424 574:2.6866069 575:0.61758244 576:4.3359294 580:5.3290491 581:2.8433859 583:2.9191859 587:3.3337269 590:2.0896783 594:1.7062521 600:0.82628733 606:4.4159665 608:1.7462114 611:0.048609793 619:0.44117689 621:0.808577 629:1.5197157 631:0.21698827 636:4.6589899 638:1.9142849 640:2.7327144 647:1.7831948 648:0.85140485 654:4.0831723 656:3.0079739 657:4.1409988 658:0.86662388 664:0.0068492293 669:6.4369626 670:1.6216359 675:1.2611399 680:1.1773415 682:0.46942756 684:3.2881775 686:0.71643949 687:0.23870756 691:0.016296476 696:2.4951334 706:4.1727667 721:4.3665361 732:1.8981885 733:2.8036876 734:2.2925022 735:1.4893349 737:0.30333081 739:3.8279328 742:0.16052288 746:2.6018677 747:7.0538168 752:2.4126453 774:4.0913553 776:2.2412992 779:2.8269944 780:1.850791 781:2.4451408 792:4.6150146 799:2.1621017 801:3.7614222 822:0.5820666 823:1.3417512 832:0.94655985 835:3.1475837 841:0.36468822 853:1.1444991 855:2.1767478 862:1.8215954 864:0.86208487 868:8.5614405 872:0.13515198 882:2.2515011 883:2.8973155 884:2.4560614 887:1.9992471 890:0.92054105 893:1.945969 898:0.57458895 901:0.13871893 903:1.3967391 905:10.146151 909:1.5155516 910:0.70600575 912:0.14423496 917:3.091692 923:0.59533834 928:2.9919364 930:1.3215868 933:2.273839 939:2.800148 940:1.2267843 944:2.2374854 958:0.10090348 961:0.10252839 964:1.0890863 965:5.0244007 970:0.5028981 984:0.084911674 993:4.765285 995:2.9973829 1000:2.3962135 1003:2.4304357 1014:1.7034857 1018:1.9834149 1022:1.9525399 1028:1.6316303 1030:2.787461 1042:1.3312609 1057:1.0135281 1062:1.111798 1071:0.78989404 1073:2.068043 1077:3.0426433 1087:1.1552157 1090:1.2592812 1091:4.0784907 1097:5.4781771 1100:0.10718909 1104:1.7150285 1111:2.3891492 1116:5.7247853 1119:0.54994124 1122:1.2953198 1128:0.41205943 1131:0.13713609 1139:3.6807919 1145:3.0634539 1161:5.114296 1162:0.18383422 1163:2.4313011 1168:0.96193475 1173:0.36918384 1175:0.77718383 1184:2.6706991 1189:0.1029378 1192:1.5833125 1200:1.1368723 1202:0.14455718 1206:2.2355421 1214:0.88417602 1222:0.15673557 1236:4.101944 1240:2.0767918 1242:3.2615623 1256:3.7264099 1257:0.73683798 1260:2.953192 1263:2.9827652 1267:3.3784807 1275:3.2814171 1287:2.6170037 1291:3.4002004 1293:3.1268084 1298:0.26725265 1299:3.0809474 1310:2.3706727 1328:0.13759536 1330:0.15960416 1331:3.186296 1356:3.7228014 1358:3.7350259 1361:7.4562297 1366:1.4355839 1371:2.1700797 1389:0.16181743 1400:1.3860154 1402:4.8252707 1407:0.59838212 1408:5.1908627 1431:5.5709515 1441:5.4442549 1442:0.93862993 1443:3.5538936 1448:3.7751434 1450:0.89851648 1455:1.2703474 1459:2.157711 1465:0.41793534 1467:0.90802652 1477:0.78220582 1478:1.1061593 1486:6.8946214 1490:7.5107312 1496:1.8344151 1499:8.3175106 1500:3.9549439 1504:1.0667177 1516:0.064113021 1518:2.0642519 1521:0.027309686 1523:1.2142367 1533:3.5156918 1536:0.13576755 1551:2.4320116 1552:2.8543181 1553:1.7740844 1558:5.1272297 1572:5.5468702 1574:2.3220317 1581:1.2080863 1586:4.5441542 1599:0.036365002 1604:2.6987543 1605:3.1220872 1606:2.7183714 1610:1.6483543 1616:4.7608304 1620:3.303231 1628:2.8124888 1633:2.810389 1636:0.58577406 1640:0.19854775 1644:0.70057511 1647:5.9271164 1653:0.41176516 1654:0.83874834 1655:3.4661973 1659:6.5407948 1660:2.6106939 1663:0.3724235 1665:0.28974649 1667:2.4488349 1670:5.1594019 1673:0.58569258 1676:0.95277774 1678:4.3489442 1683:1.4206624 1688:4.1577816 1697:2.0860987 1704:3.2730815 1711:0.45166355 1714:0.2129399 1720:0.20037296 1721:0.35007402 1722:3.9574628 1726:1.0508909 1729:3.5446339 1732:2.803256 1733:1.8428835 1736:3.5864782 1741:5.501708 1743:1.2857041 1744:8.9987049 1754:6.1606722 1758:0.96919745 1759:0.92193604 1762:2.4425561 1774:0.6212514 1778:0.069334865 1779:2.8704841 1788:3.1206503 1793:1.391444 1795:0.01887536 1805:2.2119238 1815:0.50091964 1818:2.1798544 1821:0.050508291 1822:3.2388833 1826:5.655323 1827:9.4475937 1829:0.93455124 1841:0.97499871 1842:4.7117314 1845:3.0523 1851:2.273639 1858:3.2118278 1862:0.031516418 1867:0.74639487 1874:7.0182476 1877:0.78442359 1878:6.7929029 1883:4.7182446 1884:2.7371063 1892:2.1401575 1893:3.9982615 1896:0.5687927 1897:1.8364351 1898:1.5507505 1916:5.0602355 1923:0.05714779 1925:1.8812733 1928:3.165978 1931:4.5577579 1945:0.55442506 1950:0.90430921 1955:1.8602569 1960:0.81877488 1982:2.634232 1983:4.8657126 1991:3.2868693 1996:1.5528435 2000:1.2901118 2008:0.26325062 2009:5.4046087 2027:1.2720025 2031:0.59144706 2035:3.2221148 2036:1.8975577 2055:0.69012761 2063:3.2435913 2070:2.3018198 2078:1.8554558 2094:1.3678902 2096:1.2375171 2116:2.5809007 2118:0.36398107 2122:4.1342878 2123:4.1688242 2128:4.2799611 2131:3.2683036 2132:0.77843404 2133:7.1126299 2139:1.1336257 2142:0.68006182 2146:0.92955244 2148:3.543514 2150:0.84664154 2153:0.1696924 2160:1.0192747 2174:0.11532925 2176:3.5007558 2178:0.8335849 2180:0.50728953 2188:0.1140985 2189:4.7878122 2191:1.0192966 2192:0.44440025 2195:2.9196796 2208:3.1676991 2212:3.9059889 2220:2.3498123 2222:1.0686594 2232:1.7204292 2237:0.68223441 2240:3.2189987 2245:0.44217616 2247:5.1604357 2252:0.43224546 2254:2.9799538 2261:2.0326138 2270:0.032141328 2272:0.818757 2273:1.9437966 2299:0.065610886 2304:6.8100314 2306:1.2286586 2307:0.1929419 2318:1.1906798 2333:2.0114431 2340:3.3439977 2342:0.56136644 2354:2.516994 2361:0.99975443 2374:0.4520191 2377:0.75250316 2383:2.7097499 2390:5.2131133 2400:7.7234955 2406:4.2388825 2418:0.28869793 2431:2.1878209 2438:3.8939204 2441:2.5177796 2449:3.5025442 2453:4.0943184 2456:0.404347 2459:0.89699084 2471:0.41567904 2472:2.3909059 2475:3.2694182 2479:1.1700113 2491:3.4850996 2497:0.062361553 2498:0.61763328 2500:3.4032612 2505:0.11534834 2508:1.372437 2512:3.4568746 2518:4.8545547 2530:0.46470907 2535:0.036845475 2536:1.0704446 2541:2.299824 2544:3.8898611 2545:0.053135335 2547:3.0247936 2554:4.1200261 2557:1.1490091 2561:0.60064578 2567:2.66466 2570:1.9620128 2571:5.5224156 2573:1.0589435 2574:1.8400614 2582:0.61287069 2583:2.1835852 2586:2.2190797 2588:3.8413978 2589:3.5363429 2593:4.6928291 2594:2.2210951 2600:1.6856227 2612:2.2083428 2614:1.4724048 2619:2.7949152 2622:0.69697785 2623:4.0543442 2628:0.22539611 2634:5.0974913 2635:1.0153403 2645:0.32940257 2646:3.4422958 2647:2.5718992 2650:0.44097033 2652:0.088480473 2654:0.34543818 2657:2.5207396 2659:5.1161218 2662:1.5908002 2663:4.1288781 2664:3.4899685 2666:0.24236104 2667:3.7837944 2673:1.003526 2674:3.8676035 2676:0.32848424 2682:9.3840961 2696:0.93439472 2709:1.6596277 2713:4.5476985 2718:4.5206695 2720:1.7311956 2727:1.2906839 2730:0.94549519 2732:2.535248 2745:4.5904651 2758:3.7360175 2766:0.054322243 2768:4.4722333 2771:3.024333 2774:0.00045827031 2778:2.0272369 2794:0.036178604 2798:2.2161002 2800:0.90762138 2804:1.6992667 2806:0.43732992 2817:3.1244698 2829:2.7871749 2837:1.0665232 2849:1.599287 2858:4.5635629 2859:8.4178305 2882:4.1141124 2887:1.5420618 2902:4.6461306 2904:4.8861465 2911:5.1535912 2920:1.3745868 2922:8.0530624 2924:3.0223951 2932:4.0703382 2942:0.80152643 2949:1.4918654 2953:0.22823361 2959:3.1484754 2963:1.2004876 2967:0.12972927 2973:1.7790174 2977:0.38349271 2988:2.1005335 2991:1.1388428 2999:3.125807 3001:0.16664699 3009:5.2168145 3012:0.09030208 3029:0.36353493 3034:0.82126898 3038:0.68321466 3039:1.8637416 3043:6.9397497 3045:3.2447259 3053:0.49585849 3068:0.30588594 3071:0.63841355 3072:1.1545154 3077:0.21849728 3082:0.36104304 3083:0.53964221 3085:0.64091825 3090:3.2702901 3101:0.23163572 3108:0.66695631 3111:1.0848634 3119:1.5960546 3123:8.9945526 3124:1.2478708 3130:2.4083903 3154:0.94247228 3157:7.9487338 3160:0.54434943 3162:2.7820635 3170:0.35171771 3171:0.31519413 3172:1.3857576 3174:1.006385 3179:0.067226619 3193:1.2693588 3205:1.526073 3209:2.0225379 3210:1.5543864 3211:2.8425434 3221:2.3639901 3232:0.072098434 3233:2.5375564 3242:0.514534 3244:2.1091888 3257:2.3828225 3258:2.5001926 3260:2.4724293 3261:0.080819383 3262:2.0257852 3268:5.5546083 3276:0.42651081 3277:1.9072733 3280:0.84184158 3286:0.62880051 3289:1.4425116 3293:3.973557 3302:0.72528827 3312:2.2198942 3314:1.0273116 3318:0.7194829 3321:3.937273 3325:2.3608105 3326:2.894594 3333:1.1416446 3336:1.4361804 3337:0.00044620037 3342:0.0042586513 3351:1.95976 3363:0.75311887 3364:1.9420604 3384:3.8344595 3385:4.2417545 3386:0.92897183 3394:2.1557405 3397:1.46672 3401:0.99547112 3405:1.579863 3414:8.2784777 3427:0.34105954 3428:3.0413828 3443:2.2484741 3448:2.136739 3453:2.7006841 3456:3.032764 3472:0.94520843 3474:2.746917 3479:1.6204642 3484:1.2883773 3485:0.22497772 3491:3.0963984 3500:0.86259907 3507:1.6683936 3509:1.5890851 3512:4.1553802 3522:1.5260565 3525:0.0499354 3526:3.1081629 3528:0.18948531 3547:8.4100008 3548:0.11600184 3554:1.1208196 3555:0.94531268 3561:0.036792755 3565:0.29823297 3572:0.33741322 3575:0.98960972 3597:3.120342 3601:0.19531013 3602:0.99121833 3604:2.371366 3606:1.7695066 3610:2.6645956 3612:1.8233525 3613:1.8210704 3614:0.04936029 3625:0.48079073 3627:8.0048971 3631:7.5782032 3634:4.369977 3635:3.2371361 3637:0.86050087 3639:2.7521474 3641:4.6146774 3644:2.5573747 3647:0.3955121 3649:1.2561685 3653:4.115231 3658:1.6017513 3669:0.57124788 3679:1.3177011 3682:0.95381486 3683:7.7448292 3693:1.9159484 3698:0.54205728 3707:1.0818676 3715:2.1043279 3733:1.2808765 3735:0.31075621 3744:1.8227158 3745:0.64388782 3747:0.15006065 3750:2.2148089 3752:0.080070436 3753:1.3868721 3763:0.41131997 3766:0.94997585 3767:0.18824096 3768:2.7287941 3781:1.4431243 3783:0.52085042 3793:0.24037652 3796:4.3702645 3800:0.10204105 3806:1.5162562 3807:0.38060567 3811:2.9380445 3812:6.0137677 3817:1.9920176 3820:5.6454649 3821:2.4402936 3828:2.8711538 3834:0.1399556 3835:3.5383277 3844:2.9586916 3846:2.8874998 3851:1.3609798 3857:5.8922133 3861:2.1870635 3862:1.1853027 3863:2.4079785 3866:3.1719818 3868:1.3324491 3870:3.9326766 3871:2.965507 3886:1.0385971 3891:8.0670824 3896:2.212899 3903:7.7557964 3907:1.1467979 3908:0.093505949 3913:0.18908182 3917:0.39403147 3922:0.1489796 3930:1.5140208 3934:3.8009911 3941:0.75951499 3942:9.1810827 3944:0.099014476 3974:0.093758941 3977:2.370049 3983:1.0290642 3991:1.7732413 3999:0.54733837 4001:0.91054207 4003:0.33704725 4004:5.2657495 4015:1.9291563 4018:0.43192893 4035:0.83089375 4046:0.51566917 4047:1.7270671 4051:0.83853507 4053:3.4275723 4058:2.1446784 4069:0.72759968 4070:0.037380755 4071:2.9398863 4087:2.649173 4088:4.4511576 4093:0.3772487 
0.2996805212559886 5:1.1906552 11:2.8310165 13:1.5015075 16:2.3025882 21:1.1206172 33:1.4956475 38:4.4342995 41:1.8309813 54:5.0307789 57:1.3710495 62:1.4401381 63:5.494627 69:0.32976425 82:1.4058362 84:3.208077 87:2.1594706 91:0.17302425 97:1.0439831 102:2.7854271 104:1.1976173 109:0.0035511255 111:2.8066227 113:0.24325474 115:1.5531861 127:3.6455088 129:4.4541554 143:0.8386761 159:2.8338172 160:5.8763342 172:0.85570633 175:2.1886506 185:2.8444283 186:2.5171432 195:0.41082782 199:0.17890221 202:6.1690841 205:1.8210349 211:1.139065 218:0.54248303 220:2.0368834 229:0.061827868 230:6.3974309 232:1.7512422 233:2.8770406 234:0.38888314 238:4.3211126 240:2.7213368 242:1.8270564 243:3.1480494 247:4.9321351 251:0.78819847 254:4.2039852 257:1.7202368 260:5.7867613 276:0.81636226 292:1.147495 302:0.60020238 307:1.0967326 308:0.81194425 311:0.24575138 316:3.0005212 321:7.3124433 327:0.55812472 331:1.6742288 334:4.269393 339:2.5131483 342:4.6613069 351:1.8967354 352:1.1599829 361:0.79600531 370:0.90205723 374:1.9199629 379:0.71202368 382:3.5473943 385:0.03430301 387:0.75039899 388:2.199007 391:4.5566592 404:3.3179865 410:1.2829602 417:3.3834741 418:1.806519 426:4.7354312 435:2.638705 439:1.6345296 441:0.14039594 442:1.7903004 443:0.22386083 444:4.332787 445:3.0930417 453:1.0147643 479:1.5279794 482:1.7005266 489:2.7819152 494:1.264802 495:9.2647915 503:0.11285442 504:2.3538964 507:0.44488519 515:1.4230531 516:1.2876836 527:0.070701927 531:0.5396347 552:4.4713941 554:3.6792426 556:2.5277801 557:2.2171133 558:1.3936021 559:0.018108875 560:1.4925656 561:0.78079081 562:7.8976316 569:4.4188733 581:2.0861309 587:5.365603 590:3.6158226 598:8.5444555 601:2.3124909 603:0.64201039 608:4.8086643 615:0.80673605 616:0.043931484 618:2.5726151 620:3.2864935 625:0.62566531 628:0.88144934 629:4.3251863 631:1.2843757 634:1.1784351 635:1.0589497 636:2.3387165 640:6.195889 642:1.0691918 647:4.5458555 649:0.54190856 654:5.7543116 656:6.0321684 662:1.3807422 670:1.4514825 687:3.2901216 688:3.7685695 695:1.8657444 696:4.2114763 706:1.0400939 707:3.719243 709:1.1456193 711:1.8350224 717:3.8469918 718:2.8599987 727:0.46988469 732:3.4120085 744:5.3436322 746:1.2011825 747:2.4158356 752:0.94381213 764:0.18582341 778:5.6844344 779:0.22055486 781:1.4553391 786:0.57705259 798:2.9416924 804:0.43540424 808:0.87841237 811:0.18104906 817:0.1284688 828:3.4561176 832:1.1963702 838:0.81188482 842:3.4818494 855:5.7414498 860:0.60632586 862:8.7918129 866:1.3640392 872:2.3475642 876:2.8224373 879:2.52917 880:1.3399178 881:0.15265322 884:1.002269 887:4.9077792 888:3.4823778 892:0.4215852 899:3.3556643 905:0.53078413 910:3.8640842 913:2.4901457 919:0.037324198 928:2.8708937 929:1.9709661 937:4.196887 939:1.4627281 944:0.47965598 953:0.36502516 954:3.6956017 961:3.0987177 964:0.14409946 965:0.6238538 975:0.2725341 977:3.1473451 979:0.33044091 983:2.8654244 988:1.1640422 989:0.71775687 990:1.9882797 993:0.93422842 994:0.84781432 995:0.48307237 996:5.2347436 1004:4.3413115 1005:1.912882 1006:5.9854069 1028:1.3701358 1034:0.24812049 1042:0.36634558 1043:3.0599778 1046:0.010845363 1048:1.3631616 1049:3.4373548 1059:8.0792265 1061:1.4234295 1064:0.88803053 1070:2.0455275 1077:6.671731 1081:4.4778175 1087:2.5671105 1091:4.1832986 1097:4.9013882 1100:1.0803237 1115:0.12860638 1116:4.4887133 1119:2.0851793 1121:6.4440198 1122:2.2078655 1125:0.73335111 1139:2.7887397 1145:1.1567485 1161:1.5731407 1162:3.7232869 1163:3.1189501 1166:0.16264986 1184:1.8202341 1187:4.2185535 1195:1.4118147 1216:1.0072715 1220:1.4370288 1221:3.9120803 1231:0.36389095 1234:5.790451 1235:3.7707286 1236:3.8225605 1240:0.37644219 1242:3.1007497 1243:0.02922821 1257:1.3000706 1260:0.63364476 1265:1.8590283 1270:1.5712547 1279:0.60180378 1291:5.7831464 1294:1.4447281 1297:1.0820212 1299:1.9777219 1306:1.2304085 1310:4.8568463 1315:2.2477534 1329:0.14383709 1331:2.2130091 1333:1.2251294 1337:0.83316708 1342:0.58273745 1347:0.52465522 1351:3.0272889 1356:4.3846612 1361:0.37902385 1389:0.32439071 1400:5.8785596 1402:0.13245282 1407:0.71854705 1408:4.1967258 1414:0.035599068 1428:3.1505783 1431:3.3735735 1439:3.1441944 1441:3.2727046 1443:4.6134458 1448:0.45261711 1449:4.2669373 1456:5.1407161 1459:2.1224496 1465:1.4170154 1466:0.79880726 1476:0.2657643 1486:4.9226313 1490:3.5418856 1493:3.0606813 1496:0.93037045 1500:1.6278373 1504:0.42392504 1507:6.0740514 1508:0.2586484 1517:2.4817536 1518:1.5679147 1519:2.0402174 1537:0.61086696 1551:4.6416855 1552:8.0296926 1558:4.1256404 1565:3.3640058 1570:0.30196995 1572:3.0089269 1579:0.49385726 1596:0.80640036 1597:0.77174771 1599:1.67565 1602:2.7423985 1606:2.0515299 1607:1.66414 1610:0.14013398 1616:4.6842942 1628:3.2348244 1629:1.1774107 1635:1.5060406 1642:3.6756551 1647:3.3236446 1659:6.5595541 1665:2.7230916 1667:0.25776196 1683:2.7486842 1688:4.177043 1696:2.0038249 1703:0.93578696 1704:6.3675981 1709:2.9947424 1711:1.094969 1722:4.0498185 1726:0.46908316 1728:3.5510993 1730:0.8247115 1734:3.0635815 1739:1.2237985 1741:3.7602625 1743:6.1834431 1744:2.8127103 1754:5.4320936 1767:2.5339501 1771:2.6437356 1777:1.4464655 1780:0.37244797 1786:5.4662323 1788:3.373035 1789:0.93149853 1791:0.76823699 1792:2.5220389 1793:0.34236246 1795:3.9683867 1798:2.0142641 1805:0.094653107 1822:1.7810463 1826:0.79442137 1827:1.5676595 1842:5.0978308 1850:0.025512397 1852:2.0438018 1854:1.9947019 1855:1.9773209 1866:1.3269197 1882:7.0234337 1884:1.2531574 1892:2.5629179 1893:5.8501735 1897:4.3382187 1907:0.15992078 1908:4.1391163 1919:0.79990298 1921:1.7699873 1925:0.31309003 1930:2.6838675 1931:0.13842216 1936:0.44949237 1943:1.9280751 1950:8.2275639 1953:1.9568505 1956:0.92016172 1957:3.1734188 1960:3.1669793 1977:3.1557312 1978:0.55643469 1983:7.4539385 1984:1.5827684 1991:9.2957706 1998:3.3301837 1999:4.7868986 2005:1.2610344 2009:4.1177125 2011:2.8166184 2021:4.9403067 2034:0.53969312 2038:0.51482201 2057:1.6976153 2067:0.65729594 2068:6.9063573 2070:1.1990793 2072:2.9178488 2077:0.97477901 2078:1.838858 2096:4.9274611 2097:2.1486006 2101:0.74445796 2104:0.62049723 2106:0.96219134 2107:4.4130125 2110:0.10888559 2119:1.4325469 2122:0.96491146 2127:1.0635039 2129:0.14604115 2132:2.635494 2133:0.067421407 2141:2.2392783 2142:2.5833483 2150:2.948782 2152:3.9760809 2156:3.2526352 2160:1.8313375 2162:5.3608212 2165:0.51699698 2184:6.4749122 2187:4.3035336 2192:2.135098 2198:0.6064015 2204:2.3250275 2210:1.155735 2214:0.00034743547 2220:4.0766506 2224:3.0730021 2236:0.42784688 2237:0.19769487 2240:2.4669664 2247:1.7775793 2251:2.3964934 2254:6.0312057 2255:0.93843585 2266:0.98299038 2268:0.35306314 2272:3.1228633 2277:1.2344625 2283:0.092753306 2285:7.683712 2301:1.495561 2306:3.5601807 2307:1.7570286 2309:3.9215233 2310:2.8014331 2315:1.3442798 2327:0.26781431 2333:2.2033696 2334:5.9001417 2340:0.10542223 2343:0.30717677 2344:0.21522948 2345:0.62199092 2350:1.427985 2359:0.60902339 2361:0.79306054 2364:0.22685316 2365:0.57484388 2372:2.2556074 2390:2.1439016 2394:2.2759709 2400:4.502636 2427:1.3933785 2434:1.1316154 2438:4.595119 2439:0.30231559 2448:2.9849052 2453:5.1209302 2459:0.97148275 2470:3.8505504 2473:0.85164082 2474:0.89670414 2475:1.7665912 2476:0.90349567 2478:1.9756358 2491:1.5792047 2500:0.81119168 2504:0.19672167 2506:0.11964938 2508:1.8827305 2521:1.5042397 2543:0.071820736 2545:0.48505083 2554:2.3132849 2561:5.1760898 2563:0.33969128 2567:3.8636215 2571:2.2237809 2574:2.2514684 2582:0.21038491 2590:5.9221091 2593:5.0470495 2594:2.0820489 2598:0.71819109 2600:3.0951703 2601:1.1166842 2604:0.4919048 2615:0.26415163 2628:9.4136572 2631:4.4761896 2636:4.3740439 2638:2.0632992 2646:1.901088 2647:0.43945226 2648:1.0351374 2649:0.80576324 2657:6.2206955 2659:1.1543869 2660:4.8313055 2663:6.3225942 2667:0.3364526 2680:0.2512922 2682:2.1358581 2685:0.8212744 2706:1.5421753 2708:0.029798336 2709:4.3641663 2713:4.1726837 2720:3.9669623 2721:6.2580867 2736:2.023484 2744:0.77650517 2745:4.7962065 2753:4.548799 2773:0.4284468 2779:0.22357617 2789:0.18488261 2817:2.0324686 2819:0.37716261 2820:0.65491068 2830:2.5994902 2837:2.2385507 2842:1.0747706 2850:3.6026449 2865:2.3827918 2871:1.8717787 2874:0.75503087 2877:0.3757399 2878:4.7636342 2882:3.838994 2887:2.1434748 2888:0.20049036 2890:0.69870961 2893:2.7102528 2897:1.7583594 2901:1.2019181 2902:2.1345258 2913:1.1146336 2918:1.0827299 2921:6.653513 2929:0.80137694 2932:0.041770965 2953:2.6550121 2962:3.5584011 2963:0.7129032 2970:1.2557349 2971:0.680704 2977:0.45374849 2980:0.86845803 2985:3.9160905 2986:4.8885379 2987:1.1685128 2990:0.20302045 2993:1.194633 2995:3.1455622 3009:3.0664587 3027:1.7974492 3029:1.0080608 3033:2.3529692 3037:0.80731338 3042:2.6531861 3043:5.5448546 3052:1.51864 3057:0.58696032 3072:1.1322728 3080:0.65134275 3082:6.2183561 3085:4.3493915 3092:0.33475256 3101:0.80680406 3111:1.3140793 3122:0.83382362 3123:2.4684241 3127:1.0544218 3129:2.0919323 3130:0.37567231 3141:1.9216607 3142:4.053122 3157:0.59644049 3171:1.570833 3172:0.2955361 3187:2.0670776 3189:4.0249243 3192:0.26648709 3202:3.7245653 3211:0.29445356 3223:0.87762237 3232:0.74010611 3239:1.2263787 3258:2.9560995 3261:3.3830836 3262:8.0953569 3272:1.5744734 3273:1.0354759 3275:1.7881759 3281:0.098327637 3286:7.0811253 3292:3.4457033 3300:0.090750217 3302:0.68459165 3307:0.44116956 3312:0.45233768 3321:4.287951 3324:0.68100286 3333:2.0273092 3340:5.3972125 3351:2.7912619 3367:0.5098688 3382:3.5266275 3383:1.5340444 3384:2.5544333 3385:2.8823788 3392:2.1775217 3395:0.81640744 3407:2.2607341 3416:4.3267851 3418:1.4311132 3423:2.5553479 3436:0.41127849 3452:0.1040176 3456:2.5493026 3457:0.8468883 3461:1.647272 3468:3.5030792 3469:0.15912852 3471:1.1419531 3472:5.425149 3474:4.0394959 3479:3.4836857 3481:2.3915737 3490:0.59029245 3497:0.57709754 3498:1.1033571 3499:0.52586788 3500:1.9791155 3509:2.1606233 3512:3.4605863 3514:2.8156464 3522:0.024401009 3526:2.1872356 3528:3.2031493 3535:3.1280625 3540:4.4184904 3547:1.8261249 3554:0.59378439 3556:1.7288945 3564:1.7741857 3572:3.9451029 3576:2.2483802 3579:0.78338212 3585:0.31598631 3594:0.59651226 3597:4.184298 3601:0.855169 3605:2.5517201 3612:0.019660316 3626:2.5963414 3627:2.5658369 3631:2.3668976 3635:0.63938969 3639:4.2684727 3644:3.0150964 3657:1.0345351 3662:0.61752164 3667:0.59023207 3675:4.2032766 3683:0.31239775 3720:0.8575151 3722:0.81320667 3728:1.1199231 3736:0.24997585 3739:5.6733532 3753:2.3049264 3757:0.14324613 3762:0.33833587 3763:3.8656087 3767:0.6584276 3768:3.6254089 3769:1.4056754 3771:0.31340462 3780:0.22457889 3794:0.73271227 3796:0.50679827 3799:0.47777849 3800:0.018216241 3811:1.5033545 3817:4.0632305 3820:1.8559191 3821:7.7150025 3823:4.8595014 3825:0.13901564 3835:0.17892343 3838:0.72083545 3846:2.2599864 3850:0.057088807 3857:6.0829964 3860:3.3404863 3865:5.1502495 3866:3.9068947 3869:2.0032246 3891:3.860574 3896:4.5356841 3901:0.16237622 3902:1.8097924 3914:1.0091915 3917:2.8184507 3918:4.2269707 3919:0.77571023 3934:3.1384187 3938:1.8663648 3941:5.5878048 3942:0.76659286 3958:1.2396988 3970:1.0206555 3981:2.1294203 3983:3.5709815 3985:1.786319 3987:3.0723958 3992:4.1068821 3999:5.0586562 4004:0.71937513 4007:1.2638472 4008:2.8816285 4015:5.9023099 4020:0.96038938 4027:1.7792882 4032:5.7252092 4035:3.3957219 4044:2.5215201 4047:3.0708792 4051:0.48584488 4058:0.83811474 4065:0.051068455 4067:2.1853454 4070:0.68055975 4077:5.3040071 4084:1.9441712 4089:2.9279966 
0.4520903949069628 3:3.0780127 13:0.0049258471 16:0.5167076 27:0.96063256 33:0.44017982 38:3.8723843 41:4.6579046 48:1.8892519 54:0.91759598 63:1.3120432 80:0.061592184 84:0.47959056 86:2.1069643 91:2.4696736 105:2.5757654 111:1.1654183 113:2.0887721 121:1.1146363 123:1.4220901 127:0.1619598 128:0.091548204 140:1.1678416 143:1.0813854 146:2.2804115 156:0.12409351 158:0.42204806 159:0.80829275 165:1.131443 169:1.1153314 183:0.10121146 185:2.8426595 186:4.4619923 193:1.861495 195:2.2868917 202:2.3380933 205:3.5461872 211:3.0497305 222:0.97629809 224:0.67916995 230:1.7658271 232:1.8349543 243:0.47896641 247:0.14872998 252:0.78371614 256:0.72729146 260:5.3598905 267:0.013740361 272:0.98407537 285:1.0152266 286:0.95442569 290:0.26117405 291:3.675725 292:1.4134793 302:6.9486399 308:1.0501275 316:5.1635199 318:3.8937974 321:0.62641883 328:0.90909696 331:4.5467701 334:2.2512956 338:0.98319018 339:3.1832116 346:0.22937927 348:1.1534276 351:4.0076971 357:3.62919 361:1.1975797 363:0.16196236 379:1.2708573 382:0.83738351 384:1.5611837 391:0.74750865 397:0.95246226 410:0.77503932 413:2.7302756 418:1.5489376 420:0.90306687 422:0.043996423 426:1.9367168 428:1.5851021 435:4.4826021 439:1.386565 442:2.2499161 445:0.73732322 446:2.6123543 448:1.6696458 459:0.60322464 462:2.2333603 471:0.90068662 473:0.55509722 482:3.5125077 488:1.3914247 489:0.035641193 491:4.0024652 494:1.157887 495:6.0385165 503:1.7768734 508:1.2120411 509:0.75431037 511:2.5001197 516:0.68023849 519:1.1287861 522:1.7639461 525:0.050306246 527:3.3937218 531:2.2937317 538:2.0879364 545:4.1642399 552:0.42248005 559:0.57271218 560:0.85614866 562:5.143836 569:7.4633536 572:1.6268039 573:0.17436025 575:0.92912245 582:0.30300888 587:1.2952125 590:3.5501301 598:5.360611 601:0.85032165 603:2.4412453 605:1.1792414 608:2.6813161 609:1.2112731 616:3.1678984 629:1.5624074 633:1.2159357 635:0.41112661 637:0.017682016 640:0.38931945 642:1.221658 643:1.9724449 650:0.75678921 654:4.6956825 656:2.5316746 658:4.2150259 666:0.29025111 680:0.1699307 682:2.5868835 687:1.8298681 695:0.55694872 696:1.9143665 698:1.291786 707:5.8342748 709:1.6433725 711:7.8355384 712:1.7182511 717:0.61528707 718:1.7920895 727:1.6604803 732:4.4009843 735:1.0605481 744:2.4982457 746:6.0267816 752:3.0266356 760:0.28774264 764:5.9377561 768:1.6351335 777:1.0670521 778:4.2285962 791:2.5417962 796:0.12228238 798:2.5414658 808:2.9963782 809:6.130722 813:2.5582175 814:0.50638074 820:0.16307694 827:3.0650516 828:3.635262 838:1.6296365 846:0.022501007 855:6.3478065 860:0.27953887 861:0.91252232 862:1.0207995 866:2.3849812 872:0.64904189 876:4.0969615 880:1.9296291 885:0.47782496 892:1.380437 896:0.17991762 899:4.1358867 901:0.71366781 905:6.0733218 910:2.3825097 911:1.3847811 918:0.15157095 919:0.11797294 928:2.2478244 929:2.6404243 935:0.5591957 937:4.443459 940:1.7432315 953:5.2351837 961:3.8299 971:2.6723845 976:0.74762046 977:2.8811421 979:1.8886719 988:5.3544888 989:0.38583046 991:1.5694075 993:1.272413 1006:2.396863 1011:3.8204541 1030:1.6594759 1034:0.090658367 1043:3.1147215 1046:0.17873222 1049:3.027334 1051:1.5050466 1059:3.7620208 1065:0.22528265 1077:2.5862532 1081:4.9559159 1087:2.86448 1088:1.4164774 1091:1.4500191 1097:5.5718861 1107:0.3717531 1111:0.44007686 1113:1.0642524 1116:2.3126433 1121:1.5204142 1122:1.4310666 1125:3.3909512 1139:0.0096254349 1140:3.8361974 1143:1.5817688 1162:2.6409264 1163:0.62903857 1170:0.3767882 1173:1.7571435 1180:1.0660152 1186:3.2848825 1187:1.6240215 1192:2.7998967 1195:3.1969652 1202:1.3485408 1206:0.73786128 1211:6.825748 1216:4.7351584 1218:1.253617 1221:0.62331331 1234:3.9158397 1236:1.6620324 1237:1.3422725 1240:1.1898273 1242:3.7777803 1245:1.4362276 1246:0.76353371 1249:0.25705063 1257:0.72106141 1265:2.1744511 1267:1.5129896 1270:0.87378973 1284:3.3286579 1294:2.7288194 1295:0.067866802 1296:0.56732619 1297:0.33652464 1299:0.28342706 1306:2.5957417 1314:4.5174417 1315:2.5396595 1318:0.25357428 1328:0.27969664 1331:0.38771167 1335:2.2312455 1339:0.77698684 1341:6.7471094 1346:1.174325 1351:4.3566589 1355:0.71558106 1356:3.2400212 1361:3.2804255 1369:0.71785933 1370:0.29627103 1371:2.5009561 1378:4.5054417 1379:1.2963042 1387:1.7400486 1400:4.7798834 1401:0.57004791 1406:1.2400113 1407:2.8015873 1408:6.38344 1414:2.9774196 1426:0.082184494 1434:0.30121243 1435:1.3557118 1436:0.78767836 1441:3.3905611 1443:2.8481359 1449:4.9198437 1450:3.1233954 1453:2.2743659 1456:6.4008183 1459:1.1218002 1465:6.3348699 1471:0.49873531 1475:6.5640244 1476:2.3687522 1483:2.5314674 1493:2.3117673 1504:0.54708385 1513:4.4891477 1515:0.079967916 1518:1.848335 1519:5.2548862 1525:0.33200374 1535:2.5029271 1537:4.0033975 1548:2.5074649 1551:2.7371087 1552:3.7572072 1553:1.0736061 1556:0.16105205 1560:3.2203598 1561:2.2203753 1573:2.8232045 1580:3.1009874 1596:4.2202349 1597:0.40999231 1602:2.0119874 1607:5.6668577 1618:0.22811764 1628:5.2115927 1633:0.36887014 1642:4.549571 1648:0.38377154 1649:0.54833174 1654:0.8460753 1665:1.4163135 1670:1.077986 1672:2.0235856 1675:2.764107 1678:2.3458877 1683:1.6802437 1688:1.724547 1696:0.11879183 1700:2.3046429 1703:5.1026716 1704:6.5347672 1709:2.3245139 1711:1.1877235 1716:4.5426784 1717:1.7820814 1722:3.3859744 1725:0.37707815 1726:1.4090791 1733:2.0975528 1734:1.5916481 1741:2.8906684 1743:0.19909784 1744:2.3823326 1761:3.0200875 1780:0.23840007 1785:1.3008921 1786:0.79998755 1788:2.1065915 1791:0.26531178 1792:0.96239412 1793:2.3895366 1803:0.84860301 1804:3.7369301 1808:0.37269992 1810:1.1380498 1817:0.065117903 1819:2.4241912 1822:1.3086698 1823:0.29355329 1826:0.29265285 1842:3.3128264 1843:0.12908387 1844:2.2852216 1845:1.4452665 1848:2.5171967 1850:2.8388157 1854:7.4184523 1872:0.75522381 1873:2.8959527 1882:1.3138736 1884:1.0483131 1885:3.1145921 1897:1.812238 1905:1.1269118 1908:0.50129992 1918:0.71466392 1919:0.27451259 1921:0.86752057 1925:1.6317382 1942:4.9773736 1950:11.141092 1953:0.77962595 1955:1.2934184 1956:3.2868915 1957:3.4353781 1976:3.3979535 1977:2.5805786 1978:7.0514288 1983:1.4245828 1984:3.3737054 1991:7.6308479 1998:3.0895989 1999:0.11493713 2004:3.4431911 2008:0.39343441 2011:4.2887607 2021:3.537482 2025:2.3812828 2048:2.5888076 2050:0.19344604 2055:0.9716714 2057:1.0009134 2068:4.0226655 2070:2.7915244 2072:2.8835921 2085:0.054426439 2096:2.1986897 2099:1.1036566 2101:5.3580208 2102:0.9191919 2106:0.59723067 2107:3.9558392 2110:0.54510432 2111:3.5906157 2119:2.4753702 2122:2.7342393 2129:1.0541592 2132:3.419395 2133:0.10437641 2141:2.1146903 2142:1.4101276 2150:6.5287199 2152:0.19279802 2156:1.8302275 2160:2.1882994 2162:3.9887791 2164:2.1262426 2165:0.094963625 2178:0.041930974 2179:0.016182989 2181:1.8526633 2189:0.73176396 2196:0.99737775 2214:3.7875278 2220:2.3724284 2223:1.7138748 2224:0.27563769 2229:3.5570095 2236:0.33737811 2238:2.168433 2254:3.3825099 2256:5.6623068 2263:3.6504147 2268:2.3981118 2270:0.1521581 2272:2.7105675 2277:0.68978912 2280:1.5136164 2285:3.5311239 2291:0.33666131 2292:1.2371171 2299:0.045693368 2300:0.66495883 2301:1.7251604 2304:1.3177147 2306:2.8218033 2307:0.073160052 2309:5.2362871 2310:1.9752685 2314:0.1132752 2332:2.0145993 2334:2.0168293 2340:5.1777153 2344:3.3206863 2345:1.8066033 2361:0.54481119 2364:0.91116405 2372:8.2617998 2374:0.40137044 2376:1.0246501 2383:2.7277269 2390:2.5831106 2392:2.6711028 2400:0.2748214 2405:2.0876422 2406:1.7421979 2427:2.4542885 2434:1.3644342 2439:1.1181469 2448:1.5353024 2453:0.97777975 2459:0.88217205 2461:2.352689 2475:5.019917 2486:2.2481203 2498:0.72394085 2505:1.7504487 2508:4.2111287 2516:2.5533531 2524:0.72312498 2526:0.71975148 2535:0.81742829 2554:4.6347837 2555:1.5110438 2567:6.4525752 2571:6.0414109 2574:1.191627 2576:4.0839181 2577:1.7390648 2583:0.70118713 2589:2.0315793 2590:5.8869653 2594:3.43979 2598:0.44333106 2600:4.9515028 2607:1.5998925 2609:0.2116105 2615:0.86258149 2616:0.20991337 2623:2.7420506 2624:1.6516206 2628:2.954077 2631:3.2134907 2634:0.0023192167 2638:2.0240903 2639:2.9368303 2647:0.6794703 2648:0.49468741 2656:0.38669729 2657:1.0022961 2659:2.7223871 2666:0.56099427 2681:2.6546884 2688:0.82613564 2699:2.5459449 2709:3.0766065 2713:3.4259193 2717:1.6444094 2720:2.0171309 2721:5.5019579 2724:0.094738677 2727:0.35832515 2731:0.54909748 2745:1.4651709 2754:2.0671644 2762:0.04705739 2770:4.5389433 2771:4.1063628 2775:2.0067394 2778:0.21859729 2788:1.6427213 2789:0.98233008 2792:0.090834148 2798:0.24037272 2804:0.98195618 2811:0.25538528 2819:0.32505834 2830:0.45471939 2833:1.4402076 2836:0.34481245 2861:2.0042803 2865:4.3518276 2869:4.9961143 2873:0.25709885 2874:1.9716237 2878:0.68036342 2882:1.0362619 2885:0.51532328 2888:1.0911362 2890:0.90012574 2897:4.0468721 2900:0.82411015 2909:0.16307074 2913:4.3192391 2917:0.21278602 2929:2.2914357 2932:1.1335187 2940:1.8713748 2941:0.43544945 2944:0.98664796 2949:0.62439996 2950:2.2553508 2953:2.1205087 2962:2.8987465 2970:1.0469017 2973:3.2190061 2979:0.054984331 2986:3.2049627 2990:2.207022 2993:0.79046333 2995:10.240116 3007:2.336164 3011:1.2725122 3020:0.58758372 3027:1.8346423 3032:0.027609691 3034:0.41862723 3037:0.13700998 3043:3.8282313 3070:0.94040477 3080:3.7800977 3082:3.1524279 3085:5.4956965 3090:1.2627219 3101:1.0123719 3109:0.23697044 3110:0.69402659 3111:0.11499587 3119:2.3291388 3122:3.1035032 3123:2.2897463 3127:1.2399161 3129:2.5122805 3130:3.7005153 3141:3.082772 3142:1.530982 3149:1.0326446 3160:0.74459624 3166:1.1784407 3170:1.9235229 3172:3.0726261 3180:1.9023132 3182:1.2483611 3187:1.6728224 3189:4.9111929 3202:1.7016817 3210:2.1200218 3211:2.3789446 3218:0.94456017 3232:1.7994853 3237:1.1916635 3238:0.5428158 3256:0.6040225 3258:4.7413144 3262:6.8793683 3268:1.3339223 3273:3.7752392 3276:1.2168944 3277:2.6699514 3278:1.3912132 3281:2.3750563 3286:5.9511013 3289:0.23078996 3291:4.1643515 3300:2.8152943 3309:2.0179982 3311:2.182101 3312:2.2042758 3317:0.29665476 3325:0.25276369 3332:2.3670731 3333:1.7356362 3337:2.0198588 3340:5.8181052 3345:2.6246076 3351:3.2945373 3360:0.8482399 3364:2.392849 3367:0.064563334 3385:0.5774281 3390:3.604871 3396:2.4559884 3398:1.0603527 3404:3.2114251 3416:0.84658003 3418:3.6632724 3422:0.86511081 3427:1.8376005 3434:1.0885644 3435:1.2744174 3439:0.10158764 3442:4.1097064 3451:0.45119709 3457:1.5094662 3467:0.29125336 3468:4.2125154 3469:0.12566406 3472:1.4016411 3479:2.0083444 3481:7.1439166 3492:0.91236472 3493:1.5749453 3497:1.4830028 3498:1.1529698 3500:0.90987676 3504:0.46636531 3509:2.3915505 3512:5.9054012 3514:2.8197405 3526:2.7018108 3528:5.2369204 3548:1.0607584 3560:4.7848058 3567:1.2683239 3576:0.98766905 3585:3.4032552 3605:5.5823679 3606:1.0597757 3610:0.95223141 3614:0.96744692 3626:3.4344323 3627:3.180558 3631:3.0182502 3635:4.6388869 3636:0.66258585 3643:0.96675718 3644:0.99996215 3650:0.082010835 3664:0.48835039 3667:0.95631981 3671:0.36358911 3681:1.8195019 3684:3.9523463 3686:2.8495493 3689:1.6597252 3697:1.1679603 3710:1.7358454 3720:2.2231421 3722:0.78720665 3729:0.066550195 3730:0.19089019 3731:0.63299268 3735:1.3318689 3736:4.6907501 3739:3.4291103 3757:3.528784 3763:0.46686712 3768:4.7104177 3769:1.9258671 3794:3.4491675 3796:2.9025862 3817:1.1433147 3821:6.4381037 3828:0.21437179 3835:2.096755 3844:2.9796681 3849:1.7385427 3850:1.3252047 3857:2.490612 3860:1.0002983 3865:4.7234459 3866:3.4255691 3880:1.4584937 3882:4.5112576 3885:0.51644415 3886:1.2473849 3896:3.3986244 3905:1.2183175 3907:2.2016389 3910:5.2005463 3914:1.4066451 3918:9.6286097 3919:6.3054233 3927:3.1306765 3938:1.8763695 3941:3.4290969 3942:1.2764273 3946:0.77730095 3958:0.47092122 3981:5.6637921 3985:3.026731 3987:0.73706865 3999:2.3478525 4003:4.326458 4006:0.8970986 4012:0.36233193 4015:2.3194432 4026:1.6969349 4030:2.1981623 4032:10.202611 4035:5.681057 4038:0.96455801 4040:0.70417106 4045:0.87211686 4047:0.91317427 4051:1.0944604 4061:1.494795 4062:2.0208399 4067:0.57760549 4077:1.631173 4083:3.0840812 4084:2.1519518 4086:1.4353141 4089:5.4588609 
0.05910735825005325 5:2.1807599 6:0.037635148 11:4.0235491 13:1.1880226 16:2.4368896 21:2.7272558 22:2.1971719 23:2.0095603 25:0.72294724 26:4.6485205 29:1.1324664 31:1.9545596 33:3.870234 36:4.9107976 38:1.0128891 41:4.4416018 60:0.63010955 62:0.26910347 66:0.25723436 69:2.4151282 70:0.58536988 72:1.7075107 74:0.35566366 87:7.098413 90:8.222311 97:0.76641536 112:1.4837084 115:1.2720919 122:1.8991425 129:2.6106846 133:0.41624838 140:0.64724398 141:3.4660261 144:3.0159853 146:1.9815127 159:0.91194016 160:1.6272373 167:0.40890691 175:3.9994946 185:1.8444901 186:2.8290796 190:0.41188586 202:0.9218055 206:1.6475861 220:2.0385451 221:0.50314021 230:0.81165051 232:3.428201 233:3.5469098 234:2.088964 238:2.8395963 239:0.44331354 247:3.944567 254:3.9915411 263:1.4138595 276:6.5848293 285:3.8110478 287:0.04613246 298:6.0043159 308:4.9827986 318:1.1988921 320:1.5420692 328:2.3437905 338:0.46038711 346:2.2566652 352:0.36871994 353:1.3007594 359:0.4611471 361:2.4193184 364:0.35690448 365:2.2057505 369:0.23530227 372:0.13374847 375:3.3532608 391:6.8489976 404:6.1462345 405:0.33215594 409:0.24508777 413:2.3789392 416:1.4237927 417:1.1781464 418:2.7149873 421:1.1294131 426:2.2051954 431:0.018980809 442:0.05482319 444:1.3156433 448:5.724206 450:0.5028469 453:0.36834556 455:4.4896502 460:0.19897962 461:2.260108 462:2.8694878 469:2.3303974 471:0.12739 482:3.004874 489:1.5087411 495:5.0000386 498:0.95759779 503:0.00095644593 504:0.90199429 510:0.58456719 516:1.480828 521:0.31837758 522:0.26644847 528:0.80853456 531:1.2524127 537:4.071486 538:1.8515521 539:1.2798352 540:0.31165066 558:0.3602758 559:2.7428691 560:3.4504099 562:7.0903425 569:0.45905828 570:0.47766352 576:3.5548246 580:0.67989445 581:6.5609932 587:2.45013 590:3.3013971 591:2.1170068 594:0.42166412 608:5.3704886 609:1.1276321 618:1.1963034 621:3.0859752 623:0.066380024 628:0.089273438 629:1.4765214 632:1.3841696 634:5.1670442 635:0.71574056 636:0.99751645 638:3.8767025 640:1.9071693 647:5.2856617 649:1.2287983 652:2.5982962 653:1.1669323 654:5.0506983 656:5.0817294 657:0.63085341 662:4.1831455 669:0.22025712 670:1.3883777 682:3.5106254 684:4.6954575 687:1.6327914 688:1.6371192 695:2.9771783 696:0.61669439 705:0.06482926 706:2.1369841 718:0.75678051 721:2.2799904 729:0.61199921 732:2.5320818 733:0.66848117 734:2.764271 736:0.51473063 738:3.4187047 741:0.43831694 744:1.0002871 746:4.0503836 747:8.1658726 752:2.8086708 758:2.6408658 765:0.029987872 767:4.7571173 779:3.1816344 780:0.94554806 781:2.0478804 782:0.22837672 792:3.2700768 796:0.6593982 801:4.3204384 804:1.130389 811:3.033911 828:1.2826432 835:0.039906561 836:0.50655425 849:0.83904946 852:0.71422678 853:3.7097979 855:4.3862152 862:4.281806 864:3.3226972 867:0.32191014 868:4.011775 879:1.8416073 880:4.7151361 883:5.1587195 884:5.2083592 887:4.9881926 891:0.26331973 894:1.2960681 899:2.7447715 901:1.284577 905:10.391722 910:1.4408276 911:1.0900776 913:1.0311311 914:1.5866703 921:1.0368403 923:2.0128446 928:0.32062864 933:3.2015238 939:0.87557125 940:1.3163018 944:3.368911 953:0.17293952 954:4.0801616 960:1.6625588 961:1.064679 963:1.0359768 964:7.2133613 970:2.8299172 980:0.014705598 984:1.7564718 993:6.1415882 1000:0.15131277 1003:2.7602456 1004:2.9750626 1005:1.4151241 1014:0.13564774 1022:5.6427612 1028:6.9392595 1038:1.0014613 1043:0.80104196 1058:2.3453948 1060:0.64255619 1077:5.4459581 1085:1.8498046 1097:6.9822426 1098:1.8980169 1100:1.4245065 1111:4.6908932 1116:1.0787747 1119:2.8606493 1121:1.154858 1127:0.18867373 1139:1.7285429 1143:1.3291878 1145:1.7176955 1146:2.397388 1152:0.58879352 1157:1.4286153 1161:2.2449772 1162:0.76270461 1163:2.7840905 1173:0.35828078 1180:2.9446542 1184:1.4238954 1189:1.2571718 1211:6.8461041 1220:2.9499555 1235:2.5418477 1236:1.0002133 1242:7.8704705 1244:1.0788208 1260:2.6092558 1275:3.1471024 1291:0.66772735 1295:1.8098965 1299:6.1229353 1310:4.7984867 1315:3.2770457 1331:4.2640963 1332:0.75224638 1341:1.1276602 1342:0.40999195 1350:1.5602121 1356:7.235312 1358:1.6012201 1361:6.0086884 1370:2.3682666 1377:0.41620749 1378:0.066931859 1391:0.78553391 1400:4.0687366 1402:2.6881349 1408:9.5920076 1431:4.8380694 1441:3.5689466 1443:3.4279785 1449:1.2971249 1450:2.4703023 1456:2.2398748 1459:3.7710066 1460:2.0577459 1463:0.6183821 1475:3.3634939 1476:2.2722802 1478:0.031209201 1486:5.2186146 1492:1.2411345 1493:4.1981306 1496:2.4379039 1499:1.4708475 1500:2.2615685 1504:2.728744 1505:0.9620291 1507:2.3133404 1517:4.3310285 1532:0.034004614 1551:1.756831 1552:3.6738153 1553:1.6185015 1558:3.9189816 1563:0.49832183 1567:0.44643077 1570:0.52588207 1572:6.3224764 1579:0.62003577 1586:1.1955719 1589:0.56496686 1597:1.4661148 1602:3.7565022 1610:2.572747 1619:0.049098849 1627:0.00037622638 1628:4.4767647 1636:1.6434817 1642:2.1236868 1644:0.28890735 1647:1.2363688 1659:2.3195081 1660:1.0081241 1664:0.37001181 1667:0.21492121 1670:9.4499283 1672:0.58341527 1676:6.6143384 1678:5.9289379 1688:3.9815712 1697:3.6526952 1704:1.9855095 1716:1.9206824 1720:1.1508936 1722:2.5242391 1726:1.629698 1736:1.2227031 1741:3.440568 1743:6.6284938 1744:4.1423545 1752:0.80807471 1754:3.2219422 1758:3.6840167 1759:4.6884747 1766:0.016015947 1773:2.7424598 1779:1.7831845 1786:5.1137834 1787:1.1791925 1788:1.49354 1792:0.5944643 1793:7.6415963 1798:2.3016801 1815:4.521277 1818:1.8584018 1821:0.18742549 1822:1.3980646 1826:6.2158213 1827:4.8403196 1829:2.358876 1842:7.1948981 1852:2.92342 1858:2.6883204 1860:1.1407497 1874:2.9962609 1878:1.4472799 1882:8.6059542 1883:0.87472987 1884:7.0631642 1892:3.9440722 1893:7.5017676 1897:0.9108184 1901:1.1029074 1905:2.464169 1908:0.12452029 1919:1.4331734 1925:0.12715414 1931:1.0483224 1943:1.5938909 1950:4.2034764 1955:2.6132934 1960:7.2439556 1978:4.1874909 1983:6.9037704 1991:6.2488384 1998:1.6813782 2005:0.91223514 2009:6.6031327 2015:2.2795136 2021:1.8333412 2034:0.070264637 2035:4.1935282 2038:0.064506263 2043:1.0099466 2063:3.1526759 2066:0.52042252 2068:3.6244769 2070:2.9620676 2074:0.23009618 2078:8.1811056 2087:1.6091737 2093:3.5570412 2099:1.1437439 2101:0.99486732 2109:0.62559319 2115:1.6380826 2116:0.46363345 2118:2.9957242 2119:1.826292 2122:0.87562466 2123:0.41667581 2126:2.5878768 2131:3.1319118 2133:2.6522202 2134:4.1230192 2141:0.095443159 2143:0.30981871 2146:0.13276523 2148:1.6856773 2151:3.8989885 2160:0.45182168 2162:2.1924212 2176:1.1503949 2178:2.6437349 2189:4.8750548 2192:6.0834255 2193:2.119137 2204:2.3311105 2206:0.38748309 2208:1.2464575 2212:4.4204683 2213:2.1622441 2232:4.4016304 2240:0.85893744 2247:5.8574152 2252:0.77944148 2254:7.3720779 2256:0.52349091 2261:0.51782131 2272:1.8570638 2280:0.53415775 2285:1.522164 2292:0.3484292 2299:1.6056025 2306:2.6372936 2307:1.424438 2309:4.0479832 2311:0.35273087 2321:0.66562587 2325:1.0895987 2332:1.2480934 2333:3.7424169 2334:3.0878694 2340:2.7225235 2345:0.1118983 2354:2.4247022 2357:2.0868919 2372:1.2274936 2373:5.1969585 2377:4.786437 2383:0.89174473 2384:1.2082922 2397:1.3120003 2400:5.9842653 2403:0.33636644 2410:0.024762481 2414:4.349041 2419:3.1283958 2426:7.4115548 2438:8.0047503 2439:0.18275964 2453:7.9407063 2454:0.23338041 2459:0.73036247 2460:0.036325805 2470:3.6051886 2472:4.9928846 2473:0.61056983 2475:5.8713155 2478:4.1708083 2481:0.18455577 2491:1.1865128 2496:0.28500763 2498:1.2072579 2500:7.083631 2505:1.2919371 2508:4.0852337 2510:4.6183 2512:0.85112178 2514:0.039887875 2518:5.3465791 2535:4.4582624 2546:0.41245171 2547:2.6077235 2561:1.561654 2567:8.0171528 2570:0.21717227 2571:5.533967 2574:3.2471595 2583:2.5837944 2588:0.90907276 2593:4.1300821 2600:0.066212863 2601:3.8155563 2607:0.7072385 2615:1.6290274 2619:6.8221927 2623:7.1629801 2628:4.9020009 2629:0.55013627 2634:4.0654488 2638:2.1757693 2644:0.72790956 2646:1.2533232 2647:0.82287562 2648:1.8780416 2649:0.23251303 2654:0.24776511 2657:1.0516093 2659:4.0800085 2662:0.84632272 2663:2.5687675 2664:0.14244856 2667:0.09067452 2682:5.4490871 2685:2.3393745 2696:0.040897764 2700:0.018180221 2706:1.9746376 2709:3.3710175 2712:0.68258107 2713:5.7523303 2720:6.2403193 2727:2.174052 2735:2.6630867 2758:0.7799772 2768:4.6137366 2773:2.4281144 2774:0.59294415 2778:0.15220919 2785:1.9567133 2794:0.51714504 2800:0.656322 2804:4.3242235 2813:0.0072846413 2817:1.1701621 2819:0.97117925 2820:0.646707 2825:2.6459053 2835:0.05548355 2849:1.0165646 2850:2.8329823 2862:4.5478172 2869:0.90815306 2877:3.1500006 2887:2.8370817 2888:0.46778238 2890:0.97928065 2893:3.2543297 2897:0.22435573 2902:5.4286184 2907:0.46113801 2920:0.69601631 2921:3.80968 2922:7.2846489 2931:0.88321996 2932:0.68706763 2935:0.67607856 2941:0.1096594 2946:2.3613346 2949:1.4516476 2953:0.64013308 2959:3.3137887 2961:0.086836874 2963:2.695179 2973:0.36252916 2978:0.40518621 2985:0.27152574 2986:2.2524543 2989:0.82029366 2991:0.9300155 2993:4.6635408 2997:0.097362399 2999:3.8217685 3009:7.0370498 3018:1.1981531 3019:0.065169662 3029:2.3524845 3043:7.694633 3045:1.1189917 3052:2.839884 3055:4.0736308 3060:0.73288435 3061:0.26361689 3071:2.663528 3076:1.6359813 3080:2.6384861 3082:2.3605173 3083:2.7672138 3084:2.973902 3085:4.520247 3086:1.0757446 3090:1.8690702 3100:1.0296819 3101:1.8641756 3108:0.57722729 3118:0.54309511 3119:2.2812533 3120:1.8175395 3123:3.2051239 3129:1.2855934 3130:1.9626644 3139:1.7842863 3140:0.68556225 3141:1.4925988 3148:0.99865782 3157:3.2952728 3172:3.7659233 3191:1.9903536 3193:5.0345144 3209:0.15292966 3210:0.023745984 3218:0.669415 3221:0.81466287 3225:1.1246369 3233:3.122396 3242:1.2102906 3243:0.80559278 3244:0.24932358 3248:0.63385177 3250:0.32013798 3258:2.3999186 3262:4.3183866 3263:3.6735687 3268:3.0329883 3276:0.80427188 3286:5.0486851 3290:2.6204929 3300:0.19030838 3308:1.0168091 3310:0.48698685 3312:0.004259944 3317:1.8492398 3318:3.0821786 3321:0.63064462 3323:2.5793309 3325:6.4217925 3333:2.2826874 3347:0.19281255 3353:0.11987767 3354:0.89622635 3359:0.13667101 3364:2.3546305 3380:2.2397518 3384:3.9799621 3385:4.1371484 3397:2.897799 3403:1.7518489 3414:0.60899448 3416:0.32759047 3428:4.9359093 3443:4.4081678 3453:4.3972406 3456:1.5969319 3471:0.7662611 3472:5.0472488 3474:0.26129365 3479:3.5340543 3481:1.753289 3484:0.14131257 3500:0.64174664 3507:1.8037283 3512:3.9072263 3526:2.0926135 3528:1.9480283 3547:6.458467 3554:3.8204732 3555:2.3486092 3561:1.667351 3564:2.2950935 3565:2.3204708 3572:1.4813926 3575:1.6104437 3578:4.3192339 3579:2.2675951 3597:1.799597 3601:1.6857047 3606:4.4284844 3612:4.7140441 3613:2.1159084 3617:1.8313029 3627:6.8383417 3631:5.7003369 3634:1.2375166 3637:0.77361357 3639:1.4848115 3641:1.0359967 3646:0.18610659 3651:1.2637467 3653:2.3079839 3656:0.67715555 3673:1.1555954 3675:5.7639861 3680:0.64663172 3683:3.4347339 3693:1.9776909 3699:0.33072186 3714:0.77425551 3715:3.2120423 3720:0.1090198 3728:3.859139 3733:3.1942079 3735:0.92602372 3736:1.2586763 3747:5.6240268 3750:0.3046729 3753:1.9223711 3759:2.4483864 3762:2.161011 3766:1.9260379 3768:2.5690341 3769:2.5998254 3775:0.67407954 3792:2.0668206 3796:0.24868275 3799:0.041176975 3800:2.7326512 3806:2.2369812 3807:3.7297859 3811:3.0565288 3812:0.87686503 3817:6.0488234 3820:4.3663664 3821:5.193048 3823:4.0581279 3832:0.44468448 3835:3.6759539 3838:4.109725 3840:1.1465182 3843:2.5592263 3846:0.27712101 3851:2.2105165 3854:0.13420732 3857:1.8068862 3860:3.5694046 3861:0.064702868 3862:0.5636518 3863:2.0637934 3865:0.10504395 3866:9.3508034 3870:3.8483572 3884:1.31734 3891:4.6478367 3895:0.34003681 3896:0.69650847 3899:2.4838548 3901:0.61761916 3902:0.18010415 3903:1.5595714 3908:0.47788328 3913:1.3688316 3915:3.1806257 3917:2.1133373 3919:0.45666799 3930:1.2698904 3934:4.0833139 3936:3.052655 3939:1.6308606 3941:2.1360781 3942:5.8417711 3944:0.4169021 3946:2.3764369 3947:2.9755392 3958:2.2555459 3967:0.8686375 3970:1.4418728 3977:3.9856243 3983:4.8765998 3989:0.61539209 3991:1.7672997 3999:1.1440347 4001:3.7135031 4004:1.8219719 4008:3.9726582 4015:2.8718376 4018:0.30765826 4021:1.3687255 4026:1.7675656 4032:2.7347827 4044:0.96073234 4047:6.0866947 4051:2.3544424 4053:1.578096 4056:0.72308016 4057:2.228915 4058:1.8926077 4077:2.4479957 4080:0.40296635 4085:2.1126728 4088:1.953528 4089:3.3895798 
0.1600984377068181 6:2.3706229 13:3.3446414 19:5.396307 25:3.7424483 29:0.10073572 31:4.9754596 34:3.6208248 36:5.9164581 38:3.7747271 41:0.085863054 42:1.8023912 56:0.55285609 57:3.6590064 66:0.91174006 69:1.5656726 97:1.8463259 99:1.4844866 109:3.8394651 110:1.6343403 111:0.95264739 113:3.0725646 127:0.51744199 129:2.1752055 131:3.2807267 132:2.3996108 136:2.0219219 137:1.2310441 140:2.7096164 144:0.67824697 146:0.24871434 154:1.2969011 159:0.22652911 160:3.0030842 162:0.091588274 163:0.047301054 165:1.134195 168:1.7534559 169:1.179695 192:1.6712039 204:2.2479203 211:6.318779 216:0.67262644 220:0.29802853 221:0.87662631 222:0.32446077 230:0.826949 233:4.5583782 237:2.496943 238:0.40987957 244:1.3992668 257:4.0255427 258:1.264601 259:5.4044228 262:1.6436129 263:0.56697226 264:0.43002236 265:3.5182509 268:2.5847683 272:1.1415391 276:4.7965307 283:1.0144095 285:3.0663407 291:3.1753733 298:0.48261726 308:0.11944996 310:1.2266347 316:1.2005043 323:0.69554114 331:1.3202604 334:4.3975248 339:0.65851301 346:0.99055719 348:1.3435938 351:4.7241516 356:1.6665838 357:2.8243089 361:1.9086124 362:1.0772367 367:0.64544773 368:1.0370165 369:0.21733162 370:5.5630846 373:0.27084002 375:0.39727664 376:1.6326916 378:1.195672 382:0.17001978 391:4.1248083 394:0.78721029 397:2.1903865 406:0.86157614 408:4.6067224 413:1.2216315 417:2.9338443 421:5.8012514 436:0.90602005 442:0.50857973 444:1.0326608 448:2.8976142 450:1.8405869 453:5.9413466 476:4.2404308 486:1.8367088 488:0.35858408 489:2.1843059 496:6.4145184 499:2.6242054 504:3.0590022 511:0.86986941 528:1.8295773 538:1.4693459 542:1.6310024 549:1.5885805 550:1.3432837 553:2.4197721 557:0.45778525 558:2.7029662 560:0.83633947 562:3.9255373 564:0.7871412 565:1.0487578 569:4.5610127 581:1.2401273 584:7.6387444 594:0.36923605 604:0.86159289 605:2.4145055 618:1.7033124 621:5.8573513 625:0.70248187 632:2.4360824 637:0.41643429 638:2.400773 640:3.1235859 642:3.5765076 649:1.4702277 652:2.6451597 656:2.2127495 658:5.3142343 666:0.1706323 669:0.58250761 670:3.0561938 682:3.338419 684:1.3370833 687:2.6288869 688:2.8294091 690:0.4551774 693:2.4070756 695:5.9552884 698:2.592849 706:0.14085019 719:0.51572901 721:1.7759013 723:0.52279723 725:0.34767777 726:1.5338168 727:1.051331 728:1.9999311 731:3.2026389 738:1.1587901 739:1.9330058 743:3.3799968 746:1.2278341 751:2.8960578 764:0.48821276 767:0.060450345 769:2.8757057 770:1.9695041 779:1.5664139 780:4.3253183 781:1.9598631 784:3.0689833 801:4.666851 804:0.2353601 814:5.6902838 815:0.14805746 831:2.5970943 835:4.4234405 838:1.1883384 844:1.6773499 852:8.5198383 855:3.7739866 862:3.6140256 868:3.3862379 870:2.7616673 871:0.15521228 875:2.0045633 880:0.11522815 883:0.88542706 884:1.9201177 886:0.75542581 887:0.1356464 890:1.0902618 901:2.8740463 905:4.6470475 911:0.065391719 926:0.66747761 928:4.2034273 932:1.4202975 935:1.6044817 939:0.6197902 941:6.4273448 943:3.4148617 944:0.26743481 946:4.1799951 948:3.3611443 958:2.8169262 961:9.06499 963:0.76592392 977:1.5139214 979:0.39198977 980:0.27580947 983:4.4984822 984:0.59167737 987:2.5854263 989:0.62903464 990:1.8146132 991:0.80256152 993:2.4961627 995:4.9936681 996:0.13336149 997:0.12874168 1003:2.2004433 1004:5.4915848 1007:0.57600379 1022:1.2797574 1025:0.847287 1028:5.9917631 1044:2.3841975 1048:1.4782646 1071:0.731116 1074:4.7539668 1085:3.1388535 1086:0.24261257 1087:5.006825 1097:5.775146 1104:4.909234 1116:1.9428864 1119:0.60305679 1139:1.851559 1145:5.0282717 1146:5.0328321 1151:0.32414907 1153:2.9702048 1157:0.96466953 1162:5.2197056 1163:0.68109918 1172:0.1822108 1173:1.0756152 1179:2.0473676 1185:2.973675 1211:5.4375277 1214:0.85742855 1216:1.3014821 1220:4.399303 1235:5.56038 1236:2.8725426 1240:3.78403 1241:0.57368034 1242:2.1926589 1265:0.60105693 1279:2.552485 1281:2.7160025 1285:0.56163633 1287:4.6577029 1291:2.6688042 1296:8.6321125 1299:1.2343251 1303:0.67887866 1305:3.4299233 1306:0.93066978 1308:1.8676307 1310:1.9012948 1315:1.5679808 1320:0.11143354 1330:1.7146595 1331:5.2408886 1339:6.8170037 1341:1.9609836 1350:1.8363072 1355:0.3987253 1356:3.8657408 1358:5.0258546 1361:1.936054 1369:0.71423298 1387:4.0152731 1400:5.5872455 1409:0.78230906 1415:0.97098595 1416:2.2495666 1418:0.031359199 1432:0.88028049 1433:2.3154345 1435:1.2691185 1441:3.5487988 1443:4.035501 1450:3.561758 1459:2.5739982 1463:5.631361 1470:0.017156191 1475:3.6877975 1486:8.7550211 1490:1.1808512 1493:0.20063454 1499:0.14634618 1502:0.6094746 1507:3.3294439 1509:2.3456516 1521:0.09523797 1523:3.2436805 1539:2.074939 1552:4.37568 1553:5.7362905 1558:1.0567468 1563:0.74845725 1568:1.2737423 1572:4.7870178 1584:1.4294876 1586:0.95080072 1597:3.7018623 1608:0.49744797 1610:4.3818655 1616:3.4293823 1618:3.5008452 1627:0.33107349 1628:1.8956261 1633:1.2900184 1642:0.74262011 1644:0.19814858 1654:1.2264349 1657:0.57963395 1659:2.8959975 1660:4.0263634 1663:2.5288994 1667:3.9202497 1670:3.1730983 1676:1.9589791 1684:0.71021169 1701:0.095839828 1714:1.3675098 1726:3.1685853 1727:0.18438381 1729:0.95851684 1733:0.23639823 1736:1.3268762 1739:0.12265643 1741:1.2865195 1743:6.3291888 1747:0.94012237 1754:0.99998367 1759:0.68813133 1766:1.0408512 1771:0.73952866 1779:0.56847781 1781:0.44718248 1784:3.2959688 1786:4.3605609 1787:1.952559 1788:0.971008 1793:0.28134817 1798:0.89664698 1815:5.1543007 1818:7.4361005 1822:6.9561572 1827:6.5793982 1829:2.7782817 1837:0.70192015 1842:3.4306738 1846:1.2731527 1848:0.35635701 1860:2.4140053 1862:0.84927541 1872:1.4837508 1874:6.7005701 1875:0.87459987 1878:1.3904362 1881:0.75588846 1884:1.0521963 1885:0.52546823 1888:1.5354251 1892:3.5088432 1893:5.5244389 1901:0.38571921 1903:0.74148446 1910:0.95701706 1916:4.6399179 1925:1.7228833 1930:0.79714453 1934:2.271718 1941:0.17281199 1950:1.4273454 1952:2.7183659 1955:0.14150068 1957:7.7119207 1959:1.7347462 1960:0.56336969 1966:1.2284137 1978:3.3891215 1983:4.6314821 1984:0.97442102 1995:0.72520745 1998:0.61048865 1999:0.29498678 2003:1.9524271 2007:0.99978268 2010:1.0295815 2021:1.1425449 2030:0.39970648 2031:0.56456965 2034:2.1524031 2038:0.46736136 2040:1.6044786 2043:0.41207081 2054:0.11120006 2068:2.286901 2074:6.5472193 2075:3.5336683 2077:0.95519018 2078:3.271934 2087:0.71900499 2088:0.38916156 2096:0.060511753 2099:1.0625893 2122:1.2590348 2123:0.21160278 2141:1.835544 2148:0.8152197 2151:1.2722301 2161:0.09390682 2166:2.3579273 2178:3.2688529 2182:1.4416647 2189:2.5436647 2192:1.0269618 2193:1.1166738 2208:2.1231441 2212:3.206332 2213:7.0916829 2220:2.0256331 2225:0.35549372 2240:1.4469087 2247:4.6690984 2251:5.1717153 2252:2.6954491 2254:3.2741392 2258:0.049824595 2263:2.0844638 2266:0.84508765 2273:2.4053569 2277:6.7661691 2278:6.1316094 2282:0.9426899 2283:1.9272715 2297:3.287951 2304:2.4677689 2306:0.14032705 2307:2.3869679 2308:2.5073681 2313:2.1844666 2324:1.387161 2325:3.0536966 2340:1.4204766 2343:2.009675 2345:3.3956578 2348:3.3563967 2351:0.0093619227 2355:0.32003725 2357:0.71815342 2364:4.8728542 2366:1.3046283 2377:3.7515817 2380:2.5284145 2388:1.7866274 2392:1.1235111 2396:0.016575128 2397:0.58846438 2400:1.2066177 2410:5.385047 2413:6.4016924 2425:0.4363991 2426:2.1561408 2438:2.3204138 2439:2.9996808 2441:7.7785525 2448:0.70927709 2453:2.3971076 2472:4.4475193 2475:3.3208249 2482:0.79368621 2510:1.0769235 2514:0.27121791 2518:0.68381214 2537:1.6982496 2541:3.7749906 2544:1.165905 2545:6.098846 2564:1.684464 2567:2.7641115 2581:0.63475108 2583:2.936028 2586:5.1533742 2593:6.0219479 2597:1.0769292 2601:1.3037777 2605:3.1864071 2615:0.96612769 2622:1.1283593 2623:1.2645134 2628:5.9340792 2634:3.5803268 2644:2.6808391 2645:1.2606788 2646:3.718076 2649:0.11759871 2651:1.7636416 2654:1.2506604 2664:1.2216433 2667:0.32886183 2673:1.2844397 2674:2.5238345 2676:0.30904484 2679:0.66977978 2682:3.5817494 2688:0.01295048 2690:3.8041255 2696:2.9243975 2700:2.614805 2706:1.3712392 2713:1.6749457 2721:0.85110283 2730:1.1869411 2732:1.8186791 2736:2.5127473 2744:1.1560835 2751:1.1152776 2762:1.996649 2768:2.3609555 2770:0.44063532 2773:4.496738 2780:4.0009279 2785:1.1749151 2789:1.5444572 2792:2.7949846 2802:0.22719851 2807:1.4451419 2810:2.0810533 2811:1.1662052 2820:2.6713581 2825:5.8555498 2835:3.2171645 2837:1.505399 2841:2.2079959 2842:3.2081566 2850:3.3986242 2858:0.66897786 2862:8.2687941 2868:5.0058556 2877:0.97799361 2878:0.36596563 2885:0.99441636 2888:1.6524955 2902:0.37086368 2911:0.037050754 2912:3.9920623 2914:2.5270879 2915:2.3001511 2921:5.806859 2922:5.3889213 2926:0.28524598 2931:0.60729259 2938:1.9407437 2962:0.49094796 2963:0.93867278 2964:0.69562513 2981:0.70538223 2982:0.89372486 2985:0.60035753 2988:2.0679781 2992:0.19283146 2999:1.3514507 3000:1.1415029 3007:2.1194487 3009:1.1361605 3010:0.24142918 3015:1.9223794 3018:4.2191601 3027:0.77861023 3029:3.1617548 3043:3.0893884 3045:0.551952 3049:6.8378139 3052:1.9239533 3055:2.8844848 3058:0.78989208 3059:0.12483463 3061:1.1934723 3063:1.2426316 3071:2.8154655 3072:0.91829097 3080:0.080275297 3083:3.353153 3084:1.3927464 3090:0.94026339 3092:1.5122528 3108:2.5065818 3118:2.2651668 3120:1.1062405 3121:2.5916405 3122:3.1563926 3123:6.0838656 3125:2.8666289 3129:3.4029999 3139:5.2166638 3145:1.4316766 3148:1.807741 3156:2.1898634 3157:1.3065953 3162:0.40776449 3164:2.5145993 3172:2.7331755 3177:3.2799845 3186:1.6531688 3190:3.9732823 3203:0.51766515 3208:3.5132549 3233:2.5863266 3240:0.93805504 3243:6.9525437 3250:0.65835524 3254:0.56483299 3259:1.3536122 3263:3.168087 3264:2.0553255 3290:3.7065885 3298:1.6280956 3300:5.2997208 3318:2.3330989 3323:1.410633 3325:3.228646 3329:0.36446258 3333:1.5737338 3340:4.365252 3342:0.27146277 3344:0.56233621 3353:1.1460526 3357:0.75182796 3397:8.1167269 3404:0.61090994 3408:0.59146744 3414:1.0711013 3415:0.64461374 3418:3.8891971 3440:0.57903951 3443:0.07293427 3452:1.3616005 3453:7.222157 3456:0.56748486 3457:2.4249294 3464:3.9337487 3468:2.6503074 3470:1.7889943 3471:0.23577335 3472:0.47259903 3474:1.4692609 3479:3.5730326 3481:0.89091372 3485:3.2747047 3499:4.6188807 3506:0.27774814 3512:2.058311 3522:1.305809 3524:5.4034529 3526:3.2878399 3528:2.9504528 3547:0.51640916 3548:0.041109711 3549:5.42238 3568:1.3354931 3578:0.24213231 3581:1.1645685 3582:1.2729151 3587:2.8694754 3590:1.3237746 3594:2.7300491 3595:0.66959369 3597:2.3834217 3600:6.6667943 3605:1.6642995 3608:0.30045116 3611:0.46025032 3612:4.4606099 3613:1.1172841 3616:0.079160541 3617:0.64844376 3620:1.1869147 3625:0.36995879 3626:2.4684157 3627:5.2875366 3635:3.3711705 3641:1.9476981 3647:1.9885894 3650:1.0214543 3653:0.061372504 3657:3.3642306 3675:1.1315802 3688:2.0166042 3693:5.8496466 3697:1.4473099 3702:0.66735315 3706:0.70745176 3707:1.1596892 3733:6.0175319 3747:0.17459658 3757:0.051078156 3759:2.8892007 3768:6.2254658 3771:2.2999415 3774:0.42350686 3775:1.5281813 3784:3.4596789 3794:4.4034553 3796:2.441906 3800:2.2342672 3810:0.9770931 3811:3.5900929 3817:5.5519838 3819:0.20189458 3822:0.97765017 3828:7.4512224 3834:2.34638 3835:6.5893569 3842:1.5583322 3844:6.3012896 3857:3.5932753 3860:0.070447773 3861:4.8878155 3863:4.0237446 3869:4.380456 3886:1.5835452 3896:6.7932305 3900:2.7048969 3901:0.89592767 3902:0.62673283 3903:0.2332207 3907:3.4282188 3913:2.6522005 3918:2.4406137 3927:2.7590277 3933:3.6801846 3939:3.3160214 3941:9.3535099 3942:0.18853962 3946:1.552219 3959:0.80154002 3966:3.1671097 3971:4.1858611 3990:2.2649274 3999:2.0779269 4001:1.1735362 4004:0.94425011 4012:0.3009637 4015:2.143116 4019:3.8174181 4022:0.13109824 4026:0.21096608 4035:2.428808 4046:3.2438207 4047:3.1215417 4053:2.952606 4057:0.27452159 4077:0.6241653 4083:2.7305484 4085:1.1245415 4087:1.9846449 4088:4.5239024 4090:0.33045715 
