svm_type c_svc
kernel_type rbf
gamma 0.000244141
nr_class 2
total_sv 231
rho 0.293029
label 1 0
probA -5.89845
probB 0.0823485
nr_sv 98 133
SV
0.3108223318222723 1:1.2174382 13:2.4631927 15:2.2954745 22:0.18879502 28:1.6743468 30:3.4568963 35:5.162786 36:1.5914357 49:3.5486674 52:0.074223362 53:1.720566 54:0.8812443 55:0.91390097 56:0.54198706 60:0.32032651 63:0.93531454 82:1.1883801 84:1.4824586 85:0.3808879 89:0.057049841 93:2.2175784 94:0.78237879 97:1.8871434 102:6.8401823 108:2.0374858 110:1.8544376 111:5.1026087 131:2.1653714 134:3.0850551 144:0.66143382 148:6.6501622 149:1.528976 151:2.0518157 161:3.2664895 162:0.84890044 170:0.29011112 178:0.14742392 182:5.8118601 184:0.17349774 189:0.79581797 200:2.0424492 211:1.0743676 213:2.290453 222:0.47072947 225:3.9635034 234:0.61947709 245:0.57690901 248:3.2607594 254:3.4293222 256:3.1227541 258:0.9554643 263:1.0797341 273:0.011795528 289:0.74686652 290:2.9316895 294:0.49591184 297:3.30634 298:0.408324 305:1.8554043 312:3.0961838 321:1.3684449 324:1.0331931 326:0.094312936 330:4.5139756 337:2.0266297 338:0.57449025 340:7.217567 348:1.3613013 360:1.2918149 361:0.12846425 365:1.7024188 366:6.4216313 367:2.2063084 368:0.14205201 372:0.42339116 381:1.3459044 383:0.93614459 384:1.4390709 390:0.14780064 401:2.2002423 402:3.1401899 419:1.9820271 424:3.6654727 434:1.5165842 436:4.0418234 437:0.74667966 447:0.6071167 450:2.0185087 451:0.79155463 452:0.20062408 453:2.5889795 458:3.7562315 461:3.2055516 462:0.27957648 479:4.0162158 485:0.51013947 487:7.3450561 491:0.52063102 497:0.37146991 498:3.2624421 505:0.4857446 508:0.51069403 516:0.70906037 521:3.7512002 528:0.68611884 539:1.6868337 547:1.26923 549:0.5448314 555:1.1228524 562:2.4065087 563:2.1272469 564:0.75852954 566:1.6405039 567:4.0415692 573:3.6699839 583:0.27875882 588:10.903193 589:1.5138372 596:0.55290645 603:0.13078105 607:0.86299914 616:2.1751041 617:1.804315 624:0.72101247 636:1.9652579 637:2.1589537 640:1.021764 647:3.5979493 652:2.8035126 654:1.7723435 655:0.25253761 658:4.6356773 662:1.5155443 664:2.2866061 669:2.1474824 670:3.9047141 673:2.9803853 678:1.258114 679:0.63005483 684:1.6838194 685:1.3299084 688:2.257596 697:5.1132665 707:2.1434374 715:0.018652856 718:0.23344743 732:2.0896413 733:3.2550097 736:4.7146215 744:1.1245604 750:1.2197375 751:4.1006284 756:0.092005119 762:1.8822864 767:0.84835726 771:3.584723 775:4.045671 776:0.35323548 799:2.0438256 807:0.9748776 810:1.0239311 812:3.7450056 813:2.4659116 816:0.25329977 817:0.14990151 822:2.7392206 826:0.043048739 830:0.4954645 835:3.1673086 840:2.2444174 844:1.2692856 845:2.6752019 846:0.28023911 862:0.53946483 863:1.1154082 870:0.72666132 876:0.30300522 881:3.5534809 885:0.0039798617 887:0.44815579 889:3.0092425 900:1.3823464 902:0.35239792 909:1.2591875 913:1.3398236 916:1.9892348 921:2.0308223 927:0.74875855 936:2.6154966 941:0.29546812 948:5.0255742 949:0.35022724 962:1.6062021 964:3.218307 974:1.972682 984:1.0418038 985:1.2260348 1012:0.050558016 1016:3.650187 1021:2.441483 1022:1.6047181 1025:1.7135596 1056:3.9617896 1063:1.95195 1071:4.5675521 1072:0.37676772 1076:0.77559322 1082:3.1704557 1083:0.56155986 1084:1.5596703 1086:1.3775245 1097:0.76678216 1099:0.41264006 1104:1.5754619 1124:2.8699629 1128:0.2615256 1135:1.6674666 1144:0.61601102 1158:3.0877995 1170:1.4630994 1172:0.66014373 1176:3.0601485 1180:0.69348311 1187:0.14255334 1190:0.035982829 1200:3.0621328 1204:3.5778008 1210:2.6397624 1220:3.4645085 1223:0.6574086 1225:2.6595304 1226:2.1908841 1231:1.4651613 1236:2.0686076 1242:3.7264605 1249:0.065823823 1251:0.67632884 1259:1.0178449 1260:2.1447854 1264:1.660429 1268:4.0529065 1273:6.0719113 1277:0.048611633 1279:1.0324059 1280:0.041880339 1286:4.2780199 1292:8.1490755 1293:5.331852 1295:7.3595281 1297:1.9772459 1304:3.3621721 1308:2.7836685 1310:3.5725782 1312:3.3836427 1329:3.3730507 1340:0.49792713 1343:0.4839589 1345:2.5022917 1346:1.9040536 1348:2.8760369 1354:0.8845458 1356:3.0389605 1357:0.92709798 1362:0.65738213 1364:2.0828037 1366:9.0707102 1368:1.351182 1374:0.33539116 1380:2.2582986 1383:1.9038566 1389:0.20065816 1392:0.18107982 1396:5.2619023 1402:0.51583695 1407:6.2388482 1414:2.653579 1415:3.3842828 1430:0.72374606 1431:2.8556798 1436:2.8266175 1438:0.74447811 1441:2.5171528 1442:0.35543996 1444:4.3403769 1451:4.6825848 1453:1.0079086 1459:7.6450062 1463:1.5446963 1464:3.0063982 1466:3.2928467 1476:3.5115657 1479:4.1257296 1490:3.0362358 1495:0.069718361 1497:0.41005504 1498:0.53103763 1499:6.4506164 1500:2.2122002 1503:4.1907244 1506:0.98781371 1508:1.9695489 1516:1.088652 1521:0.078707665 1534:2.3308487 1544:0.15890217 1548:1.5418739 1549:3.0731535 1551:0.23402807 1554:1.4756709 1556:3.2998137 1563:0.73043644 1565:2.8821595 1573:0.38841653 1584:1.8961134 1585:0.4917821 1586:2.6817203 1592:0.88919342 1594:0.44282085 1598:0.4136309 1601:4.0107813 1604:1.8905394 1606:2.8251762 1607:0.47027174 1612:0.10748428 1616:0.67990005 1619:3.6225076 1628:2.1893413 1631:1.9313335 1632:3.5596497 1634:1.3123806 1636:5.273129 1639:6.7932925 1640:5.1921229 1646:1.4506669 1661:0.52641356 1666:1.1823562 1668:0.31717896 1669:0.60171372 1673:0.059240095 1683:2.7350709 1688:3.3560541 1695:3.6471007 1699:0.90009719 1709:1.9196736 1711:0.47012013 1715:1.6455383 1719:3.0064826 1721:1.9790761 1722:1.6148602 1732:2.506618 1735:5.4574337 1740:4.3966742 1746:1.0620399 1751:5.7169437 1754:0.18873742 1768:3.9612379 1775:0.43242416 1778:2.1445925 1779:2.8578537 1789:0.19692938 1792:1.0279568 1795:0.11067137 1800:5.4863729 1803:0.5115099 1805:0.61290574 1806:0.96351075 1807:1.3349018 1822:0.53586668 1824:0.74852741 1828:0.29552597 1829:1.7130829 1831:1.1292517 1833:1.9236875 1834:0.26453763 1839:0.16856888 1840:0.31367713 1843:0.34719902 1852:0.30848679 1853:3.1446934 1857:1.0894097 1858:0.52605468 1859:2.598932 1861:2.4868691 1866:1.8550961 1870:1.0767105 1874:0.47616568 1876:1.1756005 1879:1.5078137 1883:5.6455388 1885:2.5037191 1887:1.8075361 1897:0.3539744 1899:1.0634848 1914:5.0692873 1916:1.7274953 1917:2.9283495 1921:0.40252498 1931:3.2351305 1936:0.11727525 1937:1.6977855 1940:2.7436624 1943:4.3714418 1949:3.6345477 1961:0.027113721 1964:5.3324108 1967:3.2964978 1970:3.900908 1973:0.24050164 1974:1.1534443 1979:1.4254014 1980:3.4205105 1986:0.48077953 1999:0.67040288 2000:4.6381011 2004:1.2270584 2006:0.26142436 2012:4.0467873 2019:2.5437207 2033:0.68059844 2053:3.2430551 2056:3.8833854 2057:2.7755623 2063:2.3678615 2065:0.39204016 2071:0.063271903 2073:3.1134942 2076:2.7631845 2080:0.93935651 2086:4.3074541 2092:1.4474878 2096:0.90085018 2103:1.5897189 2110:2.4472489 2112:1.1896695 2113:2.9762847 2129:0.6065917 2131:4.2608037 2138:0.88278401 2140:2.8635616 2144:1.0716803 2149:2.2643642 2169:1.0785799 2191:6.1842632 2197:0.16997044 2200:0.01259017 2212:0.8999725 2213:2.8269489 2214:3.2226875 2219:0.5341118 2227:1.2664152 2228:4.5254831 2230:3.1997185 2232:3.2084029 2253:0.35673118 2255:3.4471259 2274:1.8981236 2277:0.31932223 2284:0.9705649 2293:1.8444757 2294:2.2489994 2303:0.31822711 2321:0.40657556 2326:0.15742902 2329:0.093570471 2341:4.3138065 2349:3.1600401 2352:2.7033353 2355:0.33827296 2357:1.0695384 2366:0.88347137 2374:0.89737117 2375:0.097117886 2384:0.58216405 2401:0.7650578 2404:1.862016 2411:0.91673899 2412:0.99978048 2418:0.64397895 2422:1.9433064 2426:2.7092402 2428:0.56603062 2440:0.083482683 2443:0.68744963 2453:0.76206148 2454:0.13523367 2458:1.3958822 2466:3.3398058 2468:0.067232549 2472:1.8654475 2476:0.13858381 2487:2.7559197 2492:1.5022434 2493:3.9103613 2497:0.11924179 2513:0.97100824 2529:1.4583014 2559:0.54700267 2560:3.4264438 2561:0.52619171 2563:0.50660479 2569:2.1560526 2572:3.6994286 2573:0.058721229 2578:2.0377393 2583:0.52658701 2586:1.6467884 2588:0.76342696 2596:0.84905881 2620:2.800025 2622:0.62473547 2639:1.9785061 2643:5.1647124 2644:0.64465094 2649:3.0930202 2652:5.4197893 2657:1.5163119 2665:0.94206893 2669:1.6206242 2672:0.14542955 2673:3.3221681 2677:4.6793208 2678:0.99004513 2684:0.06265828 2693:0.6540699 2696:0.91394001 2701:0.77690542 2704:0.27466416 2706:2.8475869 2712:5.001195 2713:2.2969744 2720:0.45129964 2725:0.21140462 2726:2.2978923 2727:2.0698574 2733:4.8236065 2747:0.46359894 2766:0.61766005 2771:2.1227713 2779:0.2689108 2782:2.1697147 2793:1.8016289 2796:1.0338891 2797:2.0812318 2800:3.6311057 2804:1.0879478 2806:1.0116863 2814:3.6959739 2828:0.90395397 2835:3.7260826 2836:0.20302717 2838:1.6812171 2865:1.5435152 2868:2.7577744 2870:0.13201578 2877:2.0565271 2878:3.2898855 2883:0.46163946 2890:0.75823861 2896:1.1757811 2898:3.0124216 2900:0.98246014 2907:2.9294233 2910:1.103748 2919:0.36624709 2943:0.31523553 2949:0.60378581 2951:0.13956004 2959:1.2736851 2965:1.1143434 2967:2.3644805 2969:1.2804298 2978:4.4137659 2979:1.134546 2980:0.11517939 2985:0.034703016 3010:1.4997516 3016:0.69462097 3025:2.8185003 3026:0.50434309 3030:3.3693571 3035:4.3745537 3036:5.3103995 3038:4.832931 3065:2.2936122 3066:0.29854837 3069:1.3744717 3070:0.52867103 3074:1.1238306 3082:1.1975038 3085:0.65622485 3103:0.44755572 3143:5.5774293 3147:1.5046686 3154:2.3308067 3157:2.1422989 3169:0.034231767 3181:0.33833826 3185:0.06112216 3187:0.47144848 3190:1.770593 3193:0.29660413 3196:0.68490016 3208:3.8465676 3209:2.7202103 3210:2.3528638 3211:4.5807328 3212:4.0791306 3219:3.8928905 3225:0.59514558 3228:0.46988434 3235:6.1822171 3247:5.8797913 3249:0.65445632 3252:0.044491589 3256:1.2820191 3283:0.44111139 3288:0.22433591 3289:1.1596615 3297:0.44244117 3300:0.74399424 3306:0.52544427 3313:0.058084369 3320:0.13206193 3324:4.8366346 3346:1.6313145 3353:5.4736857 3362:1.9749985 3363:0.64121747 3364:1.3445809 3365:2.2294133 3375:0.49414986 3386:1.7481292 3393:0.98200583 3403:4.7008753 3405:0.6314159 3409:0.36255229 3410:0.1283935 3416:0.29398239 3424:1.2730877 3427:2.0692565 3428:0.43596214 3432:1.7006757 3452:0.30594757 3471:6.0690799 3476:1.3216549 3478:1.3830179 3479:0.84562081 3487:2.0496876 3489:3.1910245 3511:0.51272762 3513:1.5496118 3514:1.4436047 3517:4.2437091 3519:0.52901185 3531:2.1261404 3534:1.6424596 3540:0.55132741 3541:0.48560536 3559:0.9521783 3562:0.77137142 3563:0.093958139 3565:0.55080616 3571:0.60962522 3580:3.7237356 3590:0.050857693 3596:3.5471301 3602:1.0961351 3607:2.2328277 3615:3.9172449 3617:3.1970317 3621:0.89197928 3627:0.2786718 3641:0.10152149 3649:0.20969969 3650:0.26743135 3653:4.8088903 3660:3.2125728 3663:0.53083438 3666:0.73105061 3669:1.1384432 3675:7.4118075 3680:0.56066608 3681:1.5336003 3684:0.13785866 3685:2.6406188 3691:0.025469482 3695:0.31203246 3703:0.26328102 3705:0.10742189 3706:5.1485381 3709:2.6424389 3710:0.036434561 3715:2.8598762 3722:0.79908091 3724:1.8983409 3728:0.92394996 3734:0.81149507 3743:4.1678433 3744:6.0353899 3747:0.4416509 3749:1.9036698 3750:0.45145404 3753:1.4849014 3755:0.099413723 3759:2.3556929 3766:2.4081259 3769:1.2189474 3776:1.543481 3791:4.5866861 3800:0.6846593 3802:1.5904992 3804:1.4262648 3812:1.7868057 3814:6.1993027 3822:1.552942 3826:0.042550623 3828:0.37521818 3829:2.6665988 3830:0.058381855 3831:1.8893648 3834:2.7143404 3837:0.60159802 3841:2.7245386 3850:0.28969741 3855:0.72966385 3857:2.7618542 3863:0.59116888 3868:0.25483736 3870:0.17798156 3874:1.150279 3879:0.35334349 3881:1.3675947 3887:0.90872562 3893:4.3595185 3895:0.19115908 3902:1.0755678 3903:3.8690767 3905:1.3728793 3908:3.6300497 3914:2.4889698 3915:0.62430507 3917:0.81537944 3920:3.1165471 3927:0.55927444 3928:0.27614343 3931:4.9991326 3941:0.83642626 3942:1.8967129 3943:0.80322003 3955:1.2941791 3964:2.7836804 3972:0.14722738 3976:2.5427194 3981:0.48516431 3986:1.4226381 3991:3.2139676 3997:2.4753423 3999:2.3369243 4001:2.196677 4004:1.3614701 4007:3.3334966 4015:1.0235317 4018:2.1620238 4019:1.7583417 4021:1.4366125 4022:0.32308125 4024:4.3257976 4028:0.98609555 4041:1.5458351 4051:3.376687 4052:0.14009643 4057:0.42646953 4063:1.8903997 4066:2.0134382 4080:0.84107029 4085:0.82756591 4091:1.6323524 
0.07029428593316442 1:1.8225714 2:2.1431887 3:3.2527301 4:4.3869467 13:0.60665774 15:0.58696997 18:0.70428723 19:3.9948614 22:2.7440646 23:0.5584892 25:0.2998409 26:2.5650575 28:2.1317937 30:0.10404833 35:1.0702114 36:1.8348055 41:0.10137394 43:1.439963 53:2.9157488 55:0.55380851 57:2.420548 60:0.26760805 65:1.6637414 70:0.27459547 82:0.44781005 94:2.6793261 97:1.8679196 108:2.9492147 111:2.9542723 113:2.0293219 122:0.62655228 128:0.90594679 131:3.0600278 132:0.15470631 139:2.6949635 144:1.3809631 148:1.5979898 149:0.66556627 154:0.63813084 168:0.11351544 182:0.30903786 189:1.4752972 192:4.2949476 193:3.290602 195:1.7258141 199:0.47269303 207:1.0483187 216:4.8245797 217:2.73786 223:0.84416568 225:0.26853001 227:1.5920348 234:1.4908947 237:1.9226499 241:1.8330635 248:2.0412207 254:4.196846 263:0.46217433 271:0.13274781 275:0.042493582 278:0.36231714 297:1.4498613 309:1.0648469 314:5.4777241 316:4.6766376 326:2.7967432 329:1.8483565 337:4.2023468 338:0.15640162 340:4.6810246 341:0.72770041 342:2.0860448 348:3.2225704 349:0.26886845 354:2.2023437 361:2.6464884 366:1.2957139 367:2.8006523 372:0.0078346059 377:2.7342465 378:1.6691697 384:0.48494807 387:7.4511261 397:3.0051527 416:1.4664397 418:0.11938065 423:3.8140898 435:1.3881487 436:2.0443368 437:0.42189887 451:1.5161064 456:2.4085329 458:3.0223572 459:2.3808067 461:0.82209456 485:0.79570842 491:0.33980322 497:5.0073361 498:0.086623967 514:0.37018621 516:2.5465469 520:1.6622829 521:4.4574122 523:0.59048474 536:1.1324528 539:0.44055003 541:3.4437532 548:4.2061443 549:2.0894163 560:3.8394558 562:5.3073206 564:3.9074287 566:3.7052886 567:4.9773393 573:5.8782034 583:4.827569 588:1.4015145 589:5.9746904 596:2.3748734 599:1.1477655 603:1.0643736 610:0.9418276 616:0.60273707 626:2.5711484 628:2.2874522 629:0.64889616 633:2.0098975 637:3.3468471 647:3.4835453 652:2.0691478 654:4.6129217 658:0.31765431 659:2.4868441 669:2.3477833 670:3.332736 673:1.0181271 684:3.4111106 685:1.2107761 686:0.023544639 688:2.0637109 697:3.1345718 732:5.4565473 742:0.6574713 744:0.8903833 749:1.3226187 751:3.282963 767:1.2373714 772:0.75388992 775:2.3934784 789:2.1585891 791:0.53021216 803:2.8334813 809:1.2717688 810:2.6293705 812:2.2361093 813:4.1704516 826:1.3296795 830:2.4395382 833:3.3495662 836:3.1620958 840:1.8632212 842:4.0852332 852:2.7221138 853:4.2106361 854:4.9032774 858:4.1205306 859:0.67233741 866:0.32195863 873:1.1181984 875:1.1502917 879:0.43856746 885:1.3985782 887:1.8675931 892:2.6512012 894:1.7917933 901:1.0916449 914:2.0358746 916:3.4743242 927:2.3452616 928:0.188151 929:4.8804836 932:0.31938717 934:3.5889728 936:0.76490921 937:2.0105247 938:1.3840671 955:0.13330343 968:0.23381765 976:1.2723866 988:1.2268013 1003:1.2783847 1008:3.6433029 1010:1.3468393 1016:1.3900456 1021:2.6291809 1028:0.031427056 1029:1.8107935 1035:0.055114247 1037:1.3597767 1041:3.9382706 1043:3.9083793 1050:4.9729552 1051:0.52606028 1063:1.26211 1071:5.4035139 1075:0.16999659 1081:2.8053637 1082:3.4780118 1085:3.401684 1091:1.5032234 1095:0.73515141 1097:3.1962783 1104:0.13014585 1107:0.56193197 1111:2.4090531 1115:0.94085509 1116:0.64670515 1137:2.1330104 1158:3.7297306 1163:1.5526304 1165:4.4028397 1175:0.13676091 1176:2.5038099 1180:1.388787 1184:0.34120548 1186:4.0681891 1200:2.7570226 1201:2.7533958 1203:0.5289163 1208:0.45770717 1215:3.812408 1225:2.905072 1231:2.8983307 1236:4.891808 1237:0.041411221 1251:2.4945426 1259:1.7289861 1261:0.02833759 1273:3.1633835 1280:5.1849871 1292:6.4113307 1293:3.9314346 1294:1.1305616 1295:1.365185 1297:0.3929081 1302:0.95190722 1306:0.979774 1313:0.29690474 1328:0.4085623 1342:0.014181077 1345:4.3409615 1347:2.4182911 1348:1.6992344 1353:0.51908529 1356:5.9597325 1357:4.4953022 1366:4.504097 1369:1.1269888 1374:2.3121958 1376:0.056237265 1380:0.54783237 1386:3.5102558 1392:1.2826205 1395:0.49580804 1396:6.7438493 1399:4.0000715 1401:0.44240385 1403:3.8039939 1407:2.615361 1415:0.21734485 1425:0.99414623 1431:3.9574482 1436:0.10354695 1440:2.4716854 1442:1.2026544 1450:0.66090369 1451:0.74529094 1453:4.2872753 1459:3.9895782 1464:1.3384652 1476:4.450253 1479:5.8173881 1490:10.580667 1491:1.2300272 1497:0.17025796 1499:3.4524038 1503:6.1843519 1508:1.6526867 1509:1.8135448 1511:1.6917012 1524:1.6581186 1529:0.10673121 1537:3.3638852 1538:0.2312759 1539:0.39843675 1543:0.071295619 1551:3.1669092 1556:2.750288 1565:3.114424 1571:4.5697098 1573:2.9352536 1583:1.3112537 1586:8.0051498 1590:1.6501508 1592:3.4959786 1594:2.9891601 1595:0.031856954 1604:7.113802 1607:2.4162831 1610:1.0469228 1616:1.7439491 1621:3.9869399 1628:2.4608021 1636:2.4656949 1640:1.2824209 1648:0.40765074 1650:0.02112028 1651:3.421062 1654:3.8481281 1661:0.8447274 1664:0.85898733 1669:2.618032 1683:11.691262 1699:3.6865044 1707:0.24544831 1710:3.4119337 1714:2.4553599 1719:3.5347016 1733:1.6082954 1734:0.6096189 1735:0.77599967 1754:2.6163588 1759:0.60168093 1766:5.4002008 1768:1.319497 1777:2.8761995 1778:1.1841273 1792:1.2624478 1795:0.3232463 1797:0.78374535 1800:3.6778443 1811:0.10734382 1828:3.2311256 1831:2.2876956 1837:2.0261333 1839:4.114532 1843:0.11431199 1849:0.54256201 1851:2.8319442 1855:0.49249816 1856:2.4521015 1857:0.14552271 1864:0.031762391 1866:0.30531976 1870:0.65096146 1874:4.5743871 1876:0.64960372 1877:3.5674834 1883:8.2117004 1884:1.3687041 1885:0.94037962 1890:3.8631315 1892:3.0708723 1895:1.5963627 1897:0.38606453 1914:4.8709688 1918:0.075644135 1926:1.307754 1931:1.0456724 1935:0.43113524 1940:2.1400075 1943:0.11490616 1949:1.2429655 1956:0.031316608 1961:0.5648647 1963:2.3489115 1964:0.56950337 1967:0.54768223 1968:0.58946723 1974:3.7105761 1975:0.0018321276 1977:0.098479837 1980:4.5046349 1986:2.0635417 1996:0.20781456 2000:0.96796113 2004:3.7781014 2008:1.5039071 2012:2.2438204 2014:0.28983754 2027:1.2594047 2030:0.04683274 2056:0.47173065 2063:2.9641838 2068:3.6239207 2069:2.6449506 2071:4.1177392 2087:0.0084376037 2113:2.4207482 2117:2.9713812 2131:2.9481435 2138:1.5832838 2139:0.91954696 2148:0.1054773 2158:0.29597694 2167:1.8854579 2169:1.6158499 2176:4.1147513 2177:3.8555205 2178:4.9137115 2192:0.55037606 2219:0.34391391 2220:0.25375167 2221:0.71987474 2232:1.033 2241:0.19504678 2244:2.8530669 2253:3.9424567 2255:1.9689006 2268:0.70117533 2275:1.7398021 2282:1.7107692 2292:1.1418707 2293:2.7020698 2314:1.551203 2316:3.7977271 2321:1.2575998 2324:0.173489 2326:1.0849715 2333:0.17634021 2340:0.21718669 2341:2.5544281 2346:2.7012923 2349:3.1089482 2352:1.4012673 2355:3.4841893 2357:1.7849894 2358:0.75715137 2359:2.7118323 2365:1.0612198 2369:0.70867199 2374:8.9090281 2400:2.5266013 2401:0.70887011 2404:1.2166286 2411:0.13452977 2412:2.372515 2418:0.67726541 2422:1.4350438 2432:3.6353559 2443:1.1386911 2453:1.5722157 2458:0.90437239 2459:2.223388 2460:0.42139313 2464:1.0120193 2466:1.1169518 2478:0.78003573 2481:4.965982 2487:1.0300581 2489:0.2858578 2492:2.0921843 2497:2.6030476 2508:5.3854728 2510:0.48394707 2519:2.7883668 2525:0.42027473 2534:0.89898306 2537:0.49281514 2544:1.9726486 2547:0.46448302 2549:3.3029389 2560:0.49245456 2563:3.6126084 2567:0.072773457 2574:0.37314361 2576:2.1223993 2578:7.4239173 2579:0.67393446 2600:2.0965829 2607:2.1633101 2619:1.148526 2620:1.6172352 2639:3.3388162 2647:2.9032471 2649:2.5996575 2650:2.5996082 2652:3.3820207 2657:0.79677707 2669:1.5781275 2673:0.69168061 2677:0.86706197 2682:1.4548222 2693:2.0180154 2696:0.8377682 2701:2.4466012 2704:1.7384632 2706:2.5465236 2712:1.4269141 2724:3.8013265 2727:4.7986908 2732:0.35291544 2733:0.82129002 2736:2.6699059 2744:0.87665331 2747:3.796685 2755:4.3452964 2771:0.70198071 2772:0.091005385 2779:5.0085387 2782:1.3487656 2786:1.3107808 2789:5.481348 2791:0.12618259 2792:0.25423795 2796:5.5353351 2802:2.7460251 2818:0.091845177 2828:1.3761551 2842:0.39823979 2856:2.8487706 2860:3.0787337 2868:2.1626863 2870:1.4178131 2878:11.520524 2890:6.3619986 2898:0.80781037 2899:0.7432282 2903:1.1678011 2929:2.6128035 2938:0.7092005 2950:1.3470901 2953:2.8670783 2960:0.9289788 2963:1.114105 2965:1.7705938 2977:2.9458127 2980:5.3650713 2985:0.90318763 2987:0.3531464 2990:3.8818536 2995:3.2041168 3008:1.3430111 3009:1.6695839 3010:1.8587432 3017:1.663151 3036:1.0458752 3037:0.074599206 3043:2.5995028 3044:3.7783139 3048:0.026994504 3054:0.7944293 3057:2.005137 3058:0.72964442 3065:1.6681058 3068:0.18035662 3070:1.9680256 3080:1.3483157 3085:0.95531332 3117:0.36058652 3130:0.70896983 3131:0.47021919 3135:0.99863523 3143:3.3038206 3146:2.706367 3154:1.1445808 3160:1.1571364 3162:0.35098636 3164:1.7464797 3166:1.3707027 3169:0.31552869 3170:1.0024309 3173:0.40342325 3179:0.7607016 3186:2.3821306 3188:0.2480163 3190:7.6709046 3191:0.11402816 3202:1.1587385 3203:0.029343307 3208:2.1564646 3210:4.9576125 3211:1.5201366 3212:1.3161478 3218:6.5323939 3219:1.0487063 3226:1.5891769 3230:0.23224273 3235:0.7167142 3245:1.4160427 3247:1.8458792 3256:1.0479615 3261:1.8833505 3262:1.7567183 3263:3.1431296 3265:0.96263194 3292:0.4285447 3294:0.15272149 3300:3.4723566 3303:0.56754464 3306:2.7622628 3321:0.20388268 3333:2.5957434 3335:5.3528214 3362:1.8582821 3369:0.73007637 3385:0.38031256 3386:1.6008986 3389:5.1872778 3391:0.39675552 3396:2.5071361 3405:0.46524292 3406:0.49219248 3412:1.102108 3434:2.182765 3439:0.95490348 3449:0.041457355 3459:2.8599865 3465:1.2760286 3471:3.0410893 3472:1.3030095 3507:0.034622133 3508:0.095753908 3511:1.3242313 3517:0.31560814 3518:0.32698181 3533:0.33579248 3534:0.52216786 3536:3.2907915 3542:0.80987585 3556:3.671371 3562:4.5637445 3579:1.1012566 3580:3.0691829 3596:5.4594593 3602:5.3739328 3607:1.0697635 3609:2.006057 3610:0.64366889 3614:0.15430076 3616:0.34953046 3617:1.2931035 3627:4.421308 3629:0.36814868 3630:0.099910438 3632:3.2795403 3633:0.17756295 3652:0.62240881 3653:0.014299348 3654:0.58126032 3655:1.7680364 3657:2.0932109 3660:0.052556276 3661:0.69461697 3669:1.6176629 3671:0.5366497 3675:1.5517833 3677:1.5215116 3681:5.6465244 3686:4.4334116 3689:0.12662697 3692:1.1978621 3695:0.21164383 3698:2.5295684 3706:2.7477684 3709:1.2756746 3711:0.6832968 3715:3.7270656 3717:1.9085605 3739:1.8959392 3741:1.9272546 3744:1.4603981 3751:2.2233064 3755:2.1856449 3759:2.9487672 3764:0.96434486 3767:1.5674174 3783:0.53212214 3791:1.5298934 3800:1.8815602 3804:4.5568304 3811:0.58001029 3819:0.79430032 3821:3.4141166 3826:2.3412013 3829:4.874023 3837:4.6543579 3841:1.2195737 3857:5.9144673 3865:4.0027452 3868:3.7025328 3870:4.839313 3871:1.4038801 3881:4.2672367 3888:0.63955361 3890:4.9685841 3903:3.0165699 3908:1.543191 3910:1.0460527 3911:1.4848025 3914:3.6864567 3916:0.33395702 3918:2.4897611 3920:5.0900507 3922:0.71539521 3923:2.6115041 3925:0.30863115 3926:0.84125882 3927:0.77650422 3935:0.52470553 3942:1.783216 3945:2.0407083 3966:2.5421491 3970:1.9724065 3972:0.59229255 3973:0.14790693 3976:1.9509456 3981:3.0375562 3986:0.09798798 3991:1.4387867 3999:0.50726765 4001:1.0447903 4004:2.8426547 4007:2.26999 4020:1.1182089 4024:2.8803718 4026:4.1067872 4028:1.7075157 4035:1.1240664 4045:0.72887677 4047:0.58730447 4062:4.3180804 4070:2.0221064 4080:1.8047152 4081:0.68105376 4085:3.3675325 4090:1.599967 4091:3.3453541 
0.163775444360957 3:0.54924452 4:3.3493876 15:2.068018 18:2.747154 22:0.87181139 35:4.2204623 44:1.733632 50:1.1241968 53:1.0027552 54:1.2002437 57:2.4941316 63:6.3597569 64:6.7871208 65:0.78171432 82:1.7966799 93:1.1910462 94:1.845451 98:1.635589 102:3.3814585 103:2.1494484 108:7.3645782 128:3.6832559 131:1.0957947 139:7.4475455 143:4.5687814 148:0.030766755 149:1.3367668 164:1.6792529 174:4.198204 179:3.8210311 182:4.0337892 185:0.080514878 192:3.6297705 199:1.6031741 216:6.6637106 218:4.1479459 228:0.39444178 232:0.87900901 234:3.8745296 237:0.37060967 238:1.6832006 239:4.5480118 242:5.7920957 248:0.045501113 254:3.841994 258:0.82225555 263:1.3612996 266:0.65233159 281:0.052467823 290:1.6095992 294:0.05406893 301:1.2112677 302:2.0911348 305:0.57721668 308:1.4929382 309:6.2768884 316:3.7369418 321:11.011093 323:2.8446882 329:0.12279218 332:0.76829922 335:2.7762299 338:4.6309891 340:4.7850857 341:0.37797999 342:4.9874811 346:1.2151912 349:0.73016346 355:4.4464364 360:1.8412653 365:0.93812293 372:2.814029 377:1.6136532 378:0.58531177 379:3.8167572 402:1.3767834 409:0.12422985 416:1.5961618 421:2.5177636 426:4.4415178 431:2.5830374 435:1.2643763 436:1.3675853 439:3.0868285 451:4.0678091 452:1.2817943 456:0.87576765 457:3.142462 458:4.6305809 461:0.48620647 468:0.32266915 479:6.9854336 486:1.0850341 491:4.5136857 495:5.4518127 505:2.8708782 508:1.6076918 512:3.8035672 516:2.7259254 521:5.9089146 526:1.1401752 535:1.6873457 548:1.80878 562:11.665418 564:3.5965858 566:2.5156071 567:2.2467792 571:0.69863975 573:2.8763368 583:7.1751585 588:3.7248249 589:0.74119246 599:1.5788592 601:0.94282174 602:0.042035937 607:2.8916154 613:0.30137375 616:5.6375842 629:4.7063732 631:1.1390741 633:3.1222346 635:4.656199 639:0.87356019 640:3.2181742 654:5.8163829 656:0.89762306 669:0.53941607 670:0.9721666 675:1.0484357 677:2.9014955 684:0.25498849 686:0.060299829 688:3.3647628 690:0.4612523 696:5.4779224 697:0.67909169 703:1.8360958 709:1.1198014 713:0.86970413 717:4.5317144 729:1.9572968 732:7.9956441 734:2.7680261 736:1.0906971 744:2.9849801 749:1.884243 750:2.8096952 751:1.4363979 758:0.69044065 763:2.5231905 767:0.20501417 775:3.7900562 787:0.84081429 789:2.1394382 809:3.0587807 812:1.2619463 813:3.8566911 816:1.5445101 818:3.0090854 820:0.32659239 833:6.495039 841:1.525491 842:5.1744394 853:2.4589303 854:8.3696165 858:3.6351662 861:3.0155122 862:1.3283221 866:4.1513352 867:1.1954322 873:1.5795958 876:0.79758179 879:7.8825884 885:0.29160053 887:5.2614822 912:3.8912811 915:5.320991 916:8.0677185 919:2.7557099 925:0.015799284 929:0.76506621 933:0.56634474 934:5.1430025 938:6.0660872 940:0.54956412 941:5.3290658 955:1.9608417 968:1.8596109 976:0.55119359 996:4.7533507 1001:2.346951 1004:0.29771748 1016:3.3925753 1021:4.5341859 1049:2.1684685 1050:5.4314957 1054:0.38708109 1057:0.52253526 1065:1.4988461 1067:2.4602871 1070:0.14742437 1071:10.586357 1076:5.8832722 1081:11.515336 1084:2.2840586 1091:3.2673368 1097:1.8910265 1102:2.1745687 1107:0.92154825 1113:3.2783318 1115:3.3145967 1116:6.4580173 1139:1.3190285 1147:1.4300096 1163:0.45224482 1165:3.7499628 1166:3.7055438 1170:7.6393313 1171:2.6794252 1175:1.048812 1178:1.400558 1184:3.1060755 1186:6.1003122 1188:1.1767859 1190:4.2724581 1196:0.27354872 1200:2.0978818 1203:1.7924293 1209:1.5323548 1218:0.52630651 1225:8.4126244 1227:0.60286194 1231:0.83800012 1234:6.6921296 1236:9.2280607 1241:6.5960202 1242:5.3613272 1251:1.8394127 1252:0.54407233 1260:0.72390199 1261:3.4973664 1264:1.1389251 1268:1.9348048 1272:3.0275774 1273:7.968441 1276:4.0306487 1292:7.5911069 1293:7.1187463 1298:1.130151 1299:0.67261386 1306:2.5124626 1308:1.3992261 1329:2.0258024 1333:3.8561835 1335:8.1101542 1337:4.9623418 1338:0.3580848 1342:0.72197753 1345:8.6342411 1346:2.2739654 1347:2.9431276 1348:1.7917845 1356:6.662817 1357:5.7507076 1364:2.6850734 1366:6.4343023 1369:3.5187783 1374:9.9498272 1376:1.1883216 1382:2.2725508 1392:1.2132632 1396:3.8142729 1399:2.1917677 1407:2.0883007 1417:2.1112967 1419:3.1325388 1430:4.2272763 1431:7.4671545 1437:1.4114928 1444:0.81074971 1448:1.462938 1451:0.13514861 1453:9.8407812 1455:2.7746634 1459:7.6053586 1466:1.2945193 1472:0.28511882 1490:3.1036985 1491:1.1136985 1496:3.6155598 1503:9.43188 1508:2.6970046 1519:6.6941991 1524:1.871534 1533:0.67372411 1534:0.24069101 1535:3.3619761 1537:2.3779082 1538:1.2245722 1550:2.2087247 1551:0.58819872 1552:3.4946697 1554:2.0379448 1562:0.78542817 1571:2.7052984 1573:1.618733 1585:2.5799174 1604:4.431284 1607:4.7005773 1608:1.3131105 1610:2.4215708 1611:2.8245397 1616:5.0260706 1621:8.4529839 1628:6.1905885 1629:3.5711083 1644:2.9464293 1646:1.2287385 1648:2.806473 1649:3.7372272 1651:3.8500402 1665:3.064806 1673:0.79910678 1681:0.22040859 1683:6.4976978 1686:1.1424419 1687:1.509555 1695:0.84009767 1699:3.3931894 1701:3.8597829 1709:2.5724416 1711:1.3019706 1714:5.8037777 1715:0.28572139 1722:2.4038725 1723:0.63577235 1733:2.2182856 1734:3.3833265 1735:4.6634035 1751:2.8026597 1753:5.3690071 1754:3.1327674 1758:4.5261602 1766:0.48714048 1767:0.41483516 1768:1.1189811 1771:0.28708088 1777:1.1651831 1778:1.931167 1782:4.1324768 1789:2.6884732 1791:0.80342311 1792:2.5588391 1800:10.649171 1808:1.0403033 1824:8.0700712 1831:0.57043827 1839:2.8864954 1843:1.4114735 1845:3.1654861 1866:0.35222283 1870:3.0168417 1873:2.7139463 1876:2.3594837 1883:15.366365 1887:6.7739062 1894:0.12628685 1895:3.9207425 1897:1.9833775 1900:0.54900843 1905:0.27179509 1912:7.8737912 1913:0.08397679 1914:0.42970395 1915:1.8980381 1917:6.9125476 1918:4.8440895 1931:9.1964159 1936:7.2826743 1942:1.8480594 1943:6.0775275 1950:2.2315178 1951:0.94490445 1967:3.1002319 1968:0.40597641 1974:1.5174651 1977:5.8254504 1980:0.51575929 1989:2.4691827 1999:5.6608429 2004:1.9344659 2021:2.1005239 2028:0.38568529 2033:2.1165998 2038:1.7048368 2041:2.4818816 2044:4.0023403 2057:3.2937837 2058:0.32107979 2063:0.28529143 2065:2.3294592 2068:1.1632035 2069:3.0201328 2079:7.951755 2083:1.0149033 2085:1.0415374 2087:5.298986 2096:4.3834291 2101:1.7167361 2113:1.8910439 2114:0.65356171 2123:6.2888846 2149:1.4149306 2150:1.3600272 2156:0.7006309 2164:2.5506582 2165:0.97961861 2169:3.5334921 2172:1.6601908 2176:4.7045989 2184:2.9714277 2185:1.8512741 2187:0.72822928 2190:4.1680994 2199:2.2256582 2210:4.5096369 2211:4.754034 2218:3.8852599 2220:2.7369301 2221:4.1092958 2223:3.0563314 2224:0.30180711 2228:1.9039869 2230:3.3950438 2239:1.1832746 2253:1.6397607 2255:2.1713765 2259:2.6771612 2268:1.5641909 2272:1.2217907 2286:0.57840586 2293:1.5438956 2295:0.39298791 2301:0.80021703 2321:0.33246273 2322:0.61754781 2329:7.4263434 2340:1.7247479 2346:5.6278343 2349:7.2149181 2355:1.551764 2358:0.26408547 2369:1.7766804 2374:8.0210886 2375:5.5123601 2390:4.5420294 2394:3.9755948 2400:0.40640545 2401:0.24950483 2405:3.4405355 2411:3.0490441 2418:3.8935122 2420:1.2126349 2426:0.063551702 2434:7.9613934 2458:1.7235603 2459:0.51783365 2480:5.2764292 2481:4.6142025 2487:0.78821319 2493:5.4270968 2494:3.7663023 2497:7.4659696 2508:9.3534927 2513:1.4044912 2520:1.2560351 2525:1.7975278 2529:1.1277401 2531:4.0135851 2534:3.192174 2544:0.88526356 2549:2.2766683 2554:1.4512154 2560:1.5249273 2563:10.862128 2574:2.7221839 2576:2.4176567 2598:1.3468581 2600:3.7185266 2601:2.227138 2603:0.88412291 2604:7.8707585 2620:1.7033663 2625:3.0067484 2636:0.57867801 2639:2.7700422 2642:1.2436001 2647:2.2162116 2652:5.6778393 2658:2.8141167 2660:0.31202918 2669:4.2679434 2677:1.9759132 2682:0.27959257 2689:2.127799 2695:3.0672081 2704:2.9170353 2708:0.023638614 2709:4.1320376 2712:4.0133748 2716:0.81935537 2720:1.6368939 2723:3.4696217 2724:9.3405867 2732:1.1086998 2733:0.91727889 2736:1.7599328 2745:1.9592611 2747:1.6370648 2779:4.3841319 2782:5.5471511 2786:1.7365937 2789:1.4697878 2791:1.191662 2796:5.2310734 2800:2.627651 2805:1.1186336 2810:0.0054193065 2848:2.8603988 2849:1.5802553 2852:1.7257851 2866:0.85874677 2878:7.0450692 2890:0.29649907 2898:8.3479052 2899:2.9088774 2900:6.5550528 2901:2.8000555 2903:2.2873909 2910:1.5885123 2919:0.16328001 2920:1.0365092 2928:1.2577095 2929:3.4951072 2938:0.070361465 2948:0.12507614 2950:0.23854125 2951:0.85571122 2953:8.4518633 2958:5.4912014 2977:1.9610022 2978:4.7983036 2980:10.770915 2985:2.8754008 2990:4.1192431 3011:0.25370574 3016:0.42752725 3028:0.25891644 3037:3.3921781 3044:1.5245005 3048:0.6261844 3054:2.2381306 3057:1.2841626 3059:0.34785748 3075:0.46166092 3078:5.4715543 3082:2.3106043 3085:6.7903218 3135:0.55290699 3140:0.13543952 3141:2.6725001 3143:4.174819 3144:3.3019469 3146:3.5494761 3147:2.7736018 3149:0.59938931 3154:3.8885245 3161:0.59944594 3162:0.58520681 3167:0.60197455 3179:0.65525448 3181:1.080969 3185:0.58592457 3186:2.3086276 3190:3.0005813 3196:0.084188759 3208:1.2961247 3213:1.5296521 3214:1.5289236 3218:1.7044685 3226:5.4100447 3235:6.0223398 3239:3.4944234 3240:0.99587297 3245:1.1546671 3256:4.1917491 3261:3.2532761 3265:5.0735717 3300:5.8775845 3306:4.3641486 3307:1.9335914 3313:0.60908598 3321:4.3399143 3324:1.4747082 3333:2.7671003 3345:1.9314268 3350:0.51270437 3358:2.8166983 3365:3.1310422 3369:1.8361704 3385:1.3788062 3386:0.35637295 3388:4.5206356 3391:1.1021795 3396:1.6991619 3405:3.8541548 3413:0.88286722 3414:1.8824005 3431:1.0471915 3434:1.4776521 3441:3.7219253 3457:9.5843668 3465:4.9035392 3469:3.0213428 3471:4.4148178 3472:0.010239214 3474:3.6676102 3489:2.1879199 3493:0.40203971 3494:0.78265846 3496:0.42986104 3497:3.8518085 3498:0.29549879 3502:1.9074602 3507:6.3342667 3511:0.31952006 3518:0.33835486 3528:0.42225614 3530:3.0949934 3534:2.3075249 3538:2.803091 3540:5.2916088 3541:0.57809675 3542:1.9049802 3545:3.3262377 3556:3.9047959 3557:1.8366063 3563:0.62050623 3575:0.4501403 3579:0.58023345 3580:3.8537481 3585:2.0598032 3590:1.2756476 3593:0.051223829 3596:7.2118807 3602:0.82499671 3603:7.5228553 3607:3.8169384 3609:5.8213449 3610:0.95722389 3615:1.1603847 3617:0.14534852 3621:2.4326854 3626:1.4084218 3627:5.7709684 3629:1.4914371 3632:8.631896 3633:0.48807299 3639:0.60121286 3642:7.1084857 3649:0.65397781 3650:3.906508 3652:2.9210539 3653:0.092836067 3654:4.6025705 3657:0.76816893 3660:3.213022 3661:3.7048221 3669:7.3808737 3675:4.6483479 3680:3.403538 3682:1.0710757 3692:2.5664821 3695:1.3896284 3698:0.74677509 3706:2.9895504 3709:7.0481963 3715:6.0986576 3734:3.4357543 3739:2.0621006 3743:1.4164635 3748:1.0612549 3749:2.2132535 3752:0.22876209 3755:3.3181822 3759:2.2689686 3762:1.3467324 3769:2.9207327 3773:3.5334942 3776:3.64188 3780:1.7032348 3802:7.144084 3804:5.1999106 3821:5.8679638 3822:0.55619919 3829:2.6579759 3837:3.8644981 3839:1.2608783 3841:1.8888016 3857:8.575778 3865:11.0385 3869:6.111762 3871:2.9293075 3883:1.5024581 3886:0.28517726 3888:0.72304499 3890:0.51680148 3903:0.95793569 3909:1.3862841 3914:6.1784053 3916:1.5049114 3918:4.5573444 3922:1.7464216 3923:1.0064222 3926:3.8782222 3935:1.1999619 3938:0.97075295 3940:0.3222869 3942:2.5801966 3951:2.0643532 3958:3.354491 3962:0.028505109 3966:0.58379233 3972:3.4320176 3974:0.24854231 3981:5.4468489 3985:1.6404643 3990:2.4799762 3999:3.8698609 4004:9.8980513 4007:5.730444 4026:1.1652583 4035:4.324038 4037:1.8698626 4038:3.0563698 4051:3.3165915 4056:5.3671522 4059:0.31734592 4064:1.1597649 4065:2.4551477 4070:1.7014934 4072:2.6519098 4077:0.32447875 4080:2.2905407 4081:1.1458427 4085:5.4345264 4091:3.6576138 
0.1224675741735157 2:0.42312008 3:2.8365142 15:0.55510604 28:1.3324229 33:0.87157655 38:1.50998 53:3.968437 54:3.1084862 58:0.26161388 63:0.4203018 68:0.73706812 82:0.71969318 84:0.50744599 98:1.9919113 102:2.7025154 108:1.0742828 109:0.27766013 111:5.2208762 130:1.0765626 131:1.8536041 135:0.83898425 143:2.6997209 145:0.89417595 149:2.6360555 151:0.93288594 160:0.46118188 164:7.1439486 179:1.9585773 182:1.2107208 186:2.0784347 192:2.2927608 193:2.57394 195:0.074750297 199:0.065161884 201:1.1673898 205:4.8832202 211:1.7530875 223:1.6286156 234:0.95534718 242:1.5828853 245:4.00418 254:3.7568696 256:0.54698175 257:2.9108074 263:0.32916826 281:3.686667 295:4.2545328 304:2.0083637 307:0.52405596 316:5.3574991 318:1.5705419 321:6.2197771 324:5.0308738 329:0.84081119 332:0.70483208 338:3.6387055 340:4.472878 342:1.120712 347:2.0138974 360:3.0154505 365:2.1323764 367:1.4996772 371:1.1033815 402:1.9639405 416:2.8153448 426:1.397384 428:4.7637062 432:2.9123459 435:2.241302 439:1.6673621 441:1.3283812 452:1.5879912 457:3.6917 458:0.94036794 459:1.0964676 468:3.5577521 474:1.7138209 479:2.2241535 485:0.70555639 486:1.4872184 491:3.6000123 492:0.037832439 495:3.4991024 498:0.078569174 499:0.74818718 505:0.51450801 516:1.9015622 519:2.0114372 520:2.275234 526:0.67820108 533:0.015635788 562:4.4017744 564:1.5232406 566:0.7959969 567:2.6790884 569:0.09965764 571:0.37372777 573:0.42440581 582:1.6594499 583:2.4504609 588:6.3387308 589:3.6982059 591:2.0735817 598:1.3102447 602:0.61594456 603:4.3209567 617:6.7959824 629:1.9810196 654:5.7557178 656:3.7415774 658:2.0720208 684:0.44902205 695:0.47128648 696:0.59546459 698:3.2354028 707:0.048757195 709:0.593858 717:2.037163 727:1.9492011 732:3.2654831 744:3.2480631 746:1.6834503 751:0.24489239 762:0.30708838 769:2.6103976 775:6.1555109 783:2.6725774 809:0.1150859 810:2.3891268 813:2.5508919 821:1.1666425 841:3.2281153 842:2.6516533 845:3.8701775 860:1.934098 861:0.25378254 862:4.4261408 866:6.950984 875:0.88642001 876:0.10927537 879:0.26574597 887:3.1543424 907:1.0918808 916:5.3123083 919:4.0850239 925:1.6025898 927:3.4795582 929:0.27063161 934:0.25576422 936:2.5986466 937:2.1419592 938:1.692899 941:3.2457657 962:1.061866 988:0.97335887 993:1.882773 1021:3.6243501 1033:0.78069901 1049:1.2237346 1050:4.5463328 1065:0.4613063 1071:4.8955789 1076:1.1611809 1081:6.197104 1082:3.8899443 1084:2.0803869 1091:0.35830182 1092:1.9281546 1097:3.512197 1105:0.27557731 1115:7.3609247 1116:6.24435 1139:0.37412888 1140:0.88030308 1157:0.11683473 1163:1.7185073 1165:1.4988786 1166:0.094402395 1170:4.9984746 1174:0.067914173 1180:2.6165969 1184:0.41925332 1186:8.8010273 1190:1.9722593 1195:0.95069462 1196:2.282248 1215:7.8323984 1231:1.5262477 1234:2.4549282 1236:0.012704819 1251:1.4012883 1260:1.7423936 1268:2.1887701 1270:0.19031495 1273:0.07682538 1274:1.7386711 1279:0.41314182 1280:1.6227083 1292:0.43014619 1293:4.8372164 1295:1.2074525 1300:2.4352868 1306:2.2509284 1333:2.4399369 1335:2.0931172 1345:1.7028762 1356:3.4827721 1357:5.1078162 1362:0.48218304 1366:6.6762462 1369:4.7137623 1381:1.6527501 1382:1.6921111 1392:2.8115444 1396:5.3016715 1400:1.3762956 1407:1.9045402 1410:3.9746709 1414:2.3265808 1415:0.86004496 1417:2.780503 1419:3.4321413 1425:0.90072393 1428:0.23471212 1431:2.3910224 1453:7.5198207 1459:4.3336143 1465:1.0679038 1479:0.72428679 1490:1.2757909 1493:1.4346986 1497:0.10899818 1503:6.6542382 1504:0.2458784 1508:1.6835345 1519:2.0676484 1534:0.99969506 1535:3.6129618 1537:6.2483749 1551:2.2283411 1555:0.56982917 1556:1.9697704 1564:2.0127459 1573:1.2502642 1577:0.03061685 1585:0.96527505 1599:1.8057383 1604:1.4440839 1606:4.0441165 1607:2.8475413 1608:0.35665786 1616:0.56885237 1621:3.4165604 1628:5.769012 1629:8.3507376 1646:0.20607689 1661:0.7896539 1665:2.0543957 1669:5.3131728 1683:6.1951652 1688:1.0241656 1695:2.9415183 1699:3.6183977 1700:6.7677188 1709:6.0289035 1710:1.4428756 1714:0.3185989 1719:5.8525229 1724:2.1159885 1728:1.8725245 1734:2.9205825 1735:1.4802442 1740:1.282681 1748:1.3334315 1753:2.6487396 1758:2.2287166 1765:1.9350928 1777:6.6309171 1782:0.08307071 1783:1.03861 1785:4.0271959 1792:1.9859531 1800:3.9907663 1803:1.6401635 1807:0.76127064 1808:2.0320642 1824:5.9667568 1828:3.3291719 1831:0.027036488 1833:0.45938212 1839:2.8334937 1840:0.83359605 1843:5.8411107 1852:1.0175959 1861:0.11055282 1866:0.80344498 1873:5.3074913 1876:4.5084682 1879:0.74965835 1883:8.0657454 1884:0.18834794 1887:6.7736883 1894:2.1120222 1897:0.79927188 1901:0.5075289 1911:2.6973221 1914:3.1590896 1915:1.6810551 1917:4.7673106 1918:4.3332191 1931:5.3325696 1936:1.7730356 1942:4.3544559 1943:1.3889744 1967:4.1071792 1971:1.8588839 1977:6.517498 1980:3.6254838 1982:1.7571597 1986:1.2572764 1998:3.8203917 2007:1.0673394 2008:0.38181785 2012:3.4317 2014:2.9300575 2021:0.17792736 2034:0.1928629 2041:1.1324443 2047:1.0027037 2053:2.1843143 2057:2.0202265 2058:2.3427749 2063:1.5961196 2068:2.4791248 2070:0.29409423 2071:0.18508209 2072:4.1514502 2073:1.8707234 2080:0.47578263 2083:1.221164 2090:0.71446121 2096:2.824873 2097:0.66447043 2101:0.22742069 2106:0.19128293 2110:0.33042908 2113:2.200026 2117:4.5558968 2136:3.2792547 2142:2.1887207 2150:2.0003738 2165:4.5493531 2167:1.4123373 2169:2.0887115 2179:0.33154082 2184:2.4998183 2191:3.2195902 2196:2.3681583 2204:0.58950359 2210:2.4436305 2220:3.7720673 2221:1.1011277 2224:1.5552268 2227:0.039526582 2228:3.6527615 2259:4.7492375 2261:2.2894754 2268:2.9115613 2274:0.58689642 2277:2.2916121 2282:1.5017637 2285:1.3714134 2291:2.3650723 2293:1.6814215 2294:1.7672727 2329:1.6368784 2340:1.4412898 2345:0.44366878 2346:6.0107679 2349:6.4576507 2355:0.32930586 2369:1.877726 2370:0.01141575 2374:0.91434687 2375:3.2563241 2390:3.5136085 2394:5.0052309 2400:2.177305 2401:0.93591493 2418:1.6210359 2420:1.4351947 2424:0.9625814 2430:0.2925612 2432:0.35533071 2434:6.8383574 2436:0.34263822 2440:1.3152605 2448:0.14478886 2449:0.39141244 2450:0.87975526 2459:0.51192605 2476:1.76987 2478:0.027240545 2485:0.51523322 2492:3.7335885 2493:5.7873507 2497:4.7519345 2508:11.292104 2539:0.2073466 2547:1.8011464 2549:3.1090882 2555:1.3751585 2560:3.6264262 2561:0.97091502 2563:1.0033032 2574:0.027592748 2576:1.1302054 2578:4.1760006 2590:6.1721458 2596:1.5888293 2600:8.0847206 2604:8.0986452 2607:0.18185993 2624:4.2176938 2631:1.2901984 2636:2.9331906 2638:0.27750996 2649:1.1218801 2652:0.96361685 2660:0.4663825 2665:4.2671437 2673:2.6627989 2677:2.9238405 2681:1.0207337 2684:1.7064095 2689:5.1358914 2699:1.7907888 2704:1.1917692 2706:6.8800459 2709:2.727129 2712:0.55282247 2721:3.9225426 2724:6.85396 2725:1.8266246 2732:0.10994485 2733:1.3967682 2742:1.9593831 2745:4.753705 2755:0.39473432 2769:0.91692209 2771:3.901511 2779:1.6199725 2782:2.4259093 2785:0.0038573146 2787:0.52067339 2791:0.070650578 2796:1.4655766 2818:5.2694826 2821:2.7661171 2822:0.45941919 2828:3.9613819 2836:2.4449158 2848:0.67063749 2849:0.38940132 2865:7.3042889 2866:2.3039434 2868:2.560195 2869:0.18037289 2870:3.0419073 2878:9.5852423 2882:5.2297182 2890:3.8664994 2892:4.1366858 2900:4.0627522 2903:0.53956491 2910:3.354486 2918:0.84443051 2919:1.0900238 2921:1.9421566 2923:3.2461247 2925:1.7594185 2929:2.2852483 2938:1.5205265 2948:0.31379059 2949:1.1736678 2950:4.2214003 2953:7.5014119 2960:3.1928675 2961:0.17396145 2962:0.29363978 2965:0.76295197 2967:1.7340109 2977:0.599352 2980:2.7696207 2986:1.5235786 2990:1.4189762 2995:3.7297025 3005:4.3238616 3033:0.44289142 3035:2.8610685 3036:3.3040347 3037:1.9661517 3054:3.6112151 3057:3.5124454 3070:1.2101513 3080:2.1768057 3082:3.8089848 3085:7.1883163 3096:2.183974 3114:3.3292496 3141:1.9580262 3143:0.24137223 3146:1.9048511 3147:5.9642401 3166:1.1867561 3167:0.60102117 3171:3.7785766 3181:1.7061374 3186:1.5938911 3188:2.6798117 3189:1.4258958 3190:4.5431919 3202:4.6452303 3211:2.2239838 3212:4.235775 3214:4.2723327 3225:0.21476358 3235:2.8746631 3237:3.0120392 3239:3.87834 3246:0.77128208 3247:0.49875093 3256:1.6606553 3258:0.73746943 3262:4.5239406 3272:1.5073833 3275:1.8084207 3286:0.26684487 3289:1.7100962 3291:4.4005623 3292:2.8937526 3300:3.6129301 3301:0.89981979 3306:6.4435039 3307:2.6377666 3321:0.4139041 3324:1.7724916 3342:2.2855716 3345:4.9764147 3351:1.6914155 3356:3.0859954 3367:2.6569815 3382:2.0408046 3391:0.95421219 3392:1.9204805 3393:0.2204884 3396:1.3437371 3403:0.22075573 3410:2.0282264 3416:2.5508265 3441:3.6415708 3442:3.5752962 3457:0.88772857 3465:4.6580935 3468:0.82619798 3469:0.4013356 3474:4.5264196 3475:0.061605573 3478:3.5419447 3479:0.8017984 3482:8.5460567 3490:0.3402532 3493:4.1508665 3494:2.3106003 3496:1.8579044 3497:2.9960148 3503:2.2044802 3507:4.6311426 3514:6.1470642 3530:2.028482 3531:0.17464769 3540:2.6281629 3552:0.344051 3563:3.0245249 3579:2.2739801 3580:0.064690232 3585:4.7120032 3590:5.2806234 3593:1.0212288 3602:0.4957276 3603:2.274754 3605:3.9972723 3609:2.7043324 3615:3.7318802 3617:1.698719 3626:1.0472811 3627:2.2760236 3642:2.7428105 3644:2.1864841 3652:0.017985821 3654:6.1573892 3660:1.6893215 3661:2.3461494 3675:3.3481681 3680:0.074061304 3689:0.074151427 3692:3.011039 3698:0.46803433 3706:0.083075479 3715:4.1535687 3718:3.9351788 3722:1.7203876 3728:1.9290926 3731:1.4297968 3759:2.1392639 3768:1.9632248 3769:2.0458019 3776:5.1478386 3802:3.3622348 3821:3.8945394 3829:1.4639561 3834:2.1782434 3853:2.3481135 3857:1.4664564 3865:9.1193857 3869:2.7986841 3892:0.3141838 3896:0.77655357 3903:2.5708039 3910:0.024048686 3918:2.6082468 3920:2.3126404 3924:2.1679852 3927:1.0275605 3938:2.5208709 3943:0.74249685 3947:0.58688426 3958:6.1780381 3972:0.99170673 3981:2.5136824 3983:0.1735317 3995:1.0464994 3999:7.9999342 4001:3.5282872 4004:0.37744132 4007:5.7200208 4015:1.8199513 4020:4.3556581 4026:0.33373806 4027:2.3967085 4028:0.031330407 4035:3.0000417 4037:2.851306 4042:5.9946795 4047:0.24344462 4049:2.3366108 4051:2.3124135 4061:0.54048938 4062:0.96412683 4063:1.5392431 4064:0.75792307 4081:5.481555 4082:2.5416024 4091:5.4152317 
0.02771698007159723 1:0.99158788 3:1.8208231 4:1.5383422 22:7.0813184 28:0.64594668 44:1.0022947 52:2.6104252 53:1.7315166 57:2.9256916 64:1.1750054 65:3.2431893 68:0.75687206 71:1.7623601 84:4.2527037 94:1.4475709 98:3.2950761 102:2.1905618 111:1.8092766 113:3.4352288 117:1.9734862 131:3.9969561 133:0.51205581 143:2.8710608 145:2.8471539 164:2.212667 179:5.9430337 185:0.5956797 192:2.9050949 193:4.6293941 195:2.5477707 199:3.2464805 205:4.6279283 218:4.9540405 234:2.5280654 240:0.47242045 242:3.2446754 248:1.730933 252:0.35654578 254:0.90263259 256:1.8859953 266:1.8469217 281:0.020315468 294:1.2664937 302:2.0713925 305:1.9557652 307:1.3476179 309:0.81407523 316:3.3438711 321:8.8081141 324:2.4073825 329:1.5308813 332:0.16557857 340:0.98059142 342:3.1644876 347:1.3853382 351:3.4938798 360:2.8344688 366:2.89961 367:3.5572314 371:2.5655785 387:2.0501835 401:0.29719654 416:2.9247551 418:7.6211553 420:0.75447321 431:1.9027882 435:5.3177896 441:6.198565 451:0.914859 457:2.7534873 458:1.712916 459:4.6892672 479:4.3718543 491:9.23071 492:5.9475412 493:2.0687795 494:4.5201893 495:5.0404458 499:0.56877732 516:0.83941722 526:0.63548034 548:3.3446426 561:1.6898073 562:2.1802459 564:2.0005746 566:2.8478258 567:1.4542544 569:0.15130708 573:0.063409895 583:1.535639 585:0.94972211 588:1.4915985 589:0.20584314 592:4.4525323 601:0.35730973 603:3.9978001 626:0.034255922 629:5.383215 635:1.1038539 640:0.74476027 654:7.835959 684:2.8620734 688:1.2199606 696:5.1745048 697:1.0167336 698:1.5731665 707:2.2281766 709:0.2256964 717:0.75245094 718:3.5688524 727:3.0137017 732:3.4187071 734:4.1406136 741:0.49429345 744:1.3096615 749:1.3316426 750:1.6985617 751:1.7024078 762:1.2273134 775:5.9636316 783:0.25727227 797:2.4866936 807:1.0862266 812:2.7417629 820:2.48982 829:1.83008 841:1.8299499 842:3.0111139 853:0.27249855 854:7.8750648 858:0.46023226 861:1.75788 862:1.2462453 866:0.19388014 879:0.57864058 887:1.7657266 900:1.0504268 915:0.45718893 916:7.2503901 919:1.3769534 925:0.60249436 927:3.5030763 936:3.5807829 937:2.7098715 938:5.941215 941:4.3383188 962:3.0409195 996:3.1701112 1001:0.31629786 1006:0.64399415 1008:0.92007953 1016:5.4444351 1021:4.8171859 1037:1.8546116 1043:0.49247628 1047:0.063686416 1049:1.6679066 1050:5.6051097 1057:2.1361496 1059:1.8828611 1064:5.539793 1070:0.4226605 1071:5.8599887 1076:8.6836472 1081:5.8388181 1084:1.5343179 1089:0.48991764 1091:1.6181413 1097:1.992346 1115:2.6831741 1116:1.1140972 1117:0.89672351 1121:0.95865774 1122:0.95548528 1140:1.0345697 1148:3.3078547 1163:0.18260702 1170:0.62057883 1182:0.10178941 1186:3.1605213 1198:2.4410369 1200:0.39897037 1215:4.3823209 1221:3.2051399 1225:3.4592824 1228:3.8348107 1231:3.4532559 1235:0.93861645 1236:6.0251021 1244:0.37755412 1251:1.662692 1257:1.5130168 1259:1.8223729 1260:1.7842631 1261:7.2069864 1268:0.61715889 1273:1.3765539 1274:1.3489766 1282:1.2502468 1286:0.28843626 1290:2.88551 1292:2.5540931 1293:7.2917304 1295:0.14808445 1297:2.4401097 1298:1.6085848 1310:1.5659333 1313:1.3509722 1317:5.2413578 1333:6.5654106 1335:6.3147783 1338:1.5996364 1347:1.1546158 1348:0.9638046 1353:3.9084692 1356:1.5190613 1362:1.1430619 1366:8.8092546 1369:5.3556643 1374:0.074899644 1376:3.2841189 1392:2.3025961 1396:7.62219 1407:2.7110953 1410:1.074765 1414:1.4750181 1417:0.47471184 1419:4.9282608 1425:3.1947668 1431:6.5144629 1448:2.8043334 1453:1.6395427 1454:2.4069917 1459:0.50677693 1464:1.1860802 1479:0.03753379 1488:0.37620103 1490:2.4079177 1503:7.5853987 1508:0.1080997 1509:0.52842259 1511:1.2769883 1519:3.2938678 1523:0.2099551 1537:2.103157 1544:1.9144473 1552:0.47135606 1566:2.8761032 1573:3.833358 1585:0.17679667 1604:3.1705129 1605:2.3698266 1608:4.1390529 1611:0.35645756 1616:1.1294278 1618:0.11161435 1621:6.9353971 1628:2.2883449 1629:5.4020739 1647:0.28659138 1683:9.6207161 1699:2.5620973 1700:0.36985663 1709:1.6003186 1719:6.5209312 1721:3.6798728 1734:0.37331814 1735:6.1404519 1753:1.227361 1754:0.52587533 1758:0.5750314 1765:6.8990283 1767:2.9195173 1771:1.8000231 1777:8.4866877 1789:2.2374067 1792:2.884285 1800:2.0303521 1805:1.5651892 1809:1.9779352 1814:0.045340389 1828:2.1145697 1831:0.36737582 1839:1.3044279 1843:4.9983959 1845:3.274364 1852:1.2187495 1854:0.068035737 1870:3.1279719 1873:1.8218787 1876:6.9528904 1883:8.609292 1886:2.2121291 1895:2.4256983 1897:3.7066426 1901:2.3347712 1914:0.067287326 1915:1.9445312 1917:4.0219755 1918:4.8064971 1928:0.28688747 1931:8.2092752 1936:6.3024096 1942:1.7044501 1943:0.53193891 1949:1.1529388 1956:0.74396998 1970:4.4200454 1974:0.62740374 1977:4.2027173 1980:3.7511101 1986:0.2891717 1989:1.0349656 1992:2.5112202 1994:1.5468284 1996:1.7956635 1998:0.51821256 1999:3.172519 2004:1.0987421 2014:2.7342606 2034:0.66930264 2041:0.5836069 2057:5.5285611 2070:4.4658589 2072:1.4267296 2096:3.002455 2110:2.5618982 2113:3.5411007 2117:3.4800291 2122:1.2835261 2127:7.8772616 2132:3.126333 2136:2.4862659 2139:4.5126467 2145:1.4752388 2164:4.2875676 2165:1.6593555 2184:1.5152785 2187:0.42497575 2196:0.11832613 2210:0.6774565 2220:4.611742 2221:2.2804568 2228:0.0044591427 2230:0.23553437 2233:3.516989 2253:0.2501491 2259:5.2131553 2268:3.8918118 2291:1.2383454 2294:2.1325755 2295:1.137444 2309:0.14715485 2316:1.2197461 2321:1.6712315 2329:4.7180152 2333:1.1741759 2334:1.2126392 2341:1.489005 2344:1.2364253 2346:8.7277956 2349:8.0625048 2352:1.1000353 2369:0.5219745 2375:1.3114085 2390:9.3085642 2400:3.1972969 2411:1.7482011 2418:0.93338323 2433:2.1658032 2434:2.9522557 2435:2.0693057 2440:2.9148231 2442:0.32667634 2448:1.7843779 2450:0.71170068 2459:1.0672004 2464:3.2524018 2468:1.3832912 2476:2.2600517 2480:4.7246222 2483:0.2593196 2487:0.50418139 2492:4.8076062 2493:1.4447372 2497:5.6780477 2508:9.0811729 2519:1.2358211 2521:1.8506427 2528:0.53721428 2529:1.8092124 2534:3.6772912 2538:2.5785599 2549:0.91442764 2563:2.1561525 2571:0.53859669 2578:4.276741 2590:7.6149931 2592:4.0871019 2594:1.0955985 2600:3.4069786 2604:5.2294106 2607:1.8115263 2625:2.509578 2631:0.47693536 2636:1.7681414 2642:5.8079443 2647:2.3000782 2658:1.7187815 2660:1.3591342 2669:6.231988 2677:3.5454555 2680:0.69370335 2684:1.0680552 2695:5.7315722 2704:1.3602407 2709:3.3576775 2712:0.16383493 2723:0.31597865 2724:0.81385827 2725:2.1463144 2727:0.63420624 2745:1.4455394 2747:0.12423202 2755:1.7711672 2771:3.2483649 2774:2.2776408 2786:4.5541534 2791:1.0262282 2796:3.1039698 2818:0.98377585 2823:0.23070854 2828:3.9307559 2834:1.963353 2844:4.8368621 2857:1.045046 2865:2.2931566 2866:0.56865954 2869:0.57026917 2870:1.4368616 2876:0.15872402 2878:8.2564459 2879:0.015473001 2882:4.170413 2890:4.0972161 2891:3.9615169 2899:0.18675971 2900:3.9519913 2901:1.6178613 2903:0.41158482 2912:1.3158866 2926:1.0738679 2928:0.92069823 2929:4.9464302 2950:3.2392249 2953:7.3191481 2958:1.4466064 2960:2.132679 2962:2.6874886 2965:2.8961437 2977:3.0985796 2979:2.1761091 2980:9.240943 2985:1.1289738 2987:4.1390796 2990:5.0138698 2995:2.4575825 3000:3.6900074 3021:2.6001227 3029:1.0154195 3033:0.96702731 3037:1.8002491 3038:0.33959976 3040:1.6318381 3042:1.7316172 3048:0.65762824 3054:1.8400924 3057:4.3583283 3062:2.4698527 3072:3.6224389 3079:0.36511856 3082:0.35296261 3085:6.6474366 3111:1.4606959 3114:2.1019044 3117:2.2874837 3135:2.0314369 3141:2.6263516 3142:2.5126915 3143:4.1196909 3146:1.1237578 3147:2.9567158 3168:6.8639703 3171:1.9121346 3186:1.7473698 3189:5.5964832 3193:0.96882522 3196:0.7540046 3202:4.4447527 3211:2.6640761 3213:1.661134 3214:1.9170901 3219:3.1817482 3222:1.207335 3235:5.236351 3236:1.883346 3237:1.8312056 3239:5.398571 3240:2.5280917 3247:2.7343879 3256:1.8168426 3258:1.618583 3262:0.67403197 3265:5.4384203 3268:0.79400754 3269:1.5107392 3272:1.5285425 3275:0.79108888 3286:1.8961126 3292:1.2561015 3300:3.5030396 3306:2.7185285 3307:2.3449695 3320:1.0477055 3321:8.2874899 3324:0.89024937 3329:0.75383747 3331:4.5312109 3335:3.6295626 3340:1.3757823 3351:0.15827945 3360:0.36807159 3362:1.8177353 3369:0.96549112 3392:2.151299 3396:2.2013836 3405:1.52223 3415:0.43292513 3431:1.3583323 3436:0.3550097 3451:1.5131397 3454:0.12233779 3457:5.2779565 3461:1.036641 3473:2.0799608 3475:0.31823802 3482:6.1132879 3489:1.4981509 3490:2.3034656 3497:5.2207475 3498:1.2540364 3502:0.04163003 3503:1.8350409 3507:5.0719128 3514:2.1659937 3520:0.24696478 3528:0.98651969 3531:1.1202407 3535:0.72607106 3539:0.41273549 3540:3.576983 3556:5.4601755 3563:0.27439705 3565:1.9560629 3579:2.7625389 3585:3.0440192 3586:0.36349696 3596:1.0411491 3602:0.44718891 3603:0.74454612 3607:0.86927032 3609:9.5282822 3615:1.3896351 3621:2.7587242 3626:4.4134388 3629:1.7151773 3630:0.13849929 3632:4.3302374 3642:0.68610942 3652:0.2066164 3654:7.3515596 3662:0.2775946 3669:2.6197181 3675:6.445642 3680:4.7777596 3682:0.89557636 3686:0.79454994 3689:3.4310799 3690:0.29902336 3692:1.5228868 3698:2.835978 3703:2.8192573 3719:0.83418405 3722:1.3265529 3728:1.9806042 3739:2.5103383 3743:3.1482959 3752:0.87170911 3762:3.0136511 3776:2.114502 3791:1.3113145 3802:2.6031711 3804:6.9272785 3811:0.8092972 3821:1.8128393 3822:0.85714746 3829:3.2558098 3853:6.005013 3857:2.8847864 3860:2.2069654 3865:8.685647 3869:4.1152349 3896:1.4700177 3912:1.1937655 3918:0.046590954 3920:5.8367348 3923:2.3597322 3924:0.27570346 3925:0.95206058 3926:4.5403309 3928:3.8023653 3935:1.5170975 3939:0.27806231 3942:2.663584 3958:0.24919671 3960:0.13865449 3966:0.99224579 3972:3.0011852 3974:2.4060891 3981:5.7897391 3982:2.7199421 3995:0.77802914 3999:6.4362888 4004:4.5818949 4007:2.8081131 4015:1.7486761 4020:1.1260034 4027:5.3627748 4028:3.0869117 4035:2.9822967 4037:3.1661606 4038:1.3873254 4042:1.6280755 4045:1.1878288 4048:0.16634065 4054:1.2890756 4069:0.72766382 4070:0.61918408 4077:0.4192985 4080:4.5903807 4081:3.5183806 4091:8.7362108 
0.004082040021321198 3:1.169238 4:4.099679 12:0.68847293 18:2.5381818 28:1.048191 30:0.2257047 40:0.2950674 41:0.43233547 49:1.3219938 52:0.32768917 54:2.2949173 68:1.2174056 71:0.54599744 78:1.0198234 84:1.3049256 87:0.14472049 94:0.27841434 96:0.77407038 102:0.67435479 131:1.3342978 134:0.41985467 143:0.42472827 145:4.536541 158:0.62322754 164:1.1756138 168:2.1540952 178:0.3870984 179:4.0626154 182:2.3788004 192:1.9744642 193:3.4985392 194:0.49797976 205:0.092082605 228:0.62658089 234:2.3639002 240:2.0184033 242:10.015214 248:0.45739579 269:5.4178653 271:1.7465906 281:0.94743454 286:2.9291103 295:0.76962757 302:5.1574998 309:3.3417227 316:0.85277599 321:7.1233997 329:3.1339688 340:0.34885064 342:0.81640643 347:1.2826318 349:2.4855158 351:0.87414902 362:0.77002883 367:3.1179802 374:2.70345 385:1.7532413 387:7.127677 402:0.48733985 418:2.6690617 423:0.76774144 426:0.47925383 431:3.0145428 435:1.4893633 441:1.4192173 451:6.360631 457:0.82399011 458:4.0071006 459:1.0893924 479:2.4586174 487:2.9577186 488:1.0613406 491:4.9159794 493:0.093470961 495:3.9828892 516:0.70329875 519:1.353644 521:0.17955649 526:0.63319457 539:0.8078028 541:1.2789255 548:1.2154644 557:0.67089397 562:1.5199294 564:0.9981342 567:2.2626367 571:2.102519 573:0.7187655 583:3.1145654 589:2.6828661 603:1.6072035 620:1.2587516 635:0.63921887 654:6.9119821 673:0.8741169 676:0.60493028 683:3.3079762 696:3.7180393 705:1.3046635 709:2.5118935 717:1.7274131 725:0.35309559 734:3.0766957 736:0.22234422 741:2.2385197 749:3.9389374 750:2.7997406 751:0.26373014 754:0.036089152 763:0.15370151 767:0.11056775 772:1.2834754 775:3.6076126 803:0.0096864402 807:1.2259415 812:0.86200881 817:3.4330368 820:1.496344 833:0.49354222 841:5.6416483 842:1.8691475 853:1.1273078 854:5.1359997 857:1.5738477 858:1.0342636 861:0.15112822 862:0.97143567 874:0.12426321 879:2.4453666 896:0.37274605 900:0.033173054 916:6.9181595 925:1.8827782 927:4.1992579 932:2.7356839 936:2.0774059 938:2.0313866 959:0.62228489 962:1.1232362 968:0.97062647 1004:1.0365088 1015:0.58089405 1021:0.95928341 1027:1.8281559 1034:1.718014 1037:0.23861963 1043:2.6930592 1045:2.2823474 1049:0.64660621 1050:5.4077334 1054:1.3384244 1057:1.0032634 1064:2.8243537 1071:1.603662 1076:0.39650393 1081:5.7439141 1082:0.42494372 1093:2.5708623 1097:2.1511517 1105:0.20972025 1115:1.7244867 1116:2.5231326 1121:0.4739708 1123:0.52353144 1125:1.1669965 1138:2.4948497 1148:1.0320928 1163:0.81117254 1170:2.4093316 1175:0.33764082 1186:2.2139118 1187:4.9702106 1198:1.0666014 1201:0.46288729 1203:1.2012349 1208:0.41741076 1215:4.1169896 1218:1.1101019 1221:1.5682893 1228:1.0161872 1231:2.1014287 1234:1.1480254 1236:6.0887527 1251:0.53632981 1257:2.5665057 1259:1.4579207 1260:3.1313574 1261:5.0784221 1268:0.92819905 1271:2.0159702 1273:2.3907301 1274:3.3991468 1282:1.8749348 1290:0.37486374 1293:1.8340082 1297:3.2811787 1298:0.80188775 1306:1.834613 1307:0.3737514 1313:1.0827086 1314:0.91953015 1333:6.5754781 1335:12.194448 1342:1.1316233 1348:1.3035811 1353:2.3713381 1356:0.61451983 1366:2.6382086 1369:8.911603 1374:1.4857252 1392:6.2681942 1396:6.0471559 1397:0.80107367 1407:0.6965723 1417:0.52210629 1419:3.9140801 1431:0.19025686 1437:0.28438908 1442:1.4290615 1448:1.1929036 1453:2.289052 1454:2.2708116 1459:3.2684689 1472:0.52201426 1480:1.1476753 1490:1.3307259 1503:1.4013708 1508:0.11682534 1519:5.5874281 1524:2.3680286 1526:0.097372234 1537:1.6039052 1544:3.3587267 1552:0.069226652 1561:1.0120332 1565:5.1462631 1566:2.6349354 1573:1.0938742 1585:4.0531907 1601:3.4185705 1604:4.9824228 1605:5.335566 1608:4.2853823 1621:5.3668227 1628:4.1223063 1629:3.4797075 1639:1.3455614 1673:1.2317568 1683:5.2362642 1699:2.2445028 1709:0.54432547 1710:2.851836 1724:4.5955362 1728:1.5800145 1734:3.9340534 1735:2.6169178 1753:1.1010629 1754:6.5717525 1758:4.9291563 1765:3.6062868 1777:6.8346319 1785:0.31347057 1789:1.1775888 1791:0.63544601 1792:0.95718563 1800:6.6316442 1805:1.1205292 1824:0.98297954 1828:3.5084665 1839:0.61926514 1840:1.4015578 1843:2.8156786 1859:2.5268042 1864:1.7770963 1869:1.4089844 1873:2.8900976 1876:2.0710957 1883:3.0910125 1900:0.73245102 1902:0.3999497 1911:1.4655771 1915:4.3423338 1917:5.4594741 1918:4.2968769 1922:2.6404183 1931:4.788023 1936:1.600664 1942:0.09431538 1943:1.9439788 1949:5.1593022 1956:0.93267035 1970:3.1807251 1974:8.9262772 1977:3.9607468 1980:3.4572506 1999:0.72828639 2012:2.9947414 2014:2.5066862 2019:1.291404 2044:2.4678397 2053:1.2664925 2057:5.4321885 2058:1.4266777 2068:2.8146873 2070:2.1658912 2076:0.67163146 2083:2.0054514 2085:1.4368536 2095:2.5829782 2096:3.6207876 2117:3.3180089 2125:1.395052 2126:0.03266611 2127:5.5968432 2139:0.74354053 2145:3.6286645 2152:0.82221049 2162:0.88841414 2164:6.8208418 2171:1.1932822 2184:5.7758336 2190:0.12441024 2196:2.9782605 2215:0.51652706 2220:0.37596422 2221:3.368849 2223:4.3162298 2230:0.35276592 2241:5.3041048 2253:3.4897053 2259:0.97796595 2268:3.5540221 2272:1.1968468 2286:0.27683347 2291:3.7258005 2292:4.2768912 2293:0.039830387 2294:2.8479557 2295:0.53404278 2314:3.9519196 2329:7.5156755 2332:1.5099977 2334:0.54946464 2336:0.89310378 2344:0.93370771 2346:4.3103223 2349:4.569634 2355:0.65365958 2358:1.6720999 2359:1.219362 2365:5.4032693 2369:0.79768586 2374:0.98610866 2390:5.642087 2394:0.61565828 2398:2.6522605 2400:0.29201478 2411:1.0111136 2412:0.82122439 2418:2.036705 2434:5.3148236 2440:0.78496367 2450:4.4973269 2458:0.45644394 2459:1.78017 2461:0.63774377 2464:4.4573684 2468:0.12495968 2480:1.7676389 2487:1.6590854 2492:2.7759309 2493:2.4454129 2497:1.4477358 2508:5.2069502 2519:1.2584689 2524:0.61467636 2529:3.4735076 2534:0.57726389 2539:2.6049511 2560:3.0459189 2561:0.29646474 2576:1.156721 2578:0.38996938 2590:4.8156223 2592:5.35709 2594:1.0242455 2600:2.0617132 2604:6.8898878 2613:0.0078034997 2620:0.22442499 2624:1.8629515 2628:1.6589338 2642:3.7099934 2647:2.0554111 2660:1.3091501 2677:3.8003492 2678:0.43015617 2680:1.0076363 2685:1.7476395 2689:3.4857302 2695:3.8400598 2704:0.12562102 2706:2.850636 2709:1.7758758 2724:0.53277737 2727:0.14542317 2728:0.64888823 2732:1.0230987 2738:0.61800361 2743:2.9644363 2750:0.67585546 2755:0.068947375 2771:2.0382655 2779:3.8381708 2786:1.6261542 2791:1.0462016 2792:0.47933426 2796:7.6947126 2802:1.6946504 2815:0.20040777 2821:2.6541135 2823:4.5660205 2828:2.5748165 2844:2.3158522 2848:1.5338061 2857:1.4999851 2865:6.7002234 2878:5.0190978 2879:2.35394 2890:2.0809667 2891:1.096144 2900:3.9693253 2901:3.9121289 2912:4.6958933 2925:1.6109507 2928:1.573234 2929:4.7286553 2938:2.8237677 2945:3.3754148 2950:3.1223993 2953:5.1724792 2958:1.9680362 2960:0.72085243 2962:0.95399976 2970:0.75754553 2980:5.3674736 2984:0.72439682 2986:2.981463 2987:1.7371938 2990:4.1917124 2995:6.3312321 2998:0.89650798 3000:1.9031609 3005:1.7826854 3008:2.3110018 3016:0.55953556 3021:1.447247 3033:2.8752222 3037:2.6935203 3042:1.4950564 3043:1.9897513 3044:0.46381965 3048:3.5529969 3057:0.027954519 3072:2.4227533 3075:2.5500536 3079:1.465507 3085:8.8064089 3114:2.1975744 3117:0.68125522 3138:0.069351077 3141:6.016273 3142:1.1936119 3143:5.0167985 3146:3.2266331 3147:5.3140202 3160:2.1472821 3167:4.0745282 3171:1.3505573 3186:4.9529448 3190:0.44511688 3202:6.1626167 3212:0.59328586 3213:1.345246 3222:3.3441191 3235:1.7979865 3236:0.052608997 3237:5.5412688 3239:1.3410761 3240:3.3499467 3247:0.16963264 3256:2.6992552 3257:2.090584 3258:2.1028836 3261:0.91142273 3262:3.2668824 3265:0.9777205 3272:3.4444654 3286:1.9016393 3300:1.466764 3306:0.88633752 3309:0.075491749 3311:0.097078562 3321:5.1300411 3332:1.0756412 3340:2.5844131 3360:1.0381093 3369:1.777519 3386:3.4751503 3387:1.090131 3388:0.36515874 3392:5.0244312 3393:1.869653 3396:1.8957258 3405:3.447021 3431:2.7096972 3454:1.9205277 3457:2.8852098 3465:3.6115489 3467:0.21057659 3468:1.1702459 3471:2.6104116 3475:0.13939452 3482:3.3246117 3490:2.4341009 3493:5.6925721 3494:1.3883979 3497:3.210098 3504:0.2200869 3507:3.8902795 3514:0.51260918 3528:0.12142262 3537:1.0691359 3539:3.3431308 3540:2.1064568 3542:0.47158343 3556:0.24551661 3557:1.9611657 3562:1.7426975 3565:0.77579987 3576:0.2500686 3580:0.18370527 3585:1.8666992 3586:1.1106319 3590:1.7982159 3603:2.0324912 3609:4.9680276 3610:1.4662461 3617:1.0283641 3620:1.1618043 3621:1.6708772 3626:3.9919395 3627:3.0823319 3629:3.0009537 3642:2.2463083 3650:2.3911147 3652:0.20492184 3654:3.25489 3657:0.39534596 3675:5.0791893 3677:0.94298851 3680:0.7212711 3690:0.27653122 3695:0.55992144 3698:0.54539841 3711:0.79509294 3715:4.0689282 3719:3.9629352 3722:2.1153688 3725:1.8046242 3729:3.985806 3731:6.1687412 3748:0.15039724 3751:1.7589108 3758:0.38925409 3776:2.6825488 3802:6.1151423 3804:3.5758486 3821:5.4873056 3823:1.5896585 3829:2.9117916 3830:0.90806806 3837:4.7237158 3853:3.7158794 3857:2.2682195 3860:1.9440103 3865:7.6693792 3869:2.4134033 3909:0.33318913 3920:4.1979532 3925:0.0025129318 3928:0.81010091 3942:0.50827909 3958:1.0580399 3960:6.3885021 3966:4.8242993 3974:2.1009102 3981:4.6107368 3982:0.43827766 3990:0.35236001 3994:0.5975284 3995:3.2816439 3999:1.5331515 4004:0.41520852 4007:4.2559638 4016:1.16451 4020:1.4220371 4027:3.3208985 4028:0.20485297 4035:3.710784 4037:4.3395038 4042:2.2239382 4052:0.67390221 4061:1.2069647 4062:1.3505759 4069:0.87878895 4072:1.670192 4077:0.13280281 4081:2.725044 4082:3.058542 4085:0.74209803 4091:4.1225328 
0.0157525692656858 1:3.3306022 2:4.6980567 4:0.1264053 7:0.76150453 13:3.106993 15:3.4550986 18:3.9144726 22:3.9747851 28:1.9448764 30:3.1771333 35:0.18458945 38:0.3514201 41:0.66956389 44:0.056870848 46:0.44251326 52:1.4806007 53:4.6072798 57:2.2218275 58:0.34406766 63:0.22346282 64:0.088539571 82:1.3564423 84:1.7308621 85:0.53161347 87:3.2873139 89:0.77213967 94:3.538316 97:1.6632894 98:1.4848458 102:4.5692391 103:1.3352659 107:0.43809822 108:1.4902908 109:0.32302669 110:1.2756884 111:9.9800663 131:1.3156402 133:1.0556331 134:3.2164381 136:0.2081759 143:2.5610664 148:1.7381027 149:1.468197 151:1.1273518 157:0.63344753 178:0.52743328 179:1.4910634 181:0.55422068 182:0.21563841 184:0.33042237 193:0.1803647 195:4.1868505 199:1.3000436 200:1.5385085 205:0.78945911 206:2.5768685 212:0.64410007 216:0.55537212 221:2.1020176 222:1.8390021 234:4.5146585 241:0.46460187 248:2.0109158 254:0.0085537136 256:1.3045404 263:2.3803658 266:1.4804173 273:1.8384556 290:4.1406507 294:1.3577616 298:0.84051442 302:0.23284271 312:2.4726028 314:0.84513879 321:0.7915988 324:0.84304464 325:0.075875588 330:4.0256 332:1.2651207 337:1.1934103 340:3.9962804 348:0.56191045 351:1.4062939 355:0.26600981 360:1.2826775 361:2.5104856 362:1.415386 365:0.24517456 366:3.1392193 367:4.5565081 368:2.0610137 383:3.472542 384:2.3180318 390:0.79298902 402:2.9672713 424:0.35205513 436:4.7090106 437:1.9514054 451:1.4096438 453:3.2158241 458:4.9034839 459:3.6789908 461:6.3678188 479:4.2364154 485:0.81142002 487:6.745677 488:2.753664 491:3.6826558 492:4.1084003 493:1.159701 496:0.75214219 497:2.8663685 498:2.5598021 499:2.0920932 502:1.8588896 505:3.0902309 506:0.39087605 508:1.9951164 513:0.3837325 516:2.6183662 521:0.56151903 539:1.2050567 547:1.0282569 548:0.020155847 554:1.6010222 561:0.31874353 562:2.7390482 564:0.99562001 566:0.51704323 567:3.5820537 569:0.33037946 573:3.5868139 582:0.75464785 583:2.4238935 586:1.3675101 588:9.534029 589:3.2101047 602:0.37434477 611:2.5985286 616:6.8681593 629:0.77569723 631:2.0392396 633:1.8987409 635:0.53191036 636:1.5911455 637:2.9349394 644:2.4605749 647:2.7441754 654:2.655036 658:0.10533971 670:2.2474446 673:3.522856 677:2.7338183 684:1.1979287 686:0.80081785 688:4.6464086 691:0.57928795 697:4.5986767 698:3.28953 706:1.4325103 707:1.2519636 718:1.4279888 727:0.4518398 732:2.3974531 733:0.051491346 736:2.8429279 741:0.42261869 751:0.91988564 756:1.1542559 762:4.5068264 775:2.7323003 780:0.21775779 792:1.7759497 799:2.1178956 810:0.86310226 812:3.880291 813:3.2013624 822:2.9731026 824:1.2654637 826:0.55690736 830:3.3166847 835:3.5333643 840:1.1908157 841:2.3826065 842:0.19055319 844:1.0516729 845:1.8289959 846:1.588462 849:0.83929265 852:1.2061659 854:7.0081244 862:0.88761973 881:0.83915651 885:0.46784601 887:1.204587 893:0.33281749 900:2.88924 901:0.052475691 915:1.0246131 916:2.1126001 920:0.64358717 928:1.7636212 934:1.7673426 936:3.9865284 937:1.9295961 938:2.9045432 952:1.5485336 955:0.3109681 962:0.74452162 964:0.98250932 984:0.5587526 985:1.4315971 1001:0.41828474 1008:0.39295048 1010:0.70811141 1016:8.0069132 1021:3.9211955 1022:2.376344 1025:0.14363752 1028:1.1860814 1037:0.44749844 1046:2.6179121 1049:2.7656841 1056:3.953238 1063:2.8106406 1071:0.62992913 1072:1.6281011 1076:4.8952155 1082:1.564903 1084:4.9853754 1086:0.03616862 1097:2.4244313 1099:0.39284825 1110:1.3608487 1116:1.4773815 1117:1.6379813 1124:1.8972704 1140:0.47239226 1144:0.86235595 1159:0.39785191 1163:0.26493466 1166:0.59659928 1168:0.48886052 1170:1.9424955 1172:0.66332847 1176:0.97373956 1182:1.3254999 1186:1.1354451 1204:0.8638038 1215:4.6198292 1220:1.8683512 1225:2.4510984 1228:0.42164329 1231:1.2010932 1236:1.4052343 1242:0.3007203 1251:0.26238719 1260:1.7637601 1261:3.1934128 1264:0.082403481 1268:2.2346866 1273:1.4100708 1277:3.2785921 1280:1.1610788 1285:0.26738584 1286:7.101644 1292:5.6162448 1293:5.836278 1295:3.8183551 1297:1.5629805 1298:0.17483616 1300:2.4561415 1306:0.61698163 1311:0.47023574 1317:0.040190786 1338:0.85754347 1345:0.28256136 1348:3.8812749 1353:3.2605169 1356:3.0129015 1357:3.7919321 1364:2.4177732 1366:11.32136 1370:1.4467005 1380:0.19055119 1396:7.9054027 1407:0.99959499 1414:0.86549813 1417:1.7483417 1430:0.80140585 1431:2.5565627 1444:0.99325055 1453:2.5571852 1459:4.9534731 1464:0.59655797 1466:2.1947491 1472:1.9978933 1476:2.1575866 1479:7.8302507 1490:4.5440364 1499:2.6553459 1500:3.3655014 1503:7.8944268 1508:2.3002238 1509:1.0917441 1513:1.748408 1514:0.5504151 1521:0.045804948 1534:0.55035019 1539:0.21614397 1541:0.19055831 1544:0.39283288 1548:2.5132537 1549:1.1447341 1551:1.1824062 1554:0.94685161 1556:0.54610646 1559:0.31153801 1563:0.32831144 1564:0.97500551 1573:2.3821445 1577:0.35971782 1584:2.4351697 1586:0.73697525 1594:0.50047189 1601:2.443974 1604:5.7527843 1606:2.311507 1607:1.9248079 1608:2.1823268 1611:0.9800483 1616:0.99576509 1619:1.8119119 1621:1.5691918 1628:3.984215 1634:1.7962787 1636:6.8926301 1639:3.1846378 1640:2.3186944 1644:1.6342361 1646:0.4355588 1648:1.9022098 1661:0.51197982 1664:2.2209125 1666:2.5129023 1669:0.18364228 1673:0.13107616 1680:0.54596066 1688:3.0576696 1695:3.6850674 1719:1.2794812 1721:3.5537643 1732:5.30791 1735:4.6075301 1740:1.2263465 1746:1.6029828 1748:0.56609887 1751:3.2058289 1758:0.64844233 1759:1.7385718 1765:0.86028153 1771:1.0991383 1777:1.1344063 1778:4.9463859 1785:3.5749993 1792:1.7010652 1800:5.4117761 1803:0.77436453 1805:2.0130532 1807:2.4976997 1809:2.4324229 1810:0.031812131 1828:1.3122462 1831:2.8877447 1839:5.6811328 1840:0.31942371 1857:1.8920866 1859:2.0559347 1861:1.050681 1862:0.89805382 1866:1.4239767 1870:3.4426274 1876:1.5548835 1879:2.2787457 1883:7.5600309 1885:0.49313363 1887:0.29740196 1894:0.13709846 1897:1.4409916 1904:0.11840768 1914:0.72401243 1915:1.3645771 1916:1.2319496 1917:2.7836738 1926:1.1156389 1927:0.51815301 1931:4.1041918 1934:2.8777289 1940:5.1908655 1943:1.6391426 1949:5.2290101 1959:2.3952026 1964:6.3922877 1967:0.25404149 1970:9.0452089 1974:2.3803067 1977:1.7649482 1980:1.6234189 1986:3.6205931 1989:0.54935366 1998:0.66000283 1999:3.0463459 2000:2.7055826 2003:1.281935 2004:0.92358881 2008:1.9649706 2012:5.4987707 2019:0.35403848 2029:1.8359984 2030:1.0064483 2041:0.6043672 2044:0.91384715 2057:4.0828691 2058:3.4747632 2062:0.36192763 2070:2.1815972 2072:3.6193812 2076:1.5060134 2080:0.34406668 2081:1.5174487 2083:0.74838394 2084:2.4454076 2092:0.43101221 2096:1.5317419 2110:2.0420601 2112:2.8993809 2113:3.932327 2123:1.4558208 2131:2.0226042 2139:1.3528113 2140:1.9187752 2149:5.315917 2150:0.24717382 2154:0.1694147 2165:2.0405154 2167:2.6959145 2171:0.3731488 2172:5.3530421 2174:0.16534494 2179:1.3356063 2191:5.0151415 2196:3.3325996 2200:0.14944991 2210:0.94322693 2212:2.1897044 2213:0.91897142 2220:1.5256903 2221:0.8057934 2227:1.3693788 2228:6.0072885 2230:3.489552 2232:3.0996108 2233:1.033923 2243:0.57348728 2249:0.64187926 2253:1.1692669 2255:3.0962119 2259:2.3474851 2261:0.8109749 2268:2.7959569 2274:3.5290093 2277:3.0406888 2292:3.0920961 2293:0.93845421 2294:5.657793 2302:0.15818037 2316:0.3433091 2329:2.4870648 2341:6.5822363 2342:0.61401975 2346:4.6015096 2349:7.7444868 2354:2.5722618 2355:0.042558104 2357:0.203712 2369:0.8825587 2374:0.36034116 2412:3.306608 2422:1.6935587 2440:1.0862858 2443:1.8763899 2450:3.6434062 2466:1.1033278 2476:0.78673422 2478:0.73076129 2483:0.49489501 2487:3.8987033 2492:4.2002201 2500:3.0360672 2501:1.6679641 2508:4.2782927 2513:1.9668152 2516:0.42000645 2529:7.0137997 2538:3.1666269 2547:1.7304547 2557:1.6182281 2560:1.8081121 2563:1.9260831 2569:1.4339724 2572:0.600357 2573:2.9146955 2578:3.293088 2588:0.8951143 2590:3.5746446 2592:0.22051969 2620:4.240972 2639:0.5285278 2640:0.011966825 2642:0.68683696 2643:2.2076399 2644:1.5162849 2649:0.15449864 2652:2.5171947 2654:1.2058499 2657:3.9824593 2658:1.2948397 2665:0.4678095 2673:1.4184823 2677:3.5123281 2678:6.1427193 2680:0.33617514 2684:3.7538073 2688:0.63291508 2693:3.2969964 2695:0.33335495 2704:1.714174 2706:1.8584597 2712:3.8667655 2722:2.1881166 2723:1.6115388 2724:1.2497947 2726:1.6308621 2733:1.6426198 2736:2.6360629 2743:0.91274118 2745:0.45606256 2747:0.26048499 2752:0.8741141 2771:1.1253849 2772:0.77973753 2774:0.60322666 2775:0.65177393 2782:4.084343 2786:2.6462939 2796:1.5748454 2797:2.2789512 2800:1.5344816 2804:0.079394609 2822:0.53451926 2825:0.71111864 2834:1.4022951 2835:2.2105465 2836:0.84733373 2838:0.161847 2842:0.14061968 2869:2.6080894 2870:2.5309775 2876:2.2580385 2877:1.9265109 2878:7.4714179 2883:2.8063703 2890:0.72876155 2895:0.45529285 2898:3.6161258 2900:3.7968204 2907:1.6833048 2920:2.044848 2929:1.2532818 2937:0.24915123 2938:0.38432389 2958:0.57223117 2960:2.7156639 2965:2.7885532 2967:1.9258957 2969:1.4156251 2972:0.20148718 2978:0.94880581 2980:0.22104982 2984:0.66414177 2985:2.9600196 2987:0.10061426 2988:0.42748731 3024:1.5541989 3026:1.4793642 3030:0.28628981 3035:5.3067656 3036:3.548439 3038:5.7565947 3040:2.1679721 3043:0.23746964 3044:4.3659282 3062:5.3307548 3064:0.046748996 3065:3.2152488 3074:1.22694 3081:0.92505485 3085:1.171821 3097:2.7542832 3117:2.0740559 3126:0.36167857 3143:4.6799417 3147:4.1547704 3154:3.8585119 3157:0.27565658 3167:3.7578554 3168:1.4034225 3171:0.11039072 3181:2.0036948 3184:2.0917883 3188:3.8909674 3190:0.90477645 3197:0.21167842 3202:1.7921277 3203:1.808943 3208:0.7737453 3211:9.9289026 3212:2.2650766 3219:5.8746715 3225:1.2792804 3228:2.4429154 3235:0.74838799 3236:0.84009886 3239:0.34161073 3242:1.0174073 3247:7.1908541 3258:2.0063066 3263:0.51105702 3268:2.2433565 3289:0.39590937 3292:0.43333718 3297:1.234429 3300:0.71211791 3306:3.615581 3313:1.550441 3320:1.6651026 3324:2.3212538 3331:1.0624528 3335:2.6385348 3350:0.10811859 3353:0.34289524 3362:3.3985188 3363:1.5170288 3365:5.0936685 3386:3.0263522 3391:0.10676089 3403:6.0408878 3410:0.53588867 3427:0.90074289 3452:0.47636491 3456:0.46584091 3465:0.42079598 3471:0.94580281 3472:1.1820508 3474:0.56629926 3475:0.9837414 3478:2.2777934 3482:0.69335139 3489:5.3069892 3497:0.51706958 3507:2.4971035 3514:1.4644799 3531:2.8617837 3534:2.9017861 3540:3.2646987 3541:2.3924999 3543:2.1607575 3556:2.8868346 3559:0.8285414 3565:2.3993058 3580:2.2426577 3589:0.13829032 3593:1.3332446 3596:1.8617892 3607:4.6428666 3609:5.0615859 3615:1.5882076 3629:1.3650934 3630:2.8009012 3631:1.933845 3632:1.925092 3642:1.1907421 3654:0.95496511 3657:1.5367057 3660:1.7986662 3661:2.0559912 3662:1.4619477 3669:3.5290565 3675:4.9477577 3680:2.512459 3681:1.3747137 3684:2.3879559 3689:4.8109279 3692:4.5633497 3695:0.26936692 3698:0.74122036 3703:1.8751857 3705:0.76045316 3706:1.1786659 3715:0.65012842 3718:2.8264906 3722:2.5030596 3724:0.87523085 3728:1.9515183 3743:4.6705999 3762:1.6625791 3768:1.677376 3771:0.7399168 3776:1.49006 3793:0.97272617 3802:2.9140563 3804:9.3874922 3807:0.23211601 3812:2.3805332 3814:1.6175866 3822:1.5206062 3827:3.3062184 3829:2.2310498 3837:0.10543823 3841:2.7529712 3853:2.2281616 3855:0.58577704 3857:2.2538693 3869:1.4529531 3872:0.048161179 3881:0.010842144 3887:1.4123635 3895:2.9454019 3903:1.2243766 3908:2.8402658 3914:2.9872108 3920:1.4115202 3928:4.0602851 3935:1.0255213 3942:0.21175793 3943:0.36458683 3964:0.41971636 3974:0.33111739 3976:0.35665318 3991:0.63710499 3999:2.7230108 4001:0.28459042 4004:3.4070654 4007:6.2008095 4015:1.4780667 4024:2.2709081 4027:0.52065933 4028:2.8349974 4042:1.2640518 4044:0.0633955 4052:0.35284254 4066:0.67915952 4069:0.43931136 4071:0.10694975 4081:2.0174041 4083:2.3481431 4085:0.96705043 4090:0.80168992 4091:4.4103746 4094:1.5274584 
0.1504293693080652 3:3.9251406 4:1.3880893 15:2.2105479 18:0.37760335 22:2.5726006 28:4.4806004 29:0.89639902 48:0.26795429 53:4.3989348 54:0.79268336 57:2.602592 60:0.83054185 63:0.054191172 64:1.2540883 82:1.9617826 83:2.5480578 94:2.3311865 98:1.637215 102:0.91121161 108:2.834954 111:4.0959606 122:4.8339601 131:3.9106686 132:0.32131985 145:0.76890582 149:0.90707755 159:3.3691962 164:4.2300606 174:0.5255025 179:0.77361935 189:0.36361617 192:4.7381611 199:0.94189358 205:1.5295117 216:2.2314296 218:0.22219753 223:0.75207996 234:4.1958203 237:0.54896426 241:1.1654571 251:0.44922191 254:6.8810863 263:0.22615966 266:0.99444544 294:4.868896 301:0.13578767 307:2.7097626 309:2.4423666 316:4.7559471 321:3.8652718 325:1.2653996 326:3.5572243 329:0.88718247 335:2.9738123 337:2.2675245 338:0.97951347 340:7.7879033 342:1.6571773 343:0.5940879 346:2.5968924 347:1.6613719 354:1.573946 361:0.57622248 367:1.3536264 377:1.3632715 378:1.6109793 402:1.6135213 409:0.2992444 416:3.0363319 418:0.91322911 435:0.98121905 436:1.2728744 438:2.1116061 439:2.1498904 441:0.4389613 451:2.0597315 456:1.4408489 457:2.4086835 458:5.3214254 459:1.8187892 461:0.68554974 479:4.0015244 485:0.19779749 486:4.9771199 491:1.3208402 492:1.12328 495:0.68984759 497:0.17504802 507:0.73364526 509:1.0769222 512:1.5532053 516:1.2680646 519:0.32290164 520:4.2599831 521:2.7926443 533:1.4054121 541:0.49027959 548:3.4921856 549:0.25412869 552:1.3655255 556:0.83733535 561:4.6456046 562:7.2243719 563:0.25798073 564:2.6348162 566:2.9419529 567:2.8923204 573:5.4586105 583:5.2230153 585:0.30503988 589:2.0148799 591:0.08526656 599:2.8954601 614:0.73222035 616:0.74941885 618:0.50215405 626:0.43716082 629:0.60807091 633:0.44465786 634:1.553622 635:3.2463007 637:2.2213597 640:2.1866825 647:1.52036 652:3.6794562 654:5.8624444 658:0.43716753 659:0.64650804 670:1.3760792 684:4.0195193 685:1.7767407 686:3.2896316 688:3.7976935 697:3.352474 698:2.490706 701:0.068883665 717:3.0300646 729:1.2342403 732:10.247361 736:3.2399662 750:3.0890999 751:1.3727078 767:1.1883993 776:2.4450753 789:4.4049625 802:0.19213808 803:1.0173122 809:2.9777727 810:5.6399322 812:2.4275308 813:1.7567167 816:0.96513331 818:2.7070649 824:1.4118782 830:2.9617064 833:0.61957318 836:3.4445465 840:1.5399204 842:3.4544611 852:0.78475672 853:4.9799418 854:2.1361554 858:0.73920119 860:1.7729156 862:0.18909404 866:2.1147079 875:0.60586506 876:0.10981825 879:0.59962505 880:1.9995768 883:0.23695043 885:3.6564271 887:0.48543701 891:0.2314769 894:1.1615472 903:0.46162412 904:2.6726336 914:0.57141423 915:0.14872238 928:0.12949264 929:4.4781666 934:2.2675819 936:0.49344248 937:1.0485209 938:1.2320061 942:2.6181591 955:1.0297649 962:0.44783345 968:1.2302227 991:0.015271008 996:3.4079661 1008:1.6566585 1016:5.1933756 1021:4.8697743 1028:0.76393008 1029:0.12461314 1050:0.77391076 1059:2.9408691 1065:1.6580026 1071:5.095541 1073:0.92302585 1076:0.6307779 1082:2.2773378 1084:2.8502283 1085:2.6064467 1091:1.3732575 1097:3.0105026 1102:0.80710208 1113:0.3186205 1119:0.96950763 1145:1.8572348 1147:0.43191633 1158:1.2592257 1165:2.3324313 1166:3.6533911 1170:0.32744643 1176:0.17735788 1178:4.1470203 1180:0.32499737 1184:4.3504405 1186:5.8787146 1196:1.4131033 1200:2.9945331 1201:4.6943021 1224:2.9306211 1225:1.5951414 1231:0.089357853 1234:1.9617064 1235:0.34998983 1236:7.7334471 1237:1.4252222 1241:1.3479173 1242:1.5502862 1249:0.45079559 1251:2.2784324 1259:0.019791126 1261:2.6833849 1264:1.2803807 1272:3.9656401 1273:0.38345361 1280:2.2587137 1292:5.6906524 1293:3.4232862 1294:1.1794151 1295:1.6201746 1299:2.2898092 1310:2.5111701 1345:2.6813221 1346:1.7895892 1347:1.2194325 1348:0.97043872 1356:5.3033085 1357:5.0027809 1364:0.75482881 1366:3.2017283 1376:0.92903054 1386:1.5956855 1392:1.8965656 1396:2.0706201 1402:0.96100879 1407:5.2275753 1408:0.61570501 1414:1.5372146 1415:2.5646837 1431:7.5016799 1440:1.1935788 1444:2.7171462 1451:2.5304234 1453:4.501811 1459:5.2057972 1472:0.39323679 1476:1.4798666 1479:3.1797183 1490:4.3721991 1491:0.78233463 1493:4.4990649 1499:1.9309899 1503:7.8699012 1505:1.3031502 1508:0.73724413 1514:0.0010151044 1519:0.064291805 1524:1.1670667 1537:5.8341856 1539:0.29629868 1549:0.019389451 1550:2.0272787 1551:3.7230449 1552:0.63501763 1554:4.8565068 1556:2.6135311 1563:0.057003528 1571:4.7485328 1573:1.874359 1586:3.2547374 1594:0.22633414 1604:1.5955763 1606:0.75916427 1607:4.7622395 1609:1.482802 1610:1.3472 1616:1.6482843 1621:4.3880582 1628:2.0183351 1629:1.8759952 1636:2.2761188 1640:1.4485551 1646:2.0812316 1647:0.041252166 1648:2.0584321 1651:2.2276816 1661:2.5687218 1678:2.3231149 1681:0.5539521 1683:11.593689 1688:3.834137 1699:2.3227243 1701:0.89797503 1703:0.4265742 1707:0.89927137 1709:1.2199103 1710:0.16679749 1711:1.1903598 1714:0.71841979 1719:2.6556306 1734:0.014350519 1735:0.87572187 1742:0.39191961 1751:0.71201956 1753:1.6452166 1758:1.1640193 1759:0.89037216 1760:0.056945026 1761:1.8221066 1766:0.38255033 1768:0.37046027 1777:0.52353227 1778:1.3383462 1779:1.3798499 1782:0.40678617 1786:2.5748999 1789:1.9325328 1792:0.046313435 1800:4.4941483 1809:1.0311904 1828:2.8870988 1831:4.7604809 1837:0.20134485 1839:4.9547544 1849:2.4911017 1866:1.0429862 1870:2.5388424 1876:0.28148079 1881:0.47561851 1883:8.4307108 1884:0.91137737 1887:2.3977029 1890:0.80907345 1892:4.4395957 1894:1.9612235 1895:0.93556106 1897:4.5135469 1900:1.7406071 1912:3.0302107 1914:1.5280335 1918:1.9596618 1926:1.5950716 1931:3.4325337 1936:2.6553402 1943:5.1898923 1951:2.6124072 1964:0.80521947 1974:0.002594918 1977:1.1866481 1980:4.3653169 1989:0.54287261 1996:0.26837164 2004:2.6160443 2008:3.4056711 2027:1.6147506 2028:0.91900796 2034:1.8596234 2056:0.22936118 2063:0.58940816 2068:0.74567264 2069:1.5827457 2070:0.8522495 2078:0.94656444 2083:0.058734059 2087:3.5364754 2101:2.6213987 2106:0.26943296 2113:3.9926393 2115:0.037409991 2117:2.2725039 2123:2.0564952 2129:0.45086545 2131:0.65395659 2149:0.12956561 2167:3.6699383 2176:5.3214564 2178:0.50579166 2184:1.7264245 2189:0.56645066 2199:0.57821715 2204:1.9619894 2210:3.7927134 2211:1.0898733 2212:0.50030816 2219:0.53708524 2220:0.2726157 2221:1.6812505 2228:1.2576255 2232:3.1350696 2253:1.937444 2255:2.6537435 2259:4.5943241 2266:0.21045893 2268:1.3213333 2292:0.11386129 2293:0.60072505 2316:1.2401724 2321:0.34493977 2326:2.1480327 2329:1.6472942 2333:1.2358625 2334:0.12878546 2341:2.6706622 2346:3.7784054 2349:6.7679706 2352:1.8535284 2355:1.325388 2357:0.51744324 2359:2.3160903 2369:1.0093571 2372:1.3147013 2374:6.1071725 2375:5.8203888 2390:1.6100979 2400:5.8584371 2411:0.54829186 2419:3.1999645 2426:2.0662761 2427:0.79532999 2429:3.5788486 2459:0.40165436 2475:3.0083709 2480:2.2643702 2481:1.8561029 2486:0.76301378 2487:1.2066269 2497:3.5045791 2508:5.5504441 2519:4.8379302 2521:1.5306472 2528:0.3760801 2529:0.30169654 2534:1.7546134 2549:2.9733942 2560:1.4409672 2563:2.8538091 2572:0.25308746 2574:3.3603857 2578:5.289433 2588:2.0461581 2590:0.5949918 2592:0.025115997 2593:1.0320309 2596:0.17138371 2600:1.7897681 2601:1.8132218 2604:1.3137816 2619:3.7284586 2632:1.6517797 2639:2.729346 2647:0.66005254 2649:1.5315781 2652:0.75342822 2658:1.8998704 2669:2.2593877 2673:2.565438 2682:0.55978417 2696:1.1179084 2701:3.848547 2704:3.4343879 2706:4.8750076 2712:5.3441839 2715:0.63246781 2718:0.73795271 2720:1.1886594 2723:0.35526055 2724:6.9770465 2733:2.4436884 2736:1.2797601 2752:2.1125875 2753:2.8156157 2755:1.9069202 2779:2.1973791 2782:2.9197941 2786:0.75463724 2796:1.3384959 2800:2.9217136 2802:0.98239368 2811:0.21169662 2821:0.28557363 2836:0.88606679 2845:0.16941771 2852:1.3832707 2860:4.5625606 2868:1.4141333 2869:2.1519928 2870:0.068956763 2876:2.5306411 2878:9.1470718 2890:1.3284377 2893:0.28068718 2898:4.3801961 2900:3.8747408 2903:2.875315 2907:1.2029151 2913:2.2400479 2920:2.154362 2921:3.0369287 2929:2.2509172 2950:1.4116262 2951:5.3815761 2953:4.775425 2962:1.9847858 2963:0.56500888 2977:3.5873322 2978:2.2664773 2980:4.877985 2985:0.30460995 2990:2.6887972 3009:2.6936891 3017:3.0631421 3024:1.2076088 3036:1.0916233 3037:1.1830907 3057:2.8216674 3065:1.5130172 3072:0.70066357 3080:3.0581865 3081:0.42298377 3082:1.2292199 3085:3.2454159 3109:0.67141277 3117:0.057732046 3131:0.32956582 3135:0.14897853 3143:5.4428129 3147:3.0194836 3161:3.091146 3179:1.9572771 3190:7.3163304 3191:2.8407497 3193:2.4403822 3208:0.48205325 3210:1.8629695 3212:0.32645595 3218:3.7711859 3221:0.23209026 3222:0.24522981 3225:1.0799851 3226:2.5102806 3228:1.9291399 3235:5.3190684 3240:1.336143 3245:0.9517616 3247:0.64344507 3252:1.1230606 3256:2.9177063 3260:1.6051649 3262:4.7563806 3265:1.8320438 3286:3.1718438 3299:1.647 3300:5.0255442 3306:1.3942536 3320:0.6333313 3324:3.8972325 3329:0.11089525 3333:5.8552513 3335:2.028722 3340:1.1568676 3362:3.0874548 3365:1.3437494 3382:2.3707867 3385:3.2567503 3391:0.33319834 3396:2.1986978 3400:0.58262515 3412:2.2462358 3418:1.3189369 3428:1.8333466 3457:0.90615577 3465:1.6850635 3470:1.3651866 3471:5.3599133 3472:1.4578787 3474:1.6909004 3507:1.2303587 3511:1.8340032 3512:1.1306298 3542:0.13995956 3550:0.23261885 3552:1.8552531 3556:2.1134033 3562:4.4120045 3563:1.5368353 3575:1.0127927 3579:8.643177 3580:1.6912071 3585:0.0062786303 3588:0.97378182 3595:0.17156897 3596:9.0124016 3602:6.9929771 3603:0.020845477 3607:5.1489453 3609:0.68450624 3617:3.9116163 3626:0.18090776 3627:4.1428246 3629:0.92466319 3632:3.6673717 3639:1.1772994 3642:0.36558753 3650:0.64748442 3653:2.8774686 3654:4.1889062 3657:3.0598509 3659:0.34288782 3661:2.2013459 3663:1.2501606 3667:2.0303791 3669:3.849916 3675:2.4858968 3681:2.176898 3683:0.22987869 3686:0.96181321 3689:2.6547673 3691:0.84800249 3692:3.2683718 3699:3.6279848 3706:3.135421 3709:2.8105445 3711:0.97439563 3715:2.6499984 3728:2.2401013 3734:2.5543172 3739:2.2346146 3744:0.86928403 3751:3.0884416 3755:1.8550534 3759:2.4405847 3769:0.58158368 3776:2.5460298 3795:1.19522 3802:0.066929333 3804:3.6817634 3812:0.78082478 3814:0.040274151 3822:0.55287772 3826:0.68371582 3829:4.4285622 3834:0.13714512 3850:0.78223479 3853:3.0683663 3857:5.5067372 3865:8.8159084 3870:2.1848874 3877:0.92210662 3888:3.5032616 3890:0.30165702 3891:0.92269075 3908:0.95798016 3914:4.5712438 3916:0.47308984 3918:2.8812265 3920:4.6311836 3923:1.6093271 3926:1.7837467 3929:0.28498253 3935:0.51975429 3938:1.0672724 3942:2.2416697 3958:3.8398297 3966:0.072045341 3972:1.1724192 3981:3.5465627 3983:0.65293413 3986:0.31893879 3990:1.781458 3991:1.6289197 3999:1.880898 4004:7.48457 4007:2.3007863 4008:0.84898502 4020:0.99336612 4026:3.0926456 4027:2.2836838 4028:4.5053535 4035:1.7423803 4047:0.56653315 4051:4.174015 4056:6.2612963 4062:2.7456656 4063:1.056244 4067:0.76136851 4072:2.2390893 4080:4.3930202 4081:0.37641731 4085:4.1263437 4090:0.23734951 4091:4.0787673 
0.1204684805531273 3:0.25949222 4:0.63825721 12:2.2226193 16:1.14361 28:2.2269902 30:0.40902424 40:0.58697426 41:1.8700069 52:0.060256429 54:0.16799372 63:1.1067384 68:2.2336726 71:0.57733917 98:3.7983398 102:2.8446267 109:0.92171872 111:1.6239281 131:4.2664385 135:2.5061097 143:1.0887966 145:6.1586752 160:2.1881371 164:0.072825879 168:3.6086085 174:4.3146505 178:1.410351 179:0.48710662 182:1.1527274 184:0.19402307 186:1.4867891 192:0.73366761 193:0.87708962 201:0.87230015 205:2.5000842 218:2.7549295 223:0.88427126 228:0.53904802 234:1.8333569 240:1.9269792 242:10.302074 245:1.1288466 254:2.7752287 255:0.6476438 269:2.4249263 281:0.67797148 295:2.7286198 299:0.55031443 302:2.2510297 304:0.57833028 309:2.8403604 310:2.2206581 316:5.6024842 321:8.6899958 324:1.0577365 327:1.3424766 329:3.7600794 342:2.829263 349:2.1961913 360:1.0271928 367:1.5802144 374:0.88523281 387:4.6685076 402:0.48525912 405:1.028403 409:0.12376095 416:0.18071583 418:3.1484754 423:0.53336382 432:1.8388988 435:5.1085486 451:1.4996146 458:7.9891419 468:4.1024108 479:2.5310321 487:1.4449331 488:0.80251992 491:3.1806602 493:1.0763161 495:4.6843042 512:0.21420383 516:0.35768071 527:0.023634732 529:1.3971758 548:0.66941738 559:1.1208435 562:4.8167839 564:5.1412826 566:0.23006395 567:0.83479387 571:3.4034321 573:0.19123334 583:1.4401978 589:0.65339518 598:4.7265301 603:3.6462948 617:0.31436247 635:2.646569 640:1.6712328 647:2.3579249 654:3.1651886 656:0.85486937 683:2.4500818 685:1.170385 688:0.051443756 709:2.1528006 734:4.6014285 741:1.924834 742:0.73157406 744:2.9483109 749:0.74287206 751:3.0336437 754:0.53438413 763:0.25952008 764:0.77500474 772:3.6565297 775:5.1349401 787:0.06292583 794:0.35636568 803:0.019968659 804:2.6514146 812:1.0119027 813:0.49839607 816:0.41819042 817:3.5816827 828:2.3209407 833:3.8031962 841:5.5049772 853:4.8729877 854:1.6168723 858:0.93072397 861:1.2498381 862:0.97854602 866:2.0692191 867:0.85833037 879:5.2762537 892:0.86402923 916:4.127593 925:0.91209143 927:4.0200071 936:1.4103626 938:5.6735582 941:0.63141716 968:1.3153768 975:0.18757845 976:0.12638479 978:2.2518494 986:0.83495146 990:1.1907632 1004:0.80160069 1021:2.1564672 1027:1.4596887 1043:2.5681701 1049:1.0424724 1050:6.728991 1051:1.4038091 1063:0.42289156 1064:3.1314902 1065:0.9205519 1081:4.6308041 1097:3.3385363 1105:2.4944248 1115:3.1120963 1121:1.1787021 1125:2.2129312 1148:0.94894201 1150:2.2956636 1163:1.8959193 1165:1.238273 1170:1.145523 1175:1.133408 1184:1.0895764 1186:2.4787292 1187:4.455339 1190:3.2600818 1191:0.047604799 1215:4.9219995 1218:1.8634229 1221:3.719171 1225:2.190551 1231:0.67775583 1234:0.85241628 1236:3.5815084 1248:0.18823358 1251:1.1701555 1257:1.5887381 1260:1.8025808 1261:1.2630601 1273:0.18584788 1274:3.3159885 1280:0.27848503 1290:3.0212727 1293:2.679086 1297:7.6434302 1306:2.4941659 1313:2.7521584 1329:1.2987235 1333:8.4078398 1335:4.6714978 1337:0.60971022 1353:1.4061255 1356:1.3244362 1362:3.5066171 1366:3.3632636 1369:9.0716114 1376:0.29713154 1381:1.7921623 1387:2.4431925 1391:0.088512644 1392:5.9554286 1396:1.3263108 1397:1.9799436 1401:2.1528339 1406:1.5626929 1407:2.8392124 1410:0.21731934 1414:1.2884935 1416:0.22332472 1417:1.3213615 1419:4.1652193 1430:1.6509418 1431:1.863754 1442:2.2178662 1445:1.2602463 1453:1.6118022 1459:1.0219109 1490:1.649977 1493:0.42568561 1500:2.0202367 1503:3.2634785 1519:3.1296513 1526:0.56050086 1535:0.89729762 1537:1.5883999 1541:1.1243851 1544:3.9472265 1555:0.0069622397 1561:1.0673236 1565:0.85359091 1573:0.94482756 1585:5.7627015 1601:2.1225221 1604:4.4817491 1605:3.2455962 1607:2.3324304 1608:1.978732 1610:3.3999536 1621:5.1245842 1627:3.8031669 1628:1.9852815 1629:5.5813332 1652:1.4909767 1661:0.28066298 1665:0.61685103 1669:0.97496712 1680:0.24715129 1683:1.6111865 1699:5.1822224 1701:0.30894589 1702:0.61510986 1709:3.2533667 1710:2.2958043 1711:1.3677127 1713:0.012750626 1718:0.59461993 1723:0.58754897 1724:2.9157441 1728:5.9198108 1730:1.6828744 1734:4.6529999 1753:1.8974761 1754:2.4546938 1758:3.4210005 1765:3.5283749 1777:9.8602924 1782:1.6121702 1792:0.81825864 1800:5.8432813 1828:0.36052293 1839:0.96980441 1840:2.6999464 1843:4.8467546 1848:0.065862775 1852:0.8584224 1864:1.5601629 1869:0.21595499 1873:4.9365816 1876:1.6882265 1877:0.34051645 1883:1.6720214 1885:0.4708041 1892:1.297088 1895:1.4642906 1897:0.88012421 1900:2.5819495 1901:6.9701219 1905:0.83271158 1908:3.555336 1911:1.7550255 1912:0.023544848 1915:2.6769276 1917:4.4635234 1918:5.0222335 1922:0.23501334 1931:5.2246733 1936:1.0452812 1941:3.6569779 1942:4.8189321 1943:1.6430657 1949:3.0849059 1956:3.8362286 1967:0.55518615 1968:0.31879777 1974:6.7127523 1976:2.1744835 1977:4.2790022 1980:6.2076392 1984:1.5968491 1986:3.9678578 1999:0.45161963 2012:0.67469645 2014:6.0681262 2016:0.31948921 2018:0.7890054 2021:1.4471942 2053:2.1108272 2057:1.975812 2058:2.2357686 2063:1.2458358 2068:2.4874341 2073:0.53744686 2078:0.12833431 2079:0.43010142 2083:1.4382992 2095:1.4617997 2096:3.5141478 2117:2.3923492 2125:0.2988528 2127:1.1371605 2150:2.0460196 2162:2.4359818 2164:1.3295935 2169:4.0710459 2179:0.064719796 2184:7.4901266 2186:1.9949965 2204:1.4569089 2213:0.29487887 2218:0.40474623 2220:0.11217099 2221:4.0927835 2223:6.0202065 2224:2.5380745 2228:3.6267405 2239:2.2713969 2241:3.3227808 2253:0.82136953 2262:2.5699062 2268:5.2995424 2272:1.1917572 2277:2.9856081 2282:3.8389525 2285:2.8675954 2287:1.4111466 2291:2.4558277 2292:0.78254372 2293:3.1276219 2301:1.6018872 2303:0.17188205 2321:1.6847246 2329:1.7314447 2334:1.3169811 2345:1.681071 2346:4.0445786 2349:3.5373995 2355:1.7433894 2359:0.83876419 2365:0.96280706 2369:1.2116529 2374:3.4581995 2375:0.38850999 2376:1.1101238 2388:0.5707556 2390:4.6688719 2394:3.2673984 2398:0.54361105 2405:1.3040524 2411:2.3604701 2412:0.4134261 2413:0.21882012 2418:0.76973379 2420:0.31643742 2424:0.11344582 2430:1.3220712 2432:0.63116527 2434:6.8622518 2440:2.9355831 2442:0.049011558 2448:2.7123389 2450:1.1663646 2453:0.48645353 2459:2.5534768 2461:0.75097013 2478:2.9675598 2487:0.32739979 2492:3.1994464 2493:4.7779002 2497:2.268131 2508:5.0149512 2519:2.8198113 2537:1.1315718 2539:4.6074862 2549:3.1999226 2561:0.4189932 2576:7.4676371 2578:2.5535157 2590:3.5382149 2594:1.1088192 2598:1.1176444 2600:6.9112663 2604:10.387153 2638:1.0133482 2642:0.69541204 2649:1.0141988 2662:0.30507094 2670:0.5769856 2677:6.8625546 2688:1.2902335 2689:8.3116302 2695:0.50676221 2699:0.74416345 2709:4.0827708 2720:1.053544 2724:1.7509145 2732:1.8015184 2738:0.26394159 2742:0.45845085 2743:0.47753534 2745:1.2294102 2755:3.4086492 2779:4.5087094 2787:0.50203967 2788:0.90937209 2789:0.49781001 2791:3.8283062 2796:1.8144448 2818:2.8908522 2823:0.85890281 2828:5.6388588 2830:0.13722858 2842:0.25570285 2848:2.4274659 2849:1.0831449 2865:7.8892765 2866:2.0736756 2878:6.6383939 2879:3.2707882 2882:2.7492218 2890:5.0309658 2900:4.6910939 2901:1.0563401 2908:0.17904054 2912:3.8722141 2917:0.74590403 2921:2.5210497 2925:2.3363967 2932:0.95276815 2938:0.92776465 2945:2.789145 2950:3.1308045 2953:8.1664181 2958:3.9358974 2960:1.0467438 2962:3.4725113 2963:1.002919 2970:1.9438716 2980:1.1072878 2986:4.2365131 2987:0.78342652 2990:3.4121072 2995:3.5647664 3016:1.4927714 3021:2.5329428 3036:1.1978723 3042:4.2204108 3043:1.6286108 3044:1.1014305 3054:0.15464327 3057:1.4960173 3059:1.4156289 3075:1.7815876 3082:0.5362848 3085:8.945034 3096:2.5483184 3111:2.3319054 3114:3.3563769 3141:8.2426224 3142:3.0359545 3143:6.3222532 3146:3.5002475 3147:5.1372547 3149:1.6870558 3166:1.7651058 3167:0.53892469 3170:1.5075268 3171:4.7850251 3186:2.4974041 3188:0.29735315 3189:3.5626857 3190:1.042684 3202:3.7831593 3212:2.3030391 3213:0.77412027 3222:2.8871162 3235:0.34974283 3237:5.2029166 3239:7.2263393 3241:1.2602346 3252:3.0907071 3256:1.7237713 3261:1.6078908 3262:1.76122 3265:1.1499857 3267:1.0087295 3272:4.2738233 3275:1.0467665 3286:2.1765735 3289:0.34494531 3300:1.6328952 3301:1.999027 3306:3.070049 3307:0.73975855 3311:2.1927741 3321:4.5424833 3334:1.8638167 3340:0.34023198 3369:3.1294761 3378:0.12995178 3382:3.2240787 3385:0.1906864 3387:1.2839736 3392:7.2435646 3393:5.6512856 3395:1.2654243 3396:2.564626 3410:0.69905919 3416:1.8331404 3434:0.30825937 3439:1.367797 3441:2.0347703 3457:0.55875182 3459:0.00038339198 3465:1.7096704 3468:3.3491755 3474:2.8194687 3482:2.1612935 3490:1.2801102 3493:3.1833563 3497:4.2441378 3498:0.10801691 3504:2.329448 3507:4.5321894 3514:0.76811182 3517:0.55153179 3528:0.49745786 3529:1.0678316 3530:0.43358451 3537:0.07989794 3539:0.60484123 3540:3.5876715 3542:0.40506122 3545:0.2700797 3556:3.3990965 3557:0.13988551 3562:0.29074252 3563:6.2146525 3567:1.9527934 3576:0.64299011 3580:3.9356823 3590:5.98493 3593:1.5402182 3594:1.6358216 3603:5.0563879 3609:5.6806841 3610:2.454633 3611:0.39470631 3626:1.4713814 3627:3.5210953 3642:2.7839837 3648:1.2744745 3650:2.7322481 3652:0.73837841 3654:4.538238 3667:2.5914488 3669:0.85219955 3675:4.5636368 3680:2.4600124 3695:0.37167382 3715:4.9351139 3719:1.9157653 3722:0.63925582 3731:2.1039939 3732:1.3213552 3748:1.5140533 3751:3.9498091 3755:1.6783067 3759:0.85743976 3769:0.24725485 3802:4.702106 3804:0.60041457 3808:1.9411776 3821:4.89147 3823:3.483413 3825:1.3729682 3829:0.25982246 3830:0.31648183 3837:2.279259 3853:3.9602273 3857:2.3396828 3860:0.036344945 3865:7.3597336 3869:1.0059824 3896:0.85315073 3914:0.96812123 3917:0.22766992 3920:0.7434597 3922:2.7718508 3925:2.6636493 3932:0.78626209 3947:1.2505908 3951:0.38427687 3958:3.5116832 3960:3.0263023 3966:2.6581416 3968:3.1653559 3972:2.1171844 3977:0.39982286 3981:6.3362522 3982:4.202559 3985:0.63329291 3995:0.34897918 3999:3.4967072 4007:4.294867 4015:1.1634473 4019:2.4366202 4020:5.997046 4026:2.6926329 4028:1.9475904 4035:1.6343312 4037:2.6439195 4038:0.17246163 4042:0.81918329 4044:0.068288743 4049:2.9976649 4052:1.5492848 4072:0.62837076 4077:3.6346512 4081:5.0227427 4082:3.1722276 4085:1.4653406 4087:0.92896056 4091:6.3645892 
