svm_type c_svc
kernel_type rbf
gamma 0.000244141
nr_class 2
total_sv 171
rho 0.459105
label 1 0
probA -5.82664
probB 0.121994
nr_sv 59 112
SV
0.01645624165982272 49:1.1116277 65:7.9922442 91:3.1976821 93:0.43865037 96:1.3262136 119:4.5879488 128:5.8420463 133:10.603624 135:0.040132433 143:4.5276809 146:4.6965117 153:3.3039753 157:1.421584 159:0.41149229 160:0.41831172 165:0.4871214 168:6.0638418 174:9.9037352 179:5.5051403 185:1.1870283 193:0.13384794 194:2.47298 196:0.067621827 216:1.2316955 217:0.92531133 228:5.7595696 229:2.2190092 232:3.1770568 242:2.6135585 248:1.8623755 255:5.7178211 258:4.707818 260:1.5728006 266:7.8107324 274:1.2125115 285:2.8273551 289:4.4320297 291:1.5118588 303:2.3516426 309:4.0643702 316:5.8547683 327:7.4523468 335:1.5174685 339:4.6114712 344:1.8715032 346:1.2105049 359:0.11239513 362:2.2921057 364:2.1893837 381:7.0963311 384:8.1064501 399:1.007037 406:2.3937235 418:4.534339 431:6.6485572 435:0.97055948 439:3.2086198 444:1.361847 445:1.2500057 466:2.7910192 479:4.4579501 488:0.014334798 491:0.68586236 504:2.714267 512:0.55096948 521:3.8267365 524:4.5084443 526:1.5372658 530:5.2163157 537:1.0673069 545:2.4103146 546:0.10296822 548:10.99433 556:0.84928632 559:3.5158997 563:4.5146179 564:3.8671296 567:0.93378669 583:0.88649106 590:1.0962826 591:0.91447783 599:2.5766993 635:2.338635 636:0.52598608 638:2.6374714 647:3.0752053 654:1.221486 657:4.4684582 674:1.5896494 687:3.2537684 688:0.55822229 696:4.6999602 699:0.65231991 704:4.223001 707:0.27404836 711:1.0477223 728:1.2821183 732:1.3506914 734:1.4075297 738:3.7233717 750:0.62936854 755:3.2579272 764:0.25089982 769:0.66783625 771:1.9375683 772:5.4975486 780:2.9796786 785:1.7309798 789:0.52925265 798:0.59550476 817:1.2082493 818:3.8028255 819:0.96605039 820:0.012580574 824:3.1112628 828:1.5806073 833:1.8732722 848:6.0119929 857:4.0745339 858:0.18629362 880:14.223672 886:4.7065992 894:3.9643488 898:1.1088152 899:0.93903321 903:1.0331584 931:1.8789337 932:3.8281345 934:0.16315791 936:2.161171 945:3.7169189 957:3.763644 962:3.5133262 973:0.25226653 979:1.4208927 989:2.670748 996:2.3296261 998:0.22152275 1004:3.5386159 1011:1.2663715 1014:0.60096681 1034:3.1301608 1044:0.76766592 1047:5.0226364 1050:2.7083657 1059:0.47662517 1065:3.8458338 1067:0.039145827 1081:3.6184981 1083:1.6687309 1126:0.83855879 1130:0.61356997 1138:3.9522934 1150:2.8174632 1162:0.23506862 1167:11.443328 1187:15.856658 1190:0.46076 1191:4.0807476 1200:16.731499 1201:1.15064 1203:1.243995 1205:1.7241336 1206:2.2438374 1211:2.845346 1231:0.90468097 1239:0.88278842 1241:1.0876955 1247:2.0117357 1272:2.7316265 1284:2.6847904 1290:0.78487813 1297:1.0849465 1304:1.9097128 1308:1.0610745 1313:0.95939612 1315:1.2516587 1324:1.2755415 1333:7.1227422 1335:1.5178432 1341:1.174822 1342:0.92038387 1346:0.87005949 1348:3.2246668 1360:6.6688747 1369:0.6805535 1376:2.4067118 1378:0.96234232 1381:0.21985057 1392:2.5396495 1401:3.0853596 1402:1.3021458 1409:2.7134991 1414:7.8545918 1422:0.06852743 1428:0.50623083 1430:2.9561577 1437:3.8566895 1439:0.50931418 1447:3.5315843 1449:0.8548739 1451:5.7979774 1459:8.4267702 1461:7.6205502 1466:0.47435969 1472:3.799159 1474:0.84004658 1476:2.7041345 1481:0.75617337 1500:0.25849065 1504:0.46882662 1507:1.0560544 1508:0.9590143 1531:0.67596853 1537:1.1811646 1544:2.3297899 1550:2.5238316 1554:5.9911308 1560:1.3753842 1565:0.49044299 1576:0.27521515 1579:4.0257063 1585:5.4685974 1592:3.9252226 1593:3.0142677 1603:0.94226736 1605:1.1951553 1607:9.1586981 1610:4.3242722 1611:0.7291497 1612:0.57046044 1614:1.2530935 1623:2.7602675 1627:5.5861869 1629:0.72092932 1631:6.7490468 1654:0.068320692 1661:2.0680246 1668:1.1382122 1679:0.30612564 1681:7.9212265 1683:5.5130129 1693:0.58488679 1699:0.97058862 1709:1.6684704 1711:0.49490523 1713:1.8206457 1722:2.9245782 1730:3.0788906 1734:12.460068 1741:2.0376325 1752:1.2130704 1755:0.77349126 1761:4.4192896 1763:3.3352253 1782:3.9946711 1789:3.0157542 1804:2.9468627 1813:7.1241984 1815:8.1830053 1829:1.2231016 1836:1.9701263 1844:6.4748945 1854:8.9652452 1864:3.5911384 1879:0.84273064 1880:3.9495282 1888:0.56756014 1892:1.7017305 1900:0.041061908 1905:6.8127441 1914:2.6220944 1917:1.1664296 1918:2.884676 1921:8.174943 1930:3.5120776 1940:0.066709936 1943:5.0045466 1946:1.2014351 1956:2.0639555 1960:0.59811109 1967:1.1308353 1973:0.27635479 1974:2.3957162 1976:0.85014021 1980:0.60290325 1981:1.6012633 1984:1.8593739 1990:8.3007593 1999:1.6201298 2015:2.9753642 2016:2.0448487 2018:4.3311305 2021:0.81554443 2026:0.79928195 2028:0.21753749 2043:1.7347138 2044:1.8653725 2058:2.3697584 2065:5.1851096 2071:3.9845641 2078:1.0069016 2081:0.44585931 2085:8.9580898 2091:7.37679 2099:0.70343506 2101:1.6875865 2103:5.2579656 2115:0.29714188 2116:0.92437446 2137:0.72911465 2147:1.1662217 2170:0.89542055 2184:6.3239913 2190:12.264712 2199:3.8926237 2207:1.4138966 2209:8.7570181 2211:5.7061152 2221:0.15921244 2222:1.6997848 2223:7.2759676 2238:0.58121872 2239:1.0284933 2241:2.0426133 2242:5.7658815 2243:0.54838711 2254:0.90487766 2255:0.11157741 2256:2.7025883 2271:4.1517844 2283:1.0093021 2292:4.5401273 2293:0.95098943 2304:5.8051167 2309:0.089998052 2314:1.0806638 2315:5.6347833 2321:0.0058615804 2322:1.7294847 2336:0.78261966 2340:4.337307 2343:7.0268083 2345:3.7378554 2351:2.2230797 2352:8.2187119 2359:3.8948393 2365:3.129905 2376:6.0450101 2379:0.56441993 2393:1.9074861 2408:0.86547434 2414:6.5999274 2418:0.75006694 2419:3.3203776 2427:3.9302239 2429:0.83978391 2430:0.36741805 2434:1.6423738 2440:5.2295847 2453:1.3798341 2456:1.8801839 2467:1.2842156 2470:2.5457745 2486:2.7906983 2487:3.7586813 2495:3.6527631 2505:0.091978818 2515:1.0547218 2516:0.96614158 2517:4.2859435 2519:0.62367833 2531:1.4840052 2545:6.6103015 2551:1.3916808 2558:4.6887326 2559:1.2709304 2563:2.6284273 2568:8.0302305 2572:0.44602671 2574:4.0788956 2576:1.0277624 2604:12.148258 2610:1.8523676 2613:7.0699553 2628:3.4251683 2636:0.17847073 2638:0.1753484 2648:0.68312901 2655:0.28355294 2657:4.5760055 2667:6.0316277 2670:2.2314034 2675:1.439999 2681:1.2706528 2691:1.9439888 2699:1.0717541 2706:0.52570891 2711:0.68909156 2721:0.68593496 2727:2.7175496 2728:3.5672748 2742:0.95725405 2743:7.6098599 2744:2.3489923 2747:0.98281443 2753:2.2230444 2754:10.125757 2767:2.4114988 2777:2.0356727 2779:6.9145112 2784:0.89485925 2788:2.2377865 2814:2.9965715 2815:4.8872991 2823:1.1118261 2824:0.99295712 2841:2.8345325 2842:1.4111925 2851:5.8204813 2855:0.44915801 2874:2.9249687 2887:0.78564775 2890:3.9148729 2893:0.10073727 2908:2.1035781 2913:5.702837 2964:0.76709867 2966:1.0307357 2969:0.29545033 2970:1.6340401 2971:3.8523777 2983:6.7851691 2990:1.9095738 2994:5.5855846 2995:4.5581903 3008:1.27889 3020:0.81258732 3022:8.4743052 3028:3.2836401 3030:2.6242318 3043:3.0583699 3048:0.22602817 3059:6.6421852 3061:1.6314893 3065:0.032517184 3068:3.6980906 3075:6.1169267 3079:2.4020579 3080:0.24376389 3082:4.1718593 3085:6.677989 3088:2.0424576 3102:0.77975935 3108:1.5486406 3109:3.2650673 3119:1.3063059 3123:0.26299006 3140:0.77096355 3141:4.0321269 3143:5.1250625 3149:1.9358352 3158:0.67045569 3167:1.3911963 3170:5.932971 3172:3.1870391 3177:2.8499305 3180:5.4396224 3181:2.2841909 3183:5.8636737 3192:3.9978857 3213:6.5357561 3221:3.1056621 3239:0.82276809 3244:1.436412 3250:3.3795776 3252:7.5360336 3264:0.45948532 3265:8.2469778 3269:0.41123921 3276:2.3593273 3286:3.355588 3294:4.4335012 3300:1.8149487 3307:0.82226479 3309:0.80912203 3321:3.3680644 3324:2.8708553 3327:6.4522896 3334:2.6886723 3351:0.14309049 3366:5.6861553 3382:7.5282388 3387:5.2435617 3391:1.8980193 3394:0.95272732 3395:1.9298713 3413:2.3717632 3457:1.2424352 3468:0.47723496 3480:5.882864 3481:3.758378 3502:4.5496588 3504:1.0180779 3511:0.025103167 3530:0.44787052 3536:4.0981064 3539:7.8571663 3540:6.9591322 3544:6.1048937 3552:1.8286291 3571:1.0251577 3578:0.91715229 3581:6.6071177 3596:0.70863658 3601:0.86830074 3606:3.8127377 3609:3.5143273 3611:5.1319265 3626:2.4157391 3629:2.1861763 3633:1.1963773 3635:6.8958416 3637:4.0714922 3650:5.9062462 3659:5.5551906 3660:0.5529415 3675:7.552824 3681:6.2545962 3685:1.378311 3690:0.89496529 3695:1.7272171 3696:4.5317211 3713:2.0597551 3715:0.098395631 3722:2.055644 3731:0.4757461 3732:0.40094417 3739:0.63727266 3742:0.42528096 3746:1.248503 3748:4.6478577 3751:0.39880174 3752:2.4314809 3760:5.2334285 3762:2.6417832 3763:2.3162968 3767:0.81716144 3771:0.23623556 3778:0.19060925 3798:0.54859602 3802:0.78368145 3821:7.213171 3829:0.68414468 3832:0.57739383 3837:0.79045963 3839:5.7180862 3856:2.1126101 3865:7.7363386 3869:1.8340721 3870:1.1869544 3875:2.7716331 3879:0.26091623 3887:2.6412795 3888:0.5329423 3889:6.0658979 3894:3.0952694 3897:3.1520433 3914:1.3325735 3916:2.8476908 3920:0.21919461 3926:0.3716338 3929:1.1960886 3932:6.3416824 3934:7.6533918 3937:1.5291088 3946:0.12380272 3947:1.1422104 3949:3.9268985 3958:0.8810246 3960:0.88519436 3968:2.7835605 3972:1.9824642 3977:0.71521223 3981:2.2490749 3982:2.950613 3983:2.7857044 3984:0.47824034 3985:2.4178479 3986:1.1704546 3993:3.2557979 3997:2.6750324 4012:1.2075837 4014:6.9124527 4016:2.0273304 4018:2.8264823 4020:0.53297621 4025:6.8280582 4028:4.480319 4033:0.82220501 4035:0.40238112 4036:3.5994518 4038:6.874321 4049:4.1457033 4054:0.81374216 4056:3.8752539 4073:2.1735806 4077:5.1768079 4080:2.9004502 4083:1.8287511 4091:3.6835697 4095:0.69637924 
0.3211844508919595 1:0.3505083 19:3.5082865 26:3.9981427 30:1.9235235 36:2.3843307 38:1.533614 53:2.9111602 55:0.10697222 60:0.15200612 65:3.9245691 111:5.0633602 119:2.4483852 133:1.396841 143:1.6200049 144:3.7754266 148:0.1310184 149:2.0709643 151:7.0908289 154:2.1355371 157:2.3822045 174:2.0968053 177:0.97875547 188:0.52040607 197:9.5566549 201:3.8274443 207:2.7777734 211:8.2416267 234:1.839053 270:3.8327305 272:10.382256 273:17.38172 281:4.6733341 297:0.49424475 303:4.1818676 306:0.8085357 316:2.776228 343:4.2074227 346:1.3191941 368:3.6798286 372:1.8670381 373:0.13279259 381:3.0353003 382:0.37743482 405:8.7684784 417:0.3814407 418:4.7176833 428:5.0830345 431:1.7276031 457:1.6922495 458:6.1299715 487:4.082428 489:0.71667558 508:0.94041586 512:2.9610598 513:12.174782 528:2.6144805 530:2.5689278 534:4.8200445 537:8.9791069 543:1.66927 546:4.6320925 548:6.0259085 549:2.6111753 550:8.0161057 553:1.7800426 559:1.7457463 563:3.494868 564:3.5300505 567:0.017696545 591:5.6782846 602:5.6354942 652:1.9612405 654:3.0809834 670:7.8885045 684:0.014452338 685:2.1903408 704:1.8899214 719:5.8130507 732:2.3618104 738:0.22961211 741:6.4685049 743:3.4900608 745:3.5045028 752:0.28349158 764:0.27693745 770:4.6578164 772:3.4290371 780:1.4228537 796:0.061077684 819:4.239583 821:2.6515598 840:0.51878101 844:1.1971085 845:0.80639964 863:1.9347432 877:4.5951309 880:5.6372027 886:1.0194529 894:1.5627298 900:0.08881852 925:1.4782068 931:4.4273119 932:3.3467503 934:4.821372 935:0.18802263 948:0.28413838 963:3.9926891 984:1.5769008 1032:1.1613193 1044:5.492815 1047:1.6072352 1050:6.2656918 1054:0.2889272 1066:0.16917357 1072:4.4414835 1081:1.7352922 1083:5.6183729 1089:1.1888016 1090:2.9789977 1093:0.70025915 1096:3.9845147 1103:1.2382936 1104:0.6847465 1115:2.7469196 1135:0.84631759 1141:0.83881921 1142:1.1726749 1143:9.4560232 1167:0.20811406 1169:1.1015218 1170:0.58237773 1172:7.7853327 1183:9.2366381 1187:0.27614492 1189:5.6990485 1194:9.8112764 1200:9.5719042 1205:1.76071 1207:7.469316 1210:10.308476 1223:2.2219975 1230:1.1825891 1238:3.3721473 1241:7.3075414 1247:0.81458712 1248:1.5635231 1272:3.926007 1280:3.3912699 1289:1.3894986 1292:0.09320268 1295:0.29065305 1297:0.8922224 1305:6.1157222 1308:4.3837767 1309:0.43134689 1324:5.9804716 1329:0.49137753 1345:0.83945858 1348:0.40830576 1360:0.3194595 1364:0.17857563 1368:0.79881871 1376:2.8282025 1387:2.1338825 1392:2.0852518 1395:2.2578418 1403:11.93252 1414:4.1834106 1415:1.03845 1417:0.6390118 1422:0.3630029 1442:0.0393284 1446:6.209455 1451:2.8324552 1459:3.9742203 1461:4.3139696 1464:1.5712417 1472:0.7441169 1474:0.77010524 1481:0.1523447 1496:2.161063 1503:0.65592116 1507:0.74278367 1521:2.2339139 1537:0.34856111 1542:0.0067442656 1544:0.66722363 1550:1.7140243 1554:3.6653566 1555:0.14341833 1559:1.2921078 1563:1.2842951 1579:5.923409 1583:5.7210455 1584:2.0089221 1585:3.6864865 1592:4.4718618 1593:2.4897091 1595:2.97611 1603:2.9589882 1607:5.2633805 1612:0.19459641 1614:0.45576087 1616:1.1609069 1621:0.74910319 1629:1.9544646 1631:7.2591119 1646:5.337657 1660:1.7155821 1669:6.387701 1671:2.0675061 1681:4.097507 1685:1.6515249 1686:3.6852396 1707:7.5762649 1719:1.2482543 1722:8.1175318 1734:5.4212813 1738:0.82075721 1751:5.6778808 1764:4.1413484 1770:1.1703103 1773:6.4989429 1815:4.3062844 1816:0.69494265 1821:0.39532471 1834:6.6190972 1840:5.964551 1844:1.9984553 1848:2.6363475 1851:0.62878919 1852:3.0203991 1853:3.6428418 1869:0.36022094 1881:7.7779369 1885:2.0884166 1892:1.9063494 1899:4.752326 1903:0.65242225 1904:0.33105981 1905:2.0969515 1912:1.0719116 1914:2.125448 1916:2.0775261 1917:1.0557387 1919:3.8557434 1921:3.2149026 1934:2.3863888 1942:1.3474841 1943:4.8948507 1958:1.6551309 1971:6.4130564 1973:1.792605 1974:0.57796609 1976:0.97267473 1979:2.3871861 1980:2.3292742 1982:3.7540245 1988:1.4434882 1990:5.068583 1996:0.60378253 1997:0.86536592 2003:2.9381423 2008:2.7054324 2016:3.6249573 2018:2.7539508 2025:0.84527814 2043:2.3936996 2044:6.5456991 2045:1.6902676 2053:5.6394048 2063:0.41673708 2065:2.376713 2071:9.5045166 2091:3.9886096 2092:1.0074588 2103:4.2672749 2109:1.0001736 2115:1.4518992 2123:0.15332024 2136:1.4904631 2138:0.90553623 2140:7.8856201 2167:3.2288189 2170:0.47360724 2174:0.20321169 2181:0.16336931 2207:3.0345228 2209:5.3081574 2211:4.2683582 2213:1.396034 2219:0.82310224 2225:4.6164317 2241:1.9932675 2242:1.7099901 2249:6.643837 2250:0.25671765 2257:0.34031975 2259:2.2315056 2262:6.9880233 2274:4.3962688 2277:0.0056619644 2282:1.7941155 2287:1.6720864 2290:3.4646957 2292:8.0447826 2293:1.9473243 2296:1.4482701 2304:2.8787656 2308:0.64398259 2315:1.6829677 2322:2.2660007 2345:1.2806839 2348:1.9317836 2351:6.493588 2352:10.394004 2359:2.1755533 2375:0.40615681 2381:0.076764733 2382:0.5309034 2392:1.6022799 2396:6.8455157 2414:3.7515197 2426:1.2020464 2440:1.9568981 2441:0.31460723 2448:1.6321521 2450:0.18833819 2456:7.0221329 2465:3.6628718 2466:5.8275056 2469:1.2770939 2487:1.462983 2488:0.4560757 2495:0.20539713 2499:0.50037402 2505:2.4459879 2521:7.752573 2527:1.1063818 2531:0.98025119 2534:0.22205415 2539:0.6756779 2542:6.3127432 2546:1.9839183 2548:5.1575079 2553:1.7788366 2559:4.1068497 2560:1.2056457 2568:11.573892 2585:1.5205704 2597:3.4155593 2603:2.8123827 2604:1.1150932 2608:4.1842718 2613:1.9706019 2618:2.8062685 2627:1.4670674 2629:2.5798221 2631:0.43076849 2635:1.4307052 2638:0.39806437 2649:3.3140244 2661:0.89922154 2665:0.59847027 2667:4.3482666 2670:1.4381803 2673:3.9115992 2681:5.7431045 2685:5.7057981 2691:10.216745 2693:2.8386741 2696:7.9152107 2700:0.93565273 2712:1.3363787 2727:1.0713856 2734:0.99740767 2737:1.8936596 2739:5.034852 2752:1.0081041 2754:4.0356565 2759:0.60502982 2767:6.5199318 2769:3.4346051 2776:0.63963854 2784:1.2029816 2797:1.7251145 2806:2.7195427 2810:0.69475132 2816:1.4195876 2822:0.74038547 2827:3.1324244 2832:1.9188015 2836:3.4756126 2846:3.3279233 2848:3.9631209 2855:1.3879263 2883:0.58717465 2890:10.319191 2892:11.192245 2912:0.81303161 2913:0.61072814 2923:1.5589817 2939:1.6701329 2942:3.7894108 2956:1.0670111 2969:2.2318258 2971:3.6234751 2972:2.1232195 2983:10.305688 3004:0.99816322 3012:1.850019 3014:1.2094555 3016:1.5075362 3017:2.9919572 3022:4.8960485 3024:0.081022382 3027:0.16274959 3029:1.8650532 3035:3.7543747 3039:2.1310735 3046:2.8869939 3049:0.52355587 3054:8.8651314 3055:4.0189576 3061:5.572999 3064:4.521698 3066:7.0123696 3068:6.6976995 3069:0.64472842 3077:3.3715875 3102:4.5217471 3103:0.32760823 3108:0.65549272 3109:0.3075242 3136:1.8165197 3138:2.5324912 3139:0.54006481 3142:1.2687457 3164:0.30467802 3171:1.9636037 3177:3.1809413 3178:0.1744357 3180:1.8888683 3181:0.52570248 3183:2.3459752 3185:2.4531205 3203:1.1815722 3204:10.81355 3210:1.2041922 3212:2.9941664 3213:1.5675392 3227:4.312552 3229:4.2973499 3244:0.56928205 3245:0.21709493 3250:0.51914287 3251:1.1083603 3252:6.1131887 3263:1.2995088 3264:4.1274376 3266:4.1573005 3288:6.730617 3294:1.8628145 3295:0.72693694 3305:3.3880258 3306:0.08707343 3320:7.2977238 3322:1.5409908 3342:8.4715929 3343:1.5054812 3344:1.0423973 3348:0.30912271 3350:0.071675479 3362:2.9810445 3368:1.6070828 3378:2.4423258 3382:11.557302 3387:2.8022194 3391:0.56929916 3393:0.5321008 3402:1.0515261 3406:6.0060692 3415:0.10532722 3416:2.6182365 3432:3.5737603 3443:0.19042374 3464:2.1493402 3470:0.61621159 3472:3.9178317 3478:1.4084632 3479:1.7828002 3480:1.4671332 3481:2.9213164 3483:1.7298405 3487:7.4258795 3495:1.1282141 3506:0.12129971 3511:4.1842365 3518:4.7843008 3519:1.0197759 3523:2.629972 3529:1.0534984 3544:5.6568136 3551:2.4946778 3561:1.8378496 3563:8.5790405 3578:1.5807416 3581:1.2329273 3595:0.32347685 3596:0.94311374 3611:3.3424337 3641:10.057142 3643:0.63503921 3646:1.6157875 3654:6.5735083 3657:3.0447042 3659:1.2913125 3660:0.34399843 3675:2.4069529 3689:2.3004241 3696:2.3771675 3713:2.5579233 3715:4.8166184 3718:0.90458649 3726:1.4846191 3728:1.6872007 3748:0.98890322 3760:0.90311998 3766:3.4290013 3785:1.3043691 3804:0.92972398 3826:4.4893241 3832:2.6691532 3833:0.26755327 3838:2.1689675 3839:2.1650431 3843:3.4735548 3844:1.759933 3850:4.7248564 3865:1.9397477 3870:4.6998663 3879:6.9732757 3894:0.27737695 3895:1.1419125 3902:2.7818346 3911:1.0501139 3912:3.131207 3917:5.5789533 3922:0.95681751 3926:1.5799173 3929:2.0898359 3932:2.5255744 3934:0.96975368 3937:5.4035816 3955:2.6975298 3958:0.75762665 3965:2.7747459 3967:3.6675885 3968:4.9269781 3972:0.57074225 3975:1.8005242 3977:4.6268034 3982:0.89248401 3999:0.7392031 4019:13.208788 4024:4.2115574 4025:4.0652852 4028:3.734735 4049:2.1435475 4053:5.6787548 4054:1.0825161 4077:5.8081336 4080:3.4244869 4083:0.76004851 
0.06796756351289417 5:1.9341304 26:2.0141549 28:2.1419337 30:1.5085229 65:7.3524022 71:1.0591178 91:3.8769226 93:1.4751539 98:1.3478882 101:0.66206217 102:0.68849969 115:2.0706797 119:0.72737074 123:0.34843108 125:1.3545051 129:2.8197186 131:2.5892751 133:5.2033181 143:5.6334753 146:6.9255381 151:0.20522499 153:0.087468863 162:1.9467627 174:5.3932467 179:0.42675179 185:0.435633 186:0.2128126 187:0.91956055 194:1.549769 196:2.1633739 197:1.3324168 211:0.40075481 217:0.29577976 224:0.94710171 228:1.1204607 229:0.77737844 232:2.3792393 240:0.24674809 242:0.069173753 247:1.4532471 248:2.9972329 255:0.63244021 256:0.099402666 260:3.9858203 266:0.97300601 270:1.603884 272:3.324657 273:0.41042134 277:0.41398573 284:0.010081708 285:1.0759805 289:7.7089262 303:1.1012824 315:0.86085093 320:2.0850134 325:0.7574954 327:2.7761371 333:0.93404722 334:0.50630295 335:5.4097042 339:3.1259863 357:1.2474098 364:0.94955826 365:0.19337624 367:0.89674526 377:0.24075612 381:3.5288596 384:3.8201473 406:3.0977879 410:1.2735938 418:4.7975264 420:0.26078922 426:0.37148312 431:3.6099024 435:0.17271325 439:2.8687608 444:1.424734 445:0.071402997 452:1.4381878 455:1.0226498 476:4.0554395 479:0.68671131 485:0.52395487 491:1.331039 495:0.16473731 504:2.054944 506:2.650301 513:3.604346 515:0.49137777 526:0.480012 528:0.83394945 530:4.7773442 534:1.7213513 535:1.247542 546:2.7841973 551:3.9515114 553:0.88436323 556:1.7155743 563:1.8794324 564:0.84426641 569:2.0775642 583:0.08034724 585:3.2749176 592:1.8536624 594:2.1129594 603:1.7306525 606:0.20026037 631:1.6198893 647:1.4562504 654:0.85509419 657:0.2219671 660:1.2468214 664:1.4565858 674:4.4528232 680:1.7675416 688:0.53304976 694:0.45953041 696:3.5327692 699:0.19454667 704:1.2582974 707:5.110785 730:0.81603837 738:0.24792002 744:0.18330783 748:2.0789843 755:3.5974629 760:0.65781254 766:0.065973192 769:2.8173139 771:0.55346525 772:0.61510754 773:1.1598349 774:1.496528 780:1.6158395 782:0.62821233 796:0.49710453 807:0.70945334 818:1.7612365 819:2.1783943 827:0.82711643 828:5.1512632 845:0.99600387 848:0.55633992 857:1.0320452 872:0.47215092 880:11.971251 886:1.8961425 900:4.6078796 905:1.0457876 911:1.4128989 920:0.6725015 931:1.185351 934:2.5372596 957:0.11958055 960:2.4907415 964:0.48943996 969:2.3730602 975:1.4408703 986:1.7541419 989:0.826056 1005:1.000465 1006:2.9209304 1011:0.5940873 1014:0.58804995 1032:1.9959849 1047:7.0833755 1065:4.6957302 1066:2.4920483 1072:1.4099406 1081:5.9420428 1084:2.6132655 1089:1.7582004 1129:3.143672 1133:2.7800136 1152:0.47126865 1164:2.0486393 1167:5.0280843 1172:0.87968111 1176:0.35699087 1183:6.5724998 1187:6.4740272 1190:1.787874 1194:0.28143752 1200:9.7963543 1204:2.5199244 1207:1.469249 1210:6.5053949 1234:0.40092272 1237:2.6468143 1247:4.0043902 1254:3.1039767 1264:2.26156 1272:2.0213087 1277:2.4759784 1285:3.0509138 1286:0.61057037 1305:4.0831919 1307:1.9368839 1310:1.4365516 1321:0.11241433 1333:0.26311004 1342:0.16882323 1344:0.60880464 1346:1.6230083 1348:0.38515538 1354:1.9920425 1360:6.8842974 1371:0.3671498 1376:0.072086051 1382:1.6220225 1402:1.2154518 1403:5.1554985 1408:1.5007448 1414:4.8550019 1430:2.216126 1451:2.1086259 1459:1.6688519 1461:7.8026133 1464:0.48422536 1466:0.341515 1472:0.8326329 1474:0.84140319 1476:5.0623388 1481:6.7119799 1501:1.1180344 1504:0.11740114 1507:1.538136 1508:0.60856295 1516:0.29647794 1531:0.57211709 1538:3.2311158 1545:3.2497849 1555:7.4013753 1568:1.1391299 1577:2.8130064 1579:0.64587617 1585:1.0760987 1592:2.7526956 1593:2.3543971 1603:0.6830492 1607:5.5229702 1614:1.8576969 1619:1.5239865 1621:0.36557019 1627:1.1719892 1630:1.360806 1631:4.0422583 1644:0.43464315 1651:2.0947592 1669:1.3588251 1671:1.4754841 1672:0.043614648 1678:4.9907355 1681:8.288002 1687:0.15243801 1698:0.88927126 1706:0.84277529 1715:1.089717 1717:3.0460629 1719:1.1057726 1720:0.78854835 1722:6.867413 1729:3.9004653 1730:2.9259236 1733:1.4001513 1734:8.0436993 1739:2.4364984 1741:4.4330029 1746:0.25846273 1752:0.78686464 1761:2.8902941 1770:5.2179623 1773:1.0902286 1782:2.6611078 1802:1.0340573 1805:0.007654801 1813:1.2430784 1815:9.7287788 1822:0.57274687 1834:1.2658664 1840:1.105317 1848:0.64994693 1852:0.5627284 1853:0.24645507 1854:6.1511002 1858:0.60885501 1864:1.2366221 1879:6.1171861 1880:1.2059106 1883:1.3085074 1888:1.6417764 1892:0.94510168 1899:2.6227117 1905:5.3862562 1914:4.5249271 1921:2.4511085 1922:0.84247589 1930:0.78006041 1936:2.886291 1938:0.44470802 1943:5.9735641 1946:0.85898864 1956:0.12397507 1959:0.60389 1960:3.3416178 1969:1.0024426 1979:4.8660259 1981:1.8325627 1990:4.9973145 1996:0.39440888 1999:0.25123423 2007:0.72362286 2015:0.84850264 2016:4.0432043 2018:0.12710686 2021:1.438769 2025:1.3393626 2026:3.180871 2035:1.3505799 2043:0.97224832 2044:1.4714254 2045:0.88865697 2058:0.72840035 2064:0.30747727 2065:0.57404935 2071:4.4236484 2085:1.8431778 2091:5.2133255 2094:1.216113 2099:1.73962 2101:5.529047 2103:4.8498745 2106:0.77589393 2110:1.0648797 2116:1.5574863 2119:0.9939869 2121:0.064007983 2147:1.4226127 2160:1.1909223 2169:1.0317829 2170:0.82429594 2184:0.075670272 2190:3.4424095 2195:1.1031889 2207:0.25367147 2209:0.87561393 2211:2.3136787 2213:3.475033 2217:0.32777274 2219:0.28254011 2222:0.86789644 2234:0.36567113 2239:2.7355573 2241:1.0599293 2242:2.5871575 2249:0.53688377 2259:0.63481385 2262:1.0398793 2265:1.7646674 2271:0.2197095 2274:5.0393877 2280:2.2610927 2295:0.53404903 2296:1.410867 2304:3.3441868 2309:0.28613397 2336:8.319047 2338:1.6091298 2345:5.9437199 2351:5.5922265 2352:5.8443604 2359:1.3731589 2364:2.5643327 2376:2.1293192 2379:1.8183169 2382:1.49002 2385:1.5429599 2387:3.3784463 2393:3.030369 2396:1.6792032 2408:0.81150049 2414:7.3400273 2419:1.6382229 2434:5.3200345 2440:0.037179887 2444:3.0624537 2453:1.1348881 2456:3.473479 2465:1.9704856 2466:1.5468872 2470:0.58262175 2472:0.49303144 2486:1.8120679 2487:2.6195161 2488:0.27827337 2489:0.31454703 2492:1.0987096 2495:4.5375443 2498:2.6826634 2505:4.8170214 2516:3.5654941 2517:2.3001347 2524:0.076279342 2525:0.69569129 2531:1.3219596 2542:0.4326039 2543:0.69360292 2545:5.6851635 2548:0.23135719 2551:1.4662513 2553:0.099644758 2558:3.5353038 2559:0.48605537 2568:10.962966 2572:3.7952187 2573:0.41758943 2608:0.48106238 2613:1.1618731 2618:1.8457862 2624:1.7307947 2627:0.048749924 2663:0.16532007 2668:0.77903199 2670:0.29770768 2673:3.6372185 2675:2.0783989 2678:0.94393247 2681:4.5810957 2685:4.7189884 2691:7.9348021 2696:1.917748 2709:4.326334 2711:1.1587312 2727:1.0254933 2728:1.8536098 2742:1.1449817 2747:1.0581859 2752:1.8300041 2753:1.0585829 2754:7.3826261 2759:0.17566377 2767:4.0398026 2784:0.19747071 2797:1.2317257 2804:1.0552866 2806:4.7588363 2807:0.27477857 2808:4.9276404 2814:0.076693997 2822:1.6671009 2824:5.8658504 2827:1.0688218 2841:1.326511 2848:1.743163 2855:1.2852348 2874:1.3321903 2883:1.1559944 2890:3.0670226 2896:0.82500148 2913:1.4339436 2919:0.48832881 2951:2.2628515 2964:0.047589257 2969:4.7970486 2971:0.58585143 2983:3.4862885 2990:0.55574405 2995:2.0593424 2997:0.060568839 3006:0.3853935 3018:1.1675513 3022:7.0918422 3028:1.4206105 3035:3.073431 3039:0.48387936 3054:4.5129571 3055:0.82968855 3059:0.053471565 3061:0.39956969 3063:1.0386846 3064:2.3660142 3069:0.56932902 3070:1.2675329 3075:2.1194978 3078:1.7233392 3079:0.62652826 3082:3.7807069 3085:3.1467533 3088:2.4004683 3102:1.5536588 3108:4.1741533 3109:2.9859731 3119:4.9453292 3140:0.54235208 3141:2.6697509 3142:0.35759002 3143:0.90575093 3144:1.6957829 3158:0.69939542 3167:0.061090797 3172:2.2026186 3177:2.4644091 3178:0.77685118 3180:3.6840739 3181:2.5662737 3185:3.2660854 3212:0.41442949 3213:4.5564308 3221:0.70006663 3239:2.1191521 3244:2.024308 3246:0.54209417 3252:0.2530219 3256:0.27601868 3264:5.1669254 3268:0.55712795 3276:1.6647233 3283:0.46740928 3286:0.35918957 3288:2.9709077 3300:0.45105141 3306:3.3894296 3309:4.0749402 3322:0.65680039 3327:0.706644 3382:2.9399822 3387:3.2510595 3390:0.40390977 3394:3.1564693 3395:1.353886 3432:0.73907673 3434:1.9778142 3439:0.94249707 3452:0.54559356 3453:0.43090981 3457:1.3699604 3480:3.3676422 3481:4.6715441 3483:3.3853884 3487:5.1825762 3492:1.115231 3504:2.1159296 3511:0.32054484 3519:0.79922283 3537:1.0726559 3539:1.036633 3541:1.3388078 3544:2.9915469 3571:0.27489689 3577:0.39232236 3578:1.4112952 3581:2.7411933 3582:1.2824672 3599:1.1175311 3601:0.67098451 3611:5.5695386 3626:0.049319368 3635:0.7621693 3640:1.5772681 3641:0.90709788 3657:1.3231761 3659:4.4673314 3675:2.6980197 3689:1.4276969 3696:2.3630192 3714:0.82501996 3722:0.015941501 3729:1.2418184 3750:0.26110095 3752:1.7967079 3760:1.49568 3763:2.615041 3766:4.09973 3771:1.7755855 3778:0.060549155 3803:3.7899551 3816:0.1895424 3821:0.43191314 3827:0.40983298 3829:0.13350737 3832:5.2308083 3833:2.1322622 3838:4.1941276 3839:4.418354 3843:2.4860184 3848:1.9814463 3850:3.3446441 3855:1.4204798 3856:0.20674691 3865:4.9842854 3870:3.9775 3880:2.0161064 3888:1.216542 3889:3.5634427 3894:2.3043604 3897:0.90509635 3898:0.21406369 3922:4.460412 3926:0.21346487 3934:2.2678227 3937:1.6566855 3946:4.7342105 3949:2.0618753 3953:0.84973907 3955:3.4545829 3956:1.8430886 3958:2.4043295 3967:4.0846562 3972:0.35948101 3975:0.73714125 3982:2.720468 3984:0.94678998 3985:5.8449616 3997:5.6761804 3999:5.8674002 4006:1.7666224 4014:3.2349584 4016:1.2340752 4019:0.35151035 4025:7.1840043 4028:4.9037633 4038:1.2547175 4040:0.41945973 4041:1.18808 4043:1.4475389 4053:0.044964686 4056:0.82158256 4063:1.646457 4077:1.9456812 4082:0.4669925 4086:0.26141721 
0.003508688577096751 5:0.22695851 28:0.34443876 30:3.0774691 65:7.7435613 91:5.7640648 93:1.0588682 101:1.9252309 102:0.38978833 115:3.900665 119:2.3806922 123:0.0064468533 128:0.01942569 129:0.83904243 131:3.2181654 133:5.6940656 135:1.7042775 143:5.1464839 146:7.027359 148:0.4362821 153:2.3160739 154:0.91901022 162:2.255584 167:2.0742524 174:7.5670161 179:1.0775639 186:0.87950069 193:0.76647347 194:1.4614892 196:0.33971396 198:0.082973436 217:0.37578571 224:1.066478 228:0.8431133 229:0.64260948 232:2.6312771 242:1.1744516 247:2.6697826 248:6.7217317 255:1.6853395 256:0.007393539 260:3.3200414 266:0.42053467 270:0.39587307 272:1.5849701 273:1.3335197 284:0.46688223 285:3.3359888 289:5.4364953 292:2.1500404 303:1.3871176 316:1.1258121 318:1.0559084 319:0.018545955 320:1.1650136 327:4.7329078 335:1.7668297 339:4.3107677 349:0.051941663 357:0.26989788 367:0.22289695 381:2.7050817 384:4.8867345 406:2.2165956 410:0.48662475 418:6.4792767 426:1.6416752 431:5.0095091 435:1.0998882 439:4.5985742 444:0.78598958 445:1.2919886 448:0.52996415 452:2.6780567 476:3.2638805 479:0.24230389 491:1.9494088 494:0.17249291 495:1.3005733 504:1.687979 506:0.72937894 513:2.5800519 515:1.3294003 521:1.8267694 528:0.86736315 530:4.0612965 534:0.088576078 535:2.6620805 546:0.18379393 551:5.5226798 553:1.4775724 556:0.069234848 563:0.76596659 564:2.1355205 585:1.6035557 590:2.6399925 591:2.4703672 592:2.4928067 599:0.0029613934 603:4.1383076 647:2.2418532 654:4.1346111 657:0.28187138 660:0.30301428 674:2.3046935 696:3.8756418 704:1.3086836 707:5.8396611 711:1.4151051 732:0.77128673 744:1.4771758 748:4.652072 755:4.3264642 760:1.7509475 766:2.7154534 769:1.1349311 772:0.2026113 773:1.0493991 774:0.10109709 780:1.9060483 781:0.48371264 803:0.1436557 819:2.4678931 827:2.5144682 828:5.4758949 832:0.3110964 857:0.77113521 872:1.1888478 880:13.964577 886:3.2221181 894:0.33504367 900:3.5451078 931:2.0420506 932:0.93619907 934:2.1895964 957:1.3765137 962:1.7060719 971:1.3848177 977:0.57912588 979:0.55043018 982:0.38100457 989:1.7513331 996:0.60146827 998:0.62625545 1004:1.2796861 1006:2.6395845 1011:0.16112965 1014:4.1896348 1047:7.5637078 1048:0.50436914 1065:7.855124 1066:0.12836105 1072:0.13509309 1081:7.7724795 1089:3.2113295 1106:0.26499373 1133:0.25543374 1148:1.4359679 1152:0.2611115 1164:3.3315334 1167:5.1307425 1183:2.8333957 1187:10.123564 1190:2.4296765 1200:11.177771 1204:1.4594719 1207:0.74818724 1210:4.7161665 1234:0.58670968 1237:0.61180276 1247:4.0049634 1254:4.9822755 1264:2.5007412 1272:0.66299134 1277:1.8915387 1284:0.71567577 1285:0.20537266 1289:2.7378418 1290:1.3196796 1305:1.6609591 1307:1.0172495 1333:1.6862527 1342:0.32143682 1344:1.7671158 1346:2.654695 1354:1.4316509 1360:10.144637 1376:2.7601945 1378:2.5025368 1382:0.46250069 1395:0.14513078 1402:1.3847048 1403:3.2287469 1408:2.3671517 1414:7.7153382 1437:0.7847693 1439:1.0119325 1447:2.9934969 1450:1.1957293 1451:2.9322252 1459:5.5793939 1461:9.6103306 1474:1.0639932 1476:5.2090859 1481:4.3498702 1507:0.83693194 1531:1.0198762 1538:1.6645627 1545:2.2488062 1555:5.9293146 1568:0.92062104 1577:1.8316793 1579:0.88104868 1585:1.7495019 1592:3.8754742 1593:4.2888904 1603:0.18959656 1607:6.9334502 1614:2.7096043 1616:0.94125152 1621:1.4795835 1627:2.0783255 1629:0.97039819 1631:4.1410279 1644:0.35291475 1651:1.7698472 1668:1.3247484 1669:0.91676784 1672:0.17012697 1678:2.5186617 1681:10.033259 1683:4.4085979 1706:0.6057952 1715:0.19998512 1717:3.1632037 1719:0.89454955 1722:10.004236 1729:4.6938396 1730:4.7242956 1733:0.89454013 1734:7.3693829 1739:1.1747701 1741:5.5606508 1746:1.059402 1752:0.29327643 1754:0.98975867 1761:2.4151464 1770:1.2288057 1782:4.7480574 1813:1.1902479 1815:10.337358 1822:1.7886374 1834:0.58941454 1843:0.43952441 1844:1.9916546 1848:1.7287757 1852:1.5195541 1854:8.7207861 1864:0.12698919 1879:4.6233377 1880:3.9468873 1883:1.5926055 1888:1.4505862 1892:0.27953577 1899:1.6003807 1905:4.7280087 1914:5.8963923 1921:0.64439428 1930:0.88045001 1936:3.2734842 1943:6.6268144 1960:3.3926904 1963:0.03190881 1969:0.12808019 1976:1.0922848 1979:5.6434274 1990:5.6207047 1996:0.23887093 1999:0.27996108 2015:1.4212799 2016:3.5405984 2018:0.37318921 2021:0.90857494 2025:1.1539712 2026:2.6789904 2043:4.1934767 2044:1.5923444 2045:0.25854036 2053:3.5021555 2058:0.75261927 2068:0.16179714 2071:5.0484672 2085:4.8108768 2091:4.7942858 2099:1.8115252 2101:5.5687065 2103:3.2732565 2106:2.6606419 2110:2.4930534 2116:2.3935349 2117:1.5318916 2119:0.46835798 2123:0.18747036 2147:0.26503783 2160:1.2041259 2169:0.65929437 2170:1.0570221 2190:6.2630348 2209:2.4973266 2211:4.2960577 2213:3.6120615 2222:1.7934849 2239:3.6686611 2241:1.9137962 2242:0.46176937 2257:1.6114202 2259:1.092779 2262:0.98578072 2274:3.8463054 2280:3.7639642 2282:0.015818179 2290:0.54703671 2292:2.6583464 2293:0.61516809 2295:1.4523987 2296:1.633635 2304:4.460855 2309:1.8854138 2321:1.0013385 2336:9.2868509 2338:1.1522533 2344:0.87842238 2345:8.513999 2351:5.8956723 2352:7.8998809 2359:0.70761859 2376:3.8425481 2379:0.83984548 2382:1.1613184 2387:1.8140087 2392:1.890043 2408:3.1692243 2414:6.6256003 2418:0.056419581 2419:0.90735978 2434:6.5668201 2444:1.0960439 2453:2.1040144 2456:2.6421616 2465:1.9342096 2466:1.4211532 2470:0.35379738 2486:2.2429731 2487:2.6947622 2494:0.94747102 2495:6.1072345 2498:4.9494376 2505:4.3158689 2508:1.0047783 2516:3.3160846 2517:2.4476147 2526:1.3346518 2531:1.8974822 2543:0.66846406 2545:7.0803652 2554:0.53354299 2558:2.3448532 2559:0.087521076 2568:12.939265 2572:3.5471265 2604:1.0762997 2610:0.11202091 2613:3.7865484 2619:0.19369997 2624:1.0798454 2649:1.070786 2668:1.2799723 2673:3.101809 2675:1.9344194 2681:5.0263815 2685:5.1356735 2691:8.9229832 2706:1.2458076 2709:4.0546932 2727:2.8525913 2728:3.2597358 2733:0.95961159 2742:0.18957278 2747:1.0570272 2753:0.74890894 2754:11.095685 2767:1.8593694 2784:0.20391063 2806:6.045114 2808:5.624402 2815:0.059563667 2824:4.1588521 2841:0.34393841 2848:2.0411091 2851:1.1178764 2855:0.0084279478 2886:1.0166625 2889:0.11584675 2890:7.5917749 2913:3.7308333 2969:4.7889075 2971:2.0833504 2983:6.4030685 2990:0.033808857 2995:3.2487688 3022:8.0820551 3028:0.42145109 3030:0.3611494 3035:1.5944673 3054:2.8052816 3055:0.17900527 3061:1.120801 3063:2.3436379 3064:1.05024 3070:2.8699825 3075:4.4710226 3078:3.1091144 3079:1.1682134 3082:4.2712216 3085:5.1777501 3088:0.99865675 3102:1.5652543 3108:6.0470552 3109:3.7007272 3119:5.6378293 3122:0.16872117 3138:1.04503 3140:0.84324646 3141:3.7056997 3142:0.62285841 3143:1.2178959 3151:0.00038936734 3167:2.4167037 3170:0.18309677 3172:3.2990837 3177:4.2437139 3178:1.1614065 3180:5.9102306 3181:0.52031511 3183:1.5658058 3185:1.2558942 3213:5.6683979 3239:2.9900413 3241:0.1903289 3244:2.4437726 3246:2.9146199 3256:1.6889007 3264:5.9233665 3268:0.62718379 3276:1.8017205 3286:0.86696243 3288:2.815393 3300:2.5541971 3309:4.118958 3320:0.68712699 3324:0.64753091 3343:3.7710254 3366:0.26225239 3382:2.7755148 3387:3.7382338 3390:0.96139026 3394:2.2579854 3434:1.0893209 3439:0.08287631 3452:0.15967064 3457:1.425095 3480:3.2818692 3481:5.9888864 3483:0.64293122 3487:4.1299763 3492:0.42394057 3504:0.70130771 3511:1.5307292 3519:0.066788465 3537:0.61803627 3539:1.3013016 3544:5.7948885 3578:1.1944174 3581:4.0983353 3611:6.1228471 3615:1.4640307 3626:4.0610032 3629:0.78592485 3633:0.57623935 3635:1.6129749 3640:0.31375724 3657:0.60598969 3659:4.5172167 3675:2.3584707 3696:3.0250309 3713:0.077769667 3729:0.72182071 3732:0.64038235 3748:0.71333963 3752:1.7622889 3760:0.58836412 3763:3.4306729 3766:2.7407174 3778:0.45123038 3803:0.9964273 3821:6.3684249 3832:2.76863 3838:2.1341603 3839:5.2158227 3843:3.8410516 3844:0.11334862 3848:2.5124092 3850:5.8972392 3856:3.4066176 3865:7.5519114 3870:2.1307652 3880:0.80118901 3888:2.4804645 3889:3.6446841 3894:1.9656332 3912:1.3043056 3917:1.7452543 3922:4.6920781 3934:3.3532834 3937:2.9715216 3946:4.8528466 3949:2.4197598 3955:1.7060602 3956:1.1736286 3958:2.872942 3967:1.5679947 3977:0.44089833 3982:3.3935723 3984:2.283355 3985:5.7245445 3997:7.8461742 3999:5.7464681 4006:0.18100257 4014:5.3872867 4016:4.3880224 4018:1.5848591 4019:0.41059619 4020:0.090471461 4022:0.23071295 4025:7.617557 4028:4.5648708 4038:3.4739661 4040:1.7771019 4043:1.3317986 4053:1.5173436 4056:0.79643619 4063:2.6956272 4077:5.1876121 
0.4565978412041977 15:0.47926116 28:0.15797585 65:11.969215 72:0.24329227 91:3.4769995 93:0.68440151 96:2.1080673 102:2.8518887 105:0.2518191 115:2.6667516 119:6.2378874 128:4.5105724 129:1.5276654 133:9.4049854 143:7.8810015 146:3.1808097 153:2.1986125 160:3.5482211 165:0.37029868 168:5.7581544 174:11.120398 179:7.814755 185:2.3516145 193:1.1507989 194:4.6792536 196:0.31675339 224:2.0795426 228:8.7891235 229:2.7585607 232:3.9945271 242:6.7216487 248:3.5217609 252:0.12161395 255:7.4416823 256:0.23677373 258:5.2810354 260:2.8569181 266:6.684083 269:2.1972799 270:0.37257534 289:4.8178482 291:0.50729245 292:2.145798 303:1.4660158 309:3.5542421 316:10.12343 321:1.8418679 327:10.886515 339:10.081336 344:4.3444376 351:0.91533017 362:0.4943893 364:1.0563014 374:0.92431653 381:3.7781942 384:8.0463552 401:0.9021579 406:2.6978583 410:0.41801995 418:8.774353 426:2.1424253 431:4.8217182 435:5.0187135 439:6.8122239 440:0.92268229 444:1.9596667 445:2.830966 452:2.0926504 479:6.4985867 488:0.45332283 491:5.0323219 495:4.8749285 504:0.18242472 508:1.6353873 515:0.38161355 521:2.8987858 524:1.0291159 526:2.6415668 530:3.4646683 545:1.8510327 548:9.5811968 556:0.28533885 563:2.0643244 564:7.5425186 583:0.51269263 590:4.2446642 591:1.3112646 592:2.9275022 599:2.4824617 603:0.71631283 628:0.36185685 635:1.5131087 636:3.7471106 638:0.84002042 647:2.1394157 654:5.7464557 657:8.4225988 674:1.8417237 687:3.7901449 696:9.363061 699:2.4963799 704:3.8426785 707:3.9926748 709:2.2174253 711:1.1888218 732:1.3272742 734:5.5471315 738:3.7152343 744:4.8969703 748:3.359199 755:3.0821934 763:0.93956405 769:2.1621315 771:2.385499 772:7.0112777 791:3.3850951 798:0.19668573 803:0.4929333 817:4.3843765 818:3.0385461 820:6.0141721 828:9.0638094 833:4.7401695 848:3.1514363 857:5.0910196 867:2.079663 872:2.8511879 879:2.7782011 880:14.662382 886:3.4380531 892:2.1777029 894:0.28289056 898:1.7538369 899:0.68774343 920:0.053198606 932:2.89589 936:3.8919978 945:1.6489139 957:6.3858695 962:5.4962845 973:0.85252827 975:0.48137835 977:0.15835261 979:1.7751554 989:2.2026215 996:0.56128818 1004:2.0625324 1014:4.3758907 1034:0.32610059 1043:3.2594345 1047:1.8453734 1049:1.1888524 1050:4.0365572 1054:1.2169939 1063:0.83817893 1065:7.1661582 1067:1.6200322 1070:0.13737252 1081:8.8922482 1098:2.2112007 1115:1.3198274 1130:0.5387798 1138:6.4525599 1150:2.6732063 1164:0.42521846 1167:10.287311 1187:22.136114 1190:1.8467497 1191:5.6765661 1200:19.128529 1203:1.5791246 1204:0.15316701 1206:0.49235618 1213:0.33451319 1225:1.2054477 1226:1.8548876 1227:0.45699668 1231:1.4427488 1234:3.2916031 1239:2.4302907 1247:2.1665943 1254:1.2597362 1276:1.7506974 1284:2.3045113 1286:0.42560962 1290:4.2372923 1297:5.1782746 1313:2.6865318 1315:1.6535969 1324:0.89247048 1333:11.265478 1335:4.1693969 1342:1.5522461 1346:1.3812684 1348:2.9813974 1360:8.2626524 1369:1.6814538 1376:4.1009259 1378:2.5749912 1392:1.6448921 1401:2.2128258 1414:10.243927 1428:0.63428187 1430:1.7627122 1437:6.3451438 1439:4.9173722 1447:3.3953395 1449:1.3227595 1451:4.3141751 1455:1.5965707 1459:5.8962169 1461:13.418173 1466:0.82520866 1472:2.8787303 1476:1.8265105 1495:1.033363 1500:1.8078384 1504:1.5885036 1507:1.9531188 1508:1.3155566 1519:4.1539059 1537:4.0793982 1544:3.1115708 1550:1.2834381 1554:2.8962717 1560:0.31763732 1565:0.93568319 1576:2.8510163 1579:1.8670387 1585:10.28477 1592:3.8982472 1593:3.0857518 1605:3.4104664 1607:8.8120041 1610:5.9515929 1612:0.24531786 1614:2.1430745 1616:0.93555284 1623:3.0537219 1627:8.0729761 1629:1.4535232 1631:5.5128059 1654:3.3436706 1661:2.318053 1668:0.13707975 1671:3.7884612 1679:0.71339649 1681:8.6084251 1683:5.7649412 1693:0.10592458 1699:2.8602185 1709:5.1952806 1711:1.6903214 1713:3.5501184 1717:3.1226478 1722:5.83535 1728:0.090239942 1730:1.7779279 1734:12.76384 1739:1.0557144 1741:1.2936856 1752:3.0915668 1754:4.5315037 1755:2.2723656 1761:0.92176938 1763:0.74742329 1782:1.3252289 1789:5.0771632 1804:1.2687584 1805:0.40628016 1813:9.6223764 1815:10.56997 1836:0.83078134 1843:0.36011788 1844:8.4810209 1854:13.343842 1864:5.3995585 1872:0.71625918 1873:1.6719295 1879:2.2333291 1880:4.4132609 1888:1.0292861 1892:1.1823678 1895:0.84784794 1905:4.3038659 1914:5.8152981 1917:1.920765 1918:5.6792426 1921:8.7429724 1930:6.050879 1936:4.0082269 1943:5.7921333 1946:3.5123222 1956:4.8067689 1960:2.3884244 1969:0.69239539 1974:0.15122464 1976:2.0425589 1981:0.96052593 1984:0.065647483 1990:9.5170202 1991:2.5654421 1999:6.3481874 2015:2.1445823 2016:4.6856136 2018:3.8299725 2019:0.78585881 2021:2.1136749 2036:1.1159608 2043:2.3049643 2044:3.7191794 2058:0.29018295 2065:7.0633821 2071:0.95645654 2081:1.663792 2085:9.4339142 2091:9.1487751 2099:1.0930364 2101:3.0031033 2103:4.9023604 2106:0.19960666 2130:0.04045561 2137:1.9283251 2147:3.195137 2152:0.7232815 2162:1.6095896 2164:1.7527666 2170:0.076172501 2184:12.00916 2190:13.653179 2191:0.59521353 2207:2.6511886 2209:8.9174109 2211:4.6294732 2213:0.03424871 2222:1.7323122 2223:8.6615992 2239:1.2312707 2241:2.323633 2242:7.6753817 2243:0.0069609582 2256:1.7132268 2271:2.12029 2285:2.7124085 2291:0.56482869 2292:2.6543016 2293:1.3561409 2304:7.646915 2309:0.53384572 2314:2.5709023 2315:5.0894828 2321:3.2422342 2336:4.0450716 2340:2.8272586 2343:7.2228394 2344:3.7806242 2345:6.8994632 2351:5.5530949 2352:9.2069464 2359:4.4694881 2365:6.2833648 2376:6.0282927 2379:0.16131005 2382:0.75330055 2394:1.2313607 2399:2.4133985 2408:1.6422743 2411:2.1155393 2414:2.9694216 2427:2.8845611 2430:1.2504289 2434:8.8592186 2440:7.2342224 2453:2.9558601 2456:2.7360463 2470:5.0870152 2486:5.1190271 2487:3.7708309 2493:0.77311635 2495:3.7835271 2497:0.57420397 2515:3.1582785 2516:1.6614654 2517:4.935267 2519:3.5219636 2524:0.34044448 2526:0.6000579 2531:1.2012856 2534:0.4340806 2545:8.1346455 2551:0.084983975 2558:2.8061552 2559:2.564652 2563:3.0773685 2568:8.0703077 2572:3.986439 2574:2.2485685 2576:5.8438063 2577:0.30836162 2604:17.139414 2613:4.5534849 2625:1.275929 2628:3.0434644 2631:0.1056011 2649:2.3623452 2657:3.4624977 2667:5.6223683 2670:1.6650325 2675:3.2453687 2680:2.8734756 2681:2.0532482 2691:1.1123039 2699:0.21622133 2709:0.56056452 2711:0.045885563 2721:0.026467621 2727:2.4291601 2728:1.4378489 2738:0.52498901 2743:6.4814472 2747:2.3607261 2753:5.6606998 2754:13.070417 2767:1.2495047 2779:10.039965 2784:0.72439355 2788:5.5894694 2791:1.8448887 2815:6.0592027 2823:1.2642653 2841:3.5632744 2842:2.636585 2851:10.146227 2865:1.7680097 2874:5.6390553 2886:5.5198421 2887:1.9238516 2890:5.7377038 2901:2.7889786 2908:2.0476365 2913:3.8404644 2970:8.1534777 2971:3.8555005 2983:8.0227871 2987:0.61543262 2990:5.8214116 2994:2.5054593 2995:8.5153732 3008:2.3915279 3022:6.9419317 3028:4.7889419 3030:2.8297877 3043:2.3742862 3048:0.54403216 3059:6.2709212 3061:0.055515796 3068:1.4752926 3075:3.5101755 3079:1.6319876 3082:9.9734707 3085:8.6039095 3088:1.0395174 3108:3.2213619 3109:3.5495894 3119:1.6530648 3140:6.4408207 3141:6.7733793 3142:3.9931862 3143:5.1268959 3151:0.35358387 3153:2.4823637 3159:2.065114 3167:2.0809598 3170:6.0590663 3172:2.4056473 3177:5.2885981 3180:7.6251817 3181:1.4389738 3183:4.1935892 3192:5.2717004 3202:0.24685201 3213:7.1154156 3215:0.0031953156 3237:0.22607939 3239:9.0580578 3244:5.1360726 3250:1.5625347 3252:5.8726807 3265:10.075027 3269:1.0346529 3272:0.40341723 3276:5.139555 3277:2.4708462 3286:7.3363547 3288:0.5957607 3294:3.0646319 3300:2.3313272 3307:5.2161064 3309:3.128933 3316:0.24095181 3321:4.1096535 3324:3.6758742 3327:4.6199923 3332:0.21068808 3334:2.894315 3366:0.7789706 3371:2.3316476 3382:3.3720076 3387:5.6119227 3391:2.7144825 3392:4.4651346 3393:0.12925065 3394:4.8605871 3395:4.9028883 3413:2.4581423 3457:3.0620754 3468:3.55056 3480:5.3758421 3481:0.71538424 3497:1.8688257 3502:5.8809404 3530:3.2305241 3536:3.9684482 3537:0.56857699 3539:9.3996878 3540:10.216148 3544:6.4157834 3548:0.44601607 3552:2.2895668 3571:0.74410993 3574:0.70750493 3576:1.5816842 3581:8.7387972 3590:0.63843751 3596:1.059448 3601:0.84333742 3606:3.3193829 3609:4.6153116 3611:7.5240011 3626:4.3781662 3629:2.0388701 3635:7.5458937 3650:2.976496 3655:0.021943972 3659:3.9987092 3660:0.2082088 3675:7.4911547 3680:2.6407464 3681:4.7580838 3696:7.0660205 3713:1.5152266 3720:1.1647711 3722:3.1542928 3731:4.2748866 3738:1.7811189 3739:1.2785567 3742:3.9131813 3746:0.17378302 3748:4.9476113 3752:3.9923196 3760:6.5138092 3762:3.6614194 3763:6.5419178 3767:0.61841631 3771:1.6405523 3802:2.1090064 3821:11.00993 3829:0.85637522 3832:1.355612 3837:1.8479079 3839:5.5818357 3850:1.9316654 3856:2.9140186 3857:0.43438783 3865:9.2690964 3869:3.2816958 3887:3.0212293 3889:7.668684 3894:3.2826676 3897:3.9428458 3911:0.80292535 3914:1.5344362 3916:1.6106925 3920:2.0380228 3926:4.6041217 3932:7.537466 3934:6.8151941 3937:1.1230141 3946:0.5493769 3947:2.9162638 3949:6.6153526 3958:0.55323708 3960:1.9967382 3968:6.2750525 3972:1.9920105 3981:3.5771093 3982:5.5013661 3983:4.3210912 3985:2.9455361 3986:2.4682953 3993:4.7003746 3997:4.9854636 3999:0.05451043 4014:4.4266586 4015:0.48402822 4016:5.4630704 4018:1.9878249 4020:2.1092772 4025:4.2018757 4028:4.6073713 4038:7.0832829 4043:0.17309636 4044:1.2407669 4045:2.3742278 4047:2.8657269 4049:7.756331 4054:1.8196915 4056:1.7199773 4073:1.9446336 4077:6.7030244 4082:1.7173181 4083:0.079877257 4091:5.1653204 4093:2.8798566 4095:2.4788194 
0.02639961349459503 15:2.7135091 65:9.8288517 91:3.9349289 96:2.5327344 102:6.7192979 119:5.5463119 123:0.67390776 125:1.2705549 128:2.910557 129:0.90213537 131:1.2512925 133:6.8036671 135:2.3980801 138:0.027608842 143:3.4855757 146:1.1584698 160:1.2724611 168:3.548703 174:9.3912945 179:5.3848405 185:3.8034174 186:0.24884966 193:0.92217386 194:7.3062181 196:4.3769836 198:1.7356945 225:0.40487844 228:6.4922748 229:3.074446 230:0.21154639 232:2.4812913 242:7.314817 248:2.2274437 255:7.1780562 256:0.18806571 258:3.7678237 260:1.8224106 266:5.594872 289:6.9922557 291:1.694543 292:2.4253447 303:2.7402177 307:2.0506098 316:7.7164841 327:11.090627 339:9.646142 344:3.4970956 351:0.26928025 368:0.33729967 381:2.7875664 384:6.0125041 401:0.71123409 405:0.25846854 406:1.4654268 410:0.44812062 418:8.8738279 426:2.4974468 431:4.1322632 435:4.2800899 439:7.0681691 444:2.7131815 445:4.8608441 452:3.3948781 457:0.036785811 458:1.3363649 469:1.3421445 479:4.7349911 488:0.7521435 491:5.2843671 495:3.3958158 504:0.48026007 508:2.9037991 521:5.702425 526:0.28261203 530:3.4085584 535:2.1850109 545:5.0656204 548:4.8678946 554:0.28990963 556:0.57898325 563:2.9433942 564:2.821167 567:2.2498739 583:2.1983325 590:5.9100747 591:3.2812653 592:2.6584737 599:2.8156934 603:4.1420274 614:1.5201756 629:0.68396831 635:1.4598441 636:2.2858307 638:0.93999529 640:0.25334579 647:3.947428 649:1.3561249 654:1.7187258 657:3.2488487 660:1.168663 674:1.1398816 687:5.2057767 696:9.9409246 704:4.5540667 707:3.1025157 709:0.49982786 711:1.4771359 718:2.3006647 729:0.15410881 732:1.436183 734:6.3610587 738:2.3238959 744:5.1588993 748:4.056829 752:1.0556481 755:1.8091905 763:1.6400568 769:3.7743273 771:3.238059 772:5.7373686 791:2.4629254 798:0.93226457 803:3.4445248 818:3.2477326 820:4.5866446 828:13.352383 850:0.05001438 857:3.4158356 872:4.2925811 879:1.1745147 880:12.769032 886:1.2669383 892:4.2267499 898:0.35612902 932:2.0411978 934:0.7564646 936:4.0228238 938:0.26685914 940:0.90047538 945:0.73994696 957:1.2503099 962:2.4335463 975:3.0426283 979:0.39314741 982:0.051502213 989:0.80612195 998:0.89177567 1004:0.1972315 1014:4.3429728 1047:1.4955721 1050:3.0015965 1054:3.3010545 1061:0.038306035 1063:0.46632838 1065:6.7589397 1081:7.5743275 1115:0.8944 1116:1.1453303 1138:6.8598623 1143:0.51002967 1150:6.1197424 1167:7.2687893 1183:0.44457218 1187:19.151917 1190:1.3254151 1191:1.786466 1200:17.276934 1204:1.7387037 1206:0.37252498 1211:0.76399457 1225:2.4955587 1227:0.78272784 1231:0.010890782 1234:2.6645813 1239:0.57029581 1272:0.34172297 1276:0.65432245 1284:2.8302629 1290:2.6544056 1291:0.59914041 1297:5.352355 1313:2.5561419 1315:0.43303496 1324:0.018643614 1333:7.261507 1335:2.366173 1341:4.0236797 1342:1.1443152 1344:1.0330164 1360:8.3807077 1376:3.8649752 1378:1.2387192 1392:1.0411443 1401:1.4597547 1402:0.19994986 1409:0.10684526 1414:11.765374 1425:1.0481532 1430:1.2790263 1437:3.5125136 1439:5.5729251 1447:3.2125506 1451:5.4817491 1455:0.39245057 1459:8.9597082 1461:13.875964 1472:2.2522764 1476:1.0375372 1500:0.50230443 1504:0.88309968 1507:4.1807241 1519:3.4687324 1537:3.0196464 1544:4.297039 1555:1.619933 1560:1.7449299 1565:1.5684106 1576:1.9008 1579:0.5597769 1585:8.0774727 1592:7.8366165 1593:1.7169663 1596:0.21813001 1603:1.2960429 1607:7.5358348 1610:5.5383115 1612:2.2582536 1614:0.37464276 1616:0.91549253 1623:2.5714819 1627:6.6203017 1629:0.81233162 1631:2.1715794 1651:3.9194341 1654:3.3413413 1661:0.74882662 1665:1.6558341 1671:4.7131448 1681:7.6949716 1683:6.3026104 1699:1.0044169 1709:2.9553132 1711:2.7337894 1713:1.7860175 1717:4.1616726 1719:0.5578894 1722:8.1422281 1728:1.2668087 1730:5.6560521 1734:8.5473394 1741:2.1140199 1752:5.6586986 1754:1.6374669 1755:2.2477512 1761:1.6011076 1763:0.3057434 1771:0.46398035 1782:2.9271462 1789:2.3889456 1792:0.67943025 1804:0.26063752 1813:6.4406271 1815:10.265871 1836:0.68676543 1843:2.8429639 1844:5.1835332 1854:10.107878 1864:4.8867059 1873:2.0649502 1879:3.9018729 1880:4.9145112 1888:2.3042147 1892:4.9051681 1899:0.59333527 1900:1.4041468 1905:3.6933682 1908:1.6896009 1914:7.2346978 1917:3.5151029 1918:4.6504998 1921:8.9515018 1930:2.7558107 1936:3.9238548 1941:0.66485953 1943:3.7962563 1946:3.232621 1956:1.1988895 1960:1.4292731 1963:1.4510602 1974:0.48078579 1976:3.5614548 1979:1.7373676 1984:0.94344258 1988:1.1349405 1990:7.0483479 1991:1.5138316 1999:5.1323385 2014:2.5326352 2015:1.1957009 2016:6.072844 2018:4.0322967 2019:1.7980013 2021:6.7961707 2043:4.0469851 2044:0.36743623 2053:0.81057882 2058:1.6291885 2065:8.2099209 2073:0.25902468 2081:1.815273 2085:3.9957757 2091:9.3663406 2099:0.50049371 2101:3.0857484 2103:6.9063053 2106:1.6186304 2137:1.0649059 2147:3.4719667 2156:0.310552 2160:0.26794621 2162:2.1997061 2169:1.5948273 2170:1.1899002 2184:9.6114779 2190:12.305003 2191:0.052905083 2207:4.3235974 2209:9.6871481 2211:4.0625119 2222:3.4604247 2223:5.7820749 2241:1.8449795 2242:6.7925344 2243:2.1433351 2256:3.4929752 2285:3.3737264 2291:4.7526155 2292:4.640933 2293:2.3915062 2304:2.967752 2309:1.1363029 2314:0.73506343 2315:1.7654524 2318:0.37360317 2321:4.1374588 2326:0.36092013 2336:5.4916472 2340:0.57281619 2343:2.7508974 2344:1.1735567 2345:9.143774 2351:5.3774948 2352:9.8761225 2359:3.8888984 2372:0.26146474 2376:5.3091712 2379:0.22584561 2382:2.688596 2383:0.37637922 2394:0.7698009 2403:0.289193 2414:0.55195588 2427:4.0774393 2430:0.39352077 2434:8.0375996 2440:7.1444159 2448:1.0222524 2453:1.8130093 2470:0.73079151 2475:0.070860006 2486:5.4983373 2487:3.1236637 2495:1.743526 2497:2.2543554 2498:2.4832387 2505:4.6007137 2508:2.0309103 2516:2.334553 2517:4.305223 2519:2.2722805 2521:1.270834 2524:3.0349083 2526:1.7041972 2531:4.5295868 2545:7.3494 2551:1.1399122 2558:1.6961696 2559:2.138938 2563:0.85925877 2568:8.7850418 2572:3.5354207 2604:13.763019 2613:4.2416377 2625:2.0456669 2628:0.80199373 2631:1.023953 2649:1.6624656 2657:3.9529364 2659:0.19317436 2667:4.1061926 2670:1.2873212 2675:0.99253815 2680:3.0663877 2681:4.1584115 2691:1.9336312 2699:2.4371638 2706:1.4219249 2728:3.5220277 2743:4.7842412 2747:2.8552346 2749:2.3934526 2753:3.760767 2754:11.58914 2767:1.2655966 2779:7.2376032 2788:4.5876055 2791:0.93997884 2815:4.1415801 2824:0.30198297 2841:1.6613209 2848:2.1975417 2851:4.5083938 2865:2.5291691 2866:0.35576499 2874:2.9606891 2886:2.5369017 2890:7.4002643 2901:1.7997853 2913:1.3516449 2946:1.2429912 2957:1.6520084 2970:2.9149716 2971:1.8130753 2983:6.3404393 2990:4.9203506 2995:7.834394 3020:0.099876739 3022:5.5428815 3028:1.0824703 3030:1.894446 3032:2.986325 3035:1.077876 3042:0.43408689 3043:1.6990254 3048:0.63854533 3049:0.016604871 3054:1.8996344 3055:0.33154297 3059:2.1375301 3068:1.6898919 3078:0.57386559 3080:2.6530428 3082:12.615159 3085:7.8608556 3088:2.4734693 3108:2.1182837 3109:1.7917917 3119:7.4461126 3122:2.179841 3140:3.864882 3141:11.374878 3142:7.1182451 3143:6.1968985 3167:3.041307 3170:4.0857949 3172:0.77068329 3177:5.2004452 3180:6.8185792 3181:0.045559913 3183:4.9519525 3185:0.67596304 3189:0.062685996 3192:5.2946835 3213:7.34482 3221:0.1296308 3237:0.05870457 3239:9.4901218 3241:0.55945933 3244:1.1361253 3256:1.7844098 3264:2.4555104 3265:5.9326043 3272:2.5602779 3276:4.6187515 3277:1.0522767 3286:7.9711833 3288:0.75301504 3294:5.4347215 3300:2.8236041 3307:3.7588379 3316:1.2378875 3321:3.3568275 3324:6.395956 3327:1.6842029 3351:0.028873354 3366:3.1033905 3382:6.7993097 3387:3.9349823 3391:0.90649712 3392:1.1166427 3393:3.2719176 3394:3.3019378 3395:2.7866867 3396:0.069539398 3413:0.66733932 3427:0.98543215 3439:0.76278317 3457:2.7836125 3468:2.4936776 3475:0.48445141 3480:5.5387077 3481:4.1987605 3497:1.9379091 3505:0.29699123 3507:0.18189865 3530:0.033404201 3538:0.082614377 3539:3.7800851 3540:9.9795952 3544:5.0127068 3576:0.11249852 3578:0.37099874 3580:0.4084267 3581:11.078909 3596:1.8330202 3605:1.4717799 3609:1.8711801 3611:7.853507 3615:1.9415172 3618:2.8799233 3626:3.873373 3635:5.0596981 3637:0.55668342 3639:1.7591876 3640:0.70831633 3650:1.6751035 3659:3.4455607 3660:2.0751443 3667:1.1095687 3675:9.0802355 3681:1.8302214 3685:1.3090105 3695:0.38414478 3696:4.51828 3713:1.7207575 3715:0.27338195 3720:3.4711266 3722:2.3968482 3748:3.7304142 3752:1.5141222 3760:6.5130033 3762:1.3911099 3763:3.2004187 3771:2.2219989 3802:0.26404986 3803:0.47031519 3808:2.0863113 3821:8.7828131 3823:3.1526778 3829:0.63301003 3832:3.9390209 3837:3.1526744 3839:2.5357983 3843:4.2382021 3850:3.2724962 3853:0.76787949 3857:0.78309017 3865:7.612855 3869:0.14910963 3875:1.5077 3887:1.242052 3889:5.3312063 3894:3.7505288 3897:3.3618433 3905:1.183419 3911:1.4355015 3914:3.8457615 3921:0.15393515 3926:3.4182847 3932:3.9468474 3934:2.3486862 3937:2.256079 3947:0.66305178 3949:8.6859226 3956:1.958606 3958:4.4428468 3968:2.8473227 3972:1.2350665 3982:7.628726 3983:4.3458652 3985:5.860764 3986:2.6821272 3993:6.3477044 3997:5.400547 3999:1.8649323 4014:3.2545013 4015:1.415051 4016:3.5609727 4018:3.7171803 4020:0.86737502 4025:5.5216351 4028:4.7727661 4038:4.2497087 4040:0.20357895 4044:0.015075326 4045:1.4276257 4047:4.7401133 4049:5.7709756 4054:0.42582452 4056:1.1857044 4063:0.98122495 4073:2.1047711 4077:7.4866333 4082:3.102257 4091:4.1257586 4092:1.1968545 4093:2.0186555 
0.3452452798100025 65:8.2015343 72:2.3693714 91:7.5123515 93:0.91754043 96:3.3102367 101:0.81897211 102:3.0884008 119:2.926405 123:0.19355306 125:0.87641048 128:1.7358284 129:0.60444725 131:1.0846311 133:5.829669 135:0.82761919 143:5.3446851 146:3.7477806 153:0.21001086 174:3.3157265 179:2.3622086 185:5.0606313 186:5.2966661 193:4.0350041 194:0.45644131 196:2.0617287 198:4.1704602 224:5.7237172 225:0.5280323 228:5.9598351 229:1.3120931 232:3.6665809 242:4.934257 247:0.65643424 248:4.6057048 250:4.0436821 255:9.6277266 260:5.9318409 266:8.5713615 270:1.0611302 289:6.6821694 291:1.2180598 316:3.58709 327:6.9310083 339:10.36855 344:3.5962048 362:0.68893391 367:1.2783225 374:1.851795 384:6.1389732 406:1.2299584 410:4.5793657 411:1.5332857 418:9.3695889 424:3.7104356 431:0.074373297 435:2.1527731 439:8.3326998 440:3.5399275 441:0.073301882 442:1.8392041 445:4.0478039 452:1.6254873 488:1.119974 491:5.8947916 494:2.4419739 495:5.0839825 506:1.3800018 508:1.1293304 515:2.3683949 526:1.9527826 545:2.3657606 556:2.5783184 563:4.0691519 567:0.32369429 569:2.5331311 573:0.80003703 590:3.3042388 591:0.38143662 592:1.8127784 599:0.14813331 603:2.8745878 606:0.73817021 614:0.45600528 629:3.5597458 631:2.4865756 636:4.9128175 647:3.7231312 649:2.6761889 653:4.8645616 657:5.9680252 662:0.16473302 674:1.6205213 680:1.1496332 687:4.591805 696:10.534595 704:4.3647332 707:10.585895 709:5.0938601 711:2.4869556 718:0.76275992 732:0.48775172 734:3.9152164 738:2.4793935 744:6.4021096 748:8.5437746 752:0.34048182 755:1.148711 769:3.5119302 771:2.6162028 772:1.1581191 773:0.11971085 791:2.0279298 798:0.5840084 803:2.0597179 807:2.7687318 818:3.2045541 820:4.2112851 828:10.428082 837:0.68854666 857:0.28260469 872:5.2321401 879:0.81843024 880:12.395899 886:4.2175808 892:1.4497993 902:2.51052 920:1.669171 951:0.056059986 956:0.14101438 957:3.0857177 962:3.8719418 977:3.2667828 979:3.0691407 989:1.8321675 998:0.73434597 1006:3.7907505 1014:2.0912471 1015:0.2057735 1034:0.26519871 1047:2.2059133 1054:4.2554121 1065:7.9228964 1081:10.475411 1088:0.13782877 1091:0.46467316 1116:1.5189111 1138:5.5328002 1148:0.20630392 1167:10.718475 1187:16.362196 1190:0.69954675 1191:0.62724608 1200:10.978756 1202:0.025131628 1204:3.2471681 1206:4.2090716 1210:2.1487768 1225:2.395334 1227:2.132056 1231:1.4826807 1233:1.213359 1234:4.8660269 1236:0.5296489 1247:5.0127826 1254:4.3802404 1284:5.303854 1289:1.9252145 1290:1.9188904 1297:1.1556892 1310:2.1521769 1324:1.2600329 1333:4.5126362 1335:6.5991721 1342:0.50030112 1346:5.1198568 1360:8.080368 1378:0.98755252 1382:0.80509901 1392:1.1470493 1414:7.6926999 1430:5.0929956 1439:5.3239193 1443:1.3381708 1447:7.5880904 1451:4.5931907 1453:0.59859157 1455:3.5852408 1459:8.2571144 1461:10.492532 1466:0.81274426 1472:6.9823437 1473:2.9297004 1476:2.5913956 1495:1.2838049 1498:2.0956526 1500:1.1353835 1504:1.4814023 1508:1.1532342 1519:5.3000135 1525:2.4546838 1537:3.5768125 1545:6.8484163 1555:0.97649866 1557:2.231302 1560:3.1769898 1565:3.4344108 1576:2.0410101 1585:10.051739 1592:6.6973066 1593:3.3281963 1596:1.8413067 1607:8.4152021 1610:2.2220659 1612:10.121542 1614:6.1045151 1616:0.72578537 1623:0.12880683 1627:0.94880074 1631:2.5665903 1642:1.048398 1643:1.8950491 1651:1.7470565 1661:4.8392448 1665:4.063942 1668:2.875725 1671:6.9559312 1681:5.7308092 1683:7.2141008 1688:0.77836287 1689:1.5444775 1699:1.0628061 1709:5.8116937 1711:1.2077017 1715:1.0135311 1717:5.7826686 1719:4.5049362 1722:3.7470102 1727:0.71623325 1728:0.8127178 1729:0.88946688 1730:0.5753175 1733:1.8102673 1734:5.2357635 1739:1.4664407 1741:6.5553975 1752:2.1780808 1754:5.2360811 1761:4.8233871 1789:6.5318537 1792:1.037903 1804:1.1308405 1813:4.7450342 1815:8.0665455 1843:2.9354758 1844:4.1950545 1854:11.449576 1864:0.88449311 1879:3.5398488 1880:7.3263626 1888:4.2976947 1914:7.285058 1917:1.112637 1918:3.0285926 1921:4.6872873 1930:4.5231171 1936:5.225266 1943:0.35555789 1946:2.9801605 1956:5.2165442 1960:4.8119779 1967:2.7296581 1969:1.7352734 1976:1.2150395 1979:0.47526455 1981:3.9655781 1984:1.6674895 1990:3.9371407 1991:2.0658953 1999:5.3479099 2004:0.18113852 2015:2.2775736 2016:4.4492903 2018:2.6612432 2021:3.4474351 2060:2.6567421 2065:1.8556677 2068:2.2175674 2073:0.98439056 2085:6.7350674 2090:1.2918375 2091:5.7361135 2099:4.8556609 2101:5.5991974 2103:4.9169211 2106:5.5106225 2111:2.3097959 2119:5.2333283 2137:0.61199731 2147:1.6605167 2152:1.6781206 2156:3.2834435 2170:0.68769437 2184:10.884929 2190:8.2437458 2207:5.1277218 2209:4.421926 2211:1.5999798 2213:0.39839271 2222:3.3953631 2223:5.5716929 2242:1.259703 2251:0.5050506 2256:2.3717601 2271:3.5420661 2291:1.9863174 2292:0.015533745 2293:0.98776829 2304:3.533705 2308:0.32412121 2309:1.4606801 2314:3.8086667 2320:0.93186849 2321:3.5095713 2336:6.2880855 2343:2.9868929 2344:3.4383671 2345:8.8731852 2351:7.1283412 2352:2.7840443 2359:0.18241858 2365:0.9474932 2374:0.49745303 2383:3.5241044 2384:0.43049225 2392:2.821079 2394:1.7805849 2399:3.5757089 2408:1.5373036 2414:2.3220119 2430:2.3989527 2434:8.1302423 2440:2.4101157 2453:1.3118893 2456:1.1564121 2466:1.440291 2470:1.1085172 2486:5.7845631 2487:1.7822016 2495:5.5634823 2498:1.4115337 2505:0.78164738 2516:3.2722754 2517:4.1384034 2519:3.5252249 2524:5.1578369 2526:1.0473548 2531:1.0207715 2543:3.4633644 2545:8.2063026 2551:1.0143819 2554:0.21335492 2568:10.571691 2572:9.5598488 2574:0.45343196 2576:2.0314503 2591:1.0842986 2604:8.5515423 2613:4.2928863 2619:1.7469783 2631:1.2624177 2649:0.92808086 2657:6.4012365 2670:3.1547287 2675:0.7332378 2680:3.2660575 2681:2.1751122 2685:2.9400268 2691:2.967212 2706:1.232861 2709:3.9674361 2721:3.4424145 2725:1.4373569 2742:0.6008473 2743:0.44089425 2744:0.070075899 2747:4.2686877 2749:0.49810544 2753:4.6456304 2754:10.264568 2767:6.5795293 2777:0.4785322 2779:2.2158513 2788:3.5077193 2794:2.5411193 2808:1.0474253 2815:9.7935696 2824:1.2909549 2841:6.0253663 2844:2.2655163 2865:1.5792565 2871:0.1606034 2874:3.1353979 2886:3.5129471 2887:0.11569118 2890:5.9721713 2901:3.5706573 2913:2.106636 2926:4.3204699 2928:1.6466926 2946:1.9841415 2957:2.7845819 2969:1.780443 2970:4.3788371 2971:0.50167233 2979:0.48078996 2983:8.9669228 2986:1.1186637 2990:2.3899524 2995:9.3911886 3008:1.9992958 3009:0.78454077 3011:0.91252375 3020:1.7877808 3022:5.0303354 3028:0.10994189 3030:0.65053171 3032:0.19464651 3048:0.76331806 3059:2.3459537 3075:0.67548865 3079:6.2493448 3082:10.342705 3085:6.6253753 3102:1.3496474 3108:3.3332961 3109:4.4539256 3119:2.9298077 3130:0.8088156 3140:5.0716076 3141:10.15176 3142:1.6708555 3143:1.1685083 3159:2.3801885 3167:3.337595 3169:0.54045689 3177:5.8553538 3180:5.3629923 3183:4.1460042 3185:3.855655 3189:1.3812565 3192:4.7224779 3202:0.61695331 3203:1.3646454 3213:5.9141531 3215:1.9469072 3228:1.18696 3235:1.0292122 3237:0.38254601 3239:8.5988359 3240:0.15770599 3244:0.14639506 3256:1.4806445 3262:0.60429454 3264:2.0099752 3269:0.90678936 3276:5.184072 3283:0.079967618 3284:0.25886971 3286:5.6576695 3289:0.69487095 3300:5.1807866 3307:0.92004031 3309:5.4646773 3316:1.475814 3321:4.3409195 3322:0.044069022 3324:7.1523952 3327:0.03448689 3332:2.6935987 3364:3.4276569 3382:0.36277014 3387:2.9648821 3391:1.6952928 3392:3.1290748 3394:4.7266626 3395:1.7260569 3427:2.0163851 3432:0.023129061 3439:1.5538346 3457:2.6848598 3475:0.53519374 3476:2.5471356 3480:4.9644341 3481:1.5534985 3487:4.2089796 3497:4.5578971 3505:0.26314133 3517:1.0555227 3529:3.3051341 3530:0.59058678 3539:6.1981115 3540:8.9561329 3544:2.1557994 3571:0.39571583 3576:4.5832682 3581:8.3918543 3585:2.9002254 3605:3.2287068 3606:2.1576459 3611:2.8326523 3615:4.7528162 3618:2.3676906 3626:5.2431111 3629:0.98705888 3635:3.0488689 3637:7.0010753 3639:3.0717623 3640:0.096840203 3659:2.1544893 3675:5.7056026 3681:1.8905545 3690:0.52325153 3696:1.4555779 3720:4.2096791 3722:1.4991585 3730:2.6852238 3731:1.1194034 3738:0.75417626 3742:5.0225582 3748:0.8072204 3752:1.8980094 3760:5.5655451 3763:3.6264536 3771:0.90449691 3776:1.9199427 3778:0.77364707 3791:1.5163176 3797:0.43400264 3803:0.018250197 3821:8.3646479 3831:2.5332046 3832:4.4999814 3843:2.1051769 3848:1.1394713 3850:5.3222704 3856:6.6150804 3865:6.2798576 3887:5.7809567 3889:4.5549393 3894:3.5374756 3905:2.5338771 3911:0.29602054 3914:0.75632197 3919:0.42558378 3926:5.8081026 3932:0.75774878 3937:3.0604141 3946:4.6944523 3949:3.8794978 3956:6.0978689 3958:1.9638139 3960:0.3593297 3973:0.16537961 3982:3.7358303 3983:1.304417 3985:6.718749 3986:1.3369159 3997:3.0545812 3999:2.5414073 4002:0.049714103 4012:2.3928742 4014:1.0206515 4015:0.7563321 4016:9.7225533 4025:8.2916889 4038:2.837193 4040:1.8905755 4043:3.692646 4045:0.059903502 4047:3.756376 4049:5.936666 4051:0.72087371 4054:1.6419576 4056:1.0491624 4063:0.18590596 4077:3.0106716 4082:0.65861899 4083:0.40326667 4093:3.1701496 
0.1264119324738028 30:2.5458295 38:1.5838311 65:9.1520329 91:9.2855883 93:1.4857962 96:0.22054633 101:1.9793336 102:3.5668352 115:4.9431291 119:2.9706254 123:0.76644361 129:2.2202992 131:1.0570152 133:6.41921 135:0.20780942 143:6.6104522 146:6.9781818 153:1.1758316 162:2.8456092 167:1.7562528 174:6.8276491 179:3.0407259 186:2.1175385 194:1.2754036 196:1.3269227 198:1.7333921 211:0.30723909 224:3.1193128 225:0.65164852 228:4.4757171 229:3.1154051 232:2.2075102 242:2.0634322 247:3.1748536 248:6.7847514 255:6.3349133 260:4.7456431 266:2.881907 270:1.5770732 272:0.58004206 284:1.1123229 285:4.1289597 289:7.619493 292:2.674624 316:2.6225276 318:0.71295381 327:7.3286757 339:9.1380281 344:3.283947 367:0.39479929 384:4.9369216 406:2.202002 410:3.0929849 418:9.2069769 426:0.64783752 431:3.2558789 435:1.3590599 439:8.4667463 444:1.657539 445:3.769299 452:0.69506311 476:1.0758857 491:4.0071959 494:1.3565681 495:3.0058012 504:1.5981445 506:1.1899943 515:4.9176245 526:0.2940906 530:1.5524714 535:2.0602493 551:3.820986 553:1.9375641 556:0.61324632 564:2.1259451 569:1.4674575 585:3.3272243 590:4.9942045 591:2.4472022 592:2.1314471 599:0.57387531 603:4.1935024 606:1.0069883 615:0.0078133941 631:1.8737912 636:1.6159003 639:0.35770866 647:2.4838905 654:2.1279659 657:4.2435803 660:1.8270271 674:3.6103041 680:1.160512 687:0.99842298 696:8.1638355 704:2.4388354 707:8.4997892 711:1.2616582 732:1.2510984 734:0.34900951 738:0.2638382 744:4.258369 748:7.8017335 755:5.239542 760:0.78626096 766:0.93982148 769:2.302032 771:2.4644487 773:2.1988876 780:0.47221243 803:0.50876755 807:0.85723484 808:0.27019852 818:0.5602448 820:1.8217708 827:0.69012696 828:10.095661 848:0.97001052 872:4.9427414 880:14.08031 886:3.4809258 889:0.27742517 900:3.9385805 920:1.0701625 932:1.0542363 957:3.111984 962:5.6728911 971:1.636741 975:0.35470003 977:3.951225 979:0.49274302 989:1.6899359 998:1.2755742 1005:2.1938448 1006:3.8017423 1011:0.4492262 1014:4.5181885 1047:4.0353165 1049:0.23064387 1054:0.33168566 1065:10.993546 1072:0.057994187 1081:11.83845 1089:1.3315947 1133:0.38510901 1138:0.30350435 1139:0.42620304 1148:1.7181642 1152:0.45078823 1164:3.018873 1167:8.6263046 1183:1.4104887 1187:12.857642 1190:2.1796298 1200:12.84252 1204:2.7035058 1206:1.5269892 1210:7.1140661 1231:0.36410344 1234:1.0251803 1238:2.1087658 1247:6.3922391 1254:7.7218766 1264:0.034409165 1277:3.5529387 1284:3.1536365 1289:4.782505 1305:2.6857755 1307:0.74167824 1333:3.4840667 1335:0.2992357 1342:0.95338428 1344:0.60358673 1346:5.5313921 1360:8.9801607 1376:0.025311038 1378:2.5562193 1382:2.5679102 1402:0.5677402 1403:0.57808006 1408:0.11466545 1414:10.207258 1430:1.3288982 1437:0.79454732 1439:5.3038545 1447:6.8719811 1451:3.1703355 1453:0.4071382 1459:5.8963885 1461:12.559598 1472:2.4656498 1474:2.9092491 1476:5.0522094 1481:5.6670222 1498:1.8080447 1504:0.13262661 1508:0.17661622 1519:1.4221065 1531:1.8858333 1537:2.5109553 1538:1.6873151 1545:7.4001679 1555:5.1105442 1557:0.35807377 1560:0.18961929 1565:1.4604011 1577:0.13789558 1579:0.22830506 1585:2.3815939 1592:6.4082766 1593:4.615417 1602:1.0263011 1607:8.4806509 1610:0.10951549 1612:3.8057446 1614:3.5496049 1616:2.0561192 1621:0.12160021 1623:0.63827533 1627:1.5786161 1631:4.1178346 1643:1.2141057 1644:1.5846068 1651:2.9449377 1661:2.2239611 1668:1.8967031 1671:3.1380146 1681:9.2904196 1683:6.1127324 1703:0.34165552 1706:0.63996422 1709:1.3369145 1711:0.8455646 1717:6.1683517 1719:2.5629411 1722:9.6297541 1729:5.9035072 1730:4.7235689 1733:3.2277591 1734:7.3021421 1741:6.9599795 1746:0.80854374 1752:1.8465732 1754:4.3847876 1761:3.9754493 1782:2.2982714 1789:2.1751142 1792:0.023193151 1805:1.0142779 1813:4.1437225 1815:11.842292 1822:1.1598238 1843:2.7514625 1844:4.4528818 1848:0.2710506 1854:12.399896 1864:0.85539079 1879:5.6530709 1880:3.7456262 1888:3.5314531 1905:1.8821372 1914:6.6978588 1921:1.8947748 1930:2.0558343 1936:7.3059134 1943:6.0552249 1946:0.71603519 1960:5.5159073 1967:0.22394131 1976:1.7964119 1979:5.2650585 1981:2.2391841 1990:5.6799836 1999:1.5595435 2015:2.8304901 2016:5.2857981 2018:1.4882804 2021:1.4553583 2036:0.15002663 2043:2.4770486 2044:0.25060445 2053:2.9128373 2058:0.28460324 2068:1.3033646 2071:3.4674826 2085:8.3423948 2091:6.3379998 2099:3.168263 2101:3.9663143 2103:3.7034116 2106:4.8814836 2116:2.8108883 2117:0.49183118 2119:3.7087603 2123:0.047440123 2147:1.6349875 2156:2.2337482 2160:0.68345416 2170:0.71807945 2184:4.3212128 2190:9.0358286 2195:0.87352186 2207:1.1425278 2209:3.7449057 2211:5.2071767 2213:1.7433915 2217:1.5686468 2222:4.6863456 2239:0.18319882 2241:0.90452325 2242:0.48740661 2256:0.031314731 2259:0.24239531 2271:0.75326377 2274:1.023343 2280:0.47690505 2292:0.50553775 2295:0.088845909 2304:4.0916848 2309:0.72921753 2314:0.42772073 2315:0.83663857 2321:2.900979 2336:11.457374 2338:1.4028274 2343:1.0874088 2344:2.3167827 2345:8.9833736 2351:8.4966898 2352:8.7008324 2359:0.78620028 2376:0.50898671 2379:0.66344368 2382:0.41073322 2383:3.9276323 2387:1.0814499 2392:3.4231188 2399:1.8549331 2408:4.4572525 2414:6.2301216 2430:0.52242744 2434:7.6756768 2440:1.3073267 2453:2.8522022 2456:5.9265156 2465:3.0611682 2466:1.0861968 2470:1.2699567 2475:0.11694304 2486:5.5849514 2487:3.2198067 2489:0.82248586 2495:8.7401962 2498:6.3377566 2505:1.7001951 2516:4.2936726 2517:3.3367925 2519:1.2761734 2524:3.0972226 2526:1.5069714 2531:1.9131958 2543:4.5267239 2545:12.221546 2551:0.317269 2554:1.38796 2558:2.3575962 2568:11.184726 2572:6.6905704 2576:0.62202609 2604:3.3015068 2613:4.5868387 2624:0.24179095 2649:0.15707326 2668:0.69641638 2670:0.98874259 2673:3.6269836 2675:2.9298916 2680:0.90631586 2681:3.856529 2685:5.2217426 2691:8.4726458 2709:3.7827206 2711:0.77968949 2721:0.50096893 2728:3.6336796 2742:0.29075512 2747:2.1557117 2752:0.11982889 2753:2.6312447 2754:16.100136 2767:2.8146105 2769:0.020676106 2784:1.8749546 2788:1.2252287 2806:2.5927539 2808:3.7349982 2815:5.4522285 2824:4.7935925 2841:1.3140297 2848:1.3803213 2851:1.6402156 2874:1.5001104 2883:0.46461365 2886:2.8480549 2887:0.030553967 2890:7.3576412 2913:2.0445521 2926:2.5676785 2928:1.7859181 2969:8.480175 2970:0.45124897 2971:2.6977715 2983:8.3300571 2990:0.28993654 2995:5.854773 3022:9.1373014 3028:1.0812718 3030:1.4521316 3048:0.019521721 3054:1.8794336 3055:1.3122305 3059:0.069637418 3063:0.0053201914 3070:2.2280505 3075:2.6122162 3078:3.6815422 3079:4.4535732 3082:9.5900812 3085:2.5578291 3102:2.7394786 3108:6.4285851 3109:2.8740017 3119:5.0204601 3140:4.9856987 3141:4.0228438 3142:2.5302961 3143:0.73497313 3159:2.1516547 3167:3.3895035 3172:2.6596229 3177:7.8896012 3180:8.4349823 3181:0.0056498349 3183:2.9990242 3185:1.9520917 3192:1.1571214 3213:4.7398109 3239:7.5058289 3244:3.0226302 3246:1.9240305 3256:1.7184944 3264:6.7320042 3265:0.25693628 3268:1.728796 3276:3.4349065 3284:0.56733811 3286:4.4043169 3288:2.7132258 3300:1.7000535 3307:0.77322102 3309:7.1228681 3316:0.41657519 3321:0.072533578 3324:3.4390478 3343:2.0427828 3382:0.45290235 3387:4.0887766 3390:1.3021684 3394:5.1833858 3432:0.94208014 3439:0.36484945 3457:0.99285579 3476:0.36996377 3480:4.1745076 3481:3.4797735 3487:4.7414885 3497:0.15414372 3502:0.11153042 3539:2.2341516 3540:3.2659245 3544:3.7333043 3548:0.32100996 3551:0.45586157 3571:0.26995152 3581:8.2199974 3582:0.17337334 3605:2.6636121 3611:6.4285731 3615:2.035188 3618:2.1300807 3626:6.7139668 3633:0.036386579 3635:2.3690908 3637:0.69745219 3659:5.3352966 3675:2.4992576 3690:0.86063969 3696:4.2752953 3722:0.61091793 3729:0.66005707 3731:0.0083811283 3742:1.9981313 3746:0.82130468 3748:2.3401489 3752:1.3966602 3760:3.9284401 3763:6.7541165 3778:0.55811918 3803:2.0932393 3821:8.0698156 3829:0.59305233 3832:4.00175 3833:0.91278148 3838:0.7187047 3839:5.8534594 3843:1.5574286 3848:3.1827531 3850:6.525106 3856:6.3109789 3865:11.027611 3887:3.3622067 3889:5.1842918 3894:1.697506 3912:0.82164407 3922:0.23867968 3926:3.4067767 3934:1.5864301 3937:3.6055233 3946:6.8548212 3949:3.7395663 3955:0.46236348 3956:2.5442243 3958:4.0466676 3959:0.82703632 3967:2.0275159 3982:3.9464557 3983:0.65798676 3985:7.7432837 3986:0.055441424 3997:6.5696044 3999:6.6003227 4014:3.1745057 4016:6.5010014 4018:1.0312371 4025:9.7870693 4028:4.5004096 4030:0.5512948 4038:2.8433833 4040:2.0009203 4043:1.4158552 4049:0.92244095 4054:1.6686368 4063:3.5138855 4077:4.7031612 4082:0.75059396 
0.3195155603041411 19:1.8452585 30:0.91909647 39:0.44214314 48:0.41559312 49:4.3773694 65:4.374177 80:0.47064748 91:1.9667034 100:1.7307966 101:0.99088466 106:0.24591355 119:3.7295294 128:1.5277267 131:0.7055223 133:7.9356232 143:1.224473 146:2.4224927 153:2.0129852 157:1.1707389 159:0.11384638 168:2.2207563 174:7.1152668 196:0.13027108 197:4.0016389 207:3.313587 210:0.94100028 216:2.1150227 217:2.6893494 234:0.34755602 235:0.19630009 244:3.8570092 255:0.92610526 258:1.7230165 266:3.7146599 270:0.56035662 273:0.77688092 274:5.6991901 289:5.758163 303:3.4237211 306:0.36458278 316:2.3253288 327:2.2263024 335:3.7429869 346:2.7657175 359:1.744652 364:2.3088238 371:0.028568685 381:4.5522966 384:4.5075793 399:0.25729659 403:0.1298621 405:0.61404753 413:1.511333 418:1.8713281 423:0.30646852 428:0.9007538 431:5.6017423 439:0.11811179 444:1.0809337 466:1.0608946 476:1.4940743 504:1.3696082 512:2.5762639 513:3.2719138 521:1.8415065 524:6.3350224 528:0.35557523 530:5.4222403 534:1.2311943 537:1.9691703 545:1.9429611 546:4.1853142 548:11.092679 549:0.10805467 559:8.5116577 562:0.34225285 563:10.365366 564:0.65925419 580:0.37717766 591:0.21824887 599:0.47604287 602:3.8707001 606:0.77921396 614:0.006213069 635:1.3962233 638:4.0125127 647:1.8443482 657:3.2239306 661:1.4130644 670:3.3291225 674:0.79931593 677:0.63066089 687:4.7692914 700:3.1560755 704:2.4700081 711:1.7603142 716:3.0496657 728:1.4812667 733:0.48784435 736:1.9540286 738:2.8952813 741:3.7428758 750:1.0329258 755:2.6150746 764:2.8583326 771:0.99046576 772:4.0209641 780:4.8522263 785:1.6044942 816:0.10430893 818:4.3578887 819:4.0538216 824:2.1631994 848:2.7999544 857:3.3288319 858:0.17280141 877:0.20782614 880:6.7033062 886:2.0029533 894:8.1010113 903:0.70428079 908:4.6584935 910:0.22417402 922:1.3635066 925:0.29491681 931:3.7702279 932:5.4780841 934:0.88512772 943:0.30424589 945:1.5544045 957:0.75056314 963:0.10992422 974:0.34484702 996:0.64278758 1011:1.5884893 1032:1.5090988 1047:5.9979787 1050:2.7411375 1057:1.5331804 1065:1.1217542 1083:1.9799565 1085:1.7595469 1096:3.4896817 1106:1.1899934 1126:0.43958548 1135:1.3957051 1142:1.1975877 1143:0.094622463 1150:4.5909152 1162:0.41574812 1167:6.6517467 1183:0.7900213 1187:11.161097 1200:12.157468 1201:5.7945857 1202:0.79202145 1205:4.2398973 1211:1.657897 1219:0.41696036 1241:6.3198762 1247:0.32622799 1258:1.7169069 1272:5.1975193 1297:0.71104789 1304:3.2079556 1308:3.0788813 1313:0.81542856 1324:2.0051775 1333:0.7449851 1341:1.8502203 1342:0.7714904 1348:0.025953099 1360:2.7692773 1364:0.75626266 1372:1.2891146 1376:0.74698865 1392:4.2460494 1402:1.2097111 1403:4.8959823 1409:2.3539715 1414:2.5282023 1421:0.16062585 1422:2.5995004 1430:2.5258911 1451:6.0069733 1459:6.116076 1461:1.5948311 1464:0.24941584 1466:0.37783507 1472:4.6273069 1474:3.4665229 1481:0.076140821 1537:0.4364953 1544:2.6442745 1550:3.455096 1554:7.2542882 1560:1.0946745 1569:2.6039751 1579:2.1733601 1585:6.3541999 1592:1.804547 1603:2.1544025 1607:5.6917663 1610:2.2191155 1612:0.93059385 1616:0.56148171 1627:1.1865283 1630:0.37376335 1631:7.0943117 1636:1.5140259 1681:6.219594 1683:2.4165161 1707:1.8155775 1708:1.2373525 1715:0.47442919 1720:1.4148945 1722:0.78820449 1730:1.6210294 1734:9.3646975 1738:3.4472995 1739:2.5365686 1741:0.54597783 1751:2.6232822 1752:1.3202121 1761:2.4146385 1763:0.1230136 1766:0.74063903 1782:1.939003 1804:0.48211649 1813:4.9924264 1815:7.4731622 1829:2.5773501 1836:0.038482547 1844:2.3424778 1852:0.38822538 1854:3.2503471 1864:1.3479074 1880:0.24489406 1881:0.29263148 1892:3.8355594 1899:1.1902251 1905:6.1236148 1921:6.551609 1930:0.5007692 1938:0.7791872 1943:4.4611635 1946:0.92183316 1974:3.0218635 1980:0.43688527 1981:0.44194162 1987:1.4730139 1990:7.3584452 2015:0.81362319 2018:2.736212 2022:2.4029269 2026:0.24567789 2043:1.2918227 2044:2.2295485 2056:0.22533514 2060:0.90863913 2065:6.5873909 2071:5.2955017 2078:2.4891491 2085:2.1938109 2091:4.7837691 2093:0.84098113 2094:2.7987571 2101:0.24141276 2103:3.0964422 2116:0.99408549 2137:0.60167587 2141:0.45011118 2162:0.36835396 2168:1.2360119 2170:3.8237844 2178:2.0700526 2184:3.6580427 2189:1.6791089 2190:2.6542392 2195:1.8205566 2207:1.0760522 2209:5.409153 2211:6.2072649 2221:0.033885419 2222:0.92104709 2223:3.790035 2225:1.272082 2236:0.52014136 2238:0.45302683 2241:2.7899649 2242:4.955358 2243:0.74022174 2254:1.7746137 2262:2.7868659 2271:6.7828183 2283:1.6247905 2290:1.9692856 2292:3.0153832 2304:3.3232069 2311:2.0795021 2315:5.123929 2318:0.17535734 2322:2.6562221 2343:4.5416245 2345:1.6199902 2351:0.31417221 2352:9.4688206 2356:2.348186 2359:5.0324841 2376:6.6167469 2393:3.6859231 2396:3.1608601 2414:9.4007473 2419:1.6240215 2439:0.4749516 2440:3.7781534 2444:0.91751897 2456:0.0023191571 2467:1.5866352 2486:1.0737171 2487:1.9435148 2488:0.6864332 2494:0.38376275 2495:0.34307158 2502:2.1830745 2505:1.4475465 2517:2.3607299 2520:0.23043111 2521:1.4711534 2531:1.3727311 2542:2.5365622 2545:0.49365145 2558:5.9455237 2559:2.9271388 2568:7.4788585 2574:2.7936506 2604:5.6387739 2613:7.5089025 2619:1.1673671 2627:2.4916925 2628:1.3848194 2629:2.1032622 2642:0.24103856 2648:4.3744678 2649:0.24586973 2657:1.7592323 2667:4.8582325 2670:3.555171 2681:0.39383325 2691:3.8881164 2696:4.9021282 2706:3.4872017 2711:0.90914565 2727:4.776403 2728:6.6043758 2734:0.058662727 2737:0.10198331 2743:2.4968047 2744:0.56477368 2754:4.0689287 2759:0.54401445 2767:2.7325518 2777:4.9554424 2779:4.9041214 2784:0.14354701 2814:4.4307704 2815:2.3926876 2816:2.0326176 2827:1.1244111 2841:1.4836012 2851:1.5036262 2855:0.6826297 2874:2.043438 2884:0.047169417 2890:3.3065457 2892:1.9188937 2893:2.3806779 2898:0.39894468 2905:0.19870462 2913:5.2859149 2954:1.0643051 2964:5.7999063 2971:4.7775831 2983:6.4590654 2994:2.6241734 2995:1.8652716 3018:1.0761734 3022:9.8985004 3024:0.794716 3028:1.7943907 3039:1.1509478 3043:0.11144722 3049:2.1910954 3055:1.3577666 3059:3.4440718 3061:0.7756412 3065:0.18912666 3066:2.8398268 3068:6.3074021 3075:2.8893065 3079:2.2872748 3085:2.274776 3088:0.82638967 3090:0.11417022 3105:0.093395121 3109:1.5563545 3119:1.4964947 3123:0.42477065 3138:1.8648055 3143:2.9880235 3158:4.5757647 3177:2.621299 3180:2.4171429 3183:10.19555 3204:1.7623214 3212:0.52055252 3213:2.150454 3221:4.0779591 3222:3.0126958 3250:5.02144 3252:7.9752102 3265:3.7154963 3266:0.085718513 3285:3.1046984 3286:2.4119363 3287:0.16997033 3294:5.0561199 3299:0.37396693 3300:1.3519249 3324:0.58224523 3327:3.2937469 3328:0.020588875 3342:0.45592335 3351:2.1312888 3361:0.50312579 3366:9.1181526 3368:0.49035242 3382:8.554265 3387:1.5269916 3391:0.50679505 3414:0.6457988 3445:0.38548133 3452:0.085156873 3472:1.3227984 3480:7.1910434 3481:1.8029969 3511:2.357404 3536:0.32662073 3539:3.2769587 3544:4.2284479 3550:1.6835951 3551:3.4533019 3557:0.084795579 3562:0.78039396 3563:0.95851135 3578:1.2301321 3581:1.8715407 3588:0.34323865 3606:0.38002467 3609:4.9216123 3611:4.8388128 3629:0.11041108 3632:1.4801338 3633:1.8029687 3635:3.8267927 3637:1.3008748 3641:0.87316853 3650:4.4949832 3659:5.0766134 3660:1.2732338 3675:6.0384173 3685:3.0049448 3689:1.9134164 3690:0.046274006 3695:2.276207 3696:1.4525456 3712:1.3896805 3713:0.30083361 3714:1.6719978 3715:0.19456151 3732:0.7888037 3746:0.69478971 3748:5.1883612 3752:0.35542518 3760:3.6612015 3774:0.12199008 3778:0.11695263 3785:3.0332978 3804:0.77757931 3810:0.12531763 3821:0.22216676 3826:4.4813576 3837:0.31040472 3839:2.424881 3844:0.3499772 3858:4.6075411 3865:4.0284395 3870:3.2107463 3872:0.88233864 3875:1.646374 3878:2.968636 3879:2.3872418 3880:1.1715181 3881:0.88363862 3883:3.4455657 3889:0.37149996 3897:3.5418122 3905:1.2519412 3916:1.1383626 3917:1.3817773 3929:4.4096293 3932:5.5989852 3934:5.6984158 3937:1.6118717 3949:1.4166967 3958:0.51263976 3960:0.58672267 3967:1.9613619 3972:2.6573169 3977:2.5154114 3982:0.35723555 3986:0.27721703 3993:1.9283499 3997:1.3959585 4014:4.69941 4018:0.68106669 4019:3.6996071 4025:10.81167 4028:4.1245832 4036:5.8751945 4038:1.733204 4043:0.53706944 4049:2.6054027 4053:0.35799694 4054:0.9135015 4056:1.9809537 4077:3.3796139 4080:6.1253982 4083:2.2637687 4091:1.6647404 
0.1428887654487987 1:0.55037916 2:0.49085888 5:2.132232 19:0.094957113 25:1.2515981 26:4.6075153 30:4.033298 36:1.7924417 38:0.58310127 53:0.65420079 55:0.86613023 65:4.0570092 67:1.5425818 89:0.24679115 90:0.36459965 91:0.80932063 100:3.529587 111:3.7555008 119:3.2379019 131:0.2568315 133:0.26050046 134:0.7463212 143:0.79862988 144:5.9502416 146:2.7302907 149:0.76824176 151:5.7006764 153:0.36996725 154:0.56542796 157:3.002285 177:2.2045755 183:1.4051565 193:0.71491182 197:3.9962704 201:1.6621499 207:1.7920324 211:6.4048605 226:4.1154122 234:2.2703488 247:1.0746053 256:0.33366942 270:4.3501844 272:10.291213 273:13.946366 274:1.4456046 279:0.55829966 284:0.83956438 291:0.67434293 296:1.4678121 298:0.64156783 303:3.335397 304:5.2188087 306:0.45346072 316:0.18055892 320:4.2845964 322:0.19695613 335:0.34835821 343:5.3669949 368:3.949517 372:1.0941653 373:1.6091233 381:3.7728245 384:2.8007455 389:2.2130513 405:7.4385767 406:0.14521265 418:1.3354275 428:2.0211432 431:1.4532474 433:1.6797774 448:0.10748681 457:1.9057958 458:1.1411659 471:0.30740386 477:0.61314642 480:5.9405336 482:3.7548349 483:2.0548656 484:0.82565963 487:2.1125553 497:4.3091183 506:2.349416 508:2.2523792 513:10.445933 528:8.6791687 530:0.22170424 534:3.0636537 537:2.6305878 543:3.9357512 546:4.3426061 548:0.03928411 549:1.6996778 550:1.5268021 551:1.858513 556:1.5411928 559:0.71284866 563:3.6663079 564:2.6171498 585:0.34793195 588:0.60771191 591:0.26087895 602:3.2756083 606:0.86577713 647:1.0267074 652:3.137862 654:0.68088245 655:2.5861964 663:1.4679117 664:2.7366409 670:3.326335 674:1.4815695 685:4.0354204 689:2.1711473 700:3.5482237 701:0.068149053 704:1.2203491 719:0.81397235 733:0.21782035 738:2.0053401 741:8.4072914 743:3.5297782 745:3.8575389 752:0.35365218 756:1.2226828 763:0.73672849 770:3.5274019 771:0.29857993 772:1.4729291 780:4.4787159 796:2.6192024 797:0.53059965 814:0.22069845 815:0.61836571 818:0.86143219 819:3.7404206 827:3.5532119 840:3.1719644 844:3.9839118 845:0.13571793 852:1.7039034 863:1.8090239 870:1.1538324 877:5.1150732 880:4.6691971 886:1.7871243 894:0.19325699 900:3.7721794 931:1.1154135 932:3.7160714 934:4.5575652 948:0.068346217 963:2.7574229 964:2.5816274 974:0.74201918 984:5.1701403 1000:0.40951011 1025:0.052693725 1032:4.639245 1044:3.0504837 1046:1.207875 1047:4.7077203 1050:0.96191555 1054:1.3508475 1061:0.59404606 1066:1.2811217 1072:0.28633484 1081:3.5697622 1083:1.5983943 1089:1.9016939 1090:0.0019997954 1093:0.16616051 1096:1.272018 1103:1.8591162 1104:2.0888638 1106:1.3592547 1114:0.60686749 1135:2.4574115 1142:2.373533 1143:3.9903138 1152:2.5834477 1167:0.61932027 1172:10.54707 1183:4.5890722 1189:6.4963183 1190:2.0170035 1194:8.6636209 1200:6.6237631 1202:3.6980698 1205:1.5094701 1207:5.8317871 1210:9.2985201 1224:0.66463333 1230:1.2798636 1238:2.6305761 1241:3.827734 1247:4.2958398 1248:1.0823476 1272:2.2668021 1277:2.5096977 1280:2.8844252 1284:1.1708517 1286:0.19496262 1289:2.4918337 1302:1.6581379 1305:3.2316518 1307:2.5762043 1308:1.2662261 1309:0.41403234 1316:2.2083216 1343:1.7951818 1344:2.9233353 1348:1.3595864 1355:0.26220274 1360:3.0464664 1364:1.6659998 1368:1.7283199 1370:0.80344224 1376:2.5366793 1380:0.91498142 1387:0.88931769 1395:4.6296592 1403:11.995542 1414:0.9412474 1415:1.4430807 1420:1.8819888 1421:1.5327485 1422:0.62772107 1436:1.3431983 1446:7.3679986 1451:1.801131 1459:2.2443647 1461:2.0799189 1464:5.1868134 1466:0.31885529 1475:0.89722943 1481:4.4161668 1500:0.82417476 1501:0.95483738 1506:5.3102832 1507:0.075348318 1516:2.3608751 1521:0.79756093 1547:0.56304586 1550:1.2809162 1555:2.1572816 1563:1.2354538 1579:6.8401999 1583:6.1569166 1584:2.3692935 1585:1.4719732 1592:4.3788958 1593:1.9645879 1595:3.1753697 1603:3.2121947 1607:6.6140819 1614:0.42399117 1616:2.6832368 1621:2.7049174 1630:1.8487358 1631:6.5025373 1646:2.8590271 1660:3.807503 1666:1.7570544 1669:4.9436035 1671:3.3079624 1681:5.55896 1685:1.0576447 1686:3.4497049 1687:0.1715022 1689:0.57260263 1692:0.028960049 1696:0.19598457 1707:9.9559221 1719:0.7616182 1722:6.902328 1734:5.280736 1739:1.0359259 1751:1.1286629 1761:0.4483 1764:0.049975291 1770:0.74027729 1773:3.8621216 1815:4.3568492 1821:2.6247709 1829:1.010571 1830:1.2037077 1834:6.3193545 1840:8.1767435 1848:2.6155014 1851:0.059340686 1852:0.49320245 1853:0.71318185 1854:2.2597332 1869:0.040213019 1879:1.7575043 1881:5.6563926 1885:2.0826757 1888:1.4534879 1892:0.61231178 1899:1.3835957 1903:0.14596778 1905:0.52069801 1914:0.40946022 1916:2.6773362 1917:2.1241248 1919:5.5565214 1920:0.20010892 1921:2.4994688 1930:0.55021155 1934:2.6199036 1938:0.089486241 1943:1.3369687 1947:0.39571434 1958:1.4131951 1959:1.0841541 1960:0.48150027 1971:6.0473123 1973:2.6333563 1979:2.3802326 1981:1.049307 1982:2.9636388 1990:3.7794764 2003:3.2944942 2008:2.3047183 2013:1.2384593 2015:1.6336309 2016:3.650064 2018:2.3502257 2044:4.1111698 2053:4.529583 2063:0.753227 2071:8.465662 2085:1.0162524 2091:1.8155026 2092:2.9001863 2093:3.0621183 2103:3.0323417 2121:0.53293681 2123:1.0311675 2136:3.4961257 2138:1.1837542 2140:7.6293454 2141:0.64105666 2148:1.2929803 2157:1.7872143 2167:2.2995887 2170:0.56639826 2172:0.451112 2174:1.7369865 2178:2.5447898 2181:3.2337625 2207:1.5731503 2209:2.6096833 2211:1.3961756 2212:0.18117034 2213:4.347909 2225:3.3786263 2234:2.2041481 2241:3.6313901 2242:2.5098436 2249:4.9400921 2250:2.5856712 2257:0.73743284 2259:2.4285223 2262:4.5949426 2274:4.4161839 2280:2.7809854 2282:0.1973055 2292:4.0943565 2293:1.8434267 2296:2.3353214 2300:0.54346776 2304:2.1859548 2315:0.048225164 2339:0.47386521 2345:0.77482796 2348:6.403522 2351:7.5376034 2352:5.6953917 2359:1.0788839 2368:0.44542092 2381:0.636621 2385:3.380151 2387:2.6572645 2392:0.95528078 2396:4.4360137 2406:2.0085089 2408:0.77284765 2414:5.2866964 2440:0.4093554 2441:3.1027415 2444:0.99752504 2448:1.8797759 2450:3.8626115 2456:6.1766138 2465:3.5497577 2466:0.46556073 2469:0.24362631 2472:1.4027479 2487:1.2328745 2488:3.4512379 2495:2.3310666 2499:0.0083930492 2501:0.71837735 2502:0.16146761 2505:3.7491724 2521:2.7592528 2522:0.76334643 2524:0.81849676 2531:2.0274475 2542:5.95754 2548:4.7552266 2553:2.4272583 2559:1.8990958 2560:2.8782384 2564:0.1778439 2568:10.821458 2573:5.0681129 2585:2.6041288 2596:2.7045949 2597:1.4231962 2603:2.362637 2606:0.60724252 2607:0.11094441 2608:3.4792221 2609:3.3367841 2613:1.5023665 2616:0.014291108 2618:5.9423056 2619:0.64368141 2624:0.6582182 2627:1.2686334 2629:3.5864422 2632:0.52348304 2635:1.3947848 2643:1.1978543 2648:1.3498362 2665:2.2081783 2667:0.77979195 2670:2.4564581 2673:0.24751458 2678:0.024959907 2681:4.9999542 2685:3.6435521 2691:11.842675 2693:3.1608164 2696:4.9428182 2700:3.390908 2712:0.41532362 2717:1.4118595 2734:1.5380374 2737:4.1006589 2739:6.3080297 2754:1.1831322 2759:2.5383434 2767:6.467804 2769:2.5764551 2776:2.8207607 2784:1.7169602 2797:3.1590517 2801:1.6304905 2804:0.7096945 2806:4.8707547 2808:2.3380079 2810:0.095702939 2818:1.2441517 2822:3.1519027 2827:4.4205313 2846:1.8067561 2848:3.8794422 2855:2.5115271 2861:0.42229819 2871:2.291939 2877:1.7974695 2883:1.2144684 2885:1.7733033 2889:0.1413146 2890:6.1321216 2892:6.147696 2910:0.48989815 2913:0.19557588 2919:1.5358005 2923:4.438242 2925:1.3394201 2927:1.8218437 2939:1.2433641 2942:3.0542207 2956:1.1175777 2969:5.0359597 2971:2.4871948 2972:1.0090435 2983:6.6522279 2995:1.0239584 3004:1.3387022 3007:1.7478874 3012:0.52139127 3014:0.90854502 3017:2.2076712 3022:5.0950189 3024:0.90560579 3026:4.988308 3029:0.52532607 3035:2.5712285 3037:0.16706002 3039:5.3427477 3046:0.30136338 3049:0.14321449 3054:3.7704318 3055:6.5813265 3061:5.5670214 3063:0.76838249 3064:3.2847548 3066:6.4549251 3068:1.7246277 3069:2.2426908 3075:0.025522515 3088:0.63319457 3102:2.9599144 3103:4.6346579 3106:0.70169014 3108:2.0322425 3109:2.2643185 3136:1.8466494 3138:3.4343162 3158:4.012022 3172:1.4538487 3177:1.9616578 3178:1.1332386 3185:1.834396 3190:0.18168525 3204:7.0273218 3210:0.49055609 3212:5.5068054 3213:2.6571 3227:4.164084 3229:3.6118715 3241:0.75411707 3244:1.2868247 3246:0.16650744 3250:1.8918678 3251:0.11993644 3252:0.87524295 3263:3.0853083 3264:4.6271715 3266:3.7602532 3274:0.7341103 3279:1.7020353 3288:4.635004 3295:0.63511741 3305:1.0754955 3306:3.9945152 3309:1.1068196 3320:3.1794884 3322:4.9398837 3342:0.2615504 3343:0.3777988 3353:1.7919457 3362:3.7175295 3368:1.1557167 3378:3.7945726 3382:6.75421 3387:1.691522 3406:6.1942468 3415:1.7867528 3427:1.9049619 3432:2.3666849 3440:3.0427775 3450:0.053898104 3452:2.438067 3453:2.1942239 3463:1.3507413 3464:0.4778614 3469:0.38774505 3472:0.2907587 3479:0.62205076 3480:1.545557 3481:1.3618784 3483:5.3961897 3487:8.9659576 3492:2.2607007 3495:3.8052666 3510:0.51059997 3511:3.9399595 3518:2.4071467 3519:6.115871 3523:0.60899109 3529:0.32282108 3534:1.3609562 3544:4.3608747 3550:0.87236595 3551:2.7768726 3561:2.1798863 3563:6.4919176 3578:2.709837 3581:1.8245519 3584:1.3826107 3611:4.1358461 3624:1.6812654 3641:9.7906818 3646:3.2167408 3654:1.5017517 3657:3.5909078 3659:4.5056996 3671:0.079409152 3673:1.1964936 3689:1.227838 3696:1.2180285 3705:0.49604407 3707:0.64125812 3713:0.55588615 3714:0.73653007 3715:2.9070911 3722:1.4774652 3726:2.6904263 3750:0.12661947 3754:1.7115302 3760:0.99447566 3766:2.0214324 3785:3.3962545 3790:0.026395679 3799:1.0851462 3810:0.98628426 3823:0.17745331 3826:4.4554472 3827:3.3226957 3832:0.14582375 3833:0.52854252 3838:6.1534734 3839:1.455421 3843:2.7968261 3850:4.5881839 3865:0.70778716 3870:6.8887277 3879:3.8634543 3880:0.95524025 3894:2.1232412 3897:0.65113103 3898:1.5850734 3902:2.2677591 3911:0.71770108 3912:0.38795486 3917:9.3220367 3922:0.25463906 3926:0.91337919 3929:3.1114428 3931:0.13442916 3937:2.6687465 3941:0.30394626 3953:1.2262841 3955:3.900629 3958:0.017157406 3967:5.2078652 3975:1.9561927 3977:2.1638534 3985:0.71216297 3997:0.72922623 3999:4.7713509 4019:11.662076 4023:3.9584053 4024:5.9845557 4025:6.6263447 4028:2.3570397 4053:4.4266801 4054:2.3127058 4077:2.2532077 4078:0.20235269 4079:3.3215072 4080:1.5115511 4083:3.6703687 4086:0.90537059 4088:0.9615469 
0.03656160687411419 2:0.75331813 19:1.9568058 25:1.0749817 30:5.4759192 36:1.3003263 48:1.3733213 49:6.4949861 80:0.029131152 86:1.3599746 89:2.5038452 100:1.1723516 119:3.5324323 127:0.84897053 131:0.72122085 132:0.0826056 133:7.3583832 134:4.2712812 144:2.5003111 149:1.1612664 151:2.9453361 153:6.3735943 154:2.8399842 159:2.6603405 161:4.4359188 174:1.142314 181:1.7358866 183:1.4898297 184:1.4101214 197:2.1774046 203:0.56399763 207:2.3063865 209:0.32260311 210:1.0458605 211:4.8957624 217:0.70065224 234:1.0536209 235:7.3114872 244:3.5020645 249:1.7113485 251:1.8606604 260:2.2257347 270:2.4211791 272:5.6061287 273:7.9732003 274:7.218576 281:2.8906238 284:1.5561606 289:0.16392921 301:2.3219812 303:2.5756574 304:10.090505 312:1.3686863 315:0.97082782 330:0.83994263 333:0.21629569 335:0.77080518 343:1.2015786 345:1.1013396 364:1.037092 371:2.6887033 381:2.4946535 384:3.7091749 385:0.85452402 389:0.94084203 390:3.0532291 402:2.7497969 403:0.91318011 417:0.17094319 418:2.027504 428:4.3116283 429:0.60492057 431:4.7797337 444:1.2276882 445:0.95592451 447:1.4405894 457:1.3751991 476:1.8331697 480:2.999872 481:0.075056985 482:0.83091426 487:2.4507208 497:3.1474762 506:1.7205455 513:6.3796782 518:2.9271622 522:0.53316498 528:9.7297707 530:7.9849863 534:1.5765768 537:0.6884408 543:0.62059045 546:3.3546309 548:1.7550424 549:3.6794932 556:2.5283797 559:3.0703616 563:5.9562817 564:1.2857232 576:0.44878516 585:1.9749421 588:1.4756616 592:0.71935588 602:6.1976733 605:1.1900214 614:0.6470663 652:5.6152163 655:0.3033056 661:8.238287 662:2.0507908 664:6.2247853 679:0.08592394 697:1.7919102 700:1.8035824 704:1.2770953 707:1.6687807 730:2.8522599 736:3.7061927 737:1.4482119 741:1.4472532 745:0.22958532 771:0.15773743 779:1.5241294 780:2.3965788 786:0.89940286 796:0.98878872 797:0.08553537 814:1.5012672 816:0.34098941 819:4.5063434 824:0.14559035 832:0.036324024 834:0.81364954 840:0.85965472 844:1.7275586 863:1.0207419 870:1.6435748 877:5.7214527 880:0.70150149 894:7.6967764 900:4.7070289 902:0.30420083 903:0.49749672 906:0.62596452 908:2.7383838 910:0.17028522 930:0.053079128 932:5.7494292 948:6.4507899 963:0.091294006 967:1.1457509 974:2.1667902 995:0.80018592 1000:0.012658089 1005:0.84127659 1047:3.8618557 1054:0.18152855 1055:0.26515347 1065:2.002707 1066:0.6526922 1081:0.99955559 1083:0.18032548 1096:5.090044 1099:1.7177706 1101:2.8854053 1104:1.8640969 1135:6.2684569 1153:0.69493139 1161:1.3852048 1167:1.8760219 1172:6.4782157 1180:0.96847916 1183:2.463078 1187:3.8547592 1190:4.2662544 1194:3.9616928 1200:9.1592045 1201:0.28374276 1202:4.2522326 1203:1.0728666 1205:5.7742233 1210:1.0925828 1220:1.718248 1251:1.0708823 1258:0.66074276 1259:2.0805409 1268:1.0915205 1272:0.26581621 1277:3.0534708 1285:0.32961762 1286:3.7703595 1292:3.83496 1295:2.4451246 1302:5.9903913 1304:1.5646392 1307:0.21920052 1308:4.8141184 1309:1.7324047 1310:4.9511261 1312:2.8143604 1323:1.534816 1324:3.334456 1332:1.247963 1343:1.2980305 1346:3.0917318 1348:1.0974749 1360:0.11471516 1364:5.3531165 1368:1.1455922 1375:2.2972333 1382:3.0592368 1390:3.0040162 1392:0.68937415 1393:1.9251032 1395:3.0209048 1403:5.4938664 1415:2.8601985 1420:1.2851177 1421:5.0547266 1422:3.5488276 1436:6.6118307 1438:2.5232825 1442:1.7567614 1446:3.6282973 1451:2.3929687 1459:4.4454098 1464:3.3216348 1466:2.5339546 1474:4.2038507 1481:8.4476271 1488:1.4531472 1506:5.6685715 1508:0.001655817 1511:3.2157116 1516:0.81211048 1541:0.029006392 1550:3.3881414 1554:0.8437984 1555:1.4298122 1559:2.7300842 1565:0.19881308 1569:7.8362951 1570:0.3362869 1577:4.2315578 1579:1.5001103 1580:4.0235925 1583:1.8923525 1584:6.1205163 1585:7.3261876 1587:2.7510128 1592:0.048228025 1594:0.96432382 1603:6.1630101 1607:4.1076932 1617:1.5922384 1628:0.73015195 1631:13.776733 1636:7.3886647 1645:2.4650722 1646:2.0354028 1660:3.8043525 1664:1.3502444 1666:1.644693 1671:0.71493244 1681:2.4526463 1692:6.9887114 1707:9.8860559 1708:0.38172966 1715:1.7914782 1718:1.8738124 1722:1.0157824 1734:5.7505016 1738:5.2634201 1739:3.4131086 1740:0.94514102 1751:0.75633657 1756:0.34586397 1768:3.6482501 1770:1.2088987 1785:2.4720302 1800:0.30436873 1805:1.8083055 1809:2.772402 1815:0.47845298 1821:1.2169302 1834:6.9389391 1840:2.7800136 1854:1.5239284 1859:0.85369134 1866:1.6136341 1878:2.3887072 1879:1.6517414 1881:3.9710417 1885:0.494129 1888:0.20373851 1898:1.5414753 1899:2.2911522 1906:5.0043273 1917:0.52982283 1921:0.3038803 1940:0.71694314 1943:0.29807472 1947:6.4273438 1951:3.7370005 1965:1.4665799 1967:8.5693073 1980:0.075056329 1981:3.0983112 1990:3.3194959 2003:0.43058491 2006:1.5713166 2013:7.0182419 2015:1.0355833 2016:0.10966566 2035:1.2636632 2038:3.3802321 2042:0.97421753 2044:2.4498796 2053:0.10658446 2056:0.98049021 2060:0.19434875 2063:0.0019003451 2065:2.431772 2068:0.013583511 2071:5.6433525 2076:3.9839799 2078:0.42342132 2081:0.92181271 2083:0.10249147 2085:3.7638698 2086:0.90742445 2091:2.2731018 2092:1.4310826 2094:2.566565 2103:1.6240597 2106:3.9046276 2129:1.389129 2131:0.4537757 2138:4.6728048 2140:1.4650906 2141:5.580153 2144:0.45624807 2148:4.5574579 2157:2.5816543 2159:0.90756738 2170:2.3224187 2181:4.7714057 2183:0.54014587 2202:1.9706085 2207:1.8820606 2209:1.2438405 2211:0.13173351 2213:5.0200839 2218:2.1474493 2223:2.730572 2225:0.44632721 2234:3.3279808 2238:0.025479287 2241:1.6481738 2242:4.8600354 2249:0.67395049 2250:4.0459208 2259:1.2241466 2262:1.4787201 2271:1.8146591 2290:2.6793597 2292:0.66695237 2300:1.2782471 2304:0.041001052 2327:0.61427796 2348:1.8522971 2351:5.3936691 2352:6.1177864 2355:2.1644809 2356:2.9398215 2359:3.5208423 2383:1.6556232 2385:3.1044314 2387:0.81901228 2393:0.52801299 2408:3.572607 2414:2.8790743 2428:0.11097772 2441:0.3609629 2444:0.60969204 2446:0.062761083 2449:0.93893528 2450:1.2759299 2456:1.1564424 2466:2.6803555 2479:2.351728 2480:0.021230891 2485:1.5035168 2486:2.1789689 2487:1.2289592 2488:1.9916346 2489:1.7387798 2490:0.98203468 2494:2.0878737 2495:3.7299571 2499:1.5779616 2501:0.1701436 2502:3.5052264 2505:2.7575805 2516:0.36264837 2528:1.1549814 2542:7.5656247 2553:2.5070524 2559:3.9144258 2562:0.20837221 2565:0.27060261 2568:5.8573928 2572:2.2350342 2573:0.17185527 2574:0.72560215 2596:0.96220356 2597:1.0383393 2606:0.38960433 2627:0.64706296 2629:6.5669985 2631:0.56216908 2633:5.4156165 2643:1.4047422 2648:1.9675039 2653:1.8050904 2670:2.7745991 2681:2.3985848 2683:1.1218106 2685:0.37320274 2691:6.5981398 2692:1.6177641 2693:1.6318299 2694:2.5203416 2696:8.1209421 2706:4.9111156 2712:1.26624 2717:0.36791539 2726:2.8367088 2727:0.47918731 2733:0.54595757 2734:3.1667604 2737:2.2437236 2739:3.6672566 2742:1.8778162 2767:6.3487616 2776:5.9779253 2782:2.3856976 2784:4.0451584 2793:0.33687431 2796:3.0940485 2797:2.5813944 2804:1.075793 2806:1.2951173 2808:1.2345985 2814:7.9162688 2815:2.5243695 2827:1.3501921 2844:3.4449213 2846:2.8715477 2874:2.6216714 2876:0.20039177 2883:4.7912564 2890:2.3592782 2892:1.0949939 2896:2.7938833 2898:2.4420295 2907:0.25355819 2908:0.38217509 2910:1.690429 2919:2.167712 2923:0.94135916 2928:1.3913366 2956:2.4869304 2964:2.672493 2969:3.4862309 2971:0.78459048 2983:4.4565382 3007:0.93977213 3010:6.82305 3015:1.6562703 3022:2.9514704 3024:1.0912619 3025:1.8419192 3065:4.5926833 3066:8.3852348 3069:5.5992751 3079:3.7890117 3080:0.061363995 3093:0.45556882 3103:11.867773 3106:5.3193865 3108:1.6809055 3109:2.4909081 3123:0.28096485 3138:6.5432725 3143:3.4182456 3148:1.3026439 3149:1.0951881 3157:0.41692579 3158:2.1471171 3159:4.3772197 3172:0.87078762 3183:2.663769 3185:0.034720536 3204:4.7912245 3212:0.85733277 3213:0.66865909 3216:1.4613756 3221:1.8636057 3222:0.2576592 3227:2.8713441 3229:6.0865893 3236:0.59032142 3241:1.5263186 3246:7.7087426 3247:2.6262169 3252:0.27273583 3263:0.86003131 3266:10.237592 3275:1.944378 3288:5.6405158 3295:0.36990291 3300:0.61112809 3305:2.8675268 3320:1.5676358 3332:5.2264585 3341:0.088371366 3348:0.92998123 3352:0.31981897 3368:1.348343 3373:0.30302367 3378:0.9124971 3382:4.3396821 3406:2.6565318 3407:1.2850521 3416:1.1402118 3424:0.41324133 3440:0.8217144 3452:4.6138725 3453:2.2450626 3469:1.0823082 3472:5.1619873 3476:0.44906914 3487:5.5921993 3494:0.35702986 3511:4.7004447 3513:2.1552947 3519:2.2232013 3528:2.6109459 3529:2.4161541 3537:2.0008414 3539:1.3018359 3544:0.12158429 3550:2.5195491 3552:1.380482 3557:2.6205609 3562:3.5737491 3563:3.4577088 3571:0.96526486 3584:2.9066713 3595:2.1016834 3596:3.4803824 3599:2.0341356 3604:1.3016875 3628:4.9132171 3638:5.3408976 3641:9.5424061 3645:0.50959003 3646:0.068581939 3657:0.020957977 3659:1.5886326 3663:0.22655025 3679:0.36528343 3685:3.5639851 3689:2.6303911 3703:0.034188986 3705:0.43240958 3706:0.45343459 3711:1.3391819 3712:3.9484322 3714:1.8023124 3718:4.9436941 3722:0.13026419 3746:1.8571818 3748:4.1278458 3766:4.2354031 3767:0.50229335 3776:1.0838091 3781:2.7994926 3785:6.2280087 3786:1.4267143 3791:0.13862789 3826:3.4894505 3827:3.3937671 3838:4.3324509 3841:2.8376393 3844:1.3377702 3847:1.0580451 3849:2.1699803 3857:0.33506799 3858:2.0704539 3865:1.9044558 3870:2.9159403 3872:1.4327023 3879:4.0024638 3881:2.6655242 3895:1.3989856 3898:5.7423062 3917:9.1602507 3920:1.4133774 3929:7.5341206 3937:0.48430386 3955:2.3823025 3958:1.0759841 3961:3.0516379 3967:8.6074858 3976:3.9886005 3997:0.84468126 3998:1.1507958 4014:4.6527042 4019:7.0516167 4023:2.7119713 4024:2.920398 4025:12.107285 4036:0.66740233 4041:4.9287505 4042:0.33372071 4043:2.0642996 4049:2.3812962 4053:0.66505909 4057:0.075755656 4078:3.1489782 4083:4.8444896 4084:0.6977489 
