svm_type c_svc
kernel_type rbf
gamma 0.000244141
nr_class 2
total_sv 81
rho 0.709728
label 1 0
probA -4.42605
probB 0.193193
nr_sv 20 61
SV
0.161187351894566 3:0.67131138 4:0.85189205 9:1.5795012 10:3.2089701 12:3.640949 18:0.64225513 27:1.488193 30:0.92360485 39:0.38044834 40:2.5818064 43:1.1328297 46:0.33358544 49:2.4983845 53:2.316617 60:1.3472816 64:0.11399531 68:3.1925545 78:1.7780255 80:4.3430247 91:0.098947905 101:0.53913546 108:0.86852813 113:2.4619424 121:0.35201821 122:4.6744499 123:1.0915189 127:0.4464308 131:2.701546 139:0.025940835 143:1.4364269 145:0.90985733 153:1.8054831 159:0.91751105 167:0.87966943 173:1.0905044 174:1.3084168 180:1.2499613 197:3.0391157 218:1.5720103 222:0.25397852 225:2.5411689 234:0.44311631 236:0.3927151 241:3.5746527 242:2.8996105 252:0.069545984 268:0.37555778 271:0.663638 277:1.2428342 281:0.20061564 290:0.7942521 301:0.98957729 302:4.7203135 303:0.33218157 309:5.0748072 312:4.4812799 314:0.45540288 321:5.6705747 329:2.6654572 335:3.1492507 341:1.9725077 346:0.35113114 348:4.4548607 349:3.1657357 353:1.3987044 362:0.24530521 363:1.9937611 374:2.5685427 379:1.3585536 397:3.8908665 411:0.89119631 413:0.0032548904 421:3.4861078 426:1.1047297 431:2.3143513 433:0.43281445 435:3.5470088 451:5.436553 456:0.16409704 459:0.69343108 462:1.8838485 466:0.80693614 475:3.5084867 481:1.5576485 485:1.6761036 488:0.11905336 496:0.021179676 497:0.32146364 499:1.6834768 500:0.62287086 502:1.4124007 509:1.4683735 512:2.2896116 513:0.52798367 515:5.5169077 519:2.0297213 521:3.1973584 524:0.68738276 527:2.5926502 545:4.7563777 559:2.3132398 562:4.5073137 563:2.578665 572:7.3860021 573:3.6317198 584:0.71954989 595:1.3991072 596:0.4333607 597:0.18444401 601:1.4470714 602:2.6387587 605:1.8429528 606:0.7889955 612:2.1205244 614:0.37167406 624:0.86347806 637:2.0852611 639:4.3263211 641:2.1867454 642:0.16598934 643:3.4554584 644:2.2693484 654:1.5790306 657:1.084336 659:0.37471318 671:2.1353674 674:0.51575363 675:0.47491729 677:3.8286817 686:0.10476957 687:1.0434064 700:6.1611714 705:0.83216757 709:3.8091478 711:1.4903618 717:0.70205426 718:2.0826483 720:2.3618302 721:3.135699 730:2.0521836 741:2.5739162 742:1.6594441 743:0.28806967 746:1.9561299 749:7.744669 750:0.10109341 754:1.0999372 763:2.6812439 764:4.412322 773:0.031163119 780:1.1781343 785:0.80286199 789:4.5076108 801:0.69392675 803:0.6016531 804:0.65585262 809:0.69827026 811:3.5405798 812:0.25248256 817:3.8096619 818:2.4786603 820:2.0684595 823:2.0578167 826:0.16174471 832:0.099997014 833:1.2044382 841:3.8038154 842:1.4561038 846:2.0260997 852:1.8953397 853:1.0343951 858:1.1437544 867:0.63982409 877:3.1279414 885:2.8546903 888:0.12868911 894:2.3566341 908:2.2688806 916:6.6429019 922:0.32267612 925:2.569557 927:1.0419374 929:0.33205938 930:2.7234831 932:0.24232197 935:2.6978307 937:6.1104093 945:2.553071 966:2.5764749 968:7.8021321 974:0.99096811 1000:1.9363732 1004:1.7146742 1013:3.6453228 1014:0.55151391 1015:1.3806268 1021:5.5967269 1023:0.55758774 1044:0.1855447 1047:7.8924766 1049:4.5445189 1050:2.3570302 1056:0.33153608 1067:0.21681732 1077:2.319819 1080:1.3341088 1081:3.0800796 1089:0.99029195 1090:1.548934 1094:1.619391 1096:2.5732112 1097:0.83432543 1105:0.69817638 1126:0.53942907 1138:4.0381141 1149:1.2527883 1150:1.8441994 1159:1.8408237 1165:1.4839344 1169:0.06048239 1170:9.6083822 1175:0.0038381629 1176:1.9513803 1179:0.022203684 1186:0.35965183 1187:0.56320858 1192:2.6810408 1201:1.2066576 1208:0.61073786 1218:0.071239784 1219:5.1170206 1220:3.3849328 1223:0.79503906 1224:1.0948236 1227:2.5043764 1231:0.28815442 1236:1.8939264 1237:3.6922746 1241:1.3632549 1242:0.61002767 1252:2.8800316 1254:0.50426632 1259:0.17990565 1261:0.34335685 1271:2.2511029 1298:0.59042025 1306:1.5974939 1308:3.5771375 1313:1.7949827 1314:1.438108 1319:3.9684637 1335:7.8382101 1341:3.7781653 1347:0.044790864 1357:0.36778998 1364:1.8208989 1365:1.6314007 1369:8.779438 1374:0.50596571 1376:1.2634363 1378:0.75523031 1381:1.4116666 1386:2.8244319 1387:1.5200369 1392:1.2940143 1403:0.079791039 1406:0.7098667 1416:4.843102 1419:3.2074146 1430:2.6034503 1435:0.85442239 1437:0.572258 1445:1.6776657 1450:2.3376129 1451:1.2535909 1452:2.0039995 1456:1.8079979 1459:1.5535762 1464:1.8606464 1471:2.1632326 1472:0.78717589 1477:0.74124867 1489:2.9252396 1490:2.4135182 1502:0.89017719 1508:1.684674 1512:1.5867686 1513:5.056397 1514:3.5889781 1515:1.1775932 1520:4.6167402 1524:0.64009786 1526:0.45900872 1538:0.21036373 1544:3.0501416 1546:1.4828906 1552:1.6839147 1565:0.40671822 1568:1.8969831 1570:2.2366545 1577:1.7578937 1582:8.0164871 1587:1.038965 1597:2.2032206 1605:0.20527555 1607:0.43030578 1622:2.5100007 1628:6.4448886 1629:0.35739416 1636:0.47610569 1638:0.38289255 1663:1.1520768 1677:1.4513829 1679:5.2230268 1683:0.07359004 1686:4.4899611 1696:0.94252652 1703:2.6971936 1709:0.5846194 1710:0.14129198 1712:2.0756388 1720:3.6428616 1732:0.90379512 1733:0.241805 1737:3.2674146 1738:0.89041114 1739:0.31375992 1748:0.68613249 1751:4.2904482 1753:0.25198209 1766:1.3872367 1772:0.55235046 1782:0.11851501 1792:0.093015969 1800:7.6659865 1806:1.0580678 1813:0.37398034 1815:0.88870364 1817:4.2000699 1825:0.06970197 1833:0.6131103 1843:0.71298218 1845:6.5267634 1857:4.1470556 1867:0.36838365 1873:2.4703162 1876:1.70064 1879:3.8728993 1882:0.16905347 1883:1.0142492 1885:0.13682178 1897:0.46549132 1899:1.7005423 1902:0.73218638 1905:2.0243526 1912:3.4850354 1928:1.0341974 1942:4.6371121 1943:4.1462579 1950:0.83818728 1956:0.37211463 1972:0.99221396 1974:5.1573544 1990:6.3964715 1996:0.71562177 2004:3.5295765 2009:1.1394448 2022:2.177351 2026:6.1507411 2030:0.65497518 2038:1.5546218 2042:0.26099589 2044:2.4526029 2050:0.15616018 2065:1.0039221 2066:0.049544886 2083:3.099694 2085:6.2628317 2094:0.74517655 2099:1.1172612 2100:0.026188374 2102:3.7464759 2110:4.6787109 2117:4.7649193 2127:0.4093895 2129:0.45343059 2137:1.9757755 2156:0.4328177 2159:1.4631284 2164:1.3341216 2166:0.54340714 2174:1.3237571 2178:2.1017449 2181:6.361372 2186:5.4160748 2188:0.77369946 2202:3.029001 2203:0.080190927 2206:1.053913 2214:0.30990186 2216:1.8114036 2223:2.1732833 2229:2.213248 2239:3.666682 2241:5.3245597 2244:1.1016197 2249:3.9994571 2259:5.1125832 2262:0.20488657 2263:0.56470191 2270:3.9721541 2275:2.1691937 2286:10.515152 2291:4.4155335 2292:5.5600758 2294:3.3430157 2305:0.79773217 2307:1.9565775 2311:0.6864053 2314:2.6028905 2315:0.82457167 2316:1.5168285 2317:2.5121043 2329:6.2357259 2332:5.5018749 2344:1.5971709 2346:2.3449206 2348:2.0636587 2358:0.73684794 2372:0.47450882 2376:7.3055997 2413:2.4152119 2414:1.8691661 2416:8.3788471 2423:4.7166481 2424:2.5404112 2432:3.2981131 2436:0.7273761 2453:1.1554588 2457:0.71235991 2458:0.69836545 2464:0.19297929 2467:0.10411656 2480:2.8587482 2481:1.4065077 2486:0.5407511 2487:0.0090578496 2494:0.72814006 2501:0.88731134 2516:0.36903304 2519:1.7278877 2520:2.4097087 2526:3.0808225 2535:0.14035234 2537:0.27596164 2551:2.7256055 2554:0.62038386 2560:2.5870295 2561:0.17636037 2563:3.7982666 2566:1.8470309 2589:3.1851821 2590:1.4990139 2592:5.176775 2598:0.07211864 2600:3.1315112 2601:1.1580591 2608:2.224098 2614:1.230724 2619:5.1550789 2620:0.44458887 2624:0.45622945 2625:1.3325924 2628:0.5853194 2636:0.075495571 2637:0.95096767 2642:2.856698 2647:1.2239959 2656:0.10709724 2669:0.70992386 2672:0.87759113 2678:2.6263187 2688:2.0089531 2690:4.7902575 2693:1.4928582 2707:4.2200723 2708:3.8380721 2715:1.3007548 2718:2.4796126 2720:0.79252291 2723:0.53486967 2726:0.71590763 2728:1.775574 2732:1.298959 2736:1.7413375 2738:1.4847745 2744:2.2984927 2745:0.18024866 2753:0.36626232 2759:3.2476406 2765:5.0834064 2766:2.2386611 2777:6.6463227 2778:1.0160214 2784:2.7958603 2786:1.2432158 2790:1.5088356 2792:3.4885998 2796:0.83139634 2798:0.15555295 2802:0.79717594 2805:1.5546432 2808:4.463201 2811:1.2654643 2814:0.84838015 2821:1.3825189 2828:0.41588897 2831:5.9060879 2838:3.5732317 2840:0.97665197 2841:0.41143945 2853:2.6156099 2857:1.0938065 2864:0.038934477 2865:2.4523561 2867:0.98494136 2879:0.85542083 2880:3.577198 2882:1.2029618 2888:0.6449638 2892:4.0971222 2895:1.1447456 2896:3.4205918 2898:0.73721576 2900:0.60112762 2901:4.1112809 2920:2.8957953 2928:1.2939368 2929:0.54636842 2936:3.4066448 2941:1.5471003 2945:0.70754826 2953:0.42808688 2958:4.2547855 2962:2.6047254 2966:3.9777224 2967:0.18119308 2971:3.7513571 2974:0.60332751 2977:0.71850169 2978:0.10598285 2979:0.087698355 2980:0.25599241 2982:5.2577968 2993:3.8870511 2995:4.3628545 2998:4.1623163 3007:0.99073315 3028:2.0171089 3035:1.3655657 3048:1.33935 3050:2.8910241 3072:3.5605917 3074:0.35881937 3075:9.4626074 3079:1.4979851 3090:0.76945859 3105:0.80489165 3110:2.0226543 3114:1.0071216 3121:0.88749957 3141:1.9694974 3146:2.8923464 3154:1.0474997 3162:2.1073046 3163:3.4754555 3169:2.537034 3172:3.1840928 3180:1.4623495 3181:4.1199031 3182:3.2152259 3183:9.1012573 3195:2.6116776 3218:2.3076499 3222:9.7853699 3226:0.11025339 3235:5.2579856 3237:3.4659832 3241:2.0398808 3252:0.96237195 3256:0.012969494 3260:3.3543561 3268:0.79016751 3271:0.092380069 3277:2.8844118 3287:5.4829931 3294:0.93245947 3300:0.46357137 3321:3.9931784 3342:1.1256663 3349:0.045237899 3364:0.72389632 3366:2.8808784 3382:0.049556524 3386:0.49022263 3387:0.76213408 3395:3.9087636 3396:3.3159423 3424:0.29537046 3442:7.3880668 3445:0.39749449 3451:2.0256541 3471:0.97355664 3474:0.52964425 3496:0.51051235 3504:3.9760547 3513:1.0219464 3539:2.5214431 3548:0.48638797 3562:1.8249655 3563:0.90882874 3570:0.13069913 3576:1.8636576 3578:0.65013599 3580:2.8437946 3584:2.7766733 3585:2.5831125 3589:0.32020229 3598:1.4372339 3599:4.8671079 3602:1.8825606 3603:2.3551829 3608:0.56862247 3610:0.89739203 3614:1.4470849 3617:2.9198008 3619:2.5468214 3626:0.34769121 3627:0.51103544 3636:0.12120876 3650:0.13623762 3652:0.064181149 3654:0.18916549 3657:3.6895044 3660:1.6818442 3661:0.25653452 3664:0.37305564 3668:1.4990191 3675:2.5407755 3677:1.1886981 3683:0.80300581 3684:0.5479154 3689:0.073553026 3690:2.2976494 3724:2.1074235 3729:1.6853563 3732:6.17946 3734:0.60593921 3746:1.5945839 3748:0.25097817 3751:0.83602333 3752:4.3046217 3765:1.8404311 3766:3.3589787 3769:0.077419221 3771:4.4998407 3774:0.4535175 3776:0.4841162 3785:6.0813451 3802:3.9603424 3806:1.3497897 3808:0.98698127 3819:0.31719902 3826:0.64168936 3836:1.4300808 3837:5.3943214 3841:2.6204481 3865:0.22866884 3872:2.5024507 3878:1.8365132 3882:3.0816061 3888:10.724848 3903:0.92303741 3909:0.13281512 3917:1.1101034 3922:2.4668238 3928:3.0974679 3929:1.4759934 3937:1.3639392 3973:0.24142766 3974:0.72297812 3977:2.4087787 3985:2.4420338 3988:2.0975475 3992:0.38173497 3994:3.5269933 3996:0.57879567 4001:0.62364215 4002:0.41253999 4003:0.2883836 4004:0.671067 4011:1.8679221 4013:6.0376778 4020:0.73734987 4023:0.99519128 4036:2.463511 4038:0.38915354 4041:3.4248924 4051:0.84438896 4056:0.083955467 4061:0.40896136 4072:1.4905365 4077:0.0042546093 4080:3.0104537 4084:0.49245766 4085:3.180825 4091:2.305479 
0.7424596656832101 9:0.33916003 10:1.1155782 30:1.7472256 40:0.14372292 49:0.16339493 53:2.4117038 64:0.31071019 68:2.6663778 91:1.912644 96:2.2789838 101:2.3529143 106:0.30290377 128:3.2151549 131:3.5135086 139:3.0871329 145:4.1656857 171:4.5787382 174:2.3182487 182:0.34469992 197:2.9444463 218:3.0274224 222:0.10831508 225:4.0617843 242:4.5673027 256:0.34179869 281:5.3267212 302:1.0510355 309:9.4021769 316:2.4557858 321:12.964286 327:0.34188396 329:4.1988401 348:3.9861867 349:4.9449539 363:2.550698 374:4.2072039 387:4.3423548 396:1.8192497 410:0.47343528 414:0.29020253 421:0.59360731 423:0.46115106 426:4.0940657 431:3.9361911 435:5.3414035 451:3.4350166 459:3.6840987 468:1.3708613 475:4.2372098 488:2.1920829 491:0.59084243 499:0.4110848 515:0.35174227 519:0.09872131 521:0.50378966 545:3.9912717 562:3.369997 564:2.7668731 567:0.78657424 572:0.7728219 583:0.43380737 598:4.1139688 601:1.2032319 603:1.1801292 605:0.41707546 624:2.3399849 639:3.6698475 643:0.5969466 654:7.3671331 658:0.34695405 687:0.0074899495 705:0.48954701 709:7.3486948 711:5.4873118 718:0.55144399 720:1.3687642 742:7.6291528 746:1.3854716 748:0.29892063 749:10.588444 750:3.766603 754:0.65567255 763:2.008333 773:1.8824902 798:0.25266731 804:2.7256637 813:2.5166774 817:7.7244639 820:0.14875096 833:2.9967718 842:7.7012939 853:0.69750953 879:1.4832876 895:2.1089766 904:1.7242531 916:10.34864 918:0.99389958 927:3.5533674 932:0.81309062 937:6.1098037 938:1.8651996 945:4.5661297 953:1.6036595 968:5.7575707 1004:1.1345829 1013:6.909461 1014:1.2014072 1043:2.0378702 1049:2.8619552 1050:12.011229 1065:1.2777811 1067:6.3887577 1070:0.21352533 1077:1.0917311 1081:7.859252 1089:4.8648548 1103:1.6442287 1105:0.24234617 1115:3.9459109 1138:1.7178936 1148:1.6483359 1170:8.7382498 1186:3.2831855 1187:5.4436398 1223:1.8308508 1227:6.4754753 1231:1.6852264 1232:1.2319715 1236:4.4054856 1244:0.22664891 1251:1.0761949 1257:0.22791313 1265:4.3555732 1268:0.0034777224 1271:1.4948566 1276:2.3645685 1297:6.21843 1306:3.4088333 1329:0.54365027 1333:4.3770127 1335:11.703717 1369:10.114672 1374:2.8642232 1376:4.0899544 1392:4.3286562 1396:0.13085088 1406:0.81214488 1410:1.7455192 1414:1.3808852 1417:2.8711874 1419:8.8653069 1437:4.1041708 1453:1.7055645 1454:2.625783 1456:2.6637015 1459:2.8857813 1464:1.1830963 1471:6.7351589 1508:0.39770684 1513:0.031446368 1520:0.88693815 1526:0.750588 1535:0.49958596 1537:1.5569327 1548:0.39876494 1552:1.6156205 1561:0.99767506 1562:2.7195945 1565:4.2371736 1580:2.2900317 1585:1.4822857 1597:0.90455055 1605:3.9897933 1606:0.5274871 1628:5.8766289 1629:5.9660692 1665:0.69496977 1668:4.1186814 1683:2.381408 1699:7.1797557 1700:0.32153216 1709:1.228672 1723:2.7349687 1724:0.78536534 1728:3.3793702 1734:1.581327 1738:2.1827664 1748:1.9457427 1751:0.95369667 1753:2.6542137 1758:0.95139641 1765:7.8955464 1777:5.7453098 1791:2.0803061 1800:4.3747578 1832:0.79052973 1833:1.569434 1843:7.1977863 1845:4.3682184 1846:1.6962402 1852:0.50503904 1854:5.6757135 1873:4.8654804 1876:2.9172397 1883:0.76838815 1900:2.2741899 1902:2.5417619 1908:1.7062352 1917:3.7525036 1918:5.9998298 1942:4.3185806 1950:2.1520665 1956:1.3769547 1957:1.2176222 1974:8.2387848 1980:1.8889692 1984:0.72054029 1990:2.5247049 1991:2.480547 2004:4.7108698 2011:0.47140864 2014:0.35788283 2022:6.3457494 2026:1.3176385 2038:0.04149574 2039:0.49001583 2044:3.6872642 2057:4.965385 2073:0.48739561 2083:2.0824978 2085:2.4415934 2095:2.954704 2096:5.3754826 2110:4.2652383 2117:1.6216767 2127:5.4528894 2129:1.1075735 2164:10.949748 2181:5.1267648 2184:3.531666 2186:5.052063 2187:3.4583969 2202:0.35250321 2206:0.62760144 2223:2.3854103 2229:3.2173977 2241:13.54935 2244:2.5361607 2253:2.7535691 2259:4.7558689 2263:3.0509171 2275:1.3720906 2286:8.1637545 2287:3.1374838 2291:1.7310309 2292:4.9503155 2309:1.1783794 2314:2.34936 2315:2.576827 2317:2.6876819 2329:8.0842762 2332:0.09149766 2343:2.2011466 2344:5.0123334 2351:0.12500937 2359:1.612921 2369:0.68009859 2374:0.95192546 2376:4.6543598 2390:3.5583565 2392:0.067341976 2394:1.6807243 2402:1.0788679 2404:0.081991345 2413:5.8414049 2416:0.56548476 2420:1.8280615 2423:0.82033908 2432:0.26707494 2436:0.10982609 2440:1.9791156 2442:1.6471407 2448:2.2314444 2461:4.6084862 2480:0.026988313 2486:1.295009 2493:1.0396576 2494:1.1340173 2508:1.8328309 2516:1.3499982 2537:1.3631259 2549:0.5855965 2555:0.61049795 2561:2.0372119 2566:4.4599247 2576:5.635335 2577:2.1466651 2589:1.1065702 2590:5.7547269 2600:1.8035485 2604:6.4525437 2624:2.2746127 2625:1.7576671 2628:3.5863636 2636:1.5212743 2642:2.7764447 2647:2.6839702 2679:0.14000624 2682:0.65436941 2689:2.2442822 2695:2.3227696 2707:3.5805626 2708:2.4905767 2721:2.0183704 2769:2.4291546 2779:2.5319352 2792:6.3155556 2796:5.0739865 2805:3.0487876 2810:0.076452784 2812:1.2107019 2828:6.9863305 2840:1.0626836 2848:1.0042362 2857:3.0637856 2864:3.8272405 2865:8.4412918 2867:0.61063361 2879:0.64183134 2882:2.9176049 2890:1.2271496 2900:2.6800849 2901:5.2298784 2912:0.70356858 2913:1.8626209 2921:2.636863 2928:6.8976364 2929:2.1399584 2945:5.6725311 2962:3.9647813 2971:2.2568743 2974:0.86763674 2980:10.034548 2982:6.1705375 2986:2.8681567 2993:2.6407423 2995:9.0204544 3007:0.99872744 3016:0.24916446 3021:4.7160091 3028:0.070546925 3033:1.8308039 3048:2.4349525 3057:6.5675778 3075:7.131597 3085:0.31340688 3090:2.5569158 3110:4.1649146 3127:0.31134114 3141:2.8471036 3142:0.85076034 3146:3.624444 3147:0.60204899 3160:2.3225484 3163:5.9906182 3169:3.7103441 3170:2.092165 3183:8.7215242 3192:1.543299 3202:2.7253509 3222:9.0865049 3235:7.1139374 3237:1.5124424 3239:2.2800148 3240:2.9271629 3241:4.4986882 3246:1.8249569 3250:1.4814596 3252:0.10503906 3265:0.34585199 3272:1.5102146 3273:3.5972166 3277:4.4999194 3286:0.23823759 3287:7.5337343 3294:1.3567687 3311:0.39292881 3321:2.0419242 3330:0.51218128 3332:2.7490969 3369:0.42183179 3382:4.6181889 3387:3.7459984 3388:1.8419399 3392:5.1627021 3395:0.90781391 3396:2.2887585 3416:1.0620017 3442:5.5702128 3457:1.8852229 3459:0.26433432 3461:6.8200383 3468:7.8169441 3471:5.0518994 3537:0.054563224 3562:0.49163097 3563:2.4513264 3576:0.69427502 3585:2.0885701 3590:0.17116201 3602:4.617475 3603:0.15160973 3610:3.1078041 3617:1.243751 3618:3.7670467 3619:3.1416111 3620:3.0162683 3626:2.6679883 3633:2.4428768 3650:3.6217787 3654:4.247438 3657:2.9339836 3664:0.11778468 3667:3.0396307 3675:2.201138 3690:2.5498664 3698:2.0897338 3713:0.71560597 3731:3.3651662 3732:8.5404367 3742:1.8653712 3748:2.8301485 3769:0.87192565 3771:0.44610193 3785:2.9786632 3796:0.19975051 3802:11.436337 3821:6.9964209 3837:4.4655809 3845:0.42029613 3865:2.5389469 3882:2.5157976 3886:0.75499201 3889:1.6499202 3917:1.210186 3928:3.0120072 3932:0.92306918 3959:2.2810516 3966:0.42904764 3972:6.7090912 3977:0.82229137 3982:2.3168876 3985:0.053816259 3994:0.37807053 3997:1.7589804 4001:1.2799382 4002:1.5094681 4004:3.2963202 4007:1.0995132 4011:0.24766403 4015:0.075801134 4019:2.8018682 4020:3.2800679 4030:0.35732448 4031:0.95653272 4035:1.317201 4037:1.7707123 4038:0.32879728 4051:1.6789865 4065:2.2979033 4072:6.0700946 4077:6.5625157 4081:2.7747633 4092:0.39244059 4093:1.5770929 
0.8827742379950533 3:1.7655078 9:5.7239733 12:2.7930486 18:0.92461956 19:2.9549339 25:1.3343303 34:0.2480979 39:0.96031249 42:1.2110342 44:3.3097856 49:1.9732778 60:1.9308136 62:0.28059337 64:1.8776958 66:2.7237551 68:8.1370964 76:1.9103723 77:0.6182844 78:1.9153163 80:2.5607264 84:0.84109092 96:1.7204876 99:2.4907587 101:1.2189665 103:0.034936786 106:1.4439592 107:1.4935567 108:1.0728687 109:3.8230109 114:1.6066576 121:5.1291075 122:0.14772856 128:1.0137389 138:1.7289691 140:1.5199442 148:2.0706301 170:2.2011666 172:4.1866579 173:0.2458404 182:1.0259131 188:1.4054983 190:3.2856739 197:6.2111764 198:3.4992504 202:6.3833337 208:3.4571433 209:2.6271527 225:1.3110846 238:3.5175962 246:5.1094046 247:0.70479208 257:0.46277636 261:5.1073542 264:0.42083609 268:0.36275417 277:2.8687012 281:4.4067063 286:2.0235331 288:1.7054052 290:4.8649712 302:0.95215285 312:3.8577228 321:7.9334831 323:0.090729818 327:2.5718274 334:1.5716276 341:4.4093022 348:1.6259706 349:0.37253004 361:4.6155186 363:1.4526641 368:0.52193803 390:3.6634288 397:0.76743376 421:5.3406634 431:1.2361228 435:2.2918298 436:2.0942645 441:0.58688617 447:0.081408769 448:2.4786065 450:2.6060536 455:0.3177467 470:2.6587858 471:1.233436 481:2.1429801 486:1.0693705 500:0.95163286 514:1.4899198 515:1.0494595 521:1.7522695 527:6.6752024 529:1.5222073 532:1.6025798 539:0.54193485 542:1.6207744 543:2.0945189 544:3.6273072 545:2.3827846 547:2.3809996 548:1.6889604 557:0.97279906 559:0.53563523 560:0.63752693 562:2.0933709 567:0.16818668 571:1.6233408 572:1.0741572 573:2.6328444 574:0.53055805 577:1.4455342 584:1.0694355 597:2.9865394 601:1.0003984 607:0.48243636 609:0.89607406 611:0.44256181 617:4.7651172 618:5.9003205 624:2.2224741 637:0.22417814 638:1.2217088 642:3.7969182 643:0.029550463 647:1.4662589 654:1.5275465 658:1.3926644 660:1.6576946 670:2.2952518 671:7.0337839 676:1.1800861 678:0.23418294 684:1.6837249 693:0.52297956 695:0.58109486 714:1.0146556 717:3.0661569 720:2.4552965 722:3.9472904 741:1.9640249 742:5.2788587 743:5.2317109 746:6.0813313 749:4.6733952 750:0.62051928 758:0.58094633 762:0.15668494 775:0.12524736 789:1.644428 796:0.1282693 800:1.8734502 803:0.089408755 812:4.7564163 814:1.0538712 820:2.6871028 826:0.16412276 841:8.2652254 850:0.34151807 859:2.6444259 863:2.3708019 873:2.0141521 877:1.0825516 879:0.067464292 881:2.8568652 887:0.38209903 899:1.6623151 916:3.9518473 925:1.9769268 934:0.69020426 935:1.0653713 953:3.3906279 956:0.80089593 963:1.1360468 966:2.9556971 971:0.28322557 985:0.85321891 987:2.1655633 988:2.7890444 993:1.9154416 997:5.6090088 1004:0.94582152 1007:1.5871959 1009:0.35902324 1021:4.512692 1022:3.0115986 1029:4.7359786 1038:0.30634683 1041:0.28860405 1045:0.67537886 1047:1.8247319 1048:0.90661526 1054:1.9903792 1080:0.16710889 1081:3.5668161 1087:0.33946601 1096:2.802428 1098:0.58305681 1115:1.2611363 1120:4.8267379 1126:1.1833925 1127:0.51190937 1132:0.75311559 1134:6.5506129 1157:0.35292345 1158:0.21457335 1159:0.97764319 1168:1.0417345 1170:6.6312003 1188:0.03885252 1196:0.3449913 1199:0.37345195 1203:1.1778928 1215:5.5412655 1218:0.052877232 1219:1.02183 1220:1.7321244 1223:2.9270115 1232:0.34291148 1233:0.46562022 1235:2.6619496 1236:1.5253135 1237:1.7080686 1241:2.8088298 1242:1.3523849 1250:0.4380812 1252:0.89117861 1254:1.6255937 1260:2.0602708 1268:0.56481564 1271:1.0520262 1276:0.40287432 1290:3.2169471 1304:0.46654886 1306:1.8860865 1309:2.2299604 1313:0.5837304 1328:1.4334428 1339:0.34301952 1341:3.963793 1342:2.2589059 1345:0.30375618 1358:0.6145373 1364:1.8538774 1365:2.6070912 1369:4.5760365 1374:5.2088151 1376:0.66400468 1387:2.6728983 1392:2.4243095 1409:1.5890437 1417:2.6671 1419:0.71983099 1422:2.5983775 1431:0.29812267 1433:0.36573383 1437:2.1564772 1438:1.8356154 1448:3.7883401 1450:1.0531058 1456:0.1387257 1459:3.3549359 1463:1.9074094 1470:1.601452 1471:2.0212491 1472:2.0350642 1483:0.14308926 1489:1.4831349 1490:1.0116985 1503:0.97578979 1506:0.20383096 1512:3.0258682 1513:1.4683124 1514:0.23420675 1520:1.777395 1526:0.54310822 1537:1.1921368 1538:1.0651212 1545:1.3098192 1546:0.88629067 1554:4.2921786 1568:0.71440864 1582:4.3697176 1597:1.6479809 1598:3.3784633 1606:0.42883676 1608:1.4850827 1612:0.92521799 1622:0.80819142 1624:0.12284654 1627:3.3608308 1633:0.63277227 1636:1.0915859 1656:0.29743484 1658:5.700655 1659:6.4516845 1661:1.5199404 1665:1.0962377 1677:0.60251886 1679:3.3305268 1686:0.55475396 1695:3.5951476 1701:0.64288878 1721:2.1812451 1728:5.8339963 1730:1.0073111 1738:2.4573383 1748:2.6498415 1751:9.4073744 1753:3.7009072 1763:0.60110343 1764:1.4903805 1768:1.0641752 1783:2.0227709 1794:7.859004 1799:4.6467614 1800:1.5400344 1806:1.3118305 1808:0.22753152 1814:1.6626916 1817:4.9129925 1824:4.8322282 1833:0.044940203 1837:3.1563358 1839:2.0565548 1846:1.6669443 1852:2.2363186 1857:2.7364571 1860:1.2717057 1876:1.5051162 1880:1.6710067 1883:1.2336736 1894:0.31575924 1902:5.7872992 1904:2.3608844 1910:3.2002549 1925:1.7201037 1926:1.7323483 1931:0.54316908 1933:3.376642 1941:0.94251144 1942:2.5510888 1948:0.18583541 1973:1.025479 1974:1.837949 1982:2.3694208 1986:4.2021003 1988:0.36281022 1999:1.3292717 2004:0.34461534 2005:2.1347067 2006:5.0763602 2020:3.1307042 2022:4.7995982 2038:1.0534246 2056:1.1644408 2065:3.801712 2071:2.6392336 2081:0.05836691 2083:0.98338073 2085:2.2053425 2099:0.48069194 2102:0.27811211 2110:3.0529418 2114:0.59062809 2115:2.1556239 2120:1.3157009 2127:0.048439443 2138:5.4631357 2151:0.38268709 2159:1.367753 2164:0.40962815 2168:1.3119274 2170:0.33778179 2174:1.6647848 2176:0.85647774 2182:0.78240752 2184:0.96259928 2187:4.5368509 2189:0.59530056 2191:0.17532608 2196:1.6235803 2202:2.1033137 2206:3.276787 2209:0.89941919 2213:0.43966275 2226:0.16470933 2228:0.84689623 2233:4.0169897 2241:2.582618 2255:1.8089415 2259:5.4862614 2261:4.004797 2263:2.6447535 2269:1.8481522 2270:2.7713897 2272:2.7428305 2273:4.5042067 2278:0.23970237 2280:1.3619486 2286:7.190248 2291:4.7156162 2292:1.7426866 2294:7.7556896 2297:3.7163973 2305:2.951395 2315:3.381897 2317:4.0791702 2323:0.11000258 2324:0.8229264 2325:0.02060616 2329:5.0879445 2331:0.3218002 2344:0.65731132 2364:1.5618867 2372:0.25725755 2376:2.6946235 2395:0.25996429 2398:3.9083202 2404:0.033064574 2407:0.37963074 2413:0.81614101 2416:3.0668998 2423:2.3629575 2424:0.68598187 2432:3.0069933 2434:0.055964977 2439:2.396446 2440:2.7594357 2444:1.086452 2448:0.76456594 2458:0.04764083 2459:0.68812144 2461:2.538048 2469:0.13880575 2480:0.24392314 2482:1.6358392 2493:0.81574321 2494:6.6901827 2498:1.9369438 2501:2.082154 2502:1.1143475 2507:0.48018557 2517:2.006959 2525:0.26780808 2531:0.62645793 2537:1.1938426 2561:1.5484544 2562:3.8536475 2563:1.057255 2566:5.2687755 2570:1.2178061 2583:1.5238576 2589:1.9009612 2600:1.2736392 2602:1.2422661 2619:0.36995104 2620:4.7715821 2625:1.0608943 2628:2.6794989 2636:1.0280036 2642:3.4036207 2646:2.4690268 2647:0.51847756 2650:0.40202969 2659:0.097110473 2665:5.4147053 2667:2.341352 2669:0.44304746 2672:1.0651447 2677:0.41166034 2678:4.4595966 2686:2.1396098 2688:0.45404938 2690:5.4187756 2707:1.2087411 2708:1.4676141 2721:2.4010692 2725:0.11118776 2727:1.1371567 2729:0.35577348 2736:0.2264019 2746:0.26401454 2759:3.2344735 2760:0.58125138 2769:0.44283044 2785:0.42802259 2795:0.81128192 2800:1.5446794 2802:0.24146113 2806:1.1935823 2816:1.380164 2820:0.36145568 2821:0.43690744 2828:0.74303538 2831:0.81663966 2838:0.69147468 2840:1.1755553 2841:0.27072585 2842:2.9748662 2843:2.0075166 2846:3.5208371 2853:3.6987104 2857:1.2657797 2863:1.4055394 2868:1.4878241 2880:2.9036455 2888:2.0582659 2892:0.81410831 2898:1.0106541 2901:1.7715124 2910:3.1048546 2912:1.5310249 2913:2.3204081 2915:3.5220354 2921:2.0766745 2929:0.18231845 2930:0.57599115 2934:0.42971197 2937:0.033604652 2945:0.95338988 2948:3.1726549 2953:0.11245832 2962:1.1141098 2964:3.0012305 2971:2.5912979 2972:2.908134 2974:2.6955912 2976:0.81959593 2982:1.8532473 2985:1.7044231 2992:1.1650977 2994:5.4518752 2995:2.7244768 2997:6.4521856 2998:0.30445397 3007:3.8929212 3041:3.40275 3048:3.6725135 3049:0.59208637 3050:2.0957861 3051:0.56964248 3052:2.9652228 3057:0.20923707 3058:0.37551183 3062:0.23236412 3067:0.16320792 3078:1.3277482 3095:1.2584296 3104:2.7264156 3110:4.1303539 3115:0.27231193 3120:0.60003126 3130:3.2610927 3133:1.3742774 3135:0.21160528 3149:0.038027525 3151:0.29147422 3162:3.2154701 3163:2.8766377 3169:0.76030219 3170:1.1370006 3174:0.50803214 3181:7.6243582 3183:0.32486373 3186:2.4164593 3202:1.872759 3216:0.59217077 3222:5.2374711 3228:1.7863491 3235:8.2748117 3253:0.34526885 3268:1.7431257 3272:1.7305045 3280:0.48174185 3287:3.6546395 3291:1.8852619 3296:0.4968473 3298:1.6617864 3301:0.12702757 3310:0.90385246 3342:6.3707676 3343:0.7422365 3370:2.7140357 3371:1.7191072 3383:1.1528547 3388:1.9287767 3390:0.34331164 3395:1.1759163 3396:1.4339553 3404:1.2090569 3416:0.21182549 3422:0.92479187 3424:4.5274282 3442:2.9441147 3463:1.7160765 3467:1.9912421 3471:0.673123 3474:0.43230379 3476:1.3614081 3487:1.9698708 3494:5.736382 3496:2.7532141 3504:0.26541969 3508:0.26448536 3513:2.6827369 3524:3.005091 3544:2.2545598 3549:1.9286189 3561:1.2163484 3569:4.4724355 3572:0.049415272 3578:1.3559425 3583:4.4527569 3584:1.4861983 3590:0.46801713 3602:9.1807489 3614:0.07354039 3617:1.3932638 3618:0.64297491 3626:1.12913 3627:0.093782991 3631:3.0134585 3636:8.1577854 3658:0.047046363 3660:1.8128397 3670:2.1051526 3672:0.51152283 3675:1.2106421 3690:2.6795938 3702:2.1948037 3704:0.75068307 3706:1.2234851 3713:1.8499951 3718:1.5442632 3720:3.6993833 3728:0.61452305 3729:1.0737106 3730:0.3069737 3731:3.7798519 3732:4.5242457 3734:1.1693009 3741:2.8140702 3744:0.27248305 3748:0.22273239 3758:0.69316596 3760:1.3534867 3761:2.7918673 3765:0.82125545 3774:1.2200384 3785:4.5912533 3796:0.4255659 3802:5.4624281 3833:0.52494931 3834:2.2149587 3841:0.38980085 3844:2.1559775 3845:0.72412437 3858:0.15675417 3860:1.9202669 3863:1.0876693 3867:3.2044063 3872:1.3083684 3881:4.3777127 3882:0.64206165 3888:1.5406475 3903:4.3058052 3905:2.4541929 3907:2.2072961 3909:1.7542897 3910:0.76828241 3928:0.11913872 3929:0.20304039 3937:0.19347636 3960:1.3525652 3964:2.0638502 3972:0.96345794 3989:0.91710436 3990:0.96331966 3994:0.25177318 3996:0.68424326 4001:0.46169567 4005:2.3248849 4006:0.76206321 4011:4.4457912 4013:5.9080648 4020:1.7652317 4021:0.032100245 4023:1.38241 4037:0.41227254 4049:0.63306051 4051:1.9760275 4052:1.5082785 4054:2.3374553 4062:2.2581317 4070:1.440161 4076:1.118206 4080:5.4072227 4085:0.25974381 4088:0.39276004 4090:0.47900438 4091:6.4161377 
0.007244659326873782 3:1.8844287 9:0.5775907 10:0.53651702 12:2.6136224 18:0.88475156 27:3.3107886 40:3.2674472 43:2.0772443 44:1.3817532 49:1.6679702 53:0.25496221 60:0.40805745 64:0.24043559 68:4.2330036 77:2.9916422 78:1.3691459 80:4.1784611 89:0.13771594 107:0.62033844 108:1.4859246 109:0.72281742 113:1.6402829 121:0.17658284 122:3.5126505 127:0.41797036 131:0.4078601 145:0.65713042 153:1.4236114 159:0.093841359 167:2.878144 170:0.20858276 171:1.7964581 172:1.6282485 173:2.0819128 174:0.21599647 190:0.14014789 197:3.203171 200:2.4415305 209:2.3128796 210:3.0792787 217:0.33184427 218:0.13616547 222:1.0571164 225:1.4205892 234:0.82153726 235:0.76180625 237:0.56066573 241:0.42149657 242:0.29720753 246:1.9269557 249:0.075283363 261:2.3937323 262:2.191962 268:0.11945806 271:0.51286632 274:2.0119627 277:0.94043672 281:0.74902546 286:1.4621297 290:2.1536071 297:2.1901708 301:0.62090111 302:4.3448415 311:1.1807188 312:4.9641271 314:0.82141364 317:0.33920103 321:3.3773842 335:1.8437681 341:2.1394401 348:3.0711896 349:1.6798838 353:5.549212 363:0.48041126 374:3.0569944 379:3.6061964 385:1.027319 390:4.1722059 397:5.3007092 414:0.3534421 421:0.98021412 423:0.028850228 431:1.5488745 433:1.6201178 435:0.25002822 451:3.275362 456:1.4225005 462:2.2853508 463:0.42555675 466:2.4002712 475:0.076378554 481:2.6508164 482:0.48685205 484:2.4773617 485:2.2413435 499:4.0722909 502:2.2797055 505:1.2607048 509:0.76853979 514:0.53265274 515:4.5423098 521:3.3762774 527:3.1984768 545:1.9357883 559:2.1114061 562:3.7381237 567:0.15387961 572:6.3042212 573:3.5176885 584:0.16197465 586:0.10536307 595:0.97122037 601:4.1652756 602:1.1198711 605:0.4899019 607:0.014592484 612:2.7733185 616:0.033124149 617:0.5366202 624:2.0968308 631:0.11361003 637:0.57844508 639:3.9688489 641:2.1800749 642:1.1050363 643:1.3242552 657:1.8664095 662:2.0758948 667:0.35962176 671:2.4927986 672:1.10228 675:0.99462426 677:4.5429511 678:0.34979108 687:2.2509456 693:0.77205545 698:0.084154367 700:5.4206295 705:0.42521128 709:1.1706433 717:2.6810844 718:0.079349458 720:2.2000101 721:4.1462111 722:1.9486446 725:0.58825099 730:1.4859304 732:0.94757187 741:1.9519508 742:2.0420911 743:1.2408655 746:1.037674 749:5.9810476 754:0.46636868 759:2.7623925 763:0.20039806 780:0.85029465 785:0.83079344 788:0.095362872 789:2.1757896 796:0.091606811 803:1.7355367 809:2.9479182 811:4.3240299 812:3.076026 817:1.7486057 820:2.6903124 823:2.237663 826:0.77634692 833:0.59946072 835:0.53332824 839:1.788897 841:3.3493044 846:3.8856411 867:0.0044674203 873:1.3378822 877:3.8357286 885:1.1615081 888:0.54612482 889:2.2041855 908:0.23918805 916:5.798275 922:2.5936623 925:2.8305383 928:0.84667867 930:2.2798467 932:0.43132389 935:0.71370912 937:3.4192677 945:2.1897535 948:1.1743194 965:1.6246336 966:1.3190187 968:2.1547091 974:4.2072768 985:0.11868355 987:0.23623806 992:0.57101607 1004:1.7742863 1013:0.65704894 1014:3.21334 1015:0.0082982183 1018:0.13776881 1021:4.3793921 1023:1.309759 1029:3.146827 1047:3.6889195 1049:2.5637994 1056:2.1573536 1080:2.7111001 1081:4.1005507 1090:1.8379576 1094:0.86006671 1096:6.1121292 1097:1.5676022 1102:0.37775066 1110:0.73282969 1113:1.1858987 1115:0.64367855 1126:2.5742488 1138:2.0800424 1149:1.5058507 1150:3.3452563 1159:3.0467088 1165:3.3712895 1169:0.5499413 1170:8.7137833 1171:0.67048252 1175:1.2817013 1176:1.4181803 1192:3.0436738 1206:0.096312776 1208:0.49801376 1219:5.0234213 1220:4.1693754 1223:1.0539529 1228:0.71084249 1236:2.2603257 1237:1.7593087 1241:0.13034293 1242:2.3439071 1248:0.078102887 1252:3.3278229 1254:1.3112613 1260:1.1947705 1261:1.029784 1271:0.82545453 1298:1.5251997 1306:1.5223504 1308:2.5373394 1319:0.80687374 1335:3.715306 1341:5.6758361 1345:0.48071927 1349:0.38615802 1357:2.6312644 1364:1.2172471 1365:4.5355377 1369:5.5933685 1374:0.7652539 1378:0.42935258 1381:1.2818944 1386:1.8734117 1387:2.0959125 1392:3.9551535 1416:2.318434 1419:3.4190779 1422:2.0169966 1430:2.7219715 1445:1.9568299 1450:1.6090689 1451:0.76222903 1452:0.72455108 1456:1.1259089 1459:0.54486835 1465:1.853115 1471:2.1099908 1479:0.14993963 1483:0.38892332 1489:3.4469912 1490:3.3524001 1502:3.01633 1506:1.6219188 1508:0.51434219 1511:0.55231762 1512:4.6398201 1513:5.0638218 1514:4.1366568 1515:0.35589451 1520:5.6538854 1524:0.61856037 1526:1.7095801 1538:1.0001957 1544:4.2459707 1546:2.4130449 1568:1.5148969 1570:0.47672182 1582:7.2010665 1587:1.0172077 1597:2.0175443 1600:0.4469693 1602:0.18008754 1605:0.63758165 1622:6.0680852 1624:1.0618471 1625:0.0058679432 1628:5.8723655 1636:1.0113364 1659:2.9867749 1663:0.56013376 1677:1.6865063 1679:5.447257 1683:0.78116369 1686:7.2999806 1688:0.12202662 1695:0.99189794 1696:0.98231953 1697:2.9109113 1700:0.78888214 1703:1.6086683 1705:3.3194449 1708:0.24659681 1709:0.12563291 1710:0.68415618 1712:0.22969544 1714:0.076959118 1720:3.1451542 1732:1.4704013 1737:7.1225977 1738:0.16837445 1748:2.7489278 1751:3.7531774 1753:0.55997723 1763:0.58105761 1772:0.38258648 1783:1.3176525 1790:1.3279437 1792:0.36399648 1794:0.34263611 1799:2.1826398 1800:5.5540423 1804:0.55352223 1806:1.7942107 1811:0.022396564 1813:0.14140221 1817:2.7308702 1819:0.35680586 1824:2.7512231 1833:1.1925099 1845:5.8684144 1846:1.3577665 1852:0.22231439 1855:0.022590727 1856:1.7791431 1857:4.5293431 1867:0.58680522 1873:0.2010597 1876:1.1706285 1879:2.7376382 1881:0.33912927 1912:3.842963 1926:0.81153762 1928:0.71270812 1942:3.7039709 1943:3.9669092 1956:0.077132404 1958:2.7288313 1959:0.0044042468 1967:0.92971069 1972:2.5315216 1974:3.6301675 1990:4.0665755 2022:2.1324103 2026:1.6931417 2031:0.98908919 2038:1.4494621 2041:0.74910909 2042:0.20925045 2048:0.717628 2050:1.3505027 2061:1.3987424 2065:1.1646316 2071:0.48349363 2081:0.69493973 2083:1.6181211 2085:4.7121544 2099:1.0848891 2100:1.0854073 2102:3.0697682 2105:0.010489717 2110:3.8774128 2117:4.0973377 2144:0.25332323 2151:0.320353 2156:2.1867707 2159:2.8216624 2164:0.020243542 2174:1.2706397 2176:2.0684822 2178:0.11318466 2179:1.3768241 2181:4.7250481 2186:4.7393556 2187:0.096551701 2196:0.94349587 2199:0.70492893 2202:5.2874928 2203:0.492578 2206:0.7124933 2214:2.3930399 2216:0.096901089 2218:1.1278265 2223:2.6463006 2226:0.66877425 2229:1.2027186 2239:0.94033235 2241:3.4655232 2249:2.4876595 2255:0.35295093 2259:5.3926816 2263:1.8678468 2269:0.60284591 2270:4.3011203 2271:0.78804851 2275:0.46107319 2286:8.0086756 2291:3.18155 2292:4.562716 2294:3.6688628 2297:2.0098403 2300:1.2193727 2305:0.66376466 2307:2.4420748 2311:0.37002677 2314:2.6787219 2315:0.10460612 2316:0.59565276 2317:3.4791141 2329:4.0824757 2332:2.6410642 2337:0.98953736 2348:3.6915982 2358:1.6259725 2376:5.7505765 2405:0.76105976 2413:0.29381102 2416:9.1840363 2422:1.4316223 2423:3.981549 2428:2.6252544 2432:1.3009993 2435:0.91230774 2436:0.54377234 2453:0.92739588 2455:0.19349255 2457:0.51155591 2458:0.91336131 2480:3.5736363 2486:1.0942409 2488:0.58948231 2497:0.5818882 2501:3.4035578 2519:0.68763876 2520:4.2493272 2526:3.9644203 2535:0.36551011 2554:0.25099421 2560:3.4954362 2561:0.28493276 2563:4.2901793 2566:2.2342718 2570:0.090487003 2574:0.05953294 2589:1.1016259 2592:4.4168682 2600:2.5726991 2608:0.57756376 2614:2.1572988 2619:3.0762179 2620:1.7916565 2625:0.49616063 2628:0.11273384 2636:1.3318257 2637:0.9177444 2642:3.9981456 2646:1.3423009 2656:0.2678951 2669:2.2715056 2672:3.0420458 2674:0.53352255 2678:0.65773916 2688:3.688051 2690:4.1287622 2693:0.050420672 2701:0.78181994 2707:3.1229658 2708:2.5000916 2717:0.08678446 2720:2.6016188 2723:3.4982214 2726:1.172033 2732:2.5456655 2736:2.1803911 2738:0.94153571 2745:1.7283443 2747:0.08938697 2759:3.8838596 2765:5.400764 2766:1.0885711 2777:3.7277002 2778:4.5812869 2784:3.4148548 2790:3.7370045 2792:1.9140838 2795:0.028091699 2798:0.98562813 2802:2.6268768 2805:0.987791 2808:3.6588616 2811:0.50478548 2814:2.3261642 2821:2.1775758 2826:0.19138455 2828:0.030870393 2831:3.8809812 2834:0.92670381 2838:1.0390843 2840:0.054724991 2846:1.6324998 2853:3.4947906 2864:0.60827154 2865:1.2443209 2867:0.81006241 2879:3.8132222 2880:2.015851 2882:1.5664395 2888:0.5634619 2892:5.1985707 2896:1.9296864 2901:1.3370508 2920:0.44462627 2928:1.2554181 2929:2.4754324 2938:1.12516 2941:0.28753886 2945:0.38503456 2953:0.38221687 2958:5.1086555 2962:2.2747488 2966:3.2642503 2967:0.30659783 2971:5.4892907 2974:3.3442447 2976:0.82797033 2982:6.235126 2993:2.5749314 2995:2.8732257 2997:0.49966019 2998:5.4411798 3007:0.47304261 3020:0.2890026 3028:1.3634232 3035:0.37693021 3036:1.728376 3041:0.83091205 3048:0.41609398 3050:2.9112716 3052:1.0484979 3057:0.20769805 3066:1.9096946 3067:0.21543011 3072:1.8554931 3075:5.8733106 3078:2.7635648 3079:2.1548047 3087:0.38334846 3110:1.3959539 3114:1.0017369 3121:0.059181869 3130:0.29422238 3133:0.024091616 3141:1.3001535 3144:0.71356839 3146:0.81158656 3154:2.1614499 3162:1.5861967 3163:0.27300814 3166:0.58294016 3167:0.18442059 3169:0.28889278 3172:4.1907253 3174:0.77608335 3181:4.0648098 3182:4.6805859 3183:5.9151516 3195:2.2989087 3222:8.3916874 3226:2.0896606 3233:0.056821965 3235:5.3139939 3237:4.9598737 3241:0.61628407 3260:1.1458973 3271:0.92616135 3277:0.61772901 3280:0.52183312 3282:0.32940423 3287:1.4284565 3291:0.24867204 3309:0.22691783 3314:1.0009997 3321:1.087499 3342:2.389334 3343:0.84595543 3348:1.614496 3349:0.39490366 3364:0.60689932 3366:2.3595665 3375:0.056245148 3386:1.3845048 3388:1.3601645 3390:0.99018347 3395:2.1809721 3396:0.86901724 3414:0.25272697 3424:0.86709756 3442:5.5331268 3444:1.124439 3451:2.0394268 3465:1.4421417 3467:0.20900649 3471:2.6118455 3474:1.4985332 3494:3.4412074 3496:3.1066201 3504:4.1338768 3508:0.70868063 3513:2.2296011 3531:1.6287112 3538:0.80137694 3539:3.0057025 3544:2.5677845 3548:0.59627426 3561:1.9764926 3569:0.68500578 3576:1.9454929 3580:0.80020046 3584:3.2785304 3585:2.3592436 3594:1.1859711 3598:1.5102687 3599:5.5799422 3602:2.3968177 3603:0.30522305 3604:0.82443297 3608:2.8285446 3614:1.7786504 3617:4.3519297 3619:0.42806715 3627:2.6275342 3636:0.25698459 3643:1.2149919 3644:2.4386179 3649:0.007954061 3650:1.0729752 3652:0.5901047 3655:0.55554062 3657:1.000245 3658:0.93009675 3660:2.7645843 3670:1.4706224 3675:0.16029653 3684:0.19407982 3690:1.9901657 3715:1.7582021 3724:2.1252456 3729:1.9433461 3732:3.7175539 3734:0.99739373 3746:0.19175066 3748:0.94380695 3752:4.4744024 3765:3.7195232 3766:2.9095297 3771:2.3142686 3774:0.15626183 3776:0.17693569 3785:3.8208215 3789:2.3883004 3793:0.81404102 3802:4.6850805 3808:2.144778 3819:1.6547213 3826:1.7768149 3836:2.6027322 3837:5.0311661 3841:3.2429488 3845:1.8362001 3865:0.0050994754 3872:3.1118562 3878:1.1343763 3882:0.93866253 3885:0.45430639 3888:8.3689861 3892:3.1898255 3895:0.83788407 3903:2.5589011 3909:1.1772248 3910:0.70849115 3922:0.42794111 3927:0.30499125 3928:1.1980984 3929:4.5083041 3937:1.0780346 3976:0.3301838 3977:0.70188367 3985:1.0345168 3988:2.0072174 3992:1.5112917 3994:2.3548098 3996:0.58359843 4003:1.2442628 4007:0.18887487 4010:2.0682614 4011:1.3000407 4013:6.6148353 4018:0.24222657 4021:1.0803903 4023:3.140121 4036:1.8578529 4041:3.3670764 4051:1.2601275 4052:0.5862695 4061:2.4243498 4069:0.88153803 4079:1.3789467 4080:1.14408 4084:0.0046261549 4085:2.0860043 4091:4.2545648 4092:0.10802567 
0.4071841996621675 3:0.27219501 9:3.3379269 12:0.16030328 13:0.48334771 14:1.0818712 18:2.0402167 19:0.32468259 25:2.5603282 39:3.213558 41:0.18130752 49:3.0631347 58:0.58889437 60:2.4087076 64:1.0196612 65:0.64994776 66:0.81694919 68:7.141809 75:0.80060041 78:1.1918147 80:2.2728899 96:0.63448894 99:2.9565077 100:1.2181151 101:4.7236609 103:0.87104684 106:0.77354646 107:0.50091887 109:2.0016146 121:3.064549 122:1.7226229 128:3.7267406 131:1.275508 140:0.5313493 149:0.24445869 152:1.4416333 159:1.4349265 168:0.30978245 170:0.76116306 172:0.50905514 174:1.3294553 181:0.073255718 182:0.91553915 190:0.93300211 197:5.7367668 198:1.0000724 202:2.731863 208:0.90656805 218:0.42288938 225:3.1434722 234:0.74979138 238:4.5831547 241:0.12123719 246:1.6793225 252:2.5137999 258:0.26903379 259:0.017067529 264:1.105763 268:1.6236523 277:1.9518766 283:1.1420991 288:1.3105423 290:3.4791899 293:1.1051298 298:0.5466727 302:0.77939665 309:2.1250091 312:3.1888666 321:5.6624317 327:1.9794344 329:1.4328431 335:1.5042839 341:1.3293134 346:1.0150857 348:1.3221809 349:4.8725281 352:0.459741 357:0.58158028 363:1.0532012 368:0.56872392 379:0.1963475 387:0.39630073 396:1.0695171 397:0.068636239 406:3.4154038 421:6.7231212 426:2.1232953 431:6.5202184 433:0.61202085 435:1.6662939 441:2.2887962 442:0.42105281 455:0.33841076 459:0.49384248 462:1.1988471 466:0.34673533 475:4.237308 481:0.47404528 488:2.7686892 499:0.18232951 500:2.6338446 502:2.25108 508:2.5793002 513:0.77062321 514:2.6158419 515:2.5118108 519:0.52534938 524:0.36499316 527:2.4740548 532:0.17604388 539:2.0211501 542:1.3864175 544:1.3735631 545:3.8278854 546:0.20251805 548:2.195507 559:2.6471651 567:2.0170577 571:0.77074921 572:3.0226572 588:0.067755699 595:0.13555694 597:3.7388654 602:3.2634251 605:1.0838858 606:0.14195251 609:1.219014 611:0.028953016 614:0.11550863 617:2.5877051 618:4.0058503 624:0.20525691 631:1.3493465 635:1.5461497 637:0.65580678 639:2.549114 642:0.38081625 643:1.6296146 644:3.4306149 647:0.54889667 654:1.0333652 661:1.7525331 665:1.5918727 670:4.2322392 671:3.5329709 673:0.3129417 676:0.072969645 677:0.50889814 690:2.0384974 695:2.3954072 700:2.5552654 705:1.4030701 709:1.394012 717:2.5253904 721:0.99245274 722:2.1727417 725:0.068471789 741:1.854578 742:0.23801652 743:5.7706733 746:1.8638057 749:4.0710988 754:0.73581266 758:0.083558798 763:2.4417589 764:2.4811711 769:1.6545451 785:0.77134401 789:2.433908 796:0.088342398 801:1.1285486 804:1.4707483 811:2.0204802 812:2.1460333 814:1.8122385 817:2.817589 818:2.0854356 820:1.5559615 821:0.26144665 823:0.35345814 830:0.43722007 833:0.64090258 841:4.4667454 857:0.055369318 859:1.7662599 873:1.9177618 879:3.203793 881:0.39243674 896:2.0786586 899:0.46847403 903:0.52909684 916:2.6393256 918:1.1802571 922:1.7314379 925:2.9439096 927:1.0204951 931:1.2638631 937:0.62866706 943:1.809635 945:0.21746817 953:4.778439 966:3.4756904 968:0.035235673 973:0.98798507 986:0.38743377 987:0.40383312 995:0.67763811 1004:3.7360344 1007:0.8220365 1013:0.51415372 1014:1.9807781 1021:6.2463565 1034:2.2424805 1041:1.1572481 1045:0.91588169 1047:5.9514403 1049:2.8393626 1054:2.4665174 1067:0.85130262 1080:0.45538613 1081:3.2856748 1089:1.3452446 1096:0.5031805 1098:0.60811448 1107:2.2998819 1110:0.85649192 1116:1.0337245 1120:2.1724818 1134:4.4973383 1138:3.5077579 1149:0.036971539 1150:2.7091148 1168:0.13878927 1169:0.32654443 1170:7.5859165 1173:0.24750513 1175:1.873965 1187:0.048424527 1188:1.0863737 1196:1.4488723 1199:2.0430911 1203:4.0154753 1208:1.5544047 1213:0.63362074 1215:0.62956005 1217:1.3606603 1218:3.6816399 1219:4.6406651 1220:0.56525284 1223:3.1394217 1232:0.095580161 1235:3.6127524 1236:5.3819919 1237:3.6360869 1241:5.9495802 1242:3.7789779 1252:0.44471925 1260:0.41582543 1268:0.012908608 1271:2.7670946 1272:2.967804 1290:2.7686129 1306:2.1075768 1308:1.001218 1313:1.2156727 1314:2.9318402 1329:1.0527959 1330:1.1136178 1332:0.15774697 1335:3.4052954 1341:3.4421127 1342:2.1318984 1346:0.13511173 1362:2.4279416 1364:1.9896919 1365:0.49069205 1369:6.7151136 1374:2.7645528 1376:2.4959629 1381:2.5352688 1386:1.0127528 1392:1.3827268 1409:3.0200286 1416:2.5808318 1417:3.4084094 1419:1.0118568 1430:0.059729576 1433:0.68582797 1437:1.121399 1445:0.67994285 1456:0.02981776 1459:4.5913739 1472:3.9055924 1483:0.85142839 1489:2.3487675 1497:0.99158132 1509:0.36875123 1512:1.1659937 1513:0.62935495 1514:0.45797771 1515:1.8940599 1520:3.0780513 1526:0.65808666 1539:0.071604043 1546:1.3304069 1554:1.3048824 1555:1.7690333 1568:2.2492385 1582:2.5199854 1585:0.040672094 1597:3.118012 1598:3.3580427 1602:2.0542369 1604:0.17245905 1607:0.47171193 1627:3.6652524 1628:0.98424023 1629:1.0671064 1647:1.0828308 1658:3.2443247 1661:4.1535172 1665:1.9626929 1670:1.7480663 1679:6.590857 1683:0.28454301 1696:0.80173916 1701:1.7652928 1712:0.86842966 1720:1.9127795 1723:2.356467 1728:6.4449883 1738:5.201889 1739:1.4182796 1751:6.082305 1753:3.0030663 1755:3.3011246 1763:2.045393 1765:0.21311635 1772:1.3713878 1782:0.91927713 1786:0.67943001 1794:2.5357413 1800:3.2804737 1806:1.5606821 1813:1.9294701 1815:0.43014705 1817:5.2662196 1824:2.3154149 1825:1.8771502 1833:2.6087465 1837:1.8378164 1839:2.2038648 1857:4.4380097 1860:5.0166378 1876:3.3270121 1879:0.65578413 1880:3.090353 1883:2.6702383 1885:1.1342434 1892:0.31217527 1899:2.0350034 1902:6.4130759 1905:0.88071084 1912:1.1586931 1918:1.0995538 1925:0.018538475 1930:0.94174898 1932:0.71364737 1941:0.5424732 1942:2.53688 1943:2.9239271 1950:0.075639397 1956:0.40911013 1973:3.7392328 1974:3.2536232 1987:0.88094336 1990:3.2732165 1999:0.49721989 2004:1.6256006 2005:0.21408591 2006:0.82148695 2022:3.2598109 2026:3.2787957 2038:2.6195736 2044:0.8397367 2053:0.91077852 2057:0.49447608 2058:0.56100708 2065:1.7398155 2071:2.6011829 2081:1.0607746 2083:2.7829466 2085:2.3306615 2094:2.4648147 2099:0.34385264 2101:3.0346191 2102:2.6735089 2110:4.2416701 2115:2.8605509 2137:2.0195918 2138:2.2603676 2157:1.1648804 2158:1.97776 2164:5.4747658 2168:3.0464544 2172:0.8192656 2174:1.3926353 2177:2.5913198 2178:1.2186213 2186:0.0027164817 2189:0.4582563 2190:0.3245621 2196:4.3838773 2200:0.030774355 2202:1.501524 2206:2.0363111 2212:1.7224 2216:1.2741293 2226:2.7707014 2236:0.56893671 2241:4.0977306 2244:0.87744379 2259:5.7301841 2261:2.5655687 2262:1.2808815 2263:0.75020564 2265:0.94776738 2269:3.0688391 2271:2.6864061 2273:2.4387884 2274:0.16938771 2280:0.60221088 2282:0.3871882 2286:5.9446006 2291:2.0396199 2292:2.4089873 2294:7.2247586 2305:3.3287163 2307:0.77262127 2314:0.39744312 2315:2.7981122 2317:2.5291526 2325:1.5636671 2329:7.776752 2343:3.178118 2344:1.4738606 2346:0.89307368 2356:0.97040743 2357:3.4422464 2365:0.13220629 2369:0.31959015 2372:0.8772856 2374:1.8241913 2376:3.6368723 2381:0.33677274 2398:1.4887562 2404:0.86636698 2413:3.4071538 2416:1.5574015 2420:0.86539239 2423:4.6784663 2424:6.0422997 2432:1.6310363 2434:1.4176781 2435:0.9673053 2440:5.0527787 2444:1.7024986 2464:2.3658612 2474:0.16851477 2482:1.0321641 2487:0.020000577 2493:1.6317723 2494:4.402246 2502:0.30736741 2507:1.5480456 2508:0.31242335 2516:2.1488626 2519:1.032885 2525:1.3615806 2551:2.0863225 2561:1.0597458 2562:0.41642824 2563:4.589499 2566:4.1345301 2576:0.42907506 2577:2.6582103 2589:2.0439053 2590:1.51647 2600:2.3421898 2601:0.022212595 2602:2.5443687 2608:0.078869671 2611:2.1672087 2619:2.0502157 2620:1.8671229 2623:1.032245 2625:3.0429823 2628:1.7338028 2636:3.4411986 2638:1.1885375 2642:5.0667124 2646:0.99819237 2647:0.36485156 2665:2.5654833 2670:0.79807496 2672:0.87900245 2678:5.741394 2679:1.2421358 2686:2.8329844 2688:1.5760003 2690:7.2106562 2693:3.6220965 2707:0.86460847 2708:2.5997696 2721:3.3740845 2727:4.3993754 2736:0.82108796 2738:0.28663686 2742:0.49901929 2759:2.2880368 2760:0.82273138 2765:0.87900448 2769:0.0627909 2775:0.3564111 2779:1.6702712 2785:0.70468032 2787:2.4118629 2800:2.1906095 2810:1.4891042 2811:0.11005679 2814:0.42562652 2828:1.0029764 2831:4.5059152 2838:2.3787141 2840:1.0072672 2841:1.0958021 2842:3.1349163 2843:1.679943 2853:1.982532 2857:1.8243864 2863:2.0936415 2864:1.4661216 2868:0.29913801 2872:0.33581236 2880:3.5201476 2888:0.72841632 2892:1.4021831 2895:0.52725482 2896:1.6845845 2898:2.1566224 2900:1.9223373 2901:3.5812764 2907:0.41562051 2912:0.58629686 2913:2.140527 2915:2.8320467 2920:3.5134404 2921:1.5524074 2928:1.9559859 2930:0.092353284 2934:2.0351591 2936:0.38184077 2945:0.99255216 2949:1.15967 2953:1.5520957 2958:2.1670818 2962:1.0679747 2963:0.54480892 2971:0.13306494 2972:1.5630195 2976:1.8366623 2982:0.89624101 2985:1.6055607 2993:1.2633271 2994:1.5057086 2995:3.9354825 2997:3.6432719 3006:0.22373003 3007:3.4556165 3022:0.47352421 3024:0.72289395 3043:1.6017013 3048:2.4162209 3049:3.118911 3050:0.20337725 3052:0.33667058 3057:3.0734324 3061:1.8348351 3068:0.13300046 3070:0.16311345 3073:1.4926853 3075:5.222755 3085:0.27940416 3095:0.059701681 3097:0.065297008 3104:2.8324056 3110:3.3258665 3114:0.43186316 3117:0.849042 3130:0.35784155 3139:2.1739411 3141:3.2689528 3146:0.82212353 3149:0.47116676 3160:0.2257431 3162:1.5712461 3163:3.0343261 3169:0.41773376 3170:2.7691076 3181:6.6328835 3182:0.4096449 3183:2.4934433 3186:1.6343979 3198:0.64691639 3202:1.2612071 3215:1.0840006 3216:2.3907881 3220:0.80068183 3222:8.9662933 3227:1.6628232 3233:2.3620067 3235:8.2009487 3237:1.760641 3241:2.3670211 3246:1.415514 3250:0.35089511 3252:2.548888 3253:5.1327982 3264:0.31064305 3268:0.83933258 3272:0.15727463 3275:1.7633027 3277:0.36752981 3287:4.8425875 3294:1.392552 3301:0.6912095 3309:0.29910821 3321:0.1979911 3342:2.6038227 3350:1.3387132 3370:0.46052068 3382:2.4890461 3383:1.0452176 3387:0.86050063 3395:6.23207 3396:3.1842809 3397:1.6225841 3404:0.70384669 3422:1.4908864 3424:2.3052893 3427:0.11282176 3442:5.100966 3461:0.44038269 3463:4.0989685 3465:2.9787898 3468:2.2422175 3471:0.11598527 3485:0.30126882 3487:1.5585743 3489:1.2078861 3496:1.0763512 3504:2.4615359 3507:1.0777981 3511:0.67405176 3512:0.53414828 3517:1.0358412 3522:0.74658096 3524:1.0702469 3537:0.083144367 3544:2.4011753 3563:2.3051832 3572:0.062816516 3576:1.9080153 3578:3.7708142 3580:1.6615012 3583:1.9917022 3584:3.7094741 3585:0.40986362 3593:1.5229901 3598:1.1206216 3601:0.50617641 3602:6.8924723 3606:2.2692719 3610:0.14523295 3620:0.078236878 3626:2.2897987 3629:0.81318915 3632:0.51382697 3633:1.8553654 3636:4.9413567 3637:0.47207993 3638:3.5105879 3650:2.5172832 3654:0.017089903 3657:2.6426225 3660:2.679543 3670:0.68834597 3675:1.5546265 3680:3.5194886 3690:1.963057 3702:0.17787792 3704:0.59412324 3706:0.85710984 3713:1.8094332 3724:0.71826202 3728:0.34786463 3731:1.7040524 3732:5.5623455 3734:2.8900344 3739:0.27944213 3741:1.1073362 3743:0.69454837 3751:1.2917995 3760:1.9874724 3765:0.94783044 3769:2.0115993 3771:1.7003864 3774:1.2056063 3778:0.76438451 3785:7.3071718 3795:2.1262751 3802:2.9856443 3804:2.2985301 3826:0.86659503 3837:2.8720598 3841:0.6096158 3844:0.61297518 3845:2.8131814 3848:0.86013627 3854:0.35547045 3867:3.4711323 3870:0.35845444 3872:3.2580819 3880:1.0603914 3881:2.54687 3882:2.2954166 3888:4.5177569 3889:2.6099412 3895:0.26251686 3903:1.9050863 3905:1.8524756 3907:0.77359766 3909:1.4785321 3928:3.4407544 3929:1.1643575 3932:0.23802005 3936:0.43485963 3937:1.0413014 3951:1.2521441 3963:2.3361397 3966:0.34680557 3972:2.9522612 3973:2.0512552 3974:1.1944165 3984:0.48174083 3990:2.1314206 3994:1.5246119 3995:0.17189346 4002:0.37793893 4004:0.91631109 4011:3.2094648 4013:4.9708719 4019:2.2476079 4020:2.041558 4034:0.11418914 4035:0.61196911 4037:1.2839248 4043:2.5207059 4051:0.66961265 4056:0.45323449 4058:0.52119768 4062:0.19781607 4072:1.7678614 4077:1.0464971 4080:4.1721721 4085:1.7309484 4091:5.329206 
0.1794711769161097 9:5.2566161 18:0.22981599 25:0.46579981 39:3.0363362 40:3.6512733 49:0.512371 53:0.72629333 60:2.1098685 63:0.094798356 64:1.8955455 65:1.1671189 68:7.8040438 76:1.2450542 78:0.88050568 79:0.73686457 96:3.1507528 99:1.2532213 100:0.54535204 101:3.2906508 103:0.3351728 106:1.6423979 109:3.4905243 121:1.2249738 128:3.659451 131:2.4382989 145:1.1556044 152:1.9686822 159:0.35614288 160:0.17507169 168:1.2625644 171:0.96087027 172:1.3560132 174:4.4172735 179:0.97811997 182:1.6620306 197:4.8794322 198:1.8871781 202:3.9361134 218:3.1539173 224:1.2025819 225:2.1846828 234:1.0557107 238:2.3121312 242:1.1274476 252:1.9742661 281:1.4993955 282:0.27284628 288:1.1582371 290:1.4892454 302:0.51772773 307:1.4346991 309:4.3175497 316:2.7085099 321:11.980612 327:3.1637874 329:0.54715848 334:5.6258707 346:0.79838562 348:2.3433931 349:3.194427 357:0.98430467 363:2.2120168 387:2.71156 396:0.75963271 404:0.83817053 406:1.5981165 414:2.3278246 421:6.4540768 426:6.6110888 431:8.0135641 435:7.3249192 441:4.6413841 442:1.7477398 459:1.0855932 474:0.21894905 475:4.1123686 486:1.0820558 488:5.330029 489:0.01507479 491:1.0539576 499:0.46078837 502:1.3859316 508:2.3081269 512:1.4266666 519:0.1959033 521:0.66627264 526:0.81850684 527:1.3105127 529:0.57730871 532:0.43064243 537:1.7389249 539:0.25326717 540:0.83589578 542:1.6174978 545:4.9054008 548:0.26589322 559:0.98088431 564:1.492784 567:1.9299427 571:0.0071025789 572:2.6568782 597:4.0306573 602:1.392294 605:0.27247792 606:0.89181352 609:3.2900765 617:3.3131757 618:2.9941659 635:0.29328272 639:5.952002 642:1.739689 644:1.2154568 647:1.0849503 654:6.4363208 665:1.253835 670:1.6670748 671:1.8653785 676:0.22354205 695:1.0154837 705:2.6807799 709:3.0022657 711:0.30080232 717:4.1793756 718:1.5058458 720:0.78791374 722:0.95995939 727:0.29316711 741:0.15144461 742:2.7908614 743:3.2961595 746:2.0590734 749:5.236475 763:1.9907436 764:3.5822074 778:0.47613594 785:1.1768934 789:1.0333642 790:1.0514727 801:1.5097858 804:5.1689892 813:0.99068868 814:0.62655842 817:4.1676192 820:1.7664887 833:1.6387933 841:0.98918575 842:2.6765554 879:8.1566153 881:0.72771108 887:0.42639476 896:0.87967235 899:0.44186473 909:3.539886 910:0.1801838 916:5.1434331 918:2.6864777 925:1.7765319 928:0.98827666 930:1.4468834 931:3.145865 938:1.483387 941:2.1194508 945:2.8347416 953:5.9474616 966:2.3064837 968:3.7212696 988:0.60350692 993:0.62941217 996:0.050130188 1004:4.7808657 1007:1.9492888 1013:2.8834367 1014:2.6944289 1021:4.4854321 1022:0.10381345 1027:1.2121662 1033:1.7211068 1043:0.15515605 1047:5.3340974 1049:3.4879956 1050:1.875551 1054:2.1989124 1060:1.2348694 1067:2.8057432 1071:0.88838083 1077:0.44798464 1078:0.40763274 1081:4.745398 1089:2.0689974 1093:0.79207927 1098:1.3037583 1107:2.5650046 1110:1.5220653 1115:2.6063299 1116:0.74349999 1134:3.516927 1138:1.2109234 1150:2.8747766 1159:0.015829444 1169:1.324555 1170:9.7966862 1175:0.05360904 1187:1.0021372 1188:0.96943599 1193:1.2714124 1199:0.3416425 1203:0.015565306 1212:0.40420327 1213:0.008466661 1218:3.561913 1219:1.1526725 1220:0.6231842 1221:0.4070527 1223:3.8266983 1231:0.36381841 1232:1.3353167 1235:1.1886487 1236:3.2863185 1237:2.1628568 1241:1.9990853 1242:3.4327686 1244:1.630156 1260:2.3400798 1271:4.2418709 1274:0.53772104 1276:0.024787076 1290:4.4561057 1297:0.21296898 1306:1.3647175 1313:2.0538712 1314:2.2872283 1329:2.9849765 1335:7.2999334 1341:2.5896189 1342:2.829957 1364:1.2591337 1369:9.2763691 1374:3.840873 1376:5.2438946 1381:1.5297552 1392:1.445572 1406:0.90419 1409:1.7991588 1416:1.8501353 1417:1.5178065 1419:2.2661905 1428:0.95719951 1433:0.16904441 1437:1.7083473 1454:1.1487448 1459:4.4459987 1464:1.9404246 1471:0.42010447 1472:1.2002974 1474:0.39405638 1480:0.49715441 1483:0.92292297 1489:1.4590336 1496:2.8571613 1497:2.6001804 1507:2.7383299 1515:1.6525247 1520:0.13848895 1526:1.4221017 1535:0.34319958 1539:0.7066958 1544:0.72525632 1548:1.6031039 1552:4.5491052 1554:2.8014946 1555:1.0737679 1568:1.2445719 1570:0.73747599 1580:1.5030264 1582:2.0033 1585:0.073149443 1597:1.6940396 1607:1.7315487 1616:0.25395262 1621:0.24617946 1627:4.103518 1628:1.8907681 1629:4.084199 1647:2.2405519 1652:0.38170987 1661:2.9530439 1665:2.589962 1670:0.32787177 1679:5.1608891 1696:1.7005361 1699:1.0602198 1701:1.1048836 1704:0.50251073 1712:0.25698078 1720:2.249362 1723:4.5002365 1724:1.0587077 1728:8.5239172 1730:0.33690101 1732:1.1005714 1734:0.58265853 1738:3.8633749 1739:1.6913576 1748:1.091701 1751:5.7017794 1753:2.2824814 1755:2.3897395 1757:0.061838239 1758:0.82165366 1761:0.13375366 1763:3.3347754 1765:5.1028919 1772:0.025246978 1785:0.11000588 1786:0.082897931 1791:0.19568838 1794:0.68283123 1800:5.6751866 1813:0.58288276 1817:4.6717997 1824:2.302808 1825:1.6057317 1833:2.9055719 1839:1.2184767 1845:0.98148555 1846:0.69076049 1852:1.0123991 1857:0.92396116 1860:1.1537353 1870:0.26391017 1873:1.0524826 1876:2.2824922 1880:2.4151208 1883:5.5106606 1885:0.5999192 1891:1.1476088 1893:2.0557177 1899:0.64140499 1900:1.9171792 1901:1.9825344 1902:5.9511452 1908:0.17843828 1912:0.38699472 1917:1.1835641 1918:3.2097807 1925:1.2078978 1930:0.90562606 1941:1.7681704 1942:5.2279043 1943:2.9408283 1948:0.72755003 1950:3.9998932 1956:1.7300537 1957:0.23278292 1973:2.7795007 1974:3.9437737 1976:0.80625522 1984:1.6006011 1999:0.26227695 2004:0.61125839 2022:3.5625408 2026:2.5236983 2031:0.16362633 2038:3.389744 2057:3.2249212 2058:0.23438805 2065:0.74000847 2081:3.0026901 2083:1.8576765 2085:3.2648823 2094:2.5862679 2101:0.83772713 2102:2.0634334 2110:5.3493223 2115:2.8395598 2127:4.0015974 2132:0.22549015 2137:2.2562845 2138:3.1135013 2157:0.53511739 2158:1.010803 2162:2.4808207 2164:9.4458647 2166:0.0062135458 2169:0.56264865 2172:0.084341735 2174:2.0998964 2177:1.0563878 2181:0.93409437 2186:1.0757179 2187:3.5557926 2190:1.1643639 2196:2.1647224 2206:2.1773942 2212:1.5157406 2226:2.4601283 2229:2.9263003 2233:2.194515 2236:1.7862908 2241:5.8658118 2244:2.0651765 2251:0.14478715 2259:7.1461205 2261:0.22542381 2262:0.46618575 2263:0.78821188 2269:3.0875063 2270:0.55688781 2271:1.0255331 2272:1.2989877 2273:0.26931298 2275:0.071372569 2280:4.3587184 2285:0.082092017 2286:5.2969556 2287:0.016067296 2291:2.6760175 2292:3.1317394 2294:6.6591654 2305:1.8835642 2307:1.4423603 2309:1.2800649 2310:0.46248612 2315:5.2013812 2317:2.1854763 2325:2.2094326 2329:10.101118 2343:2.6368554 2344:5.0270109 2346:0.81588304 2351:0.83385432 2357:1.3354398 2364:0.47446123 2372:0.20134926 2376:5.6151071 2378:0.99380034 2381:0.34962344 2394:0.67886531 2402:2.3029602 2404:1.0098735 2413:4.1474218 2420:2.8397341 2423:4.3211651 2424:3.4169712 2430:1.249155 2434:1.8187796 2440:4.9610548 2448:2.1380427 2461:0.22770092 2464:1.9044061 2493:2.6603856 2494:4.5470181 2508:1.069768 2516:2.9947784 2525:0.42687428 2551:0.7681514 2555:0.14746726 2561:3.5612166 2562:0.50014853 2563:2.2150416 2566:4.5116558 2576:2.5713301 2577:4.0668659 2580:0.099948093 2589:2.6823254 2590:4.2637138 2600:4.3323722 2604:2.4130344 2611:2.3984847 2624:0.92887473 2625:3.8622279 2628:2.1800978 2636:6.0208883 2638:1.603231 2642:4.9667263 2647:0.42235893 2653:0.47927052 2665:0.479177 2670:2.1841023 2677:0.23148358 2678:1.8712536 2679:2.9585705 2688:1.9008962 2690:6.44104 2693:1.3656764 2695:1.5752016 2705:0.20650613 2707:0.97725338 2708:0.56739998 2721:5.5117092 2727:3.4855247 2736:0.28237584 2738:1.4766612 2760:2.1159027 2769:1.5120591 2775:0.013442039 2779:2.2052681 2784:0.1825899 2792:0.43868017 2800:1.1807457 2805:0.1501499 2810:2.2791657 2820:0.22595651 2828:3.5403903 2831:0.10832739 2833:0.97818178 2838:0.13004789 2840:0.60946137 2842:1.1942939 2843:0.28621414 2852:0.38275447 2857:2.2466309 2863:1.1585864 2864:1.7374631 2865:1.6461356 2867:0.12965274 2879:2.0391648 2880:2.8092594 2891:0.021811515 2900:3.6526067 2901:4.5707951 2912:1.5911181 2913:3.095957 2915:0.035183609 2921:1.8370448 2928:4.3459105 2934:1.3987952 2945:1.8675606 2949:1.0552468 2953:2.7440062 2958:1.8364782 2962:4.5670948 2963:0.44365323 2971:0.73155868 2972:1.355895 2976:0.87803286 2980:2.398129 2985:0.14893927 2986:0.4289906 2993:3.1951733 2995:3.0959182 2997:1.4651699 3007:0.93857515 3012:1.797673 3016:0.67858446 3021:3.718961 3024:0.18811589 3027:0.72421336 3043:2.7284372 3048:1.9574492 3049:0.94920063 3057:6.2957273 3061:1.4694213 3068:0.54164481 3070:0.94487858 3072:2.8097849 3073:0.81801581 3075:5.2618337 3085:1.5010777 3104:4.706028 3110:4.8541822 3114:3.5978134 3139:2.6223972 3141:4.1904626 3146:1.928713 3149:0.90888566 3160:0.86874366 3162:0.98296088 3163:1.4954519 3169:0.42114341 3170:4.7723441 3181:3.3972464 3183:3.0272343 3186:1.6989044 3202:2.171123 3210:0.81340837 3212:0.72962189 3216:1.3932928 3220:0.17158633 3222:9.6684771 3227:0.40681654 3233:0.97539288 3235:8.5862408 3240:0.27051744 3241:5.559751 3246:0.65583134 3252:1.3918726 3253:2.5988853 3265:0.14771786 3268:2.8971345 3270:1.5102223 3272:1.4059069 3275:4.0836792 3277:4.1430202 3287:6.1400423 3301:0.13724989 3307:1.1337882 3310:3.7368872 3321:3.9085298 3330:0.55424094 3338:0.074304804 3342:1.5964932 3350:0.47431785 3359:0.39466953 3369:0.57154298 3382:7.0890326 3387:3.8621321 3392:0.85045779 3395:7.2120113 3396:3.7247694 3422:2.8617935 3425:1.7417922 3431:1.775674 3442:4.9194317 3451:1.1205758 3452:0.40741408 3457:0.69815761 3461:6.3157034 3463:3.0143661 3465:1.0026741 3468:7.6451364 3471:2.4854548 3481:0.41654637 3485:2.9024785 3487:0.6918605 3489:1.8085573 3494:0.52748597 3504:0.4757421 3507:3.8968778 3512:0.29521939 3517:0.95648658 3522:1.2741956 3528:0.90167093 3544:1.7945809 3547:4.467216 3549:1.5428828 3563:4.96978 3572:1.8971691 3576:0.66340047 3578:3.6291275 3580:3.6208451 3584:1.4669648 3585:3.0771308 3593:2.0181758 3598:0.96865624 3601:4.2436156 3602:7.4164529 3606:2.9115324 3609:0.082343906 3610:1.6173756 3617:0.67147231 3618:1.1829178 3620:3.1570473 3621:0.66428256 3626:0.91458672 3629:2.3385499 3633:0.77589548 3636:3.0036838 3650:4.3950229 3654:3.2082858 3657:3.3409443 3661:0.056392878 3664:1.6097219 3675:6.8367453 3680:7.1514482 3682:2.4876046 3690:1.1336164 3706:0.12534292 3713:3.0017653 3722:0.25262895 3728:1.1495702 3731:0.16411948 3732:8.1762838 3734:2.2834115 3739:0.0025767982 3743:1.8285488 3746:0.072735772 3751:2.2675951 3758:0.25198704 3760:1.0502474 3769:4.0672774 3771:2.7876568 3780:1.0780332 3785:4.6775408 3802:7.9938321 3804:0.71304739 3837:0.73077607 3844:1.0931611 3845:3.196599 3853:0.068634123 3865:0.62000942 3867:2.9711196 3872:2.2392642 3882:3.5354545 3884:0.65472913 3888:3.4406073 3889:3.0546227 3896:0.6931448 3917:0.10762507 3922:1.2186493 3924:0.9217236 3928:4.5734601 3932:2.8470547 3937:0.080769092 3947:0.87948811 3963:3.0835223 3968:0.37800318 3972:4.0547686 3974:1.3112888 3977:3.7907217 3984:2.3994753 3988:0.22765952 3990:2.1979976 3991:0.25560683 3994:2.8786428 3995:0.63164622 3996:0.51076299 4002:1.5894201 4004:5.7469482 4007:0.94739169 4011:4.9239225 4013:0.065662369 4019:1.8795944 4020:2.9650264 4031:0.52824426 4033:0.24271879 4035:3.0109055 4037:3.4998906 4043:2.1877441 4051:0.21659657 4072:1.5845993 4076:1.3914756 4077:3.2829642 4080:3.0853624 4085:0.16852063 4087:0.54213977 4090:0.83283174 4091:4.1025391 4095:0.99850833 
0.2871568824243762 3:0.030130863 5:0.060103476 9:2.9042089 12:0.23869893 30:1.6728872 39:0.011371508 40:7.1165967 53:1.4247634 60:1.9892565 68:4.8167782 76:0.57636732 79:0.63785148 96:4.7734189 101:1.3390864 106:3.5375907 109:2.2529788 119:1.760383 131:3.4218092 145:5.0338073 160:1.1092438 169:0.13066363 171:5.0157757 172:3.2473004 174:4.8571415 178:0.7757628 179:1.0275999 182:0.59972966 197:7.2173891 198:1.0056065 202:2.0479383 218:1.995697 224:0.30256346 225:0.69109952 234:0.14307156 242:1.7469332 255:1.0486904 281:4.9095893 282:1.5871584 302:0.59599692 309:2.9449286 316:4.2444172 321:15.138866 327:3.7924938 329:0.87696844 334:2.6766005 342:0.094473638 348:0.54603374 349:1.6647649 363:1.4192426 374:3.6465976 387:3.4675677 396:2.1495967 401:2.0886796 414:1.6784508 421:2.0678322 426:5.9301915 431:3.6540077 435:9.2754736 441:3.5585382 442:2.4298272 459:4.2896605 468:2.8356025 474:0.34440905 475:1.8585474 488:2.3229184 491:2.4842062 495:0.17620662 508:0.76679838 521:0.76044178 545:6.2150393 564:2.3510165 567:2.0891154 572:2.0956991 597:1.7803552 598:6.292738 601:0.61855602 603:2.4652424 605:1.427192 609:2.4928455 617:2.4263372 624:2.2354405 639:5.0449209 642:0.5936904 653:2.5298362 654:10.836055 658:0.21321602 676:1.1529933 696:0.2921012 705:3.3060489 709:3.3543012 711:4.9007225 718:1.3695042 720:0.59206164 722:0.83230138 725:0.29105219 742:5.5622163 746:0.36436087 748:0.7940194 749:6.8090582 750:1.1144273 754:0.65536797 763:2.546185 764:0.42198762 783:3.8097956 804:4.3437538 808:2.5724256 809:0.032123715 813:1.004692 817:6.0394554 820:1.2195282 833:0.12809646 842:4.2459226 866:0.41043919 879:4.0655022 895:0.56698048 904:0.9325043 916:6.4573197 918:3.0466516 922:0.068994105 930:0.93765712 931:1.1223279 932:0.64162159 937:2.400841 938:2.1367862 945:4.6737375 953:3.5260477 968:5.0362806 988:2.7912886 1004:0.94082975 1013:6.0195856 1014:2.0412884 1027:1.1999955 1033:1.0601134 1043:4.2218642 1047:0.94915843 1049:0.97639316 1050:10.465895 1054:1.4418681 1067:2.945282 1071:1.1197733 1077:0.51179647 1081:7.4342222 1089:2.9575677 1098:0.33153576 1103:0.5769223 1105:0.05849731 1115:5.3104291 1120:1.7223899 1138:1.8620293 1148:1.7856333 1150:1.9900707 1159:0.46759596 1170:8.5928774 1186:3.1700246 1187:6.6688547 1212:0.06361419 1218:1.0715981 1220:0.029987946 1221:0.60801786 1223:2.3894455 1231:1.1178758 1232:3.6655016 1236:2.4317145 1242:0.15520151 1244:3.1491694 1257:2.7164545 1260:1.9364425 1265:6.5428147 1271:4.5168843 1276:1.2644329 1290:1.4257795 1297:4.6895499 1306:2.1724329 1313:0.67636275 1314:1.1371337 1329:0.48087174 1333:2.464602 1335:9.5549555 1341:2.1524892 1342:1.3151643 1364:0.20928061 1369:8.3594036 1374:1.7212462 1376:6.0128112 1378:1.9367932 1392:6.3249235 1406:0.64021587 1410:0.23186895 1412:0.13833052 1414:0.014979139 1417:0.58415735 1419:4.3753681 1437:0.21612357 1454:3.6493795 1456:2.3153787 1459:4.3618307 1464:0.76182544 1471:4.9353814 1474:1.1012659 1480:0.087088197 1497:1.5222597 1507:0.64123017 1515:0.18257457 1526:1.4053165 1535:4.5753589 1537:1.4253645 1544:0.10875352 1548:1.0408036 1552:0.36001924 1561:1.3539228 1562:0.86230582 1565:1.0596719 1580:3.1688511 1585:0.98245788 1597:3.019418 1605:0.58882993 1608:0.16396874 1627:1.3680179 1628:3.1420074 1629:6.5756121 1652:0.40659487 1665:2.4514987 1668:0.4366993 1679:4.3500581 1699:3.8873558 1700:0.51078999 1702:0.0075464249 1723:3.5886285 1724:2.2371304 1728:6.4286466 1734:2.0946393 1738:3.859705 1748:2.0912077 1751:2.7360272 1753:3.1305792 1755:1.9267193 1765:6.5070167 1777:4.8006744 1791:1.1266478 1800:4.0885925 1804:0.34225309 1832:1.5649264 1833:1.9514869 1843:2.9794862 1845:3.2957449 1846:3.3389652 1848:1.18291 1852:0.38214856 1854:6.2513762 1873:4.9516335 1876:0.86117011 1880:0.032886863 1891:0.40059543 1893:2.6072514 1899:0.35654047 1900:4.5758481 1901:5.4131222 1902:4.3115244 1908:2.6883879 1915:0.040233225 1917:2.1669927 1918:3.5382228 1925:1.7107556 1936:0.54438579 1941:2.5685525 1942:6.9730678 1948:1.7441835 1950:3.3776827 1956:2.4699149 1957:3.0065145 1974:7.6389875 1984:2.3934689 1990:0.31836447 1991:0.9700107 2004:1.8269148 2014:1.4255788 2016:0.27009544 2022:5.0636697 2026:0.83492196 2038:1.4089327 2044:0.21998358 2057:5.2894716 2068:0.94007736 2073:2.1335537 2081:3.3729961 2085:0.1846208 2094:0.29000649 2095:3.0827622 2096:1.7931446 2102:1.1730276 2110:4.6603689 2117:0.74679124 2127:5.7420201 2137:0.0192568 2138:1.7614594 2162:4.3814545 2164:12.338146 2166:0.3720246 2174:0.21311416 2181:5.4116654 2184:2.5818381 2186:5.4407268 2187:2.8580322 2202:0.4451656 2206:0.22373745 2221:0.59125292 2223:1.7212614 2226:2.6532447 2229:3.5928199 2236:1.2378637 2241:11.553941 2244:0.92396677 2253:0.44729701 2259:4.4068217 2262:0.31099892 2263:2.1383345 2269:3.9938262 2280:3.0439138 2285:0.34060255 2286:5.8718815 2287:3.0706711 2291:2.9793446 2292:6.1755176 2294:2.3567581 2309:2.5831571 2310:2.8232141 2315:6.0679288 2317:2.2011671 2329:11.00238 2343:0.6330393 2344:9.8027506 2351:2.0943661 2359:0.43218204 2370:0.053272784 2376:7.040534 2390:0.80623114 2394:3.0493977 2402:2.5253615 2413:3.7286696 2420:2.1799181 2430:1.9695787 2434:2.4202344 2440:4.9196229 2442:1.3662329 2448:7.7376361 2450:2.7062376 2455:0.78045189 2461:6.434392 2464:1.6273371 2469:0.97660601 2486:0.32163429 2493:3.9544773 2494:1.3686651 2508:0.16328378 2537:0.50046194 2555:4.7414165 2561:1.973936 2562:0.19652566 2566:4.8473668 2576:2.4724555 2577:4.714128 2589:2.0110497 2590:6.0110874 2600:2.1398559 2604:5.8104448 2624:2.3321381 2625:1.390049 2628:3.4287219 2636:3.100333 2642:3.0803106 2670:1.3502201 2677:0.21117669 2681:0.26536244 2689:0.76037985 2690:0.98597509 2695:1.2166198 2707:0.67558014 2721:3.2750297 2727:2.6465814 2750:1.1959503 2769:4.7720475 2779:3.124733 2784:1.7007786 2792:3.9939723 2796:0.74906778 2803:0.73770934 2805:0.055831909 2812:6.2256899 2818:0.0032454776 2828:5.7772679 2834:0.22693452 2836:1.4160471 2840:0.072018445 2848:5.2586784 2857:1.4375333 2859:0.10066709 2864:1.9893667 2865:9.2952423 2867:0.16413118 2879:2.9174066 2882:0.82927823 2887:2.3473585 2890:0.38318381 2900:4.5366211 2901:2.796823 2912:2.5983691 2913:4.5015697 2921:3.0693057 2928:2.1026196 2929:0.1856817 2945:5.0943279 2949:1.6855699 2962:7.9457951 2971:3.0415905 2980:6.5899692 2982:0.94475967 2986:2.3145401 2993:3.8537769 2995:7.4452972 3007:1.592783 3016:3.0967975 3021:4.2558355 3027:1.3621099 3033:2.6074181 3048:2.1906719 3057:5.9260015 3063:0.63779765 3072:0.10500914 3075:4.0345483 3085:3.3684125 3095:0.39340129 3104:0.25760886 3110:6.1832047 3114:1.2876867 3141:3.0159621 3142:0.58385134 3146:3.2065721 3149:0.86211538 3160:2.9688818 3163:2.1343634 3169:0.73080826 3170:1.0573983 3183:3.1320589 3186:2.1761436 3189:0.37667283 3192:1.6752002 3202:4.8582134 3222:9.770153 3235:7.3520994 3237:2.9303992 3239:3.8837705 3240:3.5233748 3241:7.0386243 3252:0.084283054 3265:0.3482644 3268:0.59943402 3272:3.1764967 3273:6.0632982 3275:1.128837 3277:3.4420035 3286:1.2157034 3287:5.6136503 3307:0.50590831 3310:5.198451 3311:0.59772676 3321:1.5590264 3330:1.137182 3342:0.10294215 3355:0.045181952 3369:2.0967035 3382:6.3537378 3387:0.88561237 3388:2.7429411 3392:5.81914 3395:2.3792388 3396:3.8028848 3402:1.6907548 3416:2.1153004 3422:1.110538 3425:0.16171859 3442:5.4706125 3457:0.43294746 3461:9.3114233 3468:9.95893 3471:4.2279778 3507:0.39880592 3517:0.28177553 3528:2.1922228 3529:2.270726 3544:2.6440513 3547:3.7310607 3561:0.32577273 3563:3.6657701 3574:0.013828114 3576:0.90514314 3578:0.49210891 3580:0.92408168 3585:4.4530725 3590:0.058505028 3601:4.6033459 3602:4.3918543 3606:0.47098136 3610:3.1692541 3618:5.4769559 3620:3.8083165 3626:0.71023864 3629:2.177376 3633:1.0642436 3636:1.694445 3650:3.3927441 3654:2.3700361 3657:1.3672047 3664:2.9340236 3667:4.2609921 3675:2.5561018 3680:3.576031 3690:1.7141316 3713:3.3324142 3731:4.692215 3732:10.352029 3739:1.141353 3748:4.8952885 3751:0.04183954 3769:2.8688781 3771:2.8119152 3785:2.8813643 3796:0.35716894 3802:11.805464 3821:2.1849449 3823:0.58142757 3837:1.268566 3845:1.8259326 3853:0.38928151 3865:2.877568 3867:1.1997296 3882:5.6446309 3889:1.2311101 3896:0.23073095 3917:2.2587764 3928:6.6073151 3932:5.9423757 3937:0.15996262 3959:0.97035909 3966:0.01933904 3968:2.4277754 3972:4.260385 3977:3.475157 3982:5.0038371 3988:0.57082802 3994:1.7343237 3997:1.2292762 4001:0.65652424 4002:2.7224391 4004:2.2431641 4011:2.731791 4015:0.33144003 4019:1.9560623 4020:2.4661312 4030:0.14323103 4031:2.5691447 4035:3.2442191 4037:3.9263992 4043:1.5825195 4051:0.29870483 4060:0.097343683 4068:0.17703952 4072:5.0194278 4076:4.5760474 4077:6.2431555 4083:1.5203166 4091:0.68012893 4095:0.28000087 4096:0.75402254 
0.2957063578046594 3:1.2635708 9:2.9661739 18:1.4921306 25:1.1426101 39:2.9576926 49:1.6392207 53:0.39113265 58:1.4636689 60:2.3884361 64:0.51495844 65:0.30838913 66:0.1678952 68:6.364182 76:0.43964911 78:0.29134402 80:3.9606912 89:0.51129228 99:3.1865299 100:1.0017738 101:5.3156538 106:0.94055557 107:0.6238237 109:1.4162474 121:3.7277563 122:2.3669252 128:2.9046481 131:0.49106461 140:0.29780388 159:1.185915 168:1.680764 170:0.67350543 174:1.0396445 190:0.25921041 197:6.5356569 198:2.0047643 202:1.9901621 218:0.024732471 225:2.6188765 234:0.3073737 235:0.45637095 238:3.1798117 252:1.8098515 264:0.84452248 268:0.27787811 277:2.8605788 281:1.728931 283:0.48939729 288:2.4919708 290:1.7706175 293:2.3668809 302:1.2715055 309:3.9248197 312:2.7895398 316:0.17901841 321:6.7675614 327:2.8877823 329:1.8363109 334:0.69215804 335:0.17135233 341:2.6985722 346:1.4633453 348:3.5314229 349:4.356986 352:0.70349449 357:0.91812462 363:0.83303291 387:0.35401261 396:1.7924266 406:1.7825551 414:0.54617023 421:6.7850475 426:3.0292554 431:6.9279919 433:1.9074475 435:3.5128839 441:3.7893574 442:1.1343751 450:0.28412709 459:0.24583562 462:0.8906216 475:5.4172106 486:1.3187287 488:2.5081968 500:3.1232395 502:1.3715469 508:1.3668777 512:0.8577764 513:1.8907717 514:0.41231108 515:2.6587436 519:1.3086312 524:0.76612318 527:2.2070248 532:1.1484426 534:0.4113057 537:2.0056498 539:0.33094177 542:0.4213129 544:0.11131366 545:5.9703832 546:1.2845453 548:2.385211 559:2.4767611 562:0.55784053 567:0.1965937 571:1.1494545 572:3.760802 584:1.0496029 597:3.1645942 602:3.4364154 605:1.3258917 606:1.3226421 609:1.6992652 614:0.62492704 617:1.821999 618:3.4177723 635:1.150023 637:0.92031401 639:2.6888759 642:0.013121009 643:1.0779328 644:3.8068719 654:1.0885512 658:0.84239596 661:2.7118626 665:0.68270063 670:2.828228 671:4.9961362 673:0.16909228 695:2.7644269 700:3.0189826 705:0.54931897 709:3.2656765 711:0.029428728 717:2.1879916 719:1.0958254 721:0.76303756 722:0.39795256 729:0.6703338 741:2.0247805 742:1.008852 743:6.8424048 746:4.6963239 749:2.6655989 750:0.11221316 754:0.12587729 757:0.26733732 763:3.4134185 764:4.5224562 767:0.27860746 769:1.3673778 778:1.821301 785:1.6066442 788:0.84424829 789:1.913461 796:0.4272882 801:3.1049957 804:0.33846533 811:1.1550272 814:4.5064964 817:4.3836432 818:1.109872 820:0.79694313 821:1.886439 833:0.44535011 835:0.35471335 841:4.9801683 858:0.23647317 877:0.88976067 879:2.8080664 880:1.717965 885:0.53144848 896:1.7488726 899:0.95986134 916:2.7919831 918:1.5558434 925:4.4101739 927:0.98030132 930:0.18943471 931:1.0241517 937:3.035816 945:2.6300163 953:4.0428419 966:3.7310667 968:0.54590571 973:0.19671571 995:0.94329321 1000:1.3719494 1004:3.680577 1013:3.271193 1014:2.1178026 1021:7.8226366 1022:1.2381202 1034:1.5606263 1041:1.2989485 1044:0.56978464 1047:6.817811 1049:1.8015316 1050:1.0901132 1054:1.2107682 1067:0.42808163 1081:2.8339672 1089:1.1493437 1107:1.6328111 1110:0.5814535 1120:3.0105031 1126:0.42709967 1132:0.83583927 1134:1.690307 1138:1.2826232 1150:0.17240322 1159:0.35592526 1169:0.45643035 1170:8.0249281 1173:0.71245956 1175:1.3073777 1187:1.5613493 1188:0.91757476 1193:1.0143597 1196:1.7953053 1199:1.7759901 1201:1.7081698 1203:3.1368537 1205:0.057181247 1208:0.9854992 1215:0.11993262 1218:2.5331774 1219:3.4984491 1220:0.29152679 1223:2.4808557 1232:1.8527824 1235:4.0408554 1236:4.6741552 1237:3.5379405 1241:5.6144214 1242:4.6863685 1247:0.032591045 1268:0.06265074 1271:1.5345459 1272:3.4902587 1290:0.92795104 1304:0.21620211 1306:0.89789832 1308:0.38192523 1313:0.93679363 1314:2.9244518 1329:0.77197218 1330:0.32946479 1335:5.3785381 1341:3.4752688 1342:1.5219984 1364:1.776862 1365:0.55715209 1369:8.5664787 1374:2.6587913 1376:2.9384189 1378:0.36492044 1381:1.2477672 1386:0.6262219 1402:0.15537076 1406:0.71077943 1409:3.5760164 1416:2.2473505 1417:4.0860295 1445:0.41372412 1450:0.042166859 1452:0.40740103 1459:3.4928575 1470:0.11563004 1472:5.1103573 1480:0.13929284 1483:0.46417871 1489:4.4243631 1503:0.050418414 1508:0.074947029 1515:2.3459508 1520:1.2525878 1526:0.65038645 1539:1.4639091 1546:1.9757826 1552:1.1144545 1554:2.7157028 1555:2.2075915 1568:2.2095103 1570:0.88095701 1580:0.66651803 1582:2.57723 1597:1.7732148 1598:2.384171 1602:0.94644767 1607:0.80743575 1617:0.76195955 1627:3.9967694 1628:2.5447614 1629:0.84459549 1633:1.4392991 1647:1.3873948 1658:3.0613093 1661:3.3038194 1667:1.4082224 1679:7.0834212 1683:0.6059311 1696:1.2780011 1699:0.81349677 1701:0.029171944 1710:0.13135314 1712:0.97992694 1720:2.9245176 1723:1.2924634 1728:5.8407845 1730:0.7688508 1734:0.79328084 1738:5.5827789 1739:3.4352086 1748:0.39648712 1751:5.6996593 1753:1.7034594 1755:0.7118212 1757:0.57025588 1761:1.5407016 1763:3.1711941 1772:2.1161675 1782:0.63591123 1785:2.5497475 1794:0.21623477 1800:3.4397564 1806:0.36291477 1813:2.4864843 1815:0.54931158 1817:6.4228649 1824:1.9260354 1825:1.8144857 1833:3.0310087 1837:0.36751166 1839:1.6114661 1845:1.4691281 1852:0.41249317 1854:1.0623525 1857:3.6022289 1860:4.4935169 1876:4.591207 1880:3.4623213 1881:0.31651041 1883:2.57371 1885:3.079689 1892:0.4428035 1893:0.13001618 1899:2.3812749 1902:5.5988092 1905:1.3328714 1912:1.1185048 1918:1.808556 1930:0.68334365 1932:0.94787186 1941:2.1605942 1942:2.1448233 1943:3.5995617 1950:1.1916553 1956:0.83829075 1973:1.7330379 1974:4.3799734 1990:4.0915031 2004:2.5325723 2022:1.2470942 2026:4.0520654 2038:3.0058551 2044:1.9343015 2047:0.43563998 2065:1.6683042 2071:3.0113206 2077:0.1304177 2081:0.22268544 2083:3.9680982 2085:4.1296411 2094:2.0252051 2099:1.8789176 2101:4.3070168 2102:2.6180022 2110:5.9962492 2115:5.0550103 2117:0.3210175 2127:0.43199497 2137:2.0364742 2138:3.5881319 2157:0.26009211 2158:1.2543336 2159:0.2857646 2164:4.2344713 2168:3.0614052 2174:0.5573293 2177:0.85891354 2178:1.5420188 2181:1.0758116 2186:0.83910716 2189:0.65947485 2190:0.9910574 2196:2.5589385 2202:4.1256113 2206:0.7199074 2212:2.1799932 2216:0.88018107 2226:1.0127561 2236:0.59808946 2241:4.5288467 2244:2.3861203 2249:1.0175734 2259:7.1081309 2261:1.5894085 2262:0.28283709 2263:1.5024601 2265:0.2139695 2269:1.4913962 2270:0.16582014 2271:3.0242064 2273:1.0815448 2280:0.49962705 2282:0.57964081 2286:7.6738086 2287:0.76172757 2291:1.5578182 2292:1.5921119 2294:7.2879138 2305:5.3622217 2307:2.3039336 2314:0.30711496 2315:3.7056041 2317:1.6549765 2329:7.295404 2331:0.093762845 2343:3.1092196 2344:2.2603667 2346:0.53636241 2351:0.38927603 2374:0.04126054 2376:4.9538383 2398:2.2921686 2413:3.2789888 2414:2.0422945 2416:3.5587635 2423:4.476789 2424:4.9785089 2432:1.7851372 2434:1.3332623 2440:5.196661 2443:0.16243012 2444:2.1378531 2461:0.19611871 2464:2.2672017 2493:1.814981 2494:4.9184804 2507:1.1318043 2508:0.19697614 2516:0.95859933 2519:1.6278849 2526:1.5083326 2537:0.97917545 2551:2.1986609 2561:0.21943009 2563:4.0851512 2566:2.5264592 2576:1.6907556 2577:2.3168931 2580:0.3740533 2589:0.92919046 2590:2.7044389 2600:3.2952354 2602:2.9279857 2608:2.8284757 2611:1.2427435 2613:0.20672134 2619:2.4462001 2620:1.0236201 2621:0.85021234 2623:0.48514989 2624:0.18054265 2625:2.0836592 2628:3.4285269 2636:2.4279759 2638:1.3730865 2642:4.2670417 2646:0.53691894 2647:1.135563 2670:0.34330952 2677:0.12414922 2678:5.3026171 2679:3.1346362 2686:0.44469082 2688:0.48364496 2690:8.0645475 2693:2.2257824 2707:1.2404068 2708:1.8914158 2721:2.6012964 2727:3.2532568 2738:0.070024669 2742:0.79355407 2744:0.17003401 2747:0.62167269 2759:0.64213055 2760:0.36278516 2765:0.23444645 2769:1.4327084 2777:0.81336951 2779:2.0084479 2784:2.0913711 2785:1.0866618 2787:1.0346847 2790:0.086096197 2792:0.19470125 2810:2.7303178 2811:1.3635037 2828:1.2745951 2831:4.4614906 2834:0.30695879 2838:3.5942249 2840:1.3022165 2842:1.0679743 2843:1.621583 2853:2.3373053 2863:1.6163641 2864:0.6162802 2865:0.73963261 2868:0.035187662 2880:4.9390225 2888:1.8467201 2892:2.6580894 2895:0.79288578 2896:1.7577888 2898:1.4213135 2900:2.3382609 2901:4.5023379 2907:0.67468125 2910:0.39104778 2913:2.2491269 2915:2.2538528 2920:3.0830641 2921:0.25236517 2928:1.0105093 2932:0.043541789 2934:1.5596189 2936:2.2285674 2945:0.18864125 2946:0.090788066 2949:0.57727098 2953:0.98521638 2958:0.67495847 2962:2.529747 2971:0.59309667 2972:1.9692832 2976:1.580055 2982:0.078630209 2985:0.33402446 2993:1.0101491 2994:1.1552279 2995:4.8561373 2997:3.7339382 3007:4.1509995 3022:1.0084019 3024:1.4544578 3028:0.07129164 3043:0.82000124 3048:2.6696932 3049:1.5751208 3050:2.0826771 3051:0.97162741 3057:1.4686315 3061:0.7362597 3068:1.1990671 3070:1.3344293 3072:0.59757257 3075:6.3879151 3102:0.013061829 3104:2.8908963 3110:1.6785141 3114:0.070221335 3117:0.93317795 3130:0.48397011 3139:3.7356834 3141:0.651133 3145:0.099923342 3149:0.077897877 3160:0.1812562 3162:1.2226245 3163:3.7301006 3169:2.2462654 3170:3.1416454 3181:7.962317 3182:0.67153162 3183:5.0486741 3186:1.2991468 3202:0.83275962 3210:0.55209124 3215:0.18903926 3216:3.0592983 3222:10.136962 3227:1.3986669 3235:8.1583786 3237:1.2948288 3241:2.3888981 3246:1.4210287 3250:0.7863642 3252:3.4967833 3253:4.260478 3264:1.1191316 3268:0.56925476 3275:2.2269909 3277:3.9819655 3287:6.6268902 3321:0.764162 3341:1.4595958 3342:1.7728533 3347:0.19732226 3350:1.9594839 3366:1.5153098 3371:0.61921686 3382:2.9915302 3387:3.3591943 3395:6.6536198 3396:3.1211283 3397:0.98971277 3404:2.0615506 3422:1.1855451 3424:1.49002 3427:0.37987179 3442:7.579834 3451:0.25503588 3461:2.0029788 3463:3.2952979 3465:1.3747255 3468:1.6800604 3471:1.6750402 3485:1.3636771 3487:3.029254 3496:0.15089563 3504:3.001318 3507:0.73489118 3511:1.4999117 3512:0.81170237 3522:1.3123331 3524:2.3190639 3537:0.36830893 3544:2.3524404 3549:0.38043192 3552:0.89665115 3563:3.2458522 3572:0.41458046 3576:1.5563346 3578:4.2352157 3580:2.4397411 3583:1.4266378 3584:3.9339633 3585:0.82947141 3593:1.0980735 3599:0.15726519 3601:1.5777067 3602:6.0881257 3606:1.955116 3614:0.47529268 3617:1.0270135 3619:0.59542263 3620:0.80535352 3626:1.8686811 3629:1.880108 3630:0.55436909 3632:0.59061408 3633:0.55100524 3636:4.6540565 3638:3.2563577 3650:0.52408957 3654:0.67333227 3657:3.4444084 3660:3.5785973 3666:0.15060094 3670:0.050006211 3675:1.5026392 3680:1.3732915 3682:0.4683381 3690:2.4452093 3706:1.2522409 3713:3.0149174 3728:0.47593737 3731:1.7320877 3732:5.3356037 3734:0.38307866 3739:0.48061442 3743:0.063868225 3746:0.17255326 3751:1.5235615 3758:0.080601335 3760:1.8116119 3765:2.2348087 3766:0.0010368228 3769:1.7277343 3771:2.6843035 3774:0.93720543 3785:8.6633148 3795:0.788414 3802:3.9680419 3804:1.22697 3837:2.0655859 3841:0.1400854 3844:2.2599602 3845:1.9083483 3865:1.2563295 3867:4.5807881 3870:1.5180638 3872:2.8929501 3878:0.72484529 3880:0.48104581 3881:3.3861802 3882:2.0563238 3888:4.3034863 3889:2.9217916 3903:1.1137151 3905:1.1774261 3909:1.7200272 3928:2.3835425 3929:0.68821728 3932:1.559767 3936:0.42310482 3937:1.6115441 3951:0.79329729 3960:0.72124827 3963:1.3246069 3972:2.3676965 3974:0.66670662 3984:0.08988186 3990:0.27027285 3994:2.2873681 4001:0.1036091 4002:1.1470124 4004:0.70450467 4011:3.973784 4013:4.5724535 4019:1.3583914 4020:2.6450202 4034:1.6944999 4035:0.61246389 4041:0.18346426 4043:3.5982809 4051:1.5091347 4056:1.9928184 4072:0.54367268 4077:0.55322039 4080:3.6216016 4081:0.17273687 4085:2.1727138 4091:3.5572932 
0.08358517010498964 3:2.2125108 9:0.40312225 10:1.1786909 12:0.98946059 18:0.86196756 27:3.1660435 40:1.670191 43:0.21949799 44:1.9452935 49:1.9322047 60:0.34092596 68:3.7607222 77:2.4267485 78:2.5902481 80:5.4673986 84:0.0033120513 89:0.19258112 100:1.0446572 107:0.43719864 108:1.1945313 113:1.5566709 122:4.4718575 144:0.67319489 147:0.28010428 153:1.2728647 159:1.6358991 167:3.5786865 170:0.86820078 173:1.1494607 197:4.5930014 200:2.1718354 209:3.8619251 210:4.5693016 217:1.048999 218:0.080917478 225:0.64208668 234:1.1316407 235:1.9546922 237:0.7940917 241:0.26183146 246:0.69210136 261:3.3015144 262:2.6381059 268:0.6926499 274:3.2070608 277:0.77688068 281:0.48248824 286:0.14055416 290:1.3649244 297:2.5933588 302:4.3672295 312:6.0437598 317:1.2201852 321:1.9870734 335:1.8747542 341:1.4083885 348:4.369863 349:1.9687853 353:5.4966683 374:2.6064992 379:1.5820725 390:4.4103346 397:5.2190452 421:2.5633821 431:1.852752 433:1.1518312 451:2.5766621 459:1.0312302 462:1.9880314 466:1.1681764 475:0.020155966 481:3.4968705 482:1.2572554 484:2.539866 485:3.7586758 499:4.3522048 502:1.5580645 514:0.17729735 515:4.6162925 521:2.9443886 524:0.38641647 527:2.6315179 545:1.8534988 559:3.4838009 562:4.2954884 572:5.9355564 573:2.9112906 595:0.95480347 601:6.4083872 602:1.69286 605:1.6114007 606:0.31976238 607:0.67480189 612:1.6188636 624:3.1553967 639:2.9541659 641:3.3571374 643:3.0008574 657:2.2413626 662:3.1047094 667:0.28550038 670:0.14787465 671:1.7489468 672:0.0031285882 675:0.037697628 677:2.6645637 693:0.63069826 700:6.3959613 705:1.1689539 706:0.15510407 709:1.4714245 711:0.64783776 717:2.3948388 720:1.884311 721:3.5017357 722:2.6206384 730:0.96060693 732:0.75702691 741:3.6154101 742:0.88842642 746:0.073352322 749:5.7275457 759:2.6377242 780:0.99569452 788:2.494144 789:2.4596112 796:0.84456921 803:2.8482602 809:1.7008264 811:4.8754401 812:2.2338848 814:1.0976257 817:2.2466664 818:0.31703305 820:2.2765236 823:2.0820754 826:0.38776177 835:2.1303563 839:3.5348117 841:4.1538525 846:3.9590385 873:0.18166578 877:4.1417704 885:0.37131125 889:0.94872701 912:0.25730708 916:5.3202448 922:3.8084664 925:3.8536892 930:1.140087 932:0.18090966 937:3.2982366 945:2.3390505 948:0.92305374 966:1.6370513 974:4.2476773 1004:0.24805908 1013:1.3006612 1014:1.7673215 1021:4.5819783 1023:2.5806944 1029:2.5841155 1044:0.30343899 1047:4.4102988 1049:0.56936514 1056:1.5697342 1080:2.0687926 1081:3.1477523 1090:0.49963379 1094:0.62102664 1096:6.4160461 1097:0.61753714 1102:0.96714771 1113:1.7125947 1126:2.3693097 1130:0.18178675 1138:0.43274319 1150:2.6644747 1153:0.51709843 1159:1.1661978 1165:2.1335442 1169:1.9902633 1170:8.1088505 1176:1.6482747 1192:2.4311316 1193:0.084699541 1208:1.1433063 1219:5.1127853 1220:3.430681 1223:0.90482986 1235:0.27825654 1236:4.2777057 1237:0.78023291 1242:1.8367939 1251:0.36741996 1252:2.483777 1254:0.81331038 1260:0.20139079 1286:0.17519234 1298:0.12365741 1306:0.9512707 1308:2.6189997 1310:0.15624318 1314:1.4799498 1335:4.337883 1341:5.9087362 1342:0.17874391 1345:0.28541341 1357:1.3300176 1364:0.96855283 1365:4.245369 1368:2.2798519 1369:5.5405407 1381:0.89049894 1386:3.6888671 1387:1.7225444 1392:3.565506 1416:2.3206444 1419:2.309756 1422:3.2649059 1430:2.46788 1438:0.40262425 1445:0.78612006 1450:2.7666485 1451:0.99772853 1456:0.37102136 1459:1.5423791 1465:0.60119635 1471:2.1243584 1472:0.13761443 1475:0.10393119 1483:0.018211216 1489:3.6091394 1490:3.4676104 1502:2.7347724 1506:1.8190058 1508:0.48004773 1512:3.3262906 1513:5.4406638 1514:2.9962933 1515:1.1787379 1520:6.3978868 1524:0.98794007 1526:1.9840608 1538:1.5585799 1544:3.7056012 1546:2.832675 1568:0.83213562 1580:0.1668433 1582:8.171442 1597:1.534429 1600:1.0732683 1605:0.7352553 1622:7.0294075 1624:2.0469131 1628:5.898087 1636:0.5175364 1638:0.75325859 1645:0.34776321 1659:1.6213243 1661:0.5921917 1663:0.31107154 1677:1.0371559 1679:5.0005841 1683:1.1840053 1686:5.8737807 1688:0.29914886 1695:0.27094072 1696:1.6560431 1697:4.680016 1699:0.95249647 1703:0.93226796 1705:2.5852082 1712:0.084606528 1720:4.4424663 1726:0.5275228 1732:1.1879909 1733:0.18912868 1737:6.5037293 1738:0.51276302 1739:0.12107131 1748:4.1681285 1751:2.0847332 1772:0.49968696 1783:0.3611294 1792:0.047942311 1799:1.5284904 1800:4.1314993 1804:0.24533832 1806:1.6563499 1811:0.52602226 1813:1.1332531 1817:2.7690067 1824:1.1732135 1833:1.3411279 1837:0.35590595 1845:4.4642034 1846:1.3581793 1855:0.5915457 1857:4.8220372 1860:1.1598899 1876:1.2145598 1879:2.9671326 1881:0.072092682 1905:0.25409639 1912:4.7523737 1926:0.40056813 1928:0.23578142 1932:0.37452263 1938:0.82893884 1942:1.8423527 1943:3.8909016 1958:3.1298141 1959:0.50398499 1972:1.7070078 1974:1.9119699 1990:5.4131179 2000:0.50562614 2004:0.44338027 2009:0.1464265 2022:2.7377117 2026:0.27286816 2031:0.70208156 2038:2.5073736 2041:0.65464526 2042:0.069347918 2048:0.69848597 2050:0.83333129 2061:2.5021052 2068:1.111878 2071:1.3722683 2081:0.27510154 2083:0.10823256 2085:2.4871538 2099:1.3523189 2102:3.3365955 2105:0.52525061 2110:3.8886149 2117:3.5499454 2128:1.0018651 2138:1.6429685 2156:1.0881906 2159:1.3820775 2174:2.078233 2176:0.4798142 2178:2.8127351 2179:1.0766327 2181:3.2033391 2186:4.8065014 2196:0.56521583 2202:7.542582 2203:2.4365652 2214:4.4912691 2218:0.27849218 2223:1.5157007 2229:0.63979983 2239:0.069854617 2241:3.1679127 2249:3.4970896 2255:1.0831692 2259:6.4076066 2262:0.67771322 2263:1.8704354 2269:1.166254 2270:3.0802972 2271:1.470993 2275:0.54980588 2286:7.0012574 2291:1.8665311 2292:4.3284783 2294:3.2719879 2300:1.498651 2302:1.083194 2305:0.92441601 2307:2.416049 2311:1.1954398 2314:2.5592716 2316:0.22855598 2317:1.5641199 2329:3.8712835 2332:1.0137908 2343:1.9363905 2344:0.30696997 2348:6.3500199 2356:0.54960614 2358:0.90157318 2376:5.2621427 2416:10.6343 2423:3.3251307 2428:2.2420204 2432:1.6898736 2435:1.2627985 2442:0.11688533 2444:0.067994297 2453:0.60785395 2458:0.19366688 2480:3.1003273 2486:0.4969196 2488:2.0435977 2494:1.1613541 2497:0.3532871 2501:3.7978227 2519:0.33672988 2520:4.7112846 2526:3.5691566 2560:2.1352072 2561:0.56400239 2563:3.9137959 2566:2.3451467 2574:0.80414402 2589:0.8044998 2592:6.1196556 2600:1.9530215 2608:0.9924221 2614:3.1926718 2619:3.3899255 2620:1.7780446 2637:1.7201053 2642:4.1948404 2646:3.7990615 2656:0.51203638 2669:1.7586908 2672:3.1245661 2674:1.0603606 2678:1.75034 2688:2.5767035 2690:3.3309913 2707:3.3750088 2708:2.7045949 2718:0.075889871 2720:1.4696794 2723:3.6375396 2726:1.8040445 2732:0.26814795 2736:1.2043138 2738:1.3257009 2747:2.0276797 2753:0.30966291 2759:3.8728833 2763:0.311584 2765:5.0000205 2766:0.28346223 2777:4.0157967 2778:3.7464752 2784:2.9788132 2790:2.631727 2792:3.0743098 2795:1.1522123 2802:1.8359582 2808:2.761615 2811:0.6997965 2814:2.9067352 2816:0.61841691 2821:2.0214651 2826:0.16105253 2831:4.2354817 2834:1.8039145 2836:0.050745904 2838:1.3610629 2846:0.80520093 2853:4.7319603 2864:0.60803843 2865:0.90154099 2867:0.18603402 2879:3.2049966 2880:1.6178665 2882:0.26811671 2888:1.0607799 2892:5.5748835 2896:3.2993236 2901:1.8610777 2920:0.74305338 2928:1.1219342 2929:1.9894065 2936:0.099172235 2938:0.031952649 2941:1.2343495 2958:4.8293147 2966:3.033025 2967:0.65783149 2971:3.8941457 2974:2.3430831 2976:1.1269596 2982:6.6103783 2993:2.2127724 2995:3.1087766 2997:0.49075186 2998:5.3224831 3007:0.035657138 3020:1.6398247 3028:1.2320942 3035:1.3613317 3036:1.109457 3037:0.086476505 3041:0.55991304 3048:2.0827179 3050:3.1700089 3057:0.99554455 3066:2.4095407 3072:1.8620868 3075:6.9462733 3078:1.4203192 3079:4.015233 3087:0.085293874 3110:1.3453264 3114:0.0026475489 3121:0.14744404 3133:0.059949949 3141:1.4642293 3154:1.3856876 3163:2.0855885 3169:1.3354541 3172:4.4299736 3174:0.6663202 3181:5.0722733 3182:4.0455866 3183:5.6046481 3195:0.73704273 3216:0.77903515 3222:9.9122038 3228:0.87362349 3235:5.8309088 3237:5.9394226 3253:1.5244306 3260:1.7397093 3271:1.4764531 3280:0.5577054 3282:0.23106188 3285:0.30323094 3287:3.4026363 3291:1.1596829 3298:0.22389823 3300:0.40098929 3309:0.6719197 3314:0.15237519 3321:0.32484648 3342:3.1974239 3349:0.16933206 3364:0.49091759 3366:2.1771624 3386:0.49524659 3387:1.1955469 3388:0.25192517 3390:0.36495522 3395:2.1703472 3411:1.2699947 3424:2.5085666 3442:4.7706695 3444:0.33715421 3451:1.3000041 3465:1.3193669 3467:0.054087102 3471:2.7805495 3474:0.919532 3494:3.6083999 3496:2.4657829 3504:5.2709761 3508:3.1091008 3513:2.0679154 3531:1.8370419 3539:3.0324366 3544:2.4043565 3548:0.66392571 3561:1.1023746 3563:0.052788138 3576:0.63815361 3584:3.5609221 3585:0.77786356 3593:0.48002708 3594:0.91746777 3598:0.84785247 3599:7.288033 3602:2.5926518 3608:3.4796908 3614:2.6210971 3617:5.3733978 3626:0.53304613 3627:3.0086265 3636:0.55044287 3643:1.7338463 3644:2.6945155 3649:0.41222879 3650:1.8672765 3657:2.7688289 3658:0.28698623 3660:2.0924475 3670:2.3364294 3690:2.363436 3715:0.021111831 3724:0.26190323 3729:2.1034942 3732:2.8346076 3734:0.060707986 3746:0.69309711 3752:5.0944281 3765:3.8129096 3766:3.1346998 3767:0.69459605 3771:1.5359795 3776:0.0028192997 3785:4.8411274 3787:0.90319002 3789:3.1325197 3793:0.5165143 3802:4.3967867 3808:1.6158249 3819:0.84981215 3826:2.0134654 3836:0.59687209 3837:5.7556596 3841:4.6450629 3845:2.1353669 3864:0.21773089 3865:0.31530204 3870:0.085367784 3872:4.1397581 3878:0.82022846 3881:1.419369 3888:7.6476588 3892:1.9694581 3895:2.2148738 3903:1.8447229 3909:0.57080865 3929:5.3378472 3937:1.5693015 3972:0.41569763 3985:0.12509331 3988:1.3268648 3994:2.05407 4001:0.32390109 4003:1.3350273 4006:0.011780292 4013:6.7195668 4021:4.3329496 4023:3.4788878 4034:0.047756545 4036:1.8332217 4041:3.3325143 4051:1.4723355 4052:0.98068607 4061:2.0979548 4072:0.59878528 4079:0.74333155 4080:0.76509988 4085:1.510632 4091:4.5475154 4092:0.14632729 
